{"learner":{"attributes":{"scikit_learn":"{\"_estimator_type\": \"regressor\"}"},"feature_names":["T1","mu","beta","tmdi frequency ratio","tmdi damping ratio","tmdi_1 stiffness","tmdi_2 stiffness","tmdi_1 damping","tmdi_2 damping","No.story","tmdi configuration"],"feature_types":["float","float","float","float","float","float","float","float","float","float","int"],"gradient_booster":{"model":{"gbtree_model_param":{"num_parallel_tree":"1","num_trees":"300"},"iteration_indptr":[0,1,2,3,4,5,6,7,8,9,10,11,12,13,14,15,16,17,18,19,20,21,22,23,24,25,26,27,28,29,30,31,32,33,34,35,36,37,38,39,40,41,42,43,44,45,46,47,48,49,50,51,52,53,54,55,56,57,58,59,60,61,62,63,64,65,66,67,68,69,70,71,72,73,74,75,76,77,78,79,80,81,82,83,84,85,86,87,88,89,90,91,92,93,94,95,96,97,98,99,100,101,102,103,104,105,106,107,108,109,110,111,112,113,114,115,116,117,118,119,120,121,122,123,124,125,126,127,128,129,130,131,132,133,134,135,136,137,138,139,140,141,142,143,144,145,146,147,148,149,150,151,152,153,154,155,156,157,158,159,160,161,162,163,164,165,166,167,168,169,170,171,172,173,174,175,176,177,178,179,180,181,182,183,184,185,186,187,188,189,190,191,192,193,194,195,196,197,198,199,200,201,202,203,204,205,206,207,208,209,210,211,212,213,214,215,216,217,218,219,220,221,222,223,224,225,226,227,228,229,230,231,232,233,234,235,236,237,238,239,240,241,242,243,244,245,246,247,248,249,250,251,252,253,254,255,256,257,258,259,260,261,262,263,264,265,266,267,268,269,270,271,272,273,274,275,276,277,278,279,280,281,282,283,284,285,286,287,288,289,290,291,292,293,294,295,296,297,298,299,300],"tree_info":[0,0,0,0,0,0,0,0,0,0,0,0,0,0,0,0,0,0,0,0,0,0,0,0,0,0,0,0,0,0,0,0,0,0,0,0,0,0,0,0,0,0,0,0,0,0,0,0,0,0,0,0,0,0,0,0,0,0,0,0,0,0,0,0,0,0,0,0,0,0,0,0,0,0,0,0,0,0,0,0,0,0,0,0,0,0,0,0,0,0,0,0,0,0,0,0,0,0,0,0,0,0,0,0,0,0,0,0,0,0,0,0,0,0,0,0,0,0,0,0,0,0,0,0,0,0,0,0,0,0,0,0,0,0,0,0,0,0,0,0,0,0,0,0,0,0,0,0,0,0,0,0,0,0,0,0,0,0,0,0,0,0,0,0,0,0,0,0,0,0,0,0,0,0,0,0,0,0,0,0,0,0,0,0,0,0,0,0,0,0,0,0,0,0,0,0,0,0,0,0,0,0,0,0,0,0,0,0,0,0,0,0,0,0,0,0,0,0,0,0,0,0,0,0,0,0,0,0,0,0,0,0,0,0,0,0,0,0,0,0,0,0,0,0,0,0,0,0,0,0,0,0,0,0,0,0,0,0,0,0,0,0,0,0,0,0,0,0,0,0,0,0,0,0,0,0,0,0,0,0,0,0,0,0,0,0,0,0,0,0,0,0,0,0,0,0,0,0,0,0],"trees":[{"base_weights":[-4.682203E-4,8.951066E-3,-5.777553E-4,8.2584674E-4,6.9231796E-3,1.384324E-2,5.6750323E-5,1.0335079E-2,1.7703796E-2,-2.7188922E-3,7.6990016E-3,2.025498E-5,1.7157198E-4,2.631909E-4,-5.2633914E-5,6.859118E-5,-9.379558E-5,1.6580257E-4,-1.773226E-5],"categories":[],"categories_nodes":[],"categories_segments":[],"categories_sizes":[],"default_left":[0,0,0,0,0,0,0,0,0,0,0,0,0,0,0,0,0,0,0],"id":0,"left_children":[1,3,-1,-1,5,7,9,11,13,15,17,-1,-1,-1,-1,-1,-1,-1,-1],"loss_changes":[2.4804868E-1,5.2478444E-2,0E0,0E0,2.432746E-2,3.2706112E-3,5.4936693E-3,2.0529283E-3,2.0447187E-3,5.563336E-3,2.445145E-3,0E0,0E0,0E0,0E0,0E0,0E0,0E0,0E0],"parents":[2147483647,0,0,1,1,4,4,5,5,6,6,7,7,8,8,9,9,10,10],"right_children":[2,4,-1,-1,6,8,10,12,14,16,18,-1,-1,-1,-1,-1,-1,-1,-1],"split_conditions":[1.4E1,2E0,-5.777553E-4,8.2584674E-4,6E0,4E0,1.2E1,6.761534E3,1.7057228E6,7E0,3.2821563E-1,2.025498E-5,1.7157198E-4,2.631909E-4,-5.2633914E-5,6.859118E-5,-9.379558E-5,1.6580257E-4,-1.773226E-5],"split_indices":[9,9,0,0,9,9,9,7,7,9,4,0,0,0,0,0,0,0,0],"split_type":[0,0,0,0,0,0,0,0,0,0,0,0,0,0,0,0,0,0,0],"sum_hessian":[6.55E2,5.31E2,1.24E2,2E1,5.11E2,2.54E2,2.57E2,1.35E2,1.19E2,1.89E2,6.8E1,2.2E1,1.13E2,1.15E2,4E0,6.4E1,1.25E2,4.7E1,2.1E1],"tree_param":{"num_deleted":"0","num_feature":"11","num_nodes":"19","size_leaf_vector":"1"}},{"base_weights":[2.4726073E-4,9.557448E-3,-5.536014E-4,7.5951894E-4,7.73347E-3,1.4854341E-2,-9.5990195E-5,1.125946E-2,1.917034E-2,-3.3925874E-3,8.610587E-3,2.619121E-5,1.9197233E-4,2.8460767E-4,1.251709E-4,5.2930754E-5,-9.634462E-5,2.8190165E-4,7.6559634E-5],"categories":[],"categories_nodes":[],"categories_segments":[],"categories_sizes":[],"default_left":[0,0,0,0,0,0,0,0,0,0,0,0,0,0,0,0,0,0,0],"id":1,"left_children":[1,3,-1,-1,5,7,9,11,13,15,17,-1,-1,-1,-1,-1,-1,-1,-1],"loss_changes":[2.2718915E-1,3.9809756E-2,0E0,0E0,2.7041428E-2,3.7250891E-3,6.688094E-3,2.9178187E-3,7.791668E-4,4.073117E-3,2.208904E-3,0E0,0E0,0E0,0E0,0E0,0E0,0E0,0E0],"parents":[2147483647,0,0,1,1,4,4,5,5,6,6,7,7,8,8,9,9,10,10],"right_children":[2,4,-1,-1,6,8,10,12,14,16,18,-1,-1,-1,-1,-1,-1,-1,-1],"split_conditions":[3.1880064E0,8.326121E-1,-5.536014E-4,7.5951894E-4,1.7885878E0,1.4050951E0,2.7778301E0,1.1067619E5,1.7848761E0,1.9733926E0,2.7844307E0,2.619121E-5,1.9197233E-4,2.8460767E-4,1.251709E-4,5.2930754E-5,-9.634462E-5,2.8190165E-4,7.6559634E-5],"split_indices":[0,0,0,0,0,0,0,7,0,0,0,0,0,0,0,0,0,0,0],"split_type":[0,0,0,0,0,0,0,0,0,0,0,0,0,0,0,0,0,0,0],"sum_hessian":[6.22E2,5.03E2,1.19E2,1.9E1,4.84E2,2.53E2,2.31E2,1.4E2,1.13E2,1.68E2,6.3E1,2.7E1,1.13E2,1.04E2,9E0,5.4E1,1.14E2,1.3E1,5E1],"tree_param":{"num_deleted":"0","num_feature":"11","num_nodes":"19","size_leaf_vector":"1"}},{"base_weights":[3.2476124E-5,-4.5056725E-3,1.3505784E-2,2.9775174E-3,-2.4143258E-2,2.035591E-2,4.969251E-3,-6.545222E-3,1.1747241E-2,-2.8448913E-2,-3.0080477E-5,5.884754E-4,1.8884106E-2,-3.585793E-4,1.8179048E-2,1.805827E-3,-2.9931242E-2,7.394862E-4,1.0073806E-2,-3.5353515E-2,-8.397883E-3,6.488748E-5,-2.6476851E-3,2.1448923E-2,1.5462461E-2,5.308956E-3,-7.4280575E-3,1.242812E-2,3.314158E-4,-1.8535714E-4,5.427788E-5,-4.8674195E-4,-2.2503026E-4,1.1827811E-4,2.4111231E-4,-6.1964226E-4,-4.016725E-4,5.183967E-5,-1.7408868E-4,4.7435595E-5,-1.2965489E-4,3.4118586E-4,9.381172E-5,2.568856E-4,1.7085539E-4,1.3327763E-4,9.109869E-6,-2.2712682E-5,-1.3871455E-4,2.5659334E-4,8.35987E-5],"categories":[],"categories_nodes":[],"categories_segments":[],"categories_sizes":[],"default_left":[0,0,0,0,0,0,0,0,0,0,0,0,0,0,0,0,0,0,0,0,0,0,0,0,0,0,0,0,0,0,0,0,0,0,0,0,0,0,0,0,0,0,0,0,0,0,0,0,0,0,0],"id":2,"left_children":[1,3,5,7,9,11,13,15,17,19,21,-1,23,25,27,29,31,-1,33,35,37,-1,39,41,43,45,47,49,-1,-1,-1,-1,-1,-1,-1,-1,-1,-1,-1,-1,-1,-1,-1,-1,-1,-1,-1,-1,-1,-1,-1],"loss_changes":[3.9070643E-2,7.031484E-2,9.313537E-3,2.905548E-2,1.3703786E-2,1.9641705E-3,5.144226E-3,3.2668784E-2,1.1640558E-2,1.5208878E-2,2.640712E-4,0E0,4.1429698E-4,2.1629606E-3,3.2479083E-4,3.7312591E-3,2.0935535E-3,0E0,1.9834433E-3,3.6108568E-3,1.4243897E-3,0E0,5.702827E-4,1.5510805E-3,1.4027394E-4,5.6078803E-4,3.0768116E-4,3.3377588E-4,0E0,0E0,0E0,0E0,0E0,0E0,0E0,0E0,0E0,0E0,0E0,0E0,0E0,0E0,0E0,0E0,0E0,0E0,0E0,0E0,0E0,0E0,0E0],"parents":[2147483647,0,0,1,1,2,2,3,3,4,4,5,5,6,6,7,7,8,8,9,9,10,10,12,12,13,13,14,14,15,15,16,16,18,18,19,19,20,20,22,22,23,23,24,24,25,25,26,26,27,27],"right_children":[2,4,6,8,10,12,14,16,18,20,22,-1,24,26,28,30,32,-1,34,36,38,-1,40,42,44,46,48,50,-1,-1,-1,-1,-1,-1,-1,-1,-1,-1,-1,-1,-1,-1,-1,-1,-1,-1,-1,-1,-1,-1,-1],"split_conditions":[4.8827665E6,8.55869E5,1.3944438E6,1.8316859E6,2.2490892E6,3.326958E5,6.162941E6,1.7806622E5,1.4240292E5,4.4981785E6,9.6507E5,5.884754E-4,1E0,1E0,1.5672076E6,4.4815227E4,1.4221476E6,7.394862E-4,2.8269422E6,7.1428573E-1,7.608795E-1,6.488748E-5,2.907246E6,8.3869735E6,7.6253927E-1,7.0674026E-1,8E-3,1E0,3.314158E-4,-1.8535714E-4,5.427788E-5,-4.8674195E-4,-2.2503026E-4,1.1827811E-4,2.4111231E-4,-6.1964226E-4,-4.016725E-4,5.183967E-5,-1.7408868E-4,4.7435595E-5,-1.2965489E-4,3.4118586E-4,9.381172E-5,2.568856E-4,1.7085539E-4,1.3327763E-4,9.109869E-6,-2.2712682E-5,-1.3871455E-4,2.5659334E-4,8.35987E-5],"split_indices":[5,7,7,5,6,7,5,7,7,5,7,0,10,10,7,5,6,0,6,3,3,0,6,5,3,3,1,10,0,0,0,0,0,0,0,0,0,0,0,0,0,0,0,0,0,0,0,0,0,0,0],"split_type":[0,0,0,0,0,0,0,0,0,0,0,0,0,0,0,0,0,0,0,0,0,0,0,0,0,0,0,0,0,0,0,0,0,0,0,0,0,0,0,0,0,0,0,0,0,0,0,0,0,0,0],"sum_hessian":[6.37E2,4.77E2,1.6E2,3.46E2,1.31E2,8.8E1,7.2E1,1.66E2,1.8E2,1.11E2,2E1,4E0,8.4E1,5.2E1,2E1,1.23E2,4.3E1,6E0,1.74E2,8.2E1,2.9E1,7E0,1.3E1,4.5E1,3.9E1,2.9E1,2.3E1,1.1E1,9E0,1.4E1,1.09E2,3.2E1,1.1E1,1.4E2,3.4E1,3.6E1,4.6E1,7E0,2.2E1,7E0,6E0,3.8E1,7E0,2E1,1.9E1,1.5E1,1.4E1,7E0,1.6E1,5E0,6E0],"tree_param":{"num_deleted":"0","num_feature":"11","num_nodes":"51","size_leaf_vector":"1"}},{"base_weights":[3.223151E-4,8.866261E-3,-5.401147E-4,5.495115E-2,6.6585303E-3,4.1592846E-4,8.354802E-4,1.417013E-2,-1.4344918E-3,9.724339E-3,1.8678391E-2,-4.1751657E-3,6.50578E-3,1.6562421E-4,3.4774497E-5,2.951135E-4,2.1748671E-4,3.572415E-5,-9.2894225E-5,2.032814E-4,4.3932443E-5],"categories":[],"categories_nodes":[],"categories_segments":[],"categories_sizes":[],"default_left":[0,0,0,0,0,0,0,0,0,0,0,0,0,0,0,0,0,0,0,0,0],"id":3,"left_children":[1,3,-1,5,7,-1,-1,9,11,13,15,17,19,-1,-1,-1,-1,-1,-1,-1,-1],"loss_changes":[2.1103372E-1,5.3354405E-2,0E0,5.7003647E-4,3.0720053E-2,0E0,0E0,5.069576E-3,5.337016E-3,1.8268963E-3,5.8006495E-4,2.8686025E-3,1.629588E-3,0E0,0E0,0E0,0E0,0E0,0E0,0E0,0E0],"parents":[2147483647,0,0,1,1,3,3,4,4,7,7,8,8,9,9,10,10,11,11,12,12],"right_children":[2,4,-1,6,8,-1,-1,10,12,14,16,18,20,-1,-1,-1,-1,-1,-1,-1,-1],"split_conditions":[3.1880064E0,8.326121E-1,-5.401147E-4,2.2080908E3,1.7885878E0,4.1592846E-4,8.354802E-4,1.4050951E0,2.7778301E0,9.0480053E-1,1.623699E0,1.9733926E0,1E0,1.6562421E-4,3.4774497E-5,2.951135E-4,2.1748671E-4,3.572415E-5,-9.2894225E-5,2.032814E-4,4.3932443E-5],"split_indices":[0,0,0,7,0,0,0,0,0,3,0,0,10,0,0,0,0,0,0,0,0],"split_type":[0,0,0,0,0,0,0,0,0,0,0,0,0,0,0,0,0,0,0,0,0],"sum_hessian":[6.44E2,5.27E2,1.17E2,2.3E1,5.04E2,4E0,1.9E1,2.61E2,2.43E2,1.33E2,1.28E2,1.81E2,6.2E1,1.05E2,2.8E1,7.7E1,5.1E1,4.7E1,1.34E2,1.8E1,4.4E1],"tree_param":{"num_deleted":"0","num_feature":"11","num_nodes":"21","size_leaf_vector":"1"}},{"base_weights":[9.619943E-4,1.0425671E-2,-5.3973973E-4,7.850689E-4,8.023882E-3,1.4774237E-2,2.6130964E-4,1.0709013E-2,1.8914595E-2,-2.353941E-3,7.967285E-3,2.2742404E-5,1.738227E-4,2.7871775E-4,6.988937E-5,7.120126E-5,-9.529271E-5,1.942837E-4,8.0814054E-5],"categories":[],"categories_nodes":[],"categories_segments":[],"categories_sizes":[],"default_left":[0,0,0,0,0,0,0,0,0,0,0,0,0,0,0,0,0,0,0],"id":4,"left_children":[1,3,-1,-1,5,7,9,11,13,15,17,-1,-1,-1,-1,-1,-1,-1,-1],"loss_changes":[2.345765E-1,5.4607317E-2,0E0,0E0,2.5567394E-2,4.1904636E-3,4.613652E-3,1.8020421E-3,1.0673553E-3,5.4826867E-3,6.772941E-4,0E0,0E0,0E0,0E0,0E0,0E0,0E0,0E0],"parents":[2147483647,0,0,1,1,4,4,5,5,6,6,7,7,8,8,9,9,10,10],"right_children":[2,4,-1,-1,6,8,10,12,14,16,18,-1,-1,-1,-1,-1,-1,-1,-1],"split_conditions":[1.4E1,2E0,-5.3973973E-4,7.850689E-4,6E0,4E0,1.2E1,6.761534E3,1.6972088E6,7E0,8E-3,2.2742404E-5,1.738227E-4,2.7871775E-4,6.988937E-5,7.120126E-5,-9.529271E-5,1.942837E-4,8.0814054E-5],"split_indices":[9,9,0,0,9,9,9,7,7,9,1,0,0,0,0,0,0,0,0],"split_type":[0,0,0,0,0,0,0,0,0,0,0,0,0,0,0,0,0,0,0],"sum_hessian":[6.36E2,5.12E2,1.24E2,2.5E1,4.87E2,2.6E2,2.27E2,1.33E2,1.27E2,1.7E2,5.7E1,1.9E1,1.14E2,1.21E2,6E0,6.3E1,1.07E2,1.5E1,4.2E1],"tree_param":{"num_deleted":"0","num_feature":"11","num_nodes":"19","size_leaf_vector":"1"}},{"base_weights":[1.0311736E-4,9.085211E-3,-5.3139025E-4,5.1944185E-2,6.665548E-3,4.0224032E-4,7.8130525E-4,1.3898345E-2,-6.2491786E-4,1.028989E-2,1.7729167E-2,-3.264024E-3,5.7400404E-3,-3.6464994E-6,1.6675415E-4,2.9188258E-4,1.886856E-4,3.3822307E-5,-7.545813E-5,2.3613127E-4,5.8429432E-5],"categories":[],"categories_nodes":[],"categories_segments":[],"categories_sizes":[],"default_left":[0,0,0,0,0,0,0,0,0,0,0,0,0,0,0,0,0,0,0,0,0],"id":5,"left_children":[1,3,-1,5,7,-1,-1,9,11,13,15,17,19,-1,-1,-1,-1,-1,-1,-1,-1],"loss_changes":[2.1164858E-1,5.2335538E-2,0E0,3.0568987E-4,2.5424765E-2,0E0,0E0,3.1628162E-3,4.0670056E-3,1.8976983E-3,1.1637323E-3,1.9720402E-3,1.1926664E-3,0E0,0E0,0E0,0E0,0E0,0E0,0E0,0E0],"parents":[2147483647,0,0,1,1,3,3,4,4,7,7,8,8,9,9,10,10,11,11,12,12],"right_children":[2,4,-1,6,8,-1,-1,10,12,14,16,18,20,-1,-1,-1,-1,-1,-1,-1,-1],"split_conditions":[3.1880064E0,8.326121E-1,-5.3139025E-4,2.2985298E5,1.7885878E0,4.0224032E-4,7.8130525E-4,1.4050951E0,2.7778301E0,5.0336514E3,1.623699E0,1.9733926E0,2.7844307E0,-3.6464994E-6,1.6675415E-4,2.9188258E-4,1.886856E-4,3.3822307E-5,-7.545813E-5,2.3613127E-4,5.8429432E-5],"split_indices":[0,0,0,5,0,0,0,0,0,7,0,0,0,0,0,0,0,0,0,0,0],"split_type":[0,0,0,0,0,0,0,0,0,0,0,0,0,0,0,0,0,0,0,0,0],"sum_hessian":[6.28E2,5.07E2,1.21E2,2.6E1,4.81E2,4E0,2.2E1,2.41E2,2.4E2,1.26E2,1.15E2,1.7E2,7E1,1.5E1,1.11E2,6.9E1,4.6E1,4.5E1,1.25E2,8E0,6.2E1],"tree_param":{"num_deleted":"0","num_feature":"11","num_nodes":"21","size_leaf_vector":"1"}},{"base_weights":[3.1988526E-4,8.703917E-3,-5.2204164E-4,7.152113E-4,6.7184707E-3,1.3893331E-2,-6.978288E-5,9.7655235E-3,1.8510526E-2,-2.5705677E-3,7.99839E-3,4.444927E-5,1.6653989E-4,2.7211287E-4,9.532714E-5,5.512803E-5,-8.430587E-5,2.6419424E-4,7.636718E-5],"categories":[],"categories_nodes":[],"categories_segments":[],"categories_sizes":[],"default_left":[0,0,0,0,0,0,0,0,0,0,0,0,0,0,0,0,0,0,0],"id":6,"left_children":[1,3,-1,-1,5,7,9,11,13,15,17,-1,-1,-1,-1,-1,-1,-1,-1],"loss_changes":[2.011295E-1,4.324723E-2,0E0,0E0,2.4645586E-2,4.5077205E-3,5.286697E-3,1.6513029E-3,6.731041E-4,4.3337382E-3,1.6254769E-3,0E0,0E0,0E0,0E0,0E0,0E0,0E0,0E0],"parents":[2147483647,0,0,1,1,4,4,5,5,6,6,7,7,8,8,9,9,10,10],"right_children":[2,4,-1,-1,6,8,10,12,14,16,18,-1,-1,-1,-1,-1,-1,-1,-1],"split_conditions":[3.1880064E0,8.326121E-1,-5.2204164E-4,7.152113E-4,1.7848761E0,1.4050951E0,2.7778301E0,1.8730283E5,1.6972088E6,1.9733926E0,2.7844307E0,4.444927E-5,1.6653989E-4,2.7211287E-4,9.532714E-5,5.512803E-5,-8.430587E-5,2.6419424E-4,7.636718E-5],"split_indices":[0,0,0,0,0,0,0,7,7,0,0,0,0,0,0,0,0,0,0],"split_type":[0,0,0,0,0,0,0,0,0,0,0,0,0,0,0,0,0,0,0],"sum_hessian":[6.47E2,5.28E2,1.19E2,2.3E1,5.05E2,2.45E2,2.6E2,1.31E2,1.14E2,1.99E2,6.1E1,3E1,1.01E2,1.08E2,6E0,6.8E1,1.31E2,1.1E1,5E1],"tree_param":{"num_deleted":"0","num_feature":"11","num_nodes":"19","size_leaf_vector":"1"}},{"base_weights":[-7.716953E-4,8.617921E-3,-5.198533E-4,7.3654007E-4,6.5529137E-3,1.3438675E-2,-1.1097905E-3,1.0115491E-2,1.7797109E-2,-3.733245E-3,6.385551E-3,2.241856E-5,1.6310293E-4,2.797682E-4,1.1465803E-4,3.6738733E-5,-9.2791415E-5,2.731619E-4,4.450057E-5],"categories":[],"categories_nodes":[],"categories_segments":[],"categories_sizes":[],"default_left":[0,0,0,0,0,0,0,0,0,0,0,0,0,0,0,0,0,0,0],"id":7,"left_children":[1,3,-1,-1,5,7,9,11,13,15,17,-1,-1,-1,-1,-1,-1,-1,-1],"loss_changes":[2.1428038E-1,4.4675477E-2,0E0,0E0,2.5552474E-2,3.5133623E-3,4.5464863E-3,1.6555246E-3,1.7972328E-3,3.017196E-3,2.4429702E-3,0E0,0E0,0E0,0E0,0E0,0E0,0E0,0E0],"parents":[2147483647,0,0,1,1,4,4,5,5,6,6,7,7,8,8,9,9,10,10],"right_children":[2,4,-1,-1,6,8,10,12,14,16,18,-1,-1,-1,-1,-1,-1,-1,-1],"split_conditions":[3.1880064E0,8.326121E-1,-5.198533E-4,7.3654007E-4,1.7885878E0,1.4078158E0,2.7778301E0,6.761534E3,1.6334534E0,1.9733926E0,2.7844307E0,2.241856E-5,1.6310293E-4,2.797682E-4,1.1465803E-4,3.6738733E-5,-9.2791415E-5,2.731619E-4,4.450057E-5],"split_indices":[0,0,0,0,0,0,0,7,0,0,0,0,0,0,0,0,0,0,0],"split_type":[0,0,0,0,0,0,0,0,0,0,0,0,0,0,0,0,0,0,0],"sum_hessian":[6.37E2,5.05E2,1.32E2,2.2E1,4.83E2,2.54E2,2.29E2,1.46E2,1.08E2,1.7E2,5.9E1,2E1,1.26E2,9E1,1.8E1,5.2E1,1.18E2,1.1E1,4.8E1],"tree_param":{"num_deleted":"0","num_feature":"11","num_nodes":"19","size_leaf_vector":"1"}},{"base_weights":[5.2341324E-4,8.3026765E-3,-4.9815164E-4,5.0305087E-2,6.6093616E-3,3.929039E-4,7.73084E-4,1.3432196E-2,1.3114084E-4,9.950733E-3,1.9490805E-2,-2.490912E-3,7.796672E-3,2.951807E-5,1.6280313E-4,3.119307E-4,2.0465246E-4,5.8004232E-5,-8.681158E-5,2.618963E-4,8.2670675E-5],"categories":[],"categories_nodes":[],"categories_segments":[],"categories_sizes":[],"default_left":[0,0,0,0,0,0,0,0,0,0,0,0,0,0,0,0,0,0,0,0,0],"id":8,"left_children":[1,3,-1,5,7,-1,-1,9,11,13,15,17,19,-1,-1,-1,-1,-1,-1,-1,-1],"loss_changes":[1.750476E-1,3.6651637E-2,0E0,3.0263513E-4,2.214235E-2,0E0,0E0,4.9527027E-3,5.205073E-3,1.8027332E-3,7.698387E-4,4.5873583E-3,1.286468E-3,0E0,0E0,0E0,0E0,0E0,0E0,0E0,0E0],"parents":[2147483647,0,0,1,1,3,3,4,4,7,7,8,8,9,9,10,10,11,11,12,12],"right_children":[2,4,-1,6,8,-1,-1,10,12,14,16,18,20,-1,-1,-1,-1,-1,-1,-1,-1],"split_conditions":[3.1880064E0,8.326121E-1,-4.9815164E-4,2E-1,1.7848761E0,3.929039E-4,7.73084E-4,1.4105335E0,2.7778301E0,6.761534E3,4.1707612E6,1.9733926E0,2.7844307E0,2.951807E-5,1.6280313E-4,3.119307E-4,2.0465246E-4,5.8004232E-5,-8.681158E-5,2.618963E-4,8.2670675E-5],"split_indices":[0,0,0,2,0,0,0,0,0,7,5,0,0,0,0,0,0,0,0,0,0],"split_type":[0,0,0,0,0,0,0,0,0,0,0,0,0,0,0,0,0,0,0,0,0],"sum_hessian":[6.32E2,5.19E2,1.13E2,1.9E1,5E2,4E0,1.5E1,2.43E2,2.57E2,1.56E2,8.7E1,1.92E2,6.5E1,2.5E1,1.31E2,5.7E1,3E1,6.8E1,1.24E2,9E0,5.6E1],"tree_param":{"num_deleted":"0","num_feature":"11","num_nodes":"21","size_leaf_vector":"1"}},{"base_weights":[1.373909E-3,9.352946E-3,-5.104159E-4,4.9310002E-2,7.41242E-3,3.990955E-4,7.6135877E-4,1.3507235E-2,8.316347E-4,1.007277E-2,1.6997602E-2,-1.4640911E-3,7.4832314E-3,1.5755693E-5,1.8056194E-4,2.8736424E-4,1.6434715E-4,7.9889774E-5,-7.1898845E-5,1.8496843E-4,5.5660745E-5],"categories":[],"categories_nodes":[],"categories_segments":[],"categories_sizes":[],"default_left":[0,0,0,0,0,0,0,0,0,0,0,0,0,0,0,0,0,0,0,0,0],"id":9,"left_children":[1,3,-1,5,7,-1,-1,9,11,13,15,17,19,-1,-1,-1,-1,-1,-1,-1,-1],"loss_changes":[1.8822366E-1,4.0109172E-2,0E0,6.140731E-4,2.0002993E-2,0E0,0E0,2.9335618E-3,3.6910847E-3,3.0878885E-3,1.9681044E-3,4.588455E-3,1.168777E-3,0E0,0E0,0E0,0E0,0E0,0E0,0E0,0E0],"parents":[2147483647,0,0,1,1,3,3,4,4,7,7,8,8,9,9,10,10,11,11,12,12],"right_children":[2,4,-1,6,8,-1,-1,10,12,14,16,18,20,-1,-1,-1,-1,-1,-1,-1,-1],"split_conditions":[1.4E1,2E0,-5.104159E-4,6.108624E-2,6E0,3.990955E-4,7.6135877E-4,4E0,1.2E1,1.882254E-1,3.9305492E6,7E0,1E0,1.5755693E-5,1.8056194E-4,2.8736424E-4,1.6434715E-4,7.9889774E-5,-7.1898845E-5,1.8496843E-4,5.5660745E-5],"split_indices":[9,9,0,4,9,0,0,9,9,4,5,9,10,0,0,0,0,0,0,0,0],"split_type":[0,0,0,0,0,0,0,0,0,0,0,0,0,0,0,0,0,0,0,0,0],"sum_hessian":[6.32E2,5.21E2,1.11E2,2.3E1,4.98E2,5E0,1.8E1,2.58E2,2.4E2,1.32E2,1.26E2,1.79E2,6.1E1,3E1,1.02E2,7.8E1,4.8E1,6E1,1.19E2,2.3E1,3.8E1],"tree_param":{"num_deleted":"0","num_feature":"11","num_nodes":"21","size_leaf_vector":"1"}},{"base_weights":[9.255474E-4,9.164962E-3,-3.5029687E-2,7.144263E-4,7.1655614E-3,-4.2613625E-4,-3.702649E-2,1.3993628E-2,-9.603976E-4,-4.3387254E-4,-5.68259E-4,1.010679E-2,1.8367054E-2,-3.1771513E-3,5.935742E-3,-4.343337E-5,1.5477974E-4,2.8713522E-4,2.0289033E-4,4.7649413E-5,-7.751613E-5,2.3920837E-4,4.3283708E-5],"categories":[],"categories_nodes":[],"categories_segments":[],"categories_sizes":[],"default_left":[0,0,0,0,0,0,0,0,0,0,0,0,0,0,0,0,0,0,0,0,0,0,0],"id":10,"left_children":[1,3,5,-1,7,-1,9,11,13,-1,-1,15,17,19,21,-1,-1,-1,-1,-1,-1,-1,-1],"loss_changes":[1.970311E-1,4.3968845E-2,1.5997887E-4,0E0,2.8698971E-2,0E0,3.831014E-4,4.591033E-3,3.641888E-3,0E0,0E0,1.5374431E-3,6.7894906E-4,2.6756206E-3,1.7732149E-3,0E0,0E0,0E0,0E0,0E0,0E0,0E0,0E0],"parents":[2147483647,0,0,1,1,2,2,4,4,6,6,7,7,8,8,11,11,12,12,13,13,14,14],"right_children":[2,4,6,-1,8,-1,10,12,14,-1,-1,16,18,20,22,-1,-1,-1,-1,-1,-1,-1,-1],"split_conditions":[3.1880064E0,8.326121E-1,1E0,7.144263E-4,1.7885878E0,-4.2613625E-4,2.512381E-1,1.4050951E0,2.7778301E0,-4.3387254E-4,-5.68259E-4,1.3265338E5,4.947036E6,1.8034052E0,2.7844307E0,-4.343337E-5,1.5477974E-4,2.8713522E-4,2.0289033E-4,4.7649413E-5,-7.751613E-5,2.3920837E-4,4.3283708E-5],"split_indices":[0,0,10,0,0,0,4,0,0,0,0,5,5,0,0,0,0,0,0,0,0,0,0],"split_type":[0,0,0,0,0,0,0,0,0,0,0,0,0,0,0,0,0,0,0,0,0,0,0],"sum_hessian":[6.63E2,5.4E2,1.23E2,2.4E1,5.16E2,3.9E1,8.4E1,2.8E2,2.36E2,2.9E1,5.5E1,1.5E2,1.3E2,1.79E2,5.7E1,8E0,1.42E2,8.8E1,4.2E1,4.6E1,1.33E2,1.1E1,4.6E1],"tree_param":{"num_deleted":"0","num_feature":"11","num_nodes":"23","size_leaf_vector":"1"}},{"base_weights":[-5.920277E-4,8.161696E-3,-3.4883913E-2,4.8882805E-2,6.0278745E-3,-4.282245E-4,-3.6986608E-2,4.2317552E-4,7.4133935E-4,1.284292E-2,-1.2908216E-3,-4.3673304E-4,-5.632696E-4,8.406921E-3,1.7248135E-2,-4.146908E-3,6.2309992E-3,-1.5812018E-5,1.4151035E-4,2.5571726E-4,3.5190882E-5,1.5804982E-5,-8.492546E-5,1.8085688E-4,2.9654453E-5],"categories":[],"categories_nodes":[],"categories_segments":[],"categories_sizes":[],"default_left":[0,0,0,0,0,0,0,0,0,0,0,0,0,0,0,0,0,0,0,0,0,0,0,0,0],"id":11,"left_children":[1,3,5,7,9,-1,11,-1,-1,13,15,-1,-1,17,19,21,23,-1,-1,-1,-1,-1,-1,-1,-1],"loss_changes":[1.9780426E-1,4.5323413E-2,2.4823844E-4,2.6341528E-5,2.4955202E-2,0E0,2.2487342E-4,0E0,0E0,4.9162507E-3,5.224718E-3,0E0,0E0,1.9131955E-3,1.2916513E-3,1.6848021E-3,1.7705373E-3,0E0,0E0,0E0,0E0,0E0,0E0,0E0,0E0],"parents":[2147483647,0,0,1,1,2,2,3,3,4,4,6,6,9,9,10,10,13,13,14,14,15,15,16,16],"right_children":[2,4,6,8,10,-1,12,-1,-1,14,16,-1,-1,18,20,22,24,-1,-1,-1,-1,-1,-1,-1,-1],"split_conditions":[3.1880064E0,8.326121E-1,1E0,6.108421E-1,1.7885878E0,-4.282245E-4,4.435763E5,4.2317552E-4,7.4133935E-4,1.4050951E0,2.7778301E0,-4.3673304E-4,-5.632696E-4,6.761534E3,1.6972088E6,1.9733926E0,1E0,-1.5812018E-5,1.4151035E-4,2.5571726E-4,3.5190882E-5,1.5804982E-5,-8.492546E-5,1.8085688E-4,2.9654453E-5],"split_indices":[0,0,10,0,0,0,7,0,0,0,0,0,0,7,7,0,10,0,0,0,0,0,0,0,0],"split_type":[0,0,0,0,0,0,0,0,0,0,0,0,0,0,0,0,0,0,0,0,0,0,0,0,0],"sum_hessian":[6.57E2,5.24E2,1.33E2,2.5E1,4.99E2,4.5E1,8.8E1,5E0,2E1,2.58E2,2.41E2,2.9E1,5.9E1,1.3E2,1.28E2,1.75E2,6.6E1,1.8E1,1.12E2,1.22E2,6E0,4.5E1,1.3E2,2.5E1,4.1E1],"tree_param":{"num_deleted":"0","num_feature":"11","num_nodes":"25","size_leaf_vector":"1"}},{"base_weights":[-4.1275175E-4,8.050845E-3,-4.7719522E-4,1.5755968E-2,-8.0668606E-4,6.1441003E-4,1.2978187E-2,-3.5667638E-3,6.414512E-3,8.413949E-3,1.726491E-2,3.9111446E-3,-5.883968E-3,1.9943954E-4,2.647812E-3,-8.804825E-6,1.4180697E-4,2.5815054E-4,-4.6713434E-5,7.3768664E-5,-1.8437315E-6,-3.3850185E-5,-1.0627674E-4,2.371457E-4,-4.1512435E-6],"categories":[],"categories_nodes":[],"categories_segments":[],"categories_sizes":[],"default_left":[0,0,0,0,0,0,0,0,0,0,0,0,0,0,0,0,0,0,0,0,0,0,0,0,0],"id":12,"left_children":[1,3,-1,5,7,-1,9,11,13,15,17,19,21,-1,23,-1,-1,-1,-1,-1,-1,-1,-1,-1,-1],"loss_changes":[1.8142407E-1,3.522887E-2,0E0,2.0423852E-2,4.8262663E-3,0E0,4.7852695E-3,3.055385E-3,1.8769649E-3,1.7304029E-3,2.3248084E-3,2.1563651E-4,7.2294846E-4,0E0,1.8973605E-3,0E0,0E0,0E0,0E0,0E0,0E0,0E0,0E0,0E0,0E0],"parents":[2147483647,0,0,1,1,3,3,4,4,6,6,7,7,8,8,9,9,10,10,11,11,12,12,14,14],"right_children":[2,4,-1,6,8,-1,10,12,14,16,18,20,22,-1,24,-1,-1,-1,-1,-1,-1,-1,-1,-1,-1],"split_conditions":[3.1880064E0,1.7922965E0,-4.7719522E-4,8.326121E-1,2.7778301E0,6.1441003E-4,1.4050951E0,1.9733926E0,1E0,6.761534E3,1.7181041E6,1.085468E6,1E0,1.9943954E-4,2.7844307E0,-8.804825E-6,1.4180697E-4,2.5815054E-4,-4.6713434E-5,7.3768664E-5,-1.8437315E-6,-3.3850185E-5,-1.0627674E-4,2.371457E-4,-4.1512435E-6],"split_indices":[0,0,0,0,0,0,0,0,10,7,7,7,10,0,0,0,0,0,0,0,0,0,0,0,0],"split_type":[0,0,0,0,0,0,0,0,0,0,0,0,0,0,0,0,0,0,0,0,0,0,0,0,0],"sum_hessian":[6.46E2,5.15E2,1.31E2,2.75E2,2.4E2,2.4E1,2.51E2,1.74E2,6.6E1,1.23E2,1.28E2,4.1E1,1.33E2,2.1E1,4.5E1,1.8E1,1.05E2,1.23E2,5E0,3.1E1,1E1,4.2E1,9.1E1,7E0,3.8E1],"tree_param":{"num_deleted":"0","num_feature":"11","num_nodes":"25","size_leaf_vector":"1"}},{"base_weights":[-4.014719E-4,7.901683E-3,-4.6591458E-4,6.615945E-4,6.02305E-3,1.2676176E-2,-4.0845101E-4,9.110156E-3,1.675218E-2,5.0326E-3,-2.72885E-3,4.2184474E-5,1.5192649E-4,3.192716E-4,2.0646471E-4,2.5245958E-5,1.782384E-4,2.1863085E-5,-9.251653E-5],"categories":[],"categories_nodes":[],"categories_segments":[],"categories_sizes":[],"default_left":[0,0,0,0,0,0,0,0,0,0,0,0,0,0,0,0,0,0,0],"id":13,"left_children":[1,3,-1,-1,5,7,9,11,13,15,17,-1,-1,-1,-1,-1,-1,-1,-1],"loss_changes":[1.6788524E-1,3.5773024E-2,0E0,0E0,2.037302E-2,3.2485984E-3,3.0817077E-3,1.181744E-3,1.0563489E-3,1.75777E-3,2.7547795E-3,0E0,0E0,0E0,0E0,0E0,0E0,0E0,0E0],"parents":[2147483647,0,0,1,1,4,4,5,5,6,6,7,7,8,8,9,9,10,10],"right_children":[2,4,-1,-1,6,8,10,12,14,16,18,-1,-1,-1,-1,-1,-1,-1,-1],"split_conditions":[3.1880064E0,8.326121E-1,-4.6591458E-4,6.615945E-4,1.7848761E0,1.4050951E0,1E0,1.8730283E5,8E-3,2.7778301E0,2.5671568E6,4.2184474E-5,1.5192649E-4,3.192716E-4,2.0646471E-4,2.5245958E-5,1.782384E-4,2.1863085E-5,-9.251653E-5],"split_indices":[0,0,0,0,0,0,10,7,1,0,5,0,0,0,0,0,0,0,0],"split_type":[0,0,0,0,0,0,0,0,0,0,0,0,0,0,0,0,0,0,0],"sum_hessian":[6.24E2,4.97E2,1.27E2,2.2E1,4.75E2,2.33E2,2.42E2,1.26E2,1.07E2,7.2E1,1.7E2,2.6E1,1E2,2.8E1,7.9E1,5.1E1,2.1E1,8E1,9E1],"tree_param":{"num_deleted":"0","num_feature":"11","num_nodes":"19","size_leaf_vector":"1"}},{"base_weights":[-9.6976495E-4,7.3946225E-3,-4.62604E-4,7.3525053E-4,5.6400844E-3,1.23420525E-2,-5.013966E-4,9.646411E-3,1.5024015E-2,-2.7027123E-3,6.6245478E-3,6.0872506E-5,1.6898237E-4,2.2443316E-4,-1.0326211E-5,6.462023E-5,-9.218434E-5,1.8970674E-4,4.9008107E-5],"categories":[],"categories_nodes":[],"categories_segments":[],"categories_sizes":[],"default_left":[0,0,0,0,0,0,0,0,0,0,0,0,0,0,0,0,0,0,0],"id":14,"left_children":[1,3,-1,-1,5,7,9,11,13,15,17,-1,-1,-1,-1,-1,-1,-1,-1],"loss_changes":[1.6702534E-1,3.857321E-2,0E0,0E0,1.9886475E-2,1.5251078E-3,3.986577E-3,1.353574E-3,1.3203695E-3,5.32025E-3,1.2327156E-3,0E0,0E0,0E0,0E0,0E0,0E0,0E0,0E0],"parents":[2147483647,0,0,1,1,4,4,5,5,6,6,7,7,8,8,9,9,10,10],"right_children":[2,4,-1,-1,6,8,10,12,14,16,18,-1,-1,-1,-1,-1,-1,-1,-1],"split_conditions":[1.4E1,2E0,-4.62604E-4,7.3525053E-4,6E0,4E0,1.2E1,3.1197775E6,1.6972088E6,7E0,1E0,6.0872506E-5,1.6898237E-4,2.2443316E-4,-1.0326211E-5,6.462023E-5,-9.218434E-5,1.8970674E-4,4.9008107E-5],"split_indices":[9,9,0,0,9,9,9,5,7,9,10,0,0,0,0,0,0,0,0],"split_type":[0,0,0,0,0,0,0,0,0,0,0,0,0,0,0,0,0,0,0],"sum_hessian":[6.32E2,5E2,1.32E2,1.8E1,4.82E2,2.3E2,2.52E2,1.17E2,1.13E2,1.93E2,5.9E1,3.5E1,8.2E1,1.08E2,5E0,6.6E1,1.27E2,1.8E1,4.1E1],"tree_param":{"num_deleted":"0","num_feature":"11","num_nodes":"19","size_leaf_vector":"1"}},{"base_weights":[6.817852E-4,-2.8616176E-3,1.18203685E-2,1.786978E-3,-1.8803908E-2,3.19603E-2,7.7944417E-3,-5.0363922E-3,8.106129E-3,-2.2505926E-2,-1.389727E-3,1.5527342E-4,3.8037706E-2,1.0916608E-2,-3.7460327E-3,9.256813E-4,-2.4506148E-2,6.296397E-4,7.108514E-3,-2.9193152E-2,-5.179451E-3,-4.551151E-3,7.311032E-5,6.096526E-4,2.3034064E-4,3.9309086E-3,1.4725136E-2,1.6743704E-4,-6.8188086E-3,-1.13241185E-5,8.849979E-5,-4.2720104E-4,-2.092085E-4,7.865134E-5,1.8910212E-4,-4.938624E-4,-3.2253013E-4,-2.8885443E-5,-1.5540395E-4,9.5415935E-6,-9.554671E-5,1.2693382E-4,-3.4910874E-5,2.6011717E-4,1.2932043E-4,5.2031162E-5,-1.616341E-4],"categories":[],"categories_nodes":[],"categories_segments":[],"categories_sizes":[],"default_left":[0,0,0,0,0,0,0,0,0,0,0,0,0,0,0,0,0,0,0,0,0,0,0,0,0,0,0,0,0,0,0,0,0,0,0,0,0,0,0,0,0,0,0,0,0,0,0],"id":15,"left_children":[1,3,5,7,9,11,13,15,17,19,21,-1,23,25,27,29,31,-1,33,35,37,39,-1,-1,-1,41,43,-1,45,-1,-1,-1,-1,-1,-1,-1,-1,-1,-1,-1,-1,-1,-1,-1,-1,-1,-1],"loss_changes":[2.4859503E-2,3.5457827E-2,1.2075337E-2,1.6037568E-2,6.9312267E-3,2.785433E-3,4.6528988E-3,2.0801025E-2,6.634336E-3,1.0160875E-2,4.356919E-4,0E0,1.2836382E-3,2.6292447E-3,1.4135963E-3,1.260047E-3,1.8199626E-3,0E0,1.776861E-3,1.5104264E-3,4.473363E-4,1.6202923E-4,0E0,0E0,0E0,1.1973348E-3,1.1311872E-3,0E0,1.1789204E-3,0E0,0E0,0E0,0E0,0E0,0E0,0E0,0E0,0E0,0E0,0E0,0E0,0E0,0E0,0E0,0E0,0E0,0E0],"parents":[2147483647,0,0,1,1,2,2,3,3,4,4,5,5,6,6,7,7,8,8,9,9,10,10,12,12,13,13,14,14,15,15,16,16,18,18,19,19,20,20,21,21,25,25,26,26,28,28],"right_children":[2,4,6,8,10,12,14,16,18,20,22,-1,24,26,28,30,32,-1,34,36,38,40,-1,-1,-1,42,44,-1,46,-1,-1,-1,-1,-1,-1,-1,-1,-1,-1,-1,-1,-1,-1,-1,-1,-1,-1],"split_conditions":[4.8925965E6,8.6629675E5,7.0540706E5,1.8533986E6,2.2282445E6,4.982113E6,1.7181041E6,1.9586778E5,1.4240292E5,4.4981785E6,6.666667E-1,1.5527342E-4,1E0,5.6538845E6,4E-3,8.761726E5,1.4503095E6,6.296397E-4,2.8269422E6,7.1428573E-1,1.6E-2,2.908385E6,7.311032E-5,6.096526E-4,2.3034064E-4,1.462952E6,7.11254E-1,1.6743704E-4,1E0,-1.13241185E-5,8.849979E-5,-4.2720104E-4,-2.092085E-4,7.865134E-5,1.8910212E-4,-4.938624E-4,-3.2253013E-4,-2.8885443E-5,-1.5540395E-4,9.5415935E-6,-9.554671E-5,1.2693382E-4,-3.4910874E-5,2.6011717E-4,1.2932043E-4,5.2031162E-5,-1.616341E-4],"split_indices":[5,7,7,5,6,5,7,7,7,5,3,0,10,5,1,5,6,0,6,3,1,5,0,0,0,7,3,0,10,0,0,0,0,0,0,0,0,0,0,0,0,0,0,0,0,0,0],"split_type":[0,0,0,0,0,0,0,0,0,0,0,0,0,0,0,0,0,0,0,0,0,0,0,0,0,0,0,0,0,0,0,0,0,0,0,0,0,0,0,0,0,0,0,0,0,0,0],"sum_hessian":[6.28E2,4.77E2,1.51E2,3.7E2,1.07E2,2.4E1,1.27E2,1.78E2,1.92E2,8.8E1,1.9E1,6E0,1.8E1,1E2,2.7E1,1.37E2,4.1E1,4E0,1.88E2,6.3E1,2.5E1,1.3E1,6E0,1.4E1,4E0,3.6E1,6.4E1,4E0,2.3E1,1.04E2,3.3E1,2.5E1,1.6E1,1.51E2,3.7E1,3.2E1,3.1E1,1.7E1,8E0,4E0,9E0,2E1,1.6E1,3.8E1,2.6E1,7E0,1.6E1],"tree_param":{"num_deleted":"0","num_feature":"11","num_nodes":"47","size_leaf_vector":"1"}},{"base_weights":[-6.900052E-4,7.606177E-3,-4.6209738E-4,6.3753576E-4,5.8363806E-3,1.2319361E-2,-5.127469E-4,9.007302E-3,1.59301E-2,-2.6560538E-3,5.168253E-3,-4.145628E-6,1.3838016E-4,2.433838E-4,9.222216E-5,2.3668379E-5,-6.580975E-5,2.5491673E-4,4.5211807E-5],"categories":[],"categories_nodes":[],"categories_segments":[],"categories_sizes":[],"default_left":[0,0,0,0,0,0,0,0,0,0,0,0,0,0,0,0,0,0,0],"id":16,"left_children":[1,3,-1,-1,5,7,9,11,13,15,17,-1,-1,-1,-1,-1,-1,-1,-1],"loss_changes":[1.690612E-1,3.319804E-2,0E0,0E0,2.0051856E-2,2.7386248E-3,3.0212302E-3,8.427091E-4,1.1326186E-3,1.5332975E-3,1.6692597E-3,0E0,0E0,0E0,0E0,0E0,0E0,0E0,0E0],"parents":[2147483647,0,0,1,1,4,4,5,5,6,6,7,7,8,8,9,9,10,10],"right_children":[2,4,-1,-1,6,8,10,12,14,16,18,-1,-1,-1,-1,-1,-1,-1,-1],"split_conditions":[3.1880064E0,8.326121E-1,-4.6209738E-4,6.3753576E-4,1.7885878E0,1.4050951E0,2.7778301E0,8.679474E4,1.7848761E0,1.9733926E0,2.7844307E0,-4.145628E-6,1.3838016E-4,2.433838E-4,9.222216E-5,2.3668379E-5,-6.580975E-5,2.5491673E-4,4.5211807E-5],"split_indices":[0,0,0,0,0,0,0,5,0,0,0,0,0,0,0,0,0,0,0],"split_type":[0,0,0,0,0,0,0,0,0,0,0,0,0,0,0,0,0,0,0],"sum_hessian":[6.4E2,5.08E2,1.32E2,2.2E1,4.86E2,2.4E2,2.46E2,1.27E2,1.13E2,1.79E2,6.7E1,9E0,1.18E2,1E2,1.3E1,5.6E1,1.23E2,8E0,5.9E1],"tree_param":{"num_deleted":"0","num_feature":"11","num_nodes":"19","size_leaf_vector":"1"}},{"base_weights":[-2.9100495E-4,7.3284707E-3,-4.5862756E-4,6.164731E-4,5.5603017E-3,1.2160624E-2,-6.72129E-4,9.392208E-3,1.4568869E-2,-2.1561317E-3,4.996563E-3,6.024163E-6,1.5163995E-4,2.5990955E-4,1.3963341E-4,5.3829448E-5,-7.4024785E-5,2.6040041E-5,1.5752224E-4],"categories":[],"categories_nodes":[],"categories_segments":[],"categories_sizes":[],"default_left":[0,0,0,0,0,0,0,0,0,0,0,0,0,0,0,0,0,0,0],"id":17,"left_children":[1,3,-1,-1,5,7,9,11,13,15,17,-1,-1,-1,-1,-1,-1,-1,-1],"loss_changes":[1.5506749E-1,3.248854E-2,0E0,0E0,2.0247113E-2,1.4565848E-3,2.147511E-3,1.275151E-3,2.0285808E-3,3.6635092E-3,9.975474E-4,0E0,0E0,0E0,0E0,0E0,0E0,0E0,0E0],"parents":[2147483647,0,0,1,1,4,4,5,5,6,6,7,7,8,8,9,9,10,10],"right_children":[2,4,-1,-1,6,8,10,12,14,16,18,-1,-1,-1,-1,-1,-1,-1,-1],"split_conditions":[1.4E1,2E0,-4.5862756E-4,6.164731E-4,6E0,4E0,1.2E1,6.761534E3,4.0331478E6,7E0,8.314476E-1,6.024163E-6,1.5163995E-4,2.5990955E-4,1.3963341E-4,5.3829448E-5,-7.4024785E-5,2.6040041E-5,1.5752224E-4],"split_indices":[9,9,0,0,9,9,9,7,5,9,3,0,0,0,0,0,0,0,0],"split_type":[0,0,0,0,0,0,0,0,0,0,0,0,0,0,0,0,0,0,0],"sum_hessian":[6.36E2,5.14E2,1.22E2,2.3E1,4.91E2,2.38E2,2.53E2,1.13E2,1.25E2,2.01E2,5.2E1,1.4E1,9.9E1,6.9E1,5.6E1,6.8E1,1.33E2,3.5E1,1.7E1],"tree_param":{"num_deleted":"0","num_feature":"11","num_nodes":"19","size_leaf_vector":"1"}},{"base_weights":[2.9691297E-4,7.754008E-3,-4.4408833E-4,6.1832956E-4,6.163676E-3,1.2115488E-2,6.6427085E-5,1.1219635E-2,2.8719837E-4,-2.3747436E-3,6.66024E-3,1.3082496E-4,2.0838268E-4,5.1117902E-5,-6.401043E-5,1.7219433E-4,4.477244E-5],"categories":[],"categories_nodes":[],"categories_segments":[],"categories_sizes":[],"default_left":[0,0,0,0,0,0,0,0,0,0,0,0,0,0,0,0,0],"id":18,"left_children":[1,3,-1,-1,5,7,9,11,-1,13,15,-1,-1,-1,-1,-1,-1],"loss_changes":[1.5065733E-1,2.9154805E-2,0E0,0E0,1.807146E-2,1.5896037E-3,3.9916816E-3,1.4548656E-3,0E0,2.302182E-3,1.2408674E-3,0E0,0E0,0E0,0E0,0E0,0E0],"parents":[2147483647,0,0,1,1,4,4,5,5,6,6,7,7,9,9,10,10],"right_children":[2,4,-1,-1,6,8,10,12,-1,14,16,-1,-1,-1,-1,-1,-1],"split_conditions":[3.1880064E0,8.326121E-1,-4.4408833E-4,6.1832956E-4,1.7848761E0,6.200716E5,2.7778301E0,1.4132483E0,2.8719837E-4,1.7997053E0,1E0,1.3082496E-4,2.0838268E-4,5.1117902E-5,-6.401043E-5,1.7219433E-4,4.477244E-5],"split_indices":[0,0,0,0,0,8,0,0,0,0,10,0,0,0,0,0,0],"split_type":[0,0,0,0,0,0,0,0,0,0,0,0,0,0,0,0,0],"sum_hessian":[6.4E2,5.18E2,1.22E2,2.1E1,4.97E2,2.51E2,2.46E2,2.28E2,2.3E1,1.8E2,6.6E1,1.45E2,8.3E1,4.7E1,1.33E2,2.5E1,4.1E1],"tree_param":{"num_deleted":"0","num_feature":"11","num_nodes":"17","size_leaf_vector":"1"}},{"base_weights":[-4.828447E-4,7.6951715E-3,-3.126712E-2,6.247853E-4,6.1361655E-3,-3.8592445E-4,-4.7256474E-4,1.2437114E-2,2.312167E-4,1.0270065E-2,1.9460747E-2,-1.5689965E-3,5.0113373E-3,1.18093194E-4,2.1569074E-4,3.0721258E-4,2.1412558E-4,4.527396E-5,-6.3553285E-5,1.7093566E-4,2.221276E-5],"categories":[],"categories_nodes":[],"categories_segments":[],"categories_sizes":[],"default_left":[0,0,0,0,0,0,0,0,0,0,0,0,0,0,0,0,0,0,0,0,0],"id":19,"left_children":[1,3,5,-1,7,-1,-1,9,11,13,15,17,19,-1,-1,-1,-1,-1,-1,-1,-1],"loss_changes":[1.6312563E-1,2.8593305E-2,1.8271804E-4,0E0,1.8302858E-2,0E0,0E0,3.422629E-3,2.202198E-3,1.6494561E-3,1.8835999E-4,2.5673984E-3,1.6696703E-3,0E0,0E0,0E0,0E0,0E0,0E0,0E0,0E0],"parents":[2147483647,0,0,1,1,2,2,4,4,7,7,8,8,9,9,10,10,11,11,12,12],"right_children":[2,4,6,-1,8,-1,-1,10,12,14,16,18,20,-1,-1,-1,-1,-1,-1,-1,-1],"split_conditions":[1.4E1,2E0,1E0,6.247853E-4,6E0,-3.8592445E-4,-4.7256474E-4,5E0,1.2E1,3.2910198E-1,3.9305492E6,7E0,1E0,1.18093194E-4,2.1569074E-4,3.0721258E-4,2.1412558E-4,4.527396E-5,-6.3553285E-5,1.7093566E-4,2.221276E-5],"split_indices":[9,9,10,0,9,0,0,9,9,4,5,9,10,0,0,0,0,0,0,0,0],"split_type":[0,0,0,0,0,0,0,0,0,0,0,0,0,0,0,0,0,0,0,0,0],"sum_hessian":[6.46E2,5.11E2,1.35E2,2E1,4.91E2,4.7E1,8.8E1,2.37E2,2.54E2,1.83E2,5.4E1,1.85E2,6.9E1,1.32E2,5.1E1,3.4E1,2E1,7E1,1.15E2,2.2E1,4.7E1],"tree_param":{"num_deleted":"0","num_feature":"11","num_nodes":"21","size_leaf_vector":"1"}},{"base_weights":[1.5789489E-4,7.360271E-3,-4.380062E-4,4.1619178E-2,5.446193E-3,3.2443783E-4,6.372109E-4,1.1437451E-2,-3.7975836E-4,7.891352E-3,1.4892049E-2,-2.521863E-3,5.8575724E-3,-3.3951506E-5,1.254514E-4,2.4158477E-4,1.2282933E-4,4.7802325E-5,-7.435056E-5,1.3023307E-5,1.1602996E-4],"categories":[],"categories_nodes":[],"categories_segments":[],"categories_sizes":[],"default_left":[0,0,0,0,0,0,0,0,0,0,0,0,0,0,0,0,0,0,0,0,0],"id":20,"left_children":[1,3,-1,5,7,-1,-1,9,11,13,15,17,19,-1,-1,-1,-1,-1,-1,-1,-1],"loss_changes":[1.4600722E-1,3.4658827E-2,0E0,6.210655E-4,1.7631255E-2,0E0,0E0,2.9328167E-3,3.4485527E-3,1.1950317E-3,1.472339E-3,3.0606547E-3,7.386117E-4,0E0,0E0,0E0,0E0,0E0,0E0,0E0,0E0],"parents":[2147483647,0,0,1,1,3,3,4,4,7,7,8,8,9,9,10,10,11,11,12,12],"right_children":[2,4,-1,6,8,-1,-1,10,12,14,16,18,20,-1,-1,-1,-1,-1,-1,-1,-1],"split_conditions":[1.4E1,2E0,-4.380062E-4,2E-1,6E0,3.2443783E-4,6.372109E-4,4E0,1.2E1,1.8596108E3,9.799361E5,7E0,7.1428573E-1,-3.3951506E-5,1.254514E-4,2.4158477E-4,1.2282933E-4,4.7802325E-5,-7.435056E-5,1.3023307E-5,1.1602996E-4],"split_indices":[9,9,0,2,9,0,0,9,9,7,7,9,3,0,0,0,0,0,0,0,0],"split_type":[0,0,0,0,0,0,0,0,0,0,0,0,0,0,0,0,0,0,0,0,0],"sum_hessian":[6.54E2,5.31E2,1.23E2,2.7E1,5.04E2,5E0,2.2E1,2.48E2,2.56E2,1.24E2,1.24E2,1.91E2,6.5E1,1E1,1.14E2,9.2E1,3.2E1,6E1,1.31E2,2.1E1,4.4E1],"tree_param":{"num_deleted":"0","num_feature":"11","num_nodes":"21","size_leaf_vector":"1"}},{"base_weights":[-8.458735E-4,6.733054E-3,-4.3213306E-4,5.829451E-4,5.1933075E-3,1.0469332E-2,-1.338556E-3,5.9230747E-3,1.3739805E-2,-4.357663E-3,5.526441E-3,5.737427E-6,1.1762798E-4,2.2998822E-4,9.326069E-5,-1.807909E-5,-9.659691E-5,2.3188548E-4,4.9826765E-5],"categories":[],"categories_nodes":[],"categories_segments":[],"categories_sizes":[],"default_left":[0,0,0,0,0,0,0,0,0,0,0,0,0,0,0,0,0,0,0],"id":21,"left_children":[1,3,-1,-1,5,7,9,11,13,15,17,-1,-1,-1,-1,-1,-1,-1,-1],"loss_changes":[1.5082341E-1,2.8052488E-2,0E0,0E0,1.7762084E-2,4.1561145E-3,4.811825E-3,1.5552337E-3,2.7468577E-3,1.1960652E-3,1.4917273E-3,0E0,0E0,0E0,0E0,0E0,0E0,0E0,0E0],"parents":[2147483647,0,0,1,1,4,4,5,5,6,6,7,7,8,8,9,9,10,10],"right_children":[2,4,-1,-1,6,8,10,12,14,16,18,-1,-1,-1,-1,-1,-1,-1,-1],"split_conditions":[3.1880064E0,8.326121E-1,-4.3213306E-4,5.829451E-4,1.7960024E0,1.4050951E0,2.7778301E0,1.8999061E-1,1.6334534E0,5.633954E5,2.7844307E0,5.737427E-6,1.1762798E-4,2.2998822E-4,9.326069E-5,-1.807909E-5,-9.659691E-5,2.3188548E-4,4.9826765E-5],"split_indices":[0,0,0,0,0,0,0,4,0,7,0,0,0,0,0,0,0,0,0],"split_type":[0,0,0,0,0,0,0,0,0,0,0,0,0,0,0,0,0,0,0],"sum_hessian":[6.73E2,5.36E2,1.37E2,2.2E1,5.14E2,2.84E2,2.3E2,1.2E2,1.64E2,1.6E2,7E1,3.6E1,8.4E1,1.22E2,4.2E1,7.1E1,8.9E1,1E1,6E1],"tree_param":{"num_deleted":"0","num_feature":"11","num_nodes":"19","size_leaf_vector":"1"}},{"base_weights":[-4.6278653E-4,7.0165587E-3,-4.1294837E-4,1.3867243E-2,-4.734513E-4,5.7222927E-4,1.1718597E-2,-2.3508042E-3,5.4633375E-3,7.5105964E-3,1.7201874E-2,3.5368276E-3,-5.0382577E-3,2.3038445E-4,3.1187944E-3,3.4222383E-5,1.4587089E-4,2.5686342E-4,1.1666788E-5,1.07890766E-4,1.6390914E-5,-1.3543261E-5,-9.362967E-5,1.0918173E-4,1.1693589E-5],"categories":[],"categories_nodes":[],"categories_segments":[],"categories_sizes":[],"default_left":[0,0,0,0,0,0,0,0,0,0,0,0,0,0,0,0,0,0,0,0,0,0,0,0,0],"id":22,"left_children":[1,3,-1,5,7,-1,9,11,13,15,17,19,21,-1,23,-1,-1,-1,-1,-1,-1,-1,-1,-1,-1],"loss_changes":[1.3246676E-1,2.5251918E-2,0E0,1.4051031E-2,2.6431691E-3,0E0,5.3854063E-3,2.865912E-3,1.3805024E-3,1.8847515E-3,1.3816152E-3,5.4028135E-4,7.711167E-4,0E0,4.9501524E-4,0E0,0E0,0E0,0E0,0E0,0E0,0E0,0E0,0E0,0E0],"parents":[2147483647,0,0,1,1,3,3,4,4,6,6,7,7,8,8,9,9,10,10,11,11,12,12,14,14],"right_children":[2,4,-1,6,8,-1,10,12,14,16,18,20,22,-1,24,-1,-1,-1,-1,-1,-1,-1,-1,-1,-1],"split_conditions":[3.1880064E0,1.7848761E0,-4.1294837E-4,8.326121E-1,2.7778301E0,5.7222927E-4,1.4050951E0,1.9733926E0,2.7844307E0,3.1197775E6,1.6972088E6,1.9346604E-1,8E-3,2.3038445E-4,4.2954403E5,3.4222383E-5,1.4587089E-4,2.5686342E-4,1.1666788E-5,1.07890766E-4,1.6390914E-5,-1.3543261E-5,-9.362967E-5,1.0918173E-4,1.1693589E-5],"split_indices":[0,0,0,0,0,0,0,0,0,5,7,4,1,0,7,0,0,0,0,0,0,0,0,0,0],"split_type":[0,0,0,0,0,0,0,0,0,0,0,0,0,0,0,0,0,0,0,0,0,0,0,0,0],"sum_hessian":[6.19E2,4.91E2,1.28E2,2.56E2,2.35E2,1.8E1,2.38E2,1.79E2,5.6E1,1.36E2,1.02E2,5.6E1,1.23E2,9E0,4.7E1,4.8E1,8.8E1,9.7E1,5E0,2E1,3.6E1,3.4E1,8.9E1,1.5E1,3.2E1],"tree_param":{"num_deleted":"0","num_feature":"11","num_nodes":"25","size_leaf_vector":"1"}},{"base_weights":[-5.4903885E-5,6.9553982E-3,-2.8693466E-2,1.36558E-2,-5.8021414E-4,-3.4928607E-4,-3.029525E-2,4.005844E-2,1.1572305E-2,-2.3813522E-3,4.6634097E-3,-3.836236E-4,-4.886926E-4,3.1358848E-4,6.1539095E-4,8.2832435E-3,1.4951534E-2,3.1925307E-3,-4.626528E-3,1.0329395E-2,1.4495751E-3,6.782503E-5,1.5001108E-4,1.9391901E-4,2.765516E-4,9.4959985E-5,2.748009E-5,-1.00916195E-5,-9.339793E-5,1.7415789E-4,1.0790297E-4,6.396463E-5,-1.07225846E-4],"categories":[],"categories_nodes":[],"categories_segments":[],"categories_sizes":[],"default_left":[0,0,0,0,0,0,0,0,0,0,0,0,0,0,0,0,0,0,0,0,0,0,0,0,0,0,0,0,0,0,0,0,0],"id":23,"left_children":[1,3,5,7,9,-1,11,13,15,17,19,-1,-1,-1,-1,21,23,25,27,29,31,-1,-1,-1,-1,-1,-1,-1,-1,-1,-1,-1,-1],"loss_changes":[1.3170062E-1,2.6617013E-2,1.2033433E-4,1.4884159E-2,2.3627835E-3,0E0,2.7745962E-4,1.8125027E-4,2.76592E-3,2.3424388E-3,1.1504372E-3,0E0,0E0,0E0,0E0,1.0100938E-3,4.9489364E-4,2.2412214E-4,1.0006607E-3,2.751057E-5,1.1798745E-3,0E0,0E0,0E0,0E0,0E0,0E0,0E0,0E0,0E0,0E0,0E0,0E0],"parents":[2147483647,0,0,1,1,2,2,3,3,4,4,6,6,7,7,8,8,9,9,10,10,15,15,16,16,17,17,18,18,19,19,20,20],"right_children":[2,4,6,8,10,-1,12,14,16,18,20,-1,-1,-1,-1,22,24,26,28,30,32,-1,-1,-1,-1,-1,-1,-1,-1,-1,-1,-1,-1],"split_conditions":[3.1880064E0,1.7885878E0,1E0,8.326121E-1,2.7778301E0,-3.4928607E-4,2.9518154E-1,6.108421E-1,1.4050951E0,1.9733926E0,1E0,-3.836236E-4,-4.886926E-4,3.1358848E-4,6.1539095E-4,3.5628305E6,5.686016E6,1E0,1E0,2.7976272E0,3.1924235E6,6.782503E-5,1.5001108E-4,1.9391901E-4,2.765516E-4,9.4959985E-5,2.748009E-5,-1.00916195E-5,-9.339793E-5,1.7415789E-4,1.0790297E-4,6.396463E-5,-1.07225846E-4],"split_indices":[0,0,10,0,0,0,4,0,0,0,10,0,0,0,0,5,5,10,10,0,5,0,0,0,0,0,0,0,0,0,0,0,0],"split_type":[0,0,0,0,0,0,0,0,0,0,0,0,0,0,0,0,0,0,0,0,0,0,0,0,0,0,0,0,0,0,0,0,0],"sum_hessian":[6.54E2,5.26E2,1.28E2,2.78E2,2.48E2,4E1,8.8E1,1.9E1,2.59E2,1.85E2,6.3E1,5.2E1,3.6E1,4E0,1.5E1,1.33E2,1.26E2,5.3E1,1.32E2,2.2E1,4.1E1,5.3E1,8E1,1E2,2.6E1,1.3E1,4E1,4.4E1,8.8E1,1.1E1,1.1E1,3.1E1,1E1],"tree_param":{"num_deleted":"0","num_feature":"11","num_nodes":"33","size_leaf_vector":"1"}},{"base_weights":[5.3513126E-4,6.5989885E-3,-3.9960592E-4,3.9983124E-2,5.2229036E-3,2.7512826E-4,6.260685E-4,9.8972125E-3,-1.004723E-3,7.315231E-3,1.2390688E-2,-3.2412526E-3,4.9509713E-3,4.723574E-5,1.3535246E-4,2.091001E-4,8.274264E-5,-5.9233178E-5,2.0372398E-5,2.1148798E-4,5.3248474E-5],"categories":[],"categories_nodes":[],"categories_segments":[],"categories_sizes":[],"default_left":[0,0,0,0,0,0,0,0,0,0,0,0,0,0,0,0,0,0,0,0,0],"id":24,"left_children":[1,3,-1,5,7,-1,-1,9,11,13,15,17,19,-1,-1,-1,-1,-1,-1,-1,-1],"loss_changes":[1.0695479E-1,2.317433E-2,0E0,7.8897923E-4,1.4273768E-2,0E0,0E0,1.7120298E-3,2.8265857E-3,1.1921492E-3,2.0367634E-3,6.6514E-4,6.4081233E-4,0E0,0E0,0E0,0E0,0E0,0E0,0E0,0E0],"parents":[2147483647,0,0,1,1,3,3,4,4,7,7,8,8,9,9,10,10,11,11,12,12],"right_children":[2,4,-1,6,8,-1,-1,10,12,14,16,18,20,-1,-1,-1,-1,-1,-1,-1,-1],"split_conditions":[3.1880064E0,8.326121E-1,-3.9960592E-4,2E-1,1.7960024E0,2.7512826E-4,6.260685E-4,1.4050951E0,2.7778301E0,3.1197775E6,1.6334534E0,5.436551E6,2.7844307E0,4.723574E-5,1.3535246E-4,2.091001E-4,8.274264E-5,-5.9233178E-5,2.0372398E-5,2.1148798E-4,5.3248474E-5],"split_indices":[0,0,0,2,0,0,0,0,0,5,0,5,0,0,0,0,0,0,0,0,0],"split_type":[0,0,0,0,0,0,0,0,0,0,0,0,0,0,0,0,0,0,0,0,0],"sum_hessian":[6.15E2,5.08E2,1.07E2,1.9E1,4.89E2,4E0,1.5E1,2.79E2,2.1E2,1.39E2,1.4E2,1.53E2,5.7E1,5E1,8.9E1,1.03E2,3.7E1,1.28E2,2.5E1,5E0,5.2E1],"tree_param":{"num_deleted":"0","num_feature":"11","num_nodes":"21","size_leaf_vector":"1"}},{"base_weights":[3.5698395E-4,7.373235E-3,-3.9246908E-4,1.3389221E-2,3.1078188E-4,3.6089424E-2,1.1386121E-2,-1.6893791E-3,6.656718E-3,2.3365635E-4,5.6351756E-4,8.847577E-3,1.666489E-2,2.8883265E-3,-4.1578854E-3,2.1362091E-4,4.7810674E-3,5.773265E-5,1.4152101E-4,2.7973537E-4,1.587901E-4,1.2918032E-4,6.560447E-6,2.7271893E-5,-7.934618E-5,1.6786816E-4,4.6990262E-5],"categories":[],"categories_nodes":[],"categories_segments":[],"categories_sizes":[],"default_left":[0,0,0,0,0,0,0,0,0,0,0,0,0,0,0,0,0,0,0,0,0,0,0,0,0,0,0],"id":25,"left_children":[1,3,-1,5,7,9,11,13,15,-1,-1,17,19,21,23,-1,25,-1,-1,-1,-1,-1,-1,-1,-1,-1,-1],"loss_changes":[1.2570176E-1,2.1791989E-2,0E0,1.21844895E-2,3.0194616E-3,8.518379E-4,3.2830574E-3,2.057327E-3,8.1968587E-4,0E0,0E0,8.709738E-4,1.1252835E-3,9.559169E-4,1.0219899E-3,0E0,4.594766E-4,0E0,0E0,0E0,0E0,0E0,0E0,0E0,0E0,0E0,0E0],"parents":[2147483647,0,0,1,1,3,3,4,4,5,5,6,6,7,7,8,8,11,11,12,12,13,13,14,14,16,16],"right_children":[2,4,-1,6,8,10,12,14,16,-1,-1,18,20,22,24,-1,26,-1,-1,-1,-1,-1,-1,-1,-1,-1,-1],"split_conditions":[3.1880064E0,1.7848761E0,-3.9246908E-4,8.326121E-1,2.7778301E0,6.108624E-2,1.4159601E0,1.9733926E0,2.7844307E0,2.3365635E-4,5.6351756E-4,1.8644114E-1,3.9305492E6,1.9346604E-1,4E-3,2.1362091E-4,5.466391E-2,5.773265E-5,1.4152101E-4,2.7973537E-4,1.587901E-4,1.2918032E-4,6.560447E-6,2.7271893E-5,-7.934618E-5,1.6786816E-4,4.6990262E-5],"split_indices":[0,0,0,0,0,4,0,0,0,0,0,4,5,4,1,0,4,0,0,0,0,0,0,0,0,0,0],"split_type":[0,0,0,0,0,0,0,0,0,0,0,0,0,0,0,0,0,0,0,0,0,0,0,0,0,0,0],"sum_hessian":[6.4E2,5.12E2,1.28E2,2.76E2,2.36E2,2.1E1,2.55E2,1.8E2,5.6E1,4E0,1.7E1,1.74E2,8.1E1,6.3E1,1.17E2,9E0,4.7E1,3.3E1,1.41E2,5.1E1,3E1,1.7E1,4.6E1,2.2E1,9.5E1,7E0,4E1],"tree_param":{"num_deleted":"0","num_feature":"11","num_nodes":"27","size_leaf_vector":"1"}},{"base_weights":[-1.8812904E-4,7.177116E-3,-2.7973764E-2,6.1343965E-4,5.349094E-3,-3.284044E-4,-2.9863592E-2,1.0916187E-2,-3.8289998E-4,-3.6265494E-4,-4.8300676E-4,9.171233E-3,1.6388126E-2,-2.1933815E-3,4.817381E-3,7.7771394E-5,1.6522165E-4,2.9171814E-4,1.2756985E-4,5.0209423E-5,-8.224823E-5,1.5954027E-4,2.9883688E-5],"categories":[],"categories_nodes":[],"categories_segments":[],"categories_sizes":[],"default_left":[0,0,0,0,0,0,0,0,0,0,0,0,0,0,0,0,0,0,0,0,0,0,0],"id":26,"left_children":[1,3,5,-1,7,-1,9,11,13,-1,-1,15,17,19,21,-1,-1,-1,-1,-1,-1,-1,-1],"loss_changes":[1.2892437E-1,3.243371E-2,5.396679E-4,0E0,1.5161688E-2,0E0,7.7518076E-4,2.1508373E-3,2.2230945E-3,0E0,0E0,1.6027009E-3,1.5487652E-3,3.602094E-3,1.035153E-3,0E0,0E0,0E0,0E0,0E0,0E0,0E0,0E0],"parents":[2147483647,0,0,1,1,2,2,4,4,6,6,7,7,8,8,11,11,12,12,13,13,14,14],"right_children":[2,4,6,-1,8,-1,10,12,14,-1,-1,16,18,20,22,-1,-1,-1,-1,-1,-1,-1,-1],"split_conditions":[1.4E1,2E0,1E0,6.1343965E-4,6E0,-3.284044E-4,9.6507E5,5E0,1.2E1,-3.6265494E-4,-4.8300676E-4,2.5491065E-1,9.799361E5,7E0,1E0,7.7771394E-5,1.6522165E-4,2.9171814E-4,1.2756985E-4,5.0209423E-5,-8.224823E-5,1.5954027E-4,2.9883688E-5],"split_indices":[9,9,10,0,9,0,7,9,9,0,0,4,7,9,10,0,0,0,0,0,0,0,0],"split_type":[0,0,0,0,0,0,0,0,0,0,0,0,0,0,0,0,0,0,0,0,0,0,0],"sum_hessian":[6.28E2,4.97E2,1.31E2,2.3E1,4.74E2,4E1,9.1E1,2.4E2,2.34E2,4.7E1,4.4E1,1.84E2,5.6E1,1.74E2,6E1,7.4E1,1.1E2,3.5E1,2.1E1,6.7E1,1.07E2,1.7E1,4.3E1],"tree_param":{"num_deleted":"0","num_feature":"11","num_nodes":"23","size_leaf_vector":"1"}},{"base_weights":[8.2786375E-4,7.249576E-3,-2.8023226E-2,1.4161312E-2,-2.7724766E-4,-3.3228012E-4,-2.953802E-2,3.7528623E-2,1.1529635E-2,-2.2604244E-3,5.9285155E-3,-3.508029E-4,-4.533247E-4,2.869583E-4,4.0432647E-2,9.322109E-3,1.8215489E-2,3.2410168E-3,-5.3182347E-3,1.3153464E-2,2.5097092E-3,6.181046E-4,3.0099202E-4,1.8468284E-4,8.664573E-5,2.912571E-4,1.1746635E-4,1.5094139E-4,3.2357217E-5,-1.6657985E-5,-1.0375544E-4,2.2301864E-4,1.2947251E-4,1.376668E-4,-6.7631086E-6],"categories":[],"categories_nodes":[],"categories_segments":[],"categories_sizes":[],"default_left":[0,0,0,0,0,0,0,0,0,0,0,0,0,0,0,0,0,0,0,0,0,0,0,0,0,0,0,0,0,0,0,0,0,0,0],"id":27,"left_children":[1,3,5,7,9,-1,11,13,15,17,19,-1,-1,-1,21,23,25,27,29,31,33,-1,-1,-1,-1,-1,-1,-1,-1,-1,-1,-1,-1,-1,-1],"loss_changes":[1.2211306E-1,2.804455E-2,1.6548485E-4,1.6847461E-2,3.2009464E-3,0E0,1.9191206E-4,5.9938803E-4,3.5790317E-3,3.3312421E-3,1.5231324E-3,0E0,0E0,0E0,3.9440393E-4,2.1981578E-3,1.2087282E-3,4.8230262E-4,1.0265815E-3,6.105541E-5,9.4390416E-4,0E0,0E0,0E0,0E0,0E0,0E0,0E0,0E0,0E0,0E0,0E0,0E0,0E0,0E0],"parents":[2147483647,0,0,1,1,2,2,3,3,4,4,6,6,7,7,8,8,9,9,10,10,14,14,15,15,16,16,17,17,18,18,19,19,20,20],"right_children":[2,4,6,8,10,-1,12,14,16,18,20,-1,-1,-1,22,24,26,28,30,32,34,-1,-1,-1,-1,-1,-1,-1,-1,-1,-1,-1,-1,-1,-1],"split_conditions":[1.4E1,6E0,1E0,2E0,1.2E1,-3.3228012E-4,4.435763E5,3.2999602E3,5E0,7E0,8E-3,-3.508029E-4,-4.533247E-4,2.869583E-4,2E-2,7.692308E-1,1.00730625E6,2.6882244E3,1E0,4E-3,1E0,6.181046E-4,3.0099202E-4,1.8468284E-4,8.664573E-5,2.912571E-4,1.1746635E-4,1.5094139E-4,3.2357217E-5,-1.6657985E-5,-1.0375544E-4,2.2301864E-4,1.2947251E-4,1.376668E-4,-6.7631086E-6],"split_indices":[9,9,10,9,9,0,7,7,9,9,1,0,0,0,1,3,7,7,10,1,10,0,0,0,0,0,0,0,0,0,0,0,0,0,0],"split_type":[0,0,0,0,0,0,0,0,0,0,0,0,0,0,0,0,0,0,0,0,0,0,0,0,0,0,0,0,0,0,0,0,0,0,0],"sum_hessian":[6.57E2,5.38E2,1.19E2,2.8E2,2.58E2,3.3E1,8.6E1,2.7E1,2.53E2,1.96E2,6.2E1,3.1E1,5.5E1,5E0,2.2E1,1.92E2,6.1E1,7E1,1.26E2,1.9E1,4.3E1,1.8E1,4E0,8.9E1,1.03E2,4.9E1,1.2E1,7E0,6.3E1,4.1E1,8.5E1,1E1,9E0,1.2E1,3.1E1],"tree_param":{"num_deleted":"0","num_feature":"11","num_nodes":"35","size_leaf_vector":"1"}},{"base_weights":[2.9424593E-4,6.3819494E-3,-2.7003035E-2,1.2218757E-2,-7.0443796E-4,-3.3188425E-4,-2.9093357E-2,3.4904383E-2,1.0209104E-2,-2.711909E-3,4.2403787E-3,-3.0923006E-4,-4.404596E-4,2.4629323E-4,5.3516316E-4,7.2477832E-3,1.2933365E-2,3.1764852E-3,-4.6838326E-3,1.1860484E-2,8.701296E-4,-5.992632E-5,1.257031E-4,2.1428615E-4,1.3915423E-4,7.8087614E-5,1.0455108E-5,-1.2076078E-5,-9.182254E-5,1.9945738E-4,1.0278421E-4,7.097052E-5,-1.4747493E-4],"categories":[],"categories_nodes":[],"categories_segments":[],"categories_sizes":[],"default_left":[0,0,0,0,0,0,0,0,0,0,0,0,0,0,0,0,0,0,0,0,0,0,0,0,0,0,0,0,0,0,0,0,0],"id":28,"left_children":[1,3,5,7,9,-1,11,13,15,17,19,-1,-1,-1,-1,21,23,25,27,29,31,-1,-1,-1,-1,-1,-1,-1,-1,-1,-1,-1,-1],"loss_changes":[1.1117906E-1,2.2633556E-2,2.6785582E-4,1.3320725E-2,2.4732903E-3,0E0,3.2552332E-4,4.7487207E-4,2.1409336E-3,2.070107E-3,1.8387588E-3,0E0,0E0,0E0,0E0,2.4731262E-3,8.072518E-4,2.4928813E-4,8.9314976E-4,1.17684016E-4,2.4044598E-3,0E0,0E0,0E0,0E0,0E0,0E0,0E0,0E0,0E0,0E0,0E0,0E0],"parents":[2147483647,0,0,1,1,2,2,3,3,4,4,6,6,7,7,8,8,9,9,10,10,15,15,16,16,17,17,18,18,19,19,20,20],"right_children":[2,4,6,8,10,-1,12,14,16,18,20,-1,-1,-1,-1,22,24,26,28,30,32,-1,-1,-1,-1,-1,-1,-1,-1,-1,-1,-1,-1],"split_conditions":[3.1880064E0,1.7922965E0,1E0,8.326121E-1,2.7778301E0,-3.3188425E-4,3.6344372E5,2E-1,1.4050951E0,1.9733926E0,1E0,-3.0923006E-4,-4.404596E-4,2.4629323E-4,5.3516316E-4,6.761534E3,1.623699E0,6.706507E5,1E0,2.8042228E0,1.2081995E6,-5.992632E-5,1.257031E-4,2.1428615E-4,1.3915423E-4,7.8087614E-5,1.0455108E-5,-1.2076078E-5,-9.182254E-5,1.9945738E-4,1.0278421E-4,7.097052E-5,-1.4747493E-4],"split_indices":[0,0,10,0,0,0,7,2,0,0,10,0,0,0,0,7,0,7,10,0,7,0,0,0,0,0,0,0,0,0,0,0,0],"split_type":[0,0,0,0,0,0,0,0,0,0,0,0,0,0,0,0,0,0,0,0,0,0,0,0,0,0,0,0,0,0,0,0,0],"sum_hessian":[6.67E2,5.46E2,1.21E2,2.99E2,2.47E2,4.8E1,7.3E1,2.3E1,2.76E2,1.76E2,7.1E1,1.7E1,5.6E1,4E0,1.9E1,1.34E2,1.42E2,4.4E1,1.32E2,2.1E1,5E1,1.6E1,1.18E2,8.3E1,5.9E1,2.2E1,2.2E1,4.2E1,9E1,1.3E1,8E0,3.7E1,1.3E1],"tree_param":{"num_deleted":"0","num_feature":"11","num_nodes":"33","size_leaf_vector":"1"}},{"base_weights":[8.8589184E-4,7.2869593E-3,-2.685927E-2,5.4305507E-4,5.5020726E-3,-3.2792808E-4,-2.863653E-2,1.0819036E-2,-3.2098702E-4,-4.355993E-4,-3.3763898E-4,8.180824E-3,1.36005655E-2,-2.0064146E-3,4.2038867E-3,1.4016377E-4,4.020386E-5,1.9986396E-4,6.068361E-5,5.5771117E-5,-6.607318E-5,-2.0061587E-5,1.0032547E-4],"categories":[],"categories_nodes":[],"categories_segments":[],"categories_sizes":[],"default_left":[0,0,0,0,0,0,0,0,0,0,0,0,0,0,0,0,0,0,0,0,0,0,0],"id":29,"left_children":[1,3,5,-1,7,-1,9,11,13,-1,-1,15,17,19,21,-1,-1,-1,-1,-1,-1,-1,-1],"loss_changes":[1.1652283E-1,2.9120589E-2,1.8069893E-4,0E0,1.5638774E-2,0E0,4.10676E-5,1.8260386E-3,1.8540105E-3,0E0,0E0,1.1978922E-3,4.4799037E-4,2.7758093E-3,1.0610971E-3,0E0,0E0,0E0,0E0,0E0,0E0,0E0,0E0],"parents":[2147483647,0,0,1,1,2,2,4,4,6,6,7,7,8,8,11,11,12,12,13,13,14,14],"right_children":[2,4,6,-1,8,-1,10,12,14,-1,-1,16,18,20,22,-1,-1,-1,-1,-1,-1,-1,-1],"split_conditions":[1.4E1,2E0,1E0,5.4305507E-4,6E0,-3.2792808E-4,8.333333E-1,4E0,1.2E1,-4.355993E-4,-3.3763898E-4,9.0480053E-1,1.6972088E6,7E0,7.1428573E-1,1.4016377E-4,4.020386E-5,1.9986396E-4,6.068361E-5,5.5771117E-5,-6.607318E-5,-2.0061587E-5,1.0032547E-4],"split_indices":[9,9,10,0,9,0,3,9,9,0,0,3,7,9,3,0,0,0,0,0,0,0,0],"split_type":[0,0,0,0,0,0,0,0,0,0,0,0,0,0,0,0,0,0,0,0,0,0,0],"sum_hessian":[6.54E2,5.32E2,1.22E2,2.8E1,5.04E2,4.3E1,7.9E1,2.63E2,2.41E2,5.3E1,2.6E1,1.37E2,1.26E2,1.76E2,6.5E1,1.04E2,3.3E1,1.2E2,6E0,5.4E1,1.22E2,2.2E1,4.3E1],"tree_param":{"num_deleted":"0","num_feature":"11","num_nodes":"23","size_leaf_vector":"1"}},{"base_weights":[1.01686E-3,7.379993E-3,-3.724288E-4,1.323394E-2,6.378947E-4,3.6251847E-2,1.1278783E-2,-1.418513E-3,6.2830485E-3,2.8447912E-4,5.543314E-4,7.736217E-3,1.4872821E-2,1.9017869E-3,-3.152304E-3,2.3109428E-4,4.142373E-3,1.3170604E-4,9.821266E-6,3.4892195E-4,1.982525E-4,1.2713852E-5,7.921489E-5,-7.315196E-5,-1.3345841E-5,1.104369E-4,3.2405547E-5],"categories":[],"categories_nodes":[],"categories_segments":[],"categories_sizes":[],"default_left":[0,0,0,0,0,0,0,0,0,0,0,0,0,0,0,0,0,0,0,0,0,0,0,0,0,0,0],"id":30,"left_children":[1,3,-1,5,7,9,11,13,15,-1,-1,17,19,21,23,-1,25,-1,-1,-1,-1,-1,-1,-1,-1,-1,-1],"loss_changes":[1.0923538E-1,2.019912E-2,0E0,1.1922114E-2,2.7834007E-3,1.3167597E-4,3.1188987E-3,1.0191753E-3,1.29429E-3,0E0,0E0,1.3753697E-3,8.102171E-4,2.2029402E-4,5.0464226E-4,0E0,3.4640403E-4,0E0,0E0,0E0,0E0,0E0,0E0,0E0,0E0,0E0,0E0],"parents":[2147483647,0,0,1,1,3,3,4,4,5,5,6,6,7,7,8,8,11,11,12,12,13,13,14,14,16,16],"right_children":[2,4,-1,6,8,10,12,14,16,-1,-1,18,20,22,24,-1,26,-1,-1,-1,-1,-1,-1,-1,-1,-1,-1],"split_conditions":[3.1880064E0,1.7848761E0,-3.724288E-4,8.326121E-1,2.7778301E0,2E-1,1.4050951E0,1.9733926E0,2.7844307E0,2.8447912E-4,5.543314E-4,9.0909094E-1,4E-3,1E0,8.258281E-1,2.3109428E-4,1.9335104E6,1.3170604E-4,9.821266E-6,3.4892195E-4,1.982525E-4,1.2713852E-5,7.921489E-5,-7.315196E-5,-1.3345841E-5,1.104369E-4,3.2405547E-5],"split_indices":[0,0,0,0,0,2,0,0,0,0,0,3,1,2,3,0,5,0,0,0,0,0,0,0,0,0,0],"split_type":[0,0,0,0,0,0,0,0,0,0,0,0,0,0,0,0,0,0,0,0,0,0,0,0,0,0,0],"sum_hessian":[6.3E2,5.11E2,1.19E2,2.73E2,2.38E2,2E1,2.53E2,1.75E2,6.3E1,4E0,1.6E1,1.29E2,1.24E2,6E1,1.15E2,1E1,5.3E1,1.06E2,2.3E1,9E0,1.15E2,4.8E1,1.2E1,6E1,5.5E1,1.7E1,3.6E1],"tree_param":{"num_deleted":"0","num_feature":"11","num_nodes":"27","size_leaf_vector":"1"}},{"base_weights":[-1.30467E-4,5.752389E-3,-2.5702795E-2,1.2409868E-2,-1.0546681E-3,-3.0515995E-4,-2.7478833E-2,3.3881105E-2,9.842485E-3,3.3082832E-3,-3.3703048E-3,-3.422055E-4,-4.3954884E-4,2.08492E-4,5.197163E-4,8.356653E-3,1.3382119E-2,1.2580336E-3,9.681428E-3,-4.740036E-4,-9.154592E-3,8.1436796E-5,1.5889487E-4,2.6247362E-4,1.1338742E-4,2.577066E-6,1.2164891E-4,1.01652055E-4,1.6496814E-4,4.9824193E-5,-3.8773276E-5,-2.8824228E-5,-1.6937083E-4],"categories":[],"categories_nodes":[],"categories_segments":[],"categories_sizes":[],"default_left":[0,0,0,0,0,0,0,0,0,0,0,0,0,0,0,0,0,0,0,0,0,0,0,0,0,0,0,0,0,0,0,0,0],"id":31,"left_children":[1,3,5,7,9,-1,11,13,15,17,19,-1,-1,-1,-1,21,23,25,27,29,31,-1,-1,-1,-1,-1,-1,-1,-1,-1,-1,-1,-1],"loss_changes":[9.7331E-2,2.385027E-2,3.3193827E-4,1.4329743E-2,2.6480358E-3,0E0,2.1581352E-4,8.662939E-4,1.1451431E-3,1.1768754E-3,2.8604302E-3,0E0,0E0,0E0,0E0,1.1988627E-3,1.7398084E-3,5.47413E-4,2.3697736E-5,1.035928E-3,1.0871454E-3,0E0,0E0,0E0,0E0,0E0,0E0,0E0,0E0,0E0,0E0,0E0,0E0],"parents":[2147483647,0,0,1,1,2,2,3,3,4,4,6,6,7,7,8,8,9,9,10,10,15,15,16,16,17,17,18,18,19,19,20,20],"right_children":[2,4,6,8,10,-1,12,14,16,18,20,-1,-1,-1,-1,22,24,26,28,30,32,-1,-1,-1,-1,-1,-1,-1,-1,-1,-1,-1,-1],"split_conditions":[1.4E1,6E0,1E0,2E0,1E0,-3.0515995E-4,2.0427205E6,6.108624E-2,5E0,1.2E1,3.7439272E6,-3.422055E-4,-4.3954884E-4,2.08492E-4,5.197163E-4,2.9518154E-1,6.8379575E5,5.9251655E6,6E-1,1.9346604E-1,7E0,8.1436796E-5,1.5889487E-4,2.6247362E-4,1.1338742E-4,2.577066E-6,1.2164891E-4,1.01652055E-4,1.6496814E-4,4.9824193E-5,-3.8773276E-5,-2.8824228E-5,-1.6937083E-4],"split_indices":[9,9,10,9,10,0,5,4,9,9,5,0,0,0,0,4,7,5,2,4,9,0,0,0,0,0,0,0,0,0,0,0,0],"split_type":[0,0,0,0,0,0,0,0,0,0,0,0,0,0,0,0,0,0,0,0,0,0,0,0,0,0,0,0,0,0,0,0,0],"sum_hessian":[6.45E2,5.25E2,1.2E2,2.65E2,2.6E2,3.9E1,8.1E1,2.7E1,2.38E2,9E1,1.7E2,4.4E1,3.7E1,4E0,2.3E1,1.7E2,6.8E1,6.9E1,2.1E1,1.14E2,5.6E1,8.9E1,8.1E1,3.4E1,3.4E1,6.1E1,8E0,1.1E1,1E1,4.1E1,7.3E1,1.6E1,4E1],"tree_param":{"num_deleted":"0","num_feature":"11","num_nodes":"33","size_leaf_vector":"1"}},{"base_weights":[4.3523102E-4,6.466002E-3,-2.5442231E-2,3.6371384E-2,5.1046493E-3,-3.1576774E-4,-2.696826E-2,3.3068E-4,5.649056E-4,9.497835E-3,-4.1415854E-4,-3.1775245E-4,-4.1577694E-4,6.8255537E-3,1.1907327E-2,-3.0376988E-3,5.8963513E-3,2.8265558E-5,1.2957386E-4,1.9758045E-4,9.682833E-5,8.1443095E-6,-6.78843E-5,2.162463E-4,5.12205E-5],"categories":[],"categories_nodes":[],"categories_segments":[],"categories_sizes":[],"default_left":[0,0,0,0,0,0,0,0,0,0,0,0,0,0,0,0,0,0,0,0,0,0,0,0,0],"id":32,"left_children":[1,3,5,7,9,-1,11,-1,-1,13,15,-1,-1,17,19,21,23,-1,-1,-1,-1,-1,-1,-1,-1],"loss_changes":[1.023845E-1,2.1472996E-2,2.2627413E-5,7.241778E-5,1.2368959E-2,0E0,1.7588586E-4,0E0,0E0,1.7473567E-3,3.7760956E-3,0E0,0E0,1.4871783E-3,1.3890341E-3,1.0063734E-3,1.3765204E-3,0E0,0E0,0E0,0E0,0E0,0E0,0E0,0E0],"parents":[2147483647,0,0,1,1,2,2,3,3,4,4,6,6,9,9,10,10,13,13,14,14,15,15,16,16],"right_children":[2,4,6,8,10,-1,12,-1,-1,14,16,-1,-1,18,20,22,24,-1,-1,-1,-1,-1,-1,-1,-1],"split_conditions":[3.1880064E0,8.326121E-1,1E0,6.108421E-1,1.7960024E0,-3.1576774E-4,3.6344372E5,3.3068E-4,5.649056E-4,1.4050951E0,2.7778301E0,-3.1775245E-4,-4.1577694E-4,3.1197775E6,1.6334534E0,1E0,2.7844307E0,2.8265558E-5,1.2957386E-4,1.9758045E-4,9.682833E-5,8.1443095E-6,-6.78843E-5,2.162463E-4,5.12205E-5],"split_indices":[0,0,10,0,0,0,7,0,0,0,0,0,0,5,0,10,0,0,0,0,0,0,0,0,0],"split_type":[0,0,0,0,0,0,0,0,0,0,0,0,0,0,0,0,0,0,0,0,0,0,0,0,0],"sum_hessian":[6.54E2,5.31E2,1.23E2,2.2E1,5.09E2,4.4E1,7.9E1,6E0,1.6E1,2.83E2,2.26E2,2.9E1,5E1,1.36E2,1.47E2,1.6E2,6.6E1,4.4E1,9.2E1,1.05E2,4.2E1,5.2E1,1.08E2,1.2E1,5.4E1],"tree_param":{"num_deleted":"0","num_feature":"11","num_nodes":"25","size_leaf_vector":"1"}},{"base_weights":[2.992516E-4,6.221853E-3,-3.5611095E-4,3.7860755E-2,4.751079E-3,2.975343E-4,5.746589E-4,9.624674E-3,-1.5750905E-3,6.5429504E-3,1.2410318E-2,-3.829904E-3,4.711117E-3,1.0249145E-4,-1.1160321E-5,2.1592678E-4,7.387333E-5,1.857661E-5,-7.3566174E-5,1.5357549E-4,2.1061293E-5],"categories":[],"categories_nodes":[],"categories_segments":[],"categories_sizes":[],"default_left":[0,0,0,0,0,0,0,0,0,0,0,0,0,0,0,0,0,0,0,0,0],"id":33,"left_children":[1,3,-1,5,7,-1,-1,9,11,13,15,17,19,-1,-1,-1,-1,-1,-1,-1,-1],"loss_changes":[9.633449E-2,2.4064178E-2,0E0,1.2397021E-4,1.5399921E-2,0E0,0E0,2.3396537E-3,3.1080244E-3,6.5425783E-4,2.8375946E-3,1.1091311E-3,1.1219147E-3,0E0,0E0,0E0,0E0,0E0,0E0,0E0,0E0],"parents":[2147483647,0,0,1,1,3,3,4,4,7,7,8,8,9,9,10,10,11,11,12,12],"right_children":[2,4,-1,6,8,-1,-1,10,12,14,16,18,20,-1,-1,-1,-1,-1,-1,-1,-1],"split_conditions":[3.1880064E0,8.326121E-1,-3.5611095E-4,6.108421E-1,1.7960024E0,2.975343E-4,5.746589E-4,1.4050951E0,2.7778301E0,1.4023714E0,1.6334534E0,1.9733926E0,1E0,1.0249145E-4,-1.1160321E-5,2.1592678E-4,7.387333E-5,1.857661E-5,-7.3566174E-5,1.5357549E-4,2.1061293E-5],"split_indices":[0,0,0,0,0,0,0,0,0,0,0,0,10,0,0,0,0,0,0,0,0],"split_type":[0,0,0,0,0,0,0,0,0,0,0,0,0,0,0,0,0,0,0,0,0],"sum_hessian":[6.41E2,5.2E2,1.21E2,2.2E1,4.98E2,4E0,1.8E1,2.81E2,2.17E2,1.35E2,1.46E2,1.6E2,5.7E1,1.24E2,1.1E1,1.05E2,4.1E1,3.3E1,1.27E2,1.9E1,3.8E1],"tree_param":{"num_deleted":"0","num_feature":"11","num_nodes":"21","size_leaf_vector":"1"}},{"base_weights":[5.1267794E-4,6.160804E-3,-3.609216E-4,1.2636928E-2,-6.9955154E-4,4.9580255E-4,1.0495933E-2,1.5450874E-3,-5.2072234E-3,8.682212E-3,1.6293893E-2,-3.2179864E-4,6.2579005E-3,-2.3218219E-3,-7.7775475E-3,1.6306766E-4,8.5076426E-5,3.173181E-4,1.7751851E-4,5.327073E-5,-3.139149E-5,1.7451076E-4,3.671899E-5,-6.0628783E-5,4.7569087E-5,-1.8144288E-5,-1.4114367E-4],"categories":[],"categories_nodes":[],"categories_segments":[],"categories_sizes":[],"default_left":[0,0,0,0,0,0,0,0,0,0,0,0,0,0,0,0,0,0,0,0,0,0,0,0,0,0,0],"id":34,"left_children":[1,3,-1,5,7,-1,9,11,13,15,17,19,21,23,25,-1,-1,-1,-1,-1,-1,-1,-1,-1,-1,-1,-1],"loss_changes":[9.197829E-2,2.297838E-2,0E0,1.2257077E-2,2.557806E-3,0E0,2.4244096E-3,1.4889239E-3,6.04921E-4,1.339985E-3,1.0290043E-3,9.404331E-4,1.0268643E-3,4.6301127E-4,5.9676636E-4,0E0,0E0,0E0,0E0,0E0,0E0,0E0,0E0,0E0,0E0,0E0,0E0],"parents":[2147483647,0,0,1,1,3,3,4,4,6,6,7,7,8,8,9,9,10,10,11,11,12,12,13,13,14,14],"right_children":[2,4,-1,6,8,-1,10,12,14,16,18,20,22,24,26,-1,-1,-1,-1,-1,-1,-1,-1,-1,-1,-1,-1],"split_conditions":[3.1880064E0,1.7848761E0,-3.609216E-4,8.326121E-1,1.6E-2,4.9580255E-4,1.6171806E0,2.1060925E0,7.307574E5,7.692308E-1,1.623699E0,1.7997053E0,1E0,2.7778301E0,1.9733926E0,1.6306766E-4,8.5076426E-5,3.173181E-4,1.7751851E-4,5.327073E-5,-3.139149E-5,1.7451076E-4,3.671899E-5,-6.0628783E-5,4.7569087E-5,-1.8144288E-5,-1.4114367E-4],"split_indices":[0,0,0,0,1,0,0,0,7,3,0,0,10,0,0,0,0,0,0,0,0,0,0,0,0,0,0],"split_type":[0,0,0,0,0,0,0,0,0,0,0,0,0,0,0,0,0,0,0,0,0,0,0,0,0,0,0],"sum_hessian":[6.28E2,5.16E2,1.12E2,2.65E2,2.51E2,2.2E1,2.43E2,1.68E2,8.3E1,1.87E2,5.6E1,1.21E2,4.7E1,4E1,4.3E1,9.1E1,9.6E1,2E1,3.6E1,3.8E1,8.3E1,1.7E1,3E1,3E1,1E1,1.1E1,3.2E1],"tree_param":{"num_deleted":"0","num_feature":"11","num_nodes":"27","size_leaf_vector":"1"}},{"base_weights":[-2.8610838E-4,5.941721E-3,-3.536979E-4,3.3855967E-2,4.7283056E-3,2.3426522E-4,5.244575E-4,8.823389E-3,-3.1318018E-4,5.8124615E-3,1.1471986E-2,-2.4105958E-3,4.51535E-3,2.8983088E-5,1.1155538E-4,1.9834233E-4,1.2538693E-4,3.3558437E-5,-5.2786334E-5,2.2931107E-4,3.6229198E-5],"categories":[],"categories_nodes":[],"categories_segments":[],"categories_sizes":[],"default_left":[0,0,0,0,0,0,0,0,0,0,0,0,0,0,0,0,0,0,0,0,0],"id":35,"left_children":[1,3,-1,5,7,-1,-1,9,11,13,15,17,19,-1,-1,-1,-1,-1,-1,-1,-1],"loss_changes":[1.01933494E-1,1.7859595E-2,0E0,5.270764E-4,1.0552513E-2,0E0,0E0,2.182195E-3,2.3401948E-3,1.0055546E-3,8.524358E-4,1.0020521E-3,1.5579164E-3,0E0,0E0,0E0,0E0,0E0,0E0,0E0,0E0],"parents":[2147483647,0,0,1,1,3,3,4,4,7,7,8,8,9,9,10,10,11,11,12,12],"right_children":[2,4,-1,6,8,-1,-1,10,12,14,16,18,20,-1,-1,-1,-1,-1,-1,-1,-1],"split_conditions":[3.1880064E0,8.326121E-1,-3.536979E-4,2E-1,1.7960024E0,2.3426522E-4,5.244575E-4,1.4050951E0,2.7778301E0,8E-3,1.623699E0,1.9733926E0,2.7844307E0,2.8983088E-5,1.1155538E-4,1.9834233E-4,1.2538693E-4,3.3558437E-5,-5.2786334E-5,2.2931107E-4,3.6229198E-5],"split_indices":[0,0,0,2,0,0,0,0,0,1,0,0,0,0,0,0,0,0,0,0,0],"split_type":[0,0,0,0,0,0,0,0,0,0,0,0,0,0,0,0,0,0,0,0,0],"sum_hessian":[6.65E2,5.31E2,1.34E2,2.1E1,5.1E2,4E0,1.7E1,2.81E2,2.29E2,1.33E2,1.48E2,1.6E2,6.9E1,4.7E1,8.6E1,7.5E1,7.3E1,3.4E1,1.26E2,9E0,6E1],"tree_param":{"num_deleted":"0","num_feature":"11","num_nodes":"21","size_leaf_vector":"1"}},{"base_weights":[1.7430044E-4,5.89929E-3,-3.382619E-4,3.6603082E-2,4.3335124E-3,2.7877788E-4,5.5443577E-4,8.754327E-3,-1.0781249E-3,6.493606E-3,1.1738627E-2,-3.1212787E-3,4.1603814E-3,2.310193E-5,1.1009863E-4,2.2971837E-4,9.376789E-5,-1.0352677E-5,-8.649598E-5,2.115648E-4,3.6458216E-5],"categories":[],"categories_nodes":[],"categories_segments":[],"categories_sizes":[],"default_left":[0,0,0,0,0,0,0,0,0,0,0,0,0,0,0,0,0,0,0,0,0],"id":36,"left_children":[1,3,-1,5,7,-1,-1,9,11,13,15,17,19,-1,-1,-1,-1,-1,-1,-1,-1],"loss_changes":[8.7909035E-2,2.4744395E-2,0E0,2.2361055E-4,1.1827816E-2,0E0,0E0,1.7588679E-3,2.3997712E-3,9.315852E-4,2.5172979E-3,1.1328824E-3,1.0404128E-3,0E0,0E0,0E0,0E0,0E0,0E0,0E0,0E0],"parents":[2147483647,0,0,1,1,3,3,4,4,7,7,8,8,9,9,10,10,11,11,12,12],"right_children":[2,4,-1,6,8,-1,-1,10,12,14,16,18,20,-1,-1,-1,-1,-1,-1,-1,-1],"split_conditions":[3.1880064E0,8.326121E-1,-3.382619E-4,6.108624E-2,1.7960024E0,2.7877788E-4,5.5443577E-4,1.4132483E0,2.7778301E0,1.8730283E5,1.630205E0,2.9518154E-1,2.7844307E0,2.310193E-5,1.1009863E-4,2.2971837E-4,9.376789E-5,-1.0352677E-5,-8.649598E-5,2.115648E-4,3.6458216E-5],"split_indices":[0,0,0,4,0,0,0,0,0,7,0,4,0,0,0,0,0,0,0,0,0],"split_type":[0,0,0,0,0,0,0,0,0,0,0,0,0,0,0,0,0,0,0,0,0],"sum_hessian":[6.4E2,5.17E2,1.23E2,2.4E1,4.93E2,4E0,2E1,2.71E2,2.22E2,1.56E2,1.15E2,1.6E2,6.2E1,3.2E1,1.24E2,6.1E1,5.4E1,8.9E1,7.1E1,7E0,5.5E1],"tree_param":{"num_deleted":"0","num_feature":"11","num_nodes":"21","size_leaf_vector":"1"}},{"base_weights":[6.5329403E-4,6.022761E-3,-2.4209268E-2,1.1826953E-2,6.500626E-5,-2.8771113E-4,-2.6382195E-2,3.357199E-2,9.779101E-3,-1.5853674E-3,4.7087003E-3,-2.7636666E-4,-3.931046E-4,2.4021204E-4,5.1577843E-4,7.226055E-3,1.2398478E-2,4.1899853E-3,-3.7955705E-3,2.1446876E-4,2.3088136E-3,2.6397289E-5,1.2295404E-4,3.299674E-4,1.6000422E-4,1.5068277E-4,4.758195E-5,3.6420352E-7,-8.518749E-5,1.3439414E-4,-2.406456E-5],"categories":[],"categories_nodes":[],"categories_segments":[],"categories_sizes":[],"default_left":[0,0,0,0,0,0,0,0,0,0,0,0,0,0,0,0,0,0,0,0,0,0,0,0,0,0,0,0,0,0,0],"id":37,"left_children":[1,3,5,7,9,-1,11,13,15,17,19,-1,-1,-1,-1,21,23,25,27,-1,29,-1,-1,-1,-1,-1,-1,-1,-1,-1,-1],"loss_changes":[8.7186955E-2,1.8568669E-2,4.7916174E-4,1.1784017E-2,2.046044E-3,0E0,7.320568E-5,4.007686E-4,1.5822537E-3,2.5305497E-3,1.7031187E-3,0E0,0E0,0E0,0E0,9.5729297E-4,1.2730453E-3,2.6331045E-4,1.1934221E-3,0E0,1.6679307E-3,0E0,0E0,0E0,0E0,0E0,0E0,0E0,0E0,0E0,0E0],"parents":[2147483647,0,0,1,1,2,2,3,3,4,4,6,6,7,7,8,8,9,9,10,10,15,15,16,16,17,17,18,18,20,20],"right_children":[2,4,6,8,10,-1,12,14,16,18,20,-1,-1,-1,-1,22,24,26,28,-1,30,-1,-1,-1,-1,-1,-1,-1,-1,-1,-1],"split_conditions":[3.1880064E0,1.7848761E0,1E0,8.326121E-1,2.7778301E0,-2.8771113E-4,4E-3,6.108624E-2,1.4050951E0,1.8034052E0,2.7844307E0,-2.7636666E-4,-3.931046E-4,2.4021204E-4,5.1577843E-4,1.8730283E5,4E-3,1.0944761E5,1E0,2.1446876E-4,1E0,2.6397289E-5,1.2295404E-4,3.299674E-4,1.6000422E-4,1.5068277E-4,4.758195E-5,3.6420352E-7,-8.518749E-5,1.3439414E-4,-2.406456E-5],"split_indices":[0,0,10,0,0,0,1,4,0,0,0,0,0,0,0,7,1,5,10,0,10,0,0,0,0,0,0,0,0,0,0],"split_type":[0,0,0,0,0,0,0,0,0,0,0,0,0,0,0,0,0,0,0,0,0,0,0,0,0,0,0,0,0,0,0],"sum_hessian":[6.51E2,5.36E2,1.15E2,2.71E2,2.65E2,4.4E1,7.1E1,2.2E1,2.49E2,1.96E2,6.9E1,1.3E1,5.8E1,4E0,1.8E1,1.28E2,1.21E2,5.4E1,1.42E2,1.2E1,5.7E1,2.7E1,1.01E2,1E1,1.11E2,5E0,4.9E1,5.2E1,9E1,2E1,3.7E1],"tree_param":{"num_deleted":"0","num_feature":"11","num_nodes":"31","size_leaf_vector":"1"}},{"base_weights":[-1.1577907E-3,4.611486E-3,-2.4137978E-2,3.341431E-2,3.3974007E-3,-1.9681804E-2,-2.609177E-2,2.2992305E-4,5.591745E-4,7.4216276E-3,-1.8367446E-3,-3.132692E-4,-2.2530524E-4,-2.726404E-4,-3.8835328E-4,4.6374886E-3,9.8778745E-3,-3.8934723E-3,2.7876575E-3,-2.5274732E-5,9.469431E-5,1.9933432E-4,1.06653184E-4,2.1756403E-5,-6.224485E-5,2.0586904E-4,1.0880816E-5],"categories":[],"categories_nodes":[],"categories_segments":[],"categories_sizes":[],"default_left":[0,0,0,0,0,0,0,0,0,0,0,0,0,0,0,0,0,0,0,0,0,0,0,0,0,0,0],"id":38,"left_children":[1,3,5,7,9,11,13,-1,-1,15,17,-1,-1,-1,-1,19,21,23,25,-1,-1,-1,-1,-1,-1,-1,-1],"loss_changes":[8.655286E-2,1.8140338E-2,6.270036E-4,1.4832933E-3,1.0587454E-2,4.4804066E-5,1.925826E-4,0E0,0E0,1.8963348E-3,2.0937922E-3,0E0,0E0,0E0,0E0,1.7508324E-3,1.371081E-3,3.9847172E-4,1.5940261E-3,0E0,0E0,0E0,0E0,0E0,0E0,0E0,0E0],"parents":[2147483647,0,0,1,1,2,2,3,3,4,4,5,5,6,6,9,9,10,10,15,15,16,16,17,17,18,18],"right_children":[2,4,6,8,10,12,14,-1,-1,16,18,-1,-1,-1,-1,20,22,24,26,-1,-1,-1,-1,-1,-1,-1,-1],"split_conditions":[3.1880064E0,8.326121E-1,1E0,6.1142105E-1,1.7960024E0,3.3070045E0,4E-3,2.2992305E-4,5.591745E-4,1.4050951E0,2.7778301E0,-3.132692E-4,-2.2530524E-4,-2.726404E-4,-3.8835328E-4,1.9113342E5,1E0,1.7997053E0,2.7844307E0,-2.5274732E-5,9.469431E-5,1.9933432E-4,1.06653184E-4,2.1756403E-5,-6.224485E-5,2.0586904E-4,1.0880816E-5],"split_indices":[0,0,10,0,0,0,1,0,0,0,0,0,0,0,0,7,10,0,0,0,0,0,0,0,0,0,0],"split_type":[0,0,0,0,0,0,0,0,0,0,0,0,0,0,0,0,0,0,0,0,0,0,0,0,0,0,0],"sum_hessian":[6.51E2,5.21E2,1.3E2,2E1,5.01E2,4.3E1,8.7E1,6E0,1.4E1,2.83E2,2.18E2,2.4E1,1.9E1,1.5E1,7.2E1,1.34E2,1.49E2,1.51E2,6.7E1,3.2E1,1.02E2,5.3E1,9.6E1,1.2E1,1.39E2,9E0,5.8E1],"tree_param":{"num_deleted":"0","num_feature":"11","num_nodes":"27","size_leaf_vector":"1"}},{"base_weights":[3.1314258E-4,6.666763E-3,-2.3133652E-2,3.3097837E-2,5.1282384E-3,-2.8668405E-4,-2.4726445E-2,2.3610807E-4,3.6243256E-2,8.364527E-3,-9.261736E-4,-2.8638696E-4,-2.7876798E-2,5.6571857E-4,2.9866045E-4,9.307671E-3,4.450178E-3,-3.6679658E-3,3.99644E-3,-2.527298E-4,-4.2155624E-4,1.0720895E-4,1.9639742E-4,1.296497E-4,2.8692186E-5,-8.499375E-5,-1.5113835E-5,1.4268607E-4,1.0307589E-5],"categories":[],"categories_nodes":[],"categories_segments":[],"categories_sizes":[],"default_left":[0,0,0,0,0,0,0,0,0,0,0,0,0,0,0,0,0,0,0,0,0,0,0,0,0,0,0,0,0],"id":39,"left_children":[1,3,5,7,9,-1,11,-1,13,15,17,-1,19,-1,-1,21,23,25,27,-1,-1,-1,-1,-1,-1,-1,-1,-1,-1],"loss_changes":[9.013334E-2,1.918674E-2,1.2114644E-4,7.5080805E-4,8.844561E-3,0E0,6.0520694E-4,0E0,2.794005E-4,1.0439679E-3,2.1471507E-3,0E0,2.5631487E-4,0E0,0E0,1.7799698E-3,6.5006106E-4,6.047139E-4,1.1156036E-3,0E0,0E0,0E0,0E0,0E0,0E0,0E0,0E0,0E0,0E0],"parents":[2147483647,0,0,1,1,2,2,3,3,4,4,6,6,8,8,9,9,10,10,12,12,15,15,16,16,17,17,18,18],"right_children":[2,4,6,8,10,-1,12,-1,14,16,18,-1,20,-1,-1,22,24,26,28,-1,-1,-1,-1,-1,-1,-1,-1,-1,-1],"split_conditions":[1.4E1,2E0,1E0,3.215641E5,7E0,-2.8668405E-4,1.786674E6,2.3610807E-4,2E-2,6E0,1.2E1,-2.8638696E-4,4E-3,5.6571857E-4,2.9866045E-4,5E0,8E-3,8E0,1E0,-2.527298E-4,-4.2155624E-4,1.0720895E-4,1.9639742E-4,1.296497E-4,2.8692186E-5,-8.499375E-5,-1.5113835E-5,1.4268607E-4,1.0307589E-5],"split_indices":[9,9,10,5,9,0,5,0,1,9,9,0,1,0,0,9,1,9,10,0,0,0,0,0,0,0,0,0,0],"split_type":[0,0,0,0,0,0,0,0,0,0,0,0,0,0,0,0,0,0,0,0,0,0,0,0,0,0,0,0,0],"sum_hessian":[6.03E2,4.75E2,1.28E2,2.5E1,4.5E2,4.9E1,7.9E1,5E0,2E1,2.93E2,1.57E2,3.5E1,4.4E1,1.5E1,5E0,2.35E2,5.8E1,1.01E2,5.6E1,8E0,3.6E1,1.7E2,6.5E1,1.9E1,3.9E1,5.3E1,4.8E1,1.9E1,3.7E1],"tree_param":{"num_deleted":"0","num_feature":"11","num_nodes":"29","size_leaf_vector":"1"}},{"base_weights":[-4.927305E-5,5.726486E-3,-3.2667912E-4,1.2048103E-2,-5.198999E-4,3.326232E-2,9.811239E-3,-1.8720516E-3,3.4030452E-3,3.590272E-2,2.757826E-4,7.0326193E-3,1.568648E-2,2.9492835E-3,-5.0023124E-3,2.063289E-4,1.6553048E-3,3.0864982E-4,5.61905E-4,6.274544E-5,1.397442E-4,2.51722E-4,1.709869E-4,6.369422E-5,-1.5066906E-5,-3.446146E-5,-9.8769866E-5,4.7873265E-5,-8.676291E-5],"categories":[],"categories_nodes":[],"categories_segments":[],"categories_sizes":[],"default_left":[0,0,0,0,0,0,0,0,0,0,0,0,0,0,0,0,0,0,0,0,0,0,0,0,0,0,0,0,0],"id":40,"left_children":[1,3,-1,5,7,9,11,13,15,17,-1,19,21,23,25,-1,27,-1,-1,-1,-1,-1,-1,-1,-1,-1,-1,-1,-1],"loss_changes":[8.5237406E-2,2.0342203E-2,0E0,1.182171E-2,1.3855192E-3,1.8617138E-4,3.6934204E-3,2.942608E-3,1.2733971E-3,1.0260567E-4,0E0,1.1243112E-3,3.284011E-4,4.741354E-4,5.717061E-4,0E0,7.995716E-4,0E0,0E0,0E0,0E0,0E0,0E0,0E0,0E0,0E0,0E0,0E0,0E0],"parents":[2147483647,0,0,1,1,3,3,4,4,5,5,6,6,7,7,8,8,9,9,11,11,12,12,13,13,14,14,16,16],"right_children":[2,4,-1,6,8,10,12,14,16,18,-1,20,22,24,26,-1,28,-1,-1,-1,-1,-1,-1,-1,-1,-1,-1,-1,-1],"split_conditions":[3.1880064E0,1.6334534E0,-3.2667912E-4,8.326121E-1,2.7778301E0,6.1315453E-1,1.4132483E0,1.9733926E0,2.7844307E0,6.108421E-1,2.757826E-4,2.9618508E-1,8.486044E5,1.4240292E5,2.5491065E-1,2.063289E-4,4.6354095E6,3.0864982E-4,5.61905E-4,6.274544E-5,1.397442E-4,2.51722E-4,1.709869E-4,6.369422E-5,-1.5066906E-5,-3.446146E-5,-9.8769866E-5,4.7873265E-5,-8.676291E-5],"split_indices":[0,0,0,0,0,0,0,0,0,0,0,4,7,8,4,0,5,0,0,0,0,0,0,0,0,0,0,0,0],"split_type":[0,0,0,0,0,0,0,0,0,0,0,0,0,0,0,0,0,0,0,0,0,0,0,0,0,0,0,0,0],"sum_hessian":[6.43E2,5.14E2,1.29E2,2.55E2,2.59E2,2.3E1,2.32E2,1.93E2,6.6E1,1.8E1,5E0,1.59E2,7.3E1,7.6E1,1.17E2,8E0,5.8E1,5E0,1.3E1,8.3E1,7.6E1,4.5E1,2.8E1,5.5E1,2.1E1,5.1E1,6.6E1,4.8E1,1E1],"tree_param":{"num_deleted":"0","num_feature":"11","num_nodes":"29","size_leaf_vector":"1"}},{"base_weights":[4.2890813E-4,5.7718097E-3,-2.260754E-2,3.2288227E-2,4.517941E-3,-2.746642E-4,-2.3931146E-2,2.2460424E-4,4.9774564E-4,8.49801E-3,-9.3810546E-4,-2.747951E-4,-3.764627E-4,7.6067685E-3,1.44263785E-2,-3.788178E-3,4.4979784E-3,8.634429E-5,1.3825615E-4,6.747424E-5,2.2068025E-4,-3.081952E-5,-7.633814E-5,1.9270276E-4,3.5146608E-5],"categories":[],"categories_nodes":[],"categories_segments":[],"categories_sizes":[],"default_left":[0,0,0,0,0,0,0,0,0,0,0,0,0,0,0,0,0,0,0,0,0,0,0,0,0],"id":41,"left_children":[1,3,5,7,9,-1,11,-1,-1,13,15,-1,-1,17,19,21,23,-1,-1,-1,-1,-1,-1,-1,-1],"loss_changes":[7.7794895E-2,1.6910398E-2,6.2935054E-5,4.5584887E-4,1.0670256E-2,0E0,4.279241E-4,0E0,0E0,1.3908073E-3,3.2396317E-3,0E0,0E0,7.487433E-4,2.975706E-4,3.3792527E-4,1.2868171E-3,0E0,0E0,0E0,0E0,0E0,0E0,0E0,0E0],"parents":[2147483647,0,0,1,1,2,2,3,3,4,4,6,6,9,9,10,10,13,13,14,14,15,15,16,16],"right_children":[2,4,6,8,10,-1,12,-1,-1,14,16,-1,-1,18,20,22,24,-1,-1,-1,-1,-1,-1,-1,-1],"split_conditions":[3.1880064E0,8.326121E-1,1E0,6.108624E-2,1.7997053E0,-2.746642E-4,4.5466028E5,2.2460424E-4,4.9774564E-4,4.528698E5,2.7778301E0,-2.747951E-4,-3.764627E-4,1.4132483E0,8.378672E-1,7.307574E5,2.7844307E0,8.634429E-5,1.3825615E-4,6.747424E-5,2.2068025E-4,-3.081952E-5,-7.633814E-5,1.9270276E-4,3.5146608E-5],"split_indices":[0,0,10,4,0,0,7,0,0,8,0,0,0,0,0,7,0,0,0,0,0,0,0,0,0],"split_type":[0,0,0,0,0,0,0,0,0,0,0,0,0,0,0,0,0,0,0,0,0,0,0,0,0],"sum_hessian":[6.3E2,5.12E2,1.18E2,2.2E1,4.9E2,3.8E1,8E1,4E0,1.8E1,2.83E2,2.07E2,3.1E1,4.9E1,2.48E2,3.5E1,1.36E2,7.1E1,1.45E2,1.03E2,4E0,3.1E1,6.8E1,6.8E1,1.2E1,5.9E1],"tree_param":{"num_deleted":"0","num_feature":"11","num_nodes":"25","size_leaf_vector":"1"}},{"base_weights":[-3.099013E-4,5.4622735E-3,-2.2294676E-2,2.9955922E-2,4.161635E-3,-3.4432524E-4,-2.8699232E-4,2.2456895E-4,4.661043E-4,8.4778005E-3,-3.576353E-4,9.369588E-3,3.0897525E-3,-2.033106E-3,4.195748E-3,1.3717005E-4,-4.3441334E-5,-1.4160208E-4,1.02111444E-4,3.2996577E-5,-5.784544E-5,9.097719E-5,-4.6130695E-5],"categories":[],"categories_nodes":[],"categories_segments":[],"categories_sizes":[],"default_left":[0,0,0,0,0,0,0,0,0,0,0,0,0,0,0,0,0,0,0,0,0,0,0],"id":42,"left_children":[1,3,5,7,9,-1,-1,-1,-1,11,13,15,17,19,21,-1,-1,-1,-1,-1,-1,-1,-1],"loss_changes":[7.9941854E-2,1.5772171E-2,4.1007996E-5,4.637167E-4,9.268343E-3,0E0,0E0,0E0,0E0,1.1386666E-3,1.7861016E-3,6.969664E-4,1.9837483E-3,1.5169666E-3,1.0462982E-3,0E0,0E0,0E0,0E0,0E0,0E0,0E0,0E0],"parents":[2147483647,0,0,1,1,2,2,3,3,4,4,9,9,10,10,11,11,12,12,13,13,14,14],"right_children":[2,4,6,8,10,-1,-1,-1,-1,12,14,16,18,20,22,-1,-1,-1,-1,-1,-1,-1,-1],"split_conditions":[1.4E1,2E0,1.5E1,3.215641E5,6E0,-3.4432524E-4,-2.8699232E-4,2.2456895E-4,4.661043E-4,9.0909094E-1,1.2E1,4.195955E6,3E0,7E0,1.4150348E6,1.3717005E-4,-4.3441334E-5,-1.4160208E-4,1.02111444E-4,3.2996577E-5,-5.784544E-5,9.097719E-5,-4.6130695E-5],"split_indices":[9,9,9,5,9,0,0,0,0,3,9,6,9,9,7,0,0,0,0,0,0,0,0],"split_type":[0,0,0,0,0,0,0,0,0,0,0,0,0,0,0,0,0,0,0,0,0,0,0],"sum_hessian":[6.28E2,4.98E2,1.3E2,2.4E1,4.74E2,6.4E1,6.6E1,5E0,1.9E1,2.42E2,2.32E2,2.07E2,3.5E1,1.7E2,6.2E1,2.03E2,4E0,8E0,2.7E1,5.4E1,1.16E2,4.8E1,1.4E1],"tree_param":{"num_deleted":"0","num_feature":"11","num_nodes":"23","size_leaf_vector":"1"}},{"base_weights":[2.4185862E-4,6.23142E-3,-2.2402331E-2,3.1856984E-2,4.755476E-3,-2.7144438E-4,-2.4089513E-2,2.5393502E-4,4.7759397E-4,9.149672E-3,2.6624862E-4,-2.905068E-4,-3.9934527E-4,7.864664E-3,1.239879E-2,6.677541E-3,-1.0435368E-3,8.4110325E-5,1.7424108E-4,2.7305225E-4,1.1505345E-4,6.845349E-5,1.9330172E-4,4.136869E-5,-4.373595E-5],"categories":[],"categories_nodes":[],"categories_segments":[],"categories_sizes":[],"default_left":[0,0,0,0,0,0,0,0,0,0,0,0,0,0,0,0,0,0,0,0,0,0,0,0,0],"id":43,"left_children":[1,3,5,7,9,-1,11,-1,-1,13,15,-1,-1,17,19,21,23,-1,-1,-1,-1,-1,-1,-1,-1],"loss_changes":[8.558573E-2,1.8721636E-2,2.8698146E-4,3.3585355E-5,9.328223E-3,0E0,6.527938E-4,0E0,0E0,9.003449E-4,1.9803613E-3,0E0,0E0,1.4172718E-3,1.7759986E-3,4.509706E-4,1.5765846E-3,0E0,0E0,0E0,0E0,0E0,0E0,0E0,0E0],"parents":[2147483647,0,0,1,1,2,2,3,3,4,4,6,6,9,9,10,10,13,13,14,14,15,15,16,16],"right_children":[2,4,6,8,10,-1,12,-1,-1,14,16,-1,-1,18,20,22,24,-1,-1,-1,-1,-1,-1,-1,-1],"split_conditions":[1.4E1,2E0,1E0,6.108624E-2,6E0,-2.7144438E-4,2.0655278E6,2.5393502E-4,4.7759397E-4,5E0,4E-3,-2.905068E-4,-3.9934527E-4,3.2821563E-1,8E-3,1.2E1,1E0,8.4110325E-5,1.7424108E-4,2.7305225E-4,1.1505345E-4,6.845349E-5,1.9330172E-4,4.136869E-5,-4.373595E-5],"split_indices":[9,9,10,4,9,0,5,0,0,9,1,0,0,4,1,9,10,0,0,0,0,0,0,0,0],"split_type":[0,0,0,0,0,0,0,0,0,0,0,0,0,0,0,0,0,0,0,0,0,0,0,0,0],"sum_hessian":[6.29E2,4.98E2,1.31E2,2.6E1,4.72E2,4.8E1,8.3E1,4E0,2.2E1,2.38E2,2.34E2,4.6E1,3.7E1,1.73E2,6.5E1,3.9E1,1.95E2,1.21E2,5.2E1,2.4E1,4.1E1,3.2E1,7E0,6.6E1,1.29E2],"tree_param":{"num_deleted":"0","num_feature":"11","num_nodes":"25","size_leaf_vector":"1"}},{"base_weights":[-5.164453E-4,5.0251405E-3,-2.1613127E-2,1.0651627E-2,-9.0110966E-4,-2.6583901E-4,-2.3008514E-2,3.0832505E-2,8.70042E-3,6.288686E-3,-2.398972E-3,-2.6314319E-4,-2.5446149E-2,4.7832602E-4,2.5539444E-4,6.697821E-3,1.3562117E-2,3.8062911E-3,1.8433393E-4,1.2675372E-3,-3.8949514E-3,-2.3804697E-4,-3.830481E-4,5.7126585E-5,1.4640042E-4,2.4634675E-4,6.511174E-5,9.853225E-6,9.798689E-5,-2.0268497E-5,1.3183567E-4,-2.3171824E-5,-1.4745523E-4],"categories":[],"categories_nodes":[],"categories_segments":[],"categories_sizes":[],"default_left":[0,0,0,0,0,0,0,0,0,0,0,0,0,0,0,0,0,0,0,0,0,0,0,0,0,0,0,0,0,0,0,0,0],"id":44,"left_children":[1,3,5,7,9,-1,11,13,15,17,19,-1,21,-1,-1,23,25,27,-1,29,31,-1,-1,-1,-1,-1,-1,-1,-1,-1,-1,-1,-1],"loss_changes":[7.3059864E-2,1.651486E-2,1.0648742E-4,9.733515E-3,2.6212626E-3,0E0,4.592836E-4,1.7654523E-4,2.1776594E-3,6.440657E-4,1.1074264E-3,0E0,2.0512193E-4,0E0,0E0,1.5650378E-3,2.1675937E-3,3.013761E-4,0E0,1.280727E-3,2.077151E-3,0E0,0E0,0E0,0E0,0E0,0E0,0E0,0E0,0E0,0E0,0E0,0E0],"parents":[2147483647,0,0,1,1,2,2,3,3,4,4,6,6,7,7,8,8,9,9,10,10,12,12,15,15,16,16,17,17,19,19,20,20],"right_children":[2,4,6,8,10,-1,12,14,16,18,20,-1,22,-1,-1,24,26,28,-1,30,32,-1,-1,-1,-1,-1,-1,-1,-1,-1,-1,-1,-1],"split_conditions":[1.4E1,6E0,1E0,2E0,4E-3,-2.6583901E-4,4.5466028E5,2E-2,5E0,1.2E1,1E0,-2.6314319E-4,4E-3,4.7832602E-4,2.5539444E-4,2.9618508E-1,6.8817106E5,3.6633718E6,1.8433393E-4,1.2E1,1.1018232E6,-2.3804697E-4,-3.830481E-4,5.7126585E-5,1.4640042E-4,2.4634675E-4,6.511174E-5,9.853225E-6,9.798689E-5,-2.0268497E-5,1.3183567E-4,-2.3171824E-5,-1.4745523E-4],"split_indices":[9,9,10,9,1,0,7,1,9,9,10,0,1,0,0,4,7,5,0,9,7,0,0,0,0,0,0,0,0,0,0,0,0],"split_type":[0,0,0,0,0,0,0,0,0,0,0,0,0,0,0,0,0,0,0,0,0,0,0,0,0,0,0,0,0,0,0,0,0],"sum_hessian":[6.23E2,4.94E2,1.29E2,2.53E2,2.41E2,4.6E1,8.3E1,2.1E1,2.32E2,4.1E1,2E2,3.2E1,5.1E1,1.6E1,5E0,1.66E2,6.6E1,3.1E1,1E1,5.8E1,1.42E2,9E0,4.2E1,9.6E1,7E1,4.6E1,2E1,1.6E1,1.5E1,4.4E1,1.4E1,1.06E2,3.6E1],"tree_param":{"num_deleted":"0","num_feature":"11","num_nodes":"33","size_leaf_vector":"1"}},{"base_weights":[-1.334532E-4,5.1318947E-3,-2.1615004E-2,3.278632E-2,3.8179937E-3,-2.591954E-4,-2.3127392E-2,2.4558927E-4,5.0081353E-4,8.291501E-3,-3.3591277E-4,-2.9176183E-4,-3.9694854E-4,5.9367884E-3,1.0247188E-2,-2.186966E-3,5.5565503E-3,-7.332387E-5,9.2877635E-5,1.849099E-4,8.235764E-5,2.5810195E-5,-6.4251224E-5,1.3182298E-4,3.3469063E-5],"categories":[],"categories_nodes":[],"categories_segments":[],"categories_sizes":[],"default_left":[0,0,0,0,0,0,0,0,0,0,0,0,0,0,0,0,0,0,0,0,0,0,0,0,0],"id":45,"left_children":[1,3,5,7,9,-1,11,-1,-1,13,15,-1,-1,17,19,21,23,-1,-1,-1,-1,-1,-1,-1,-1],"loss_changes":[7.1821295E-2,1.8405762E-2,2.2614747E-4,2.4016574E-4,9.0710595E-3,0E0,4.701987E-4,0E0,0E0,1.0213573E-3,2.7825965E-3,0E0,0E0,7.370778E-4,1.4745258E-3,1.8100797E-3,7.0141174E-4,0E0,0E0,0E0,0E0,0E0,0E0,0E0,0E0],"parents":[2147483647,0,0,1,1,2,2,3,3,4,4,6,6,9,9,10,10,13,13,14,14,15,15,16,16],"right_children":[2,4,6,8,10,-1,12,-1,-1,14,16,-1,-1,18,20,22,24,-1,-1,-1,-1,-1,-1,-1,-1],"split_conditions":[1.4E1,2E0,1E0,2E-1,6E0,-2.591954E-4,1.2148959E6,2.4558927E-4,5.0081353E-4,4E0,1.2E1,-2.9176183E-4,-3.9694854E-4,8.679474E4,4.0331478E6,7E0,1E0,-7.332387E-5,9.2877635E-5,1.849099E-4,8.235764E-5,2.5810195E-5,-6.4251224E-5,1.3182298E-4,3.3469063E-5],"split_indices":[9,9,10,2,9,0,7,0,0,9,9,0,0,5,5,9,10,0,0,0,0,0,0,0,0],"split_type":[0,0,0,0,0,0,0,0,0,0,0,0,0,0,0,0,0,0,0,0,0,0,0,0,0],"sum_hessian":[6.33E2,5.09E2,1.24E2,2.2E1,4.87E2,4.2E1,8.2E1,4E0,1.8E1,2.34E2,2.53E2,5.6E1,2.6E1,1.08E2,1.26E2,1.93E2,6E1,5E0,1.03E2,7.7E1,4.9E1,7.1E1,1.22E2,2.7E1,3.3E1],"tree_param":{"num_deleted":"0","num_feature":"11","num_nodes":"25","size_leaf_vector":"1"}},{"base_weights":[6.491035E-4,5.608329E-3,-2.0874394E-2,3.1219542E-2,4.3947245E-3,-2.4308801E-4,-2.2540241E-2,4.790993E-4,2.2542302E-4,8.182344E-3,-2.1457457E-4,-3.50205E-4,-2.5892275E-4,5.4559754E-3,1.1422673E-2,4.249281E-3,-2.5673301E-3,9.875662E-6,8.474657E-5,1.7208038E-4,-4.6560155E-5,-1.0545261E-4,7.107922E-5,-2.6085986E-6,-1.365739E-4],"categories":[],"categories_nodes":[],"categories_segments":[],"categories_sizes":[],"default_left":[0,0,0,0,0,0,0,0,0,0,0,0,0,0,0,0,0,0,0,0,0,0,0,0,0],"id":46,"left_children":[1,3,5,7,9,-1,11,-1,-1,13,15,-1,-1,17,19,21,23,-1,-1,-1,-1,-1,-1,-1,-1],"loss_changes":[6.725645E-2,1.5776724E-2,3.647171E-4,3.209114E-4,8.556311E-3,0E0,2.5722757E-4,0E0,0E0,2.314113E-3,2.3424334E-3,0E0,0E0,3.4298934E-4,1.2147427E-3,7.006333E-4,2.4414966E-3,0E0,0E0,0E0,0E0,0E0,0E0,0E0,0E0],"parents":[2147483647,0,0,1,1,2,2,3,3,4,4,6,6,9,9,10,10,13,13,14,14,15,15,16,16],"right_children":[2,4,6,8,10,-1,12,-1,-1,14,16,-1,-1,18,20,22,24,-1,-1,-1,-1,-1,-1,-1,-1],"split_conditions":[3.1880064E0,8.326121E-1,1E0,6.1315453E-1,1.7885878E0,-2.4308801E-4,8.2956815E-1,4.790993E-4,2.2542302E-4,1.4078158E0,1E0,-3.50205E-4,-2.5892275E-4,5.466391E-2,1.7181041E6,4.4377485E3,1.1298748E6,9.875662E-6,8.474657E-5,1.7208038E-4,-4.6560155E-5,-1.0545261E-4,7.107922E-5,-2.6085986E-6,-1.365739E-4],"split_indices":[0,0,10,0,0,0,3,0,0,0,10,0,0,4,7,7,7,0,0,0,0,0,0,0,0],"split_type":[0,0,0,0,0,0,0,0,0,0,0,0,0,0,0,0,0,0,0,0,0,0,0,0,0],"sum_hessian":[6.28E2,5.11E2,1.17E2,2.2E1,4.89E2,3.9E1,7.8E1,1.8E1,4E0,2.68E2,2.21E2,5E1,2.8E1,1.47E2,1.21E2,7.6E1,1.45E2,1.4E1,1.33E2,1.16E2,5E0,4E0,7.2E1,1.09E2,3.6E1],"tree_param":{"num_deleted":"0","num_feature":"11","num_nodes":"25","size_leaf_vector":"1"}},{"base_weights":[2.8535092E-4,4.8321444E-3,-2.0158228E-2,9.738035E-3,-7.0646696E-4,-2.651607E-4,-2.3249583E-2,2.8148293E-2,8.43604E-3,-2.214556E-3,3.8535192E-3,-3.4905155E-4,-2.1010543E-4,2.0753719E-4,4.414855E-4,5.6923945E-3,1.1014354E-2,1.5631227E-3,-3.9251647E-3,-6.338201E-3,5.9353537E-3,-3.9563663E-5,9.7322896E-5,1.8725745E-4,1.00474295E-4,-2.5018979E-5,3.7537713E-5,-4.230929E-6,-7.827381E-5,-1.1386402E-4,-5.1685827E-5,1.2590188E-4,3.8376915E-5],"categories":[],"categories_nodes":[],"categories_segments":[],"categories_sizes":[],"default_left":[0,0,0,0,0,0,0,0,0,0,0,0,0,0,0,0,0,0,0,0,0,0,0,0,0,0,0,0,0,0,0,0,0],"id":47,"left_children":[1,3,5,7,9,-1,11,13,15,17,19,-1,-1,-1,-1,21,23,25,27,29,31,-1,-1,-1,-1,-1,-1,-1,-1,-1,-1,-1,-1],"loss_changes":[5.9773058E-2,1.4299258E-2,1.2661889E-4,6.4501874E-3,1.7139964E-3,0E0,1.0814518E-5,2.4281535E-4,1.7906856E-3,1.2145536E-3,1.3531029E-3,0E0,0E0,0E0,0E0,1.263116E-3,1.0377951E-3,2.144963E-4,7.326796E-4,2.031689E-5,4.6533556E-4,0E0,0E0,0E0,0E0,0E0,0E0,0E0,0E0,0E0,0E0,0E0,0E0],"parents":[2147483647,0,0,1,1,2,2,3,3,4,4,6,6,7,7,8,8,9,9,10,10,15,15,16,16,17,17,18,18,19,19,20,20],"right_children":[2,4,6,8,10,-1,12,14,16,18,20,-1,-1,-1,-1,22,24,26,28,30,32,-1,-1,-1,-1,-1,-1,-1,-1,-1,-1,-1,-1],"split_conditions":[3.1880064E0,1.7885878E0,3.2910198E-1,6.1315453E-1,2.7778301E0,-2.651607E-4,2.5011518E6,1.8644114E-1,1.4050951E0,1.9733926E0,6.666667E-1,-3.4905155E-4,-2.1010543E-4,2.0753719E-4,4.414855E-4,5.0336514E3,4.0331478E6,1.9221174E6,8E-3,2.8042228E0,2.7976272E0,-3.9563663E-5,9.7322896E-5,1.8725745E-4,1.00474295E-4,-2.5018979E-5,3.7537713E-5,-4.230929E-6,-7.827381E-5,-1.1386402E-4,-5.1685827E-5,1.2590188E-4,3.8376915E-5],"split_indices":[0,0,4,0,0,0,7,4,0,0,3,0,0,0,0,7,5,5,1,0,0,0,0,0,0,0,0,0,0,0,0,0,0],"split_type":[0,0,0,0,0,0,0,0,0,0,0,0,0,0,0,0,0,0,0,0,0,0,0,0,0,0,0,0,0,0,0,0,0],"sum_hessian":[6.41E2,5.25E2,1.16E2,2.78E2,2.47E2,8.2E1,3.4E1,1.7E1,2.61E2,1.86E2,6.1E1,2.8E1,6E0,4E0,1.3E1,1.28E2,1.33E2,5.8E1,1.28E2,1E1,5.1E1,1.5E1,1.13E2,8.5E1,4.8E1,1.4E1,4.4E1,3.9E1,8.9E1,5E0,5E0,2.6E1,2.5E1],"tree_param":{"num_deleted":"0","num_feature":"11","num_nodes":"33","size_leaf_vector":"1"}},{"base_weights":[5.6366547E-4,5.359165E-3,-2.019413E-2,1.0310411E-2,-2.651654E-4,-1.6929135E-2,-2.1753274E-2,2.9669074E-2,8.537237E-3,3.772959E-3,-2.1697138E-3,-2.0438667E-4,-2.7890218E-4,-2.4775587E-4,-2.3982594E-2,2.0592115E-4,3.329396E-2,6.1206194E-3,1.1149399E-2,4.6154857E-4,6.588516E-3,1.7448129E-4,-8.033995E-3,-1.8333121E-4,-3.5214485E-4,2.505578E-4,5.466982E-4,4.21255E-5,1.0749141E-4,2.0171667E-4,1.3214689E-4,7.014246E-5,-6.859563E-5,5.7538917E-5,1.1720046E-4,-1.6888087E-5,4.9707847E-5,7.291185E-5,-1.4438831E-4],"categories":[],"categories_nodes":[],"categories_segments":[],"categories_sizes":[],"default_left":[0,0,0,0,0,0,0,0,0,0,0,0,0,0,0,0,0,0,0,0,0,0,0,0,0,0,0,0,0,0,0,0,0,0,0,0,0,0,0],"id":48,"left_children":[1,3,5,7,9,11,13,15,17,19,21,-1,-1,-1,23,-1,25,27,29,31,33,35,37,-1,-1,-1,-1,-1,-1,-1,-1,-1,-1,-1,-1,-1,-1,-1,-1],"loss_changes":[6.1526872E-2,1.3982152E-2,2.2224337E-4,8.911826E-3,1.823216E-3,6.35162E-6,3.1245127E-4,7.3216483E-4,1.4846586E-3,7.055424E-4,2.2146718E-3,0E0,0E0,0E0,6.570108E-5,0E0,6.8136863E-4,5.6348275E-4,5.284427E-4,8.712094E-4,1.3800175E-4,5.269859E-4,1.3227467E-3,0E0,0E0,0E0,0E0,0E0,0E0,0E0,0E0,0E0,0E0,0E0,0E0,0E0,0E0,0E0,0E0],"parents":[2147483647,0,0,1,1,2,2,3,3,4,4,5,5,6,6,7,7,8,8,9,9,10,10,14,14,16,16,17,17,18,18,19,19,20,20,21,21,22,22],"right_children":[2,4,6,8,10,12,14,16,18,20,22,-1,-1,-1,24,-1,26,28,30,32,34,36,38,-1,-1,-1,-1,-1,-1,-1,-1,-1,-1,-1,-1,-1,-1,-1,-1],"split_conditions":[1.4E1,6E0,1E0,2E0,1E0,7.692308E-1,2.512381E-1,4E-3,4E0,8E0,3.7439272E6,-2.0438667E-4,-2.7890218E-4,-2.4775587E-4,4E-3,2.0592115E-4,4E-1,3.048846E6,1E0,7E0,3.1924235E6,1.2E1,4E-3,-1.8333121E-4,-3.5214485E-4,2.505578E-4,5.466982E-4,4.21255E-5,1.0749141E-4,2.0171667E-4,1.3214689E-4,7.014246E-5,-6.859563E-5,5.7538917E-5,1.1720046E-4,-1.6888087E-5,4.9707847E-5,7.291185E-5,-1.4438831E-4],"split_indices":[9,9,10,9,10,3,4,1,9,9,5,0,0,0,1,0,2,5,10,9,5,9,1,0,0,0,0,0,0,0,0,0,0,0,0,0,0,0,0],"split_type":[0,0,0,0,0,0,0,0,0,0,0,0,0,0,0,0,0,0,0,0,0,0,0,0,0,0,0,0,0,0,0,0,0,0,0,0,0,0,0],"sum_hessian":[6.16E2,5.01E2,1.15E2,2.66E2,2.35E2,4.1E1,7.4E1,2.1E1,2.45E2,7.5E1,1.6E2,2.4E1,1.7E1,2.8E1,4.6E1,5E0,1.6E1,1.29E2,1.16E2,3.5E1,4E1,1.15E2,4.5E1,4E0,4.2E1,5E0,1.1E1,4.1E1,8.8E1,4.2E1,7.4E1,1.9E1,1.6E1,1.7E1,2.3E1,8.2E1,3.3E1,6E0,3.9E1],"tree_param":{"num_deleted":"0","num_feature":"11","num_nodes":"39","size_leaf_vector":"1"}},{"base_weights":[-1.5655838E-4,4.91398E-3,-2.0399412E-2,2.7907876E-2,3.865309E-3,-2.4325826E-4,-2.2018014E-2,1.9077618E-4,4.31103E-4,7.6693706E-3,2.7797636E-4,-2.3400268E-4,-3.3742507E-4,6.1649852E-3,1.2358515E-2,-1.1566099E-3,5.368438E-3,6.640753E-5,1.3882281E-4,2.3869568E-4,6.7671535E-5,3.8230104E-5,-5.0114653E-5,1.337616E-4,3.5022313E-5],"categories":[],"categories_nodes":[],"categories_segments":[],"categories_sizes":[],"default_left":[0,0,0,0,0,0,0,0,0,0,0,0,0,0,0,0,0,0,0,0,0,0,0,0,0],"id":49,"left_children":[1,3,5,7,9,-1,11,-1,-1,13,15,-1,-1,17,19,21,23,-1,-1,-1,-1,-1,-1,-1,-1],"loss_changes":[6.8152E-2,1.269615E-2,3.3983588E-4,3.7995353E-4,6.9439034E-3,0E0,4.1239336E-4,0E0,0E0,1.6662171E-3,1.9268211E-3,0E0,0E0,9.718188E-4,1.8936684E-3,1.8770578E-3,6.5552397E-4,0E0,0E0,0E0,0E0,0E0,0E0,0E0,0E0],"parents":[2147483647,0,0,1,1,2,2,3,3,4,4,6,6,9,9,10,10,13,13,14,14,15,15,16,16],"right_children":[2,4,6,8,10,-1,12,-1,-1,14,16,-1,-1,18,20,22,24,-1,-1,-1,-1,-1,-1,-1,-1],"split_conditions":[3.1880064E0,8.326121E-1,1E0,1.8644114E-1,1.6334534E0,-2.4325826E-4,3.6344372E5,1.9077618E-4,4.31103E-4,1.6171806E0,2.7778301E0,-2.3400268E-4,-3.3742507E-4,3.2821563E-1,9.799361E5,1.9733926E0,1E0,6.640753E-5,1.3882281E-4,2.3869568E-4,6.7671535E-5,3.8230104E-5,-5.0114653E-5,1.337616E-4,3.5022313E-5],"split_indices":[0,0,10,4,0,0,7,0,0,0,0,0,0,4,7,0,10,0,0,0,0,0,0,0,0],"split_type":[0,0,0,0,0,0,0,0,0,0,0,0,0,0,0,0,0,0,0,0,0,0,0,0,0],"sum_hessian":[6.62E2,5.3E2,1.32E2,2.2E1,5.08E2,4.7E1,8.5E1,4E0,1.8E1,2.46E2,2.62E2,2.2E1,6.3E1,1.88E2,5.8E1,2.05E2,5.7E1,1.34E2,5.4E1,3.6E1,2.2E1,7.8E1,1.27E2,2.3E1,3.4E1],"tree_param":{"num_deleted":"0","num_feature":"11","num_nodes":"25","size_leaf_vector":"1"}},{"base_weights":[7.019228E-4,5.4463944E-3,-1.945808E-2,1.0576723E-2,-5.4750324E-4,-2.2917897E-4,-2.0924611E-2,2.8146442E-2,8.566609E-3,3.783559E-3,-3.1136167E-3,-2.3427328E-4,-3.3106984E-4,1.9949906E-4,4.3613123E-4,6.053382E-3,1.2468363E-2,1.3754023E-3,1.362834E-4,2.6535421E-5,-7.004052E-3,6.373985E-5,1.4284707E-4,2.3458645E-4,1.2794226E-4,1.3254966E-4,-3.7768375E-6,1.1003926E-4,-1.5928052E-5,-1.18447024E-4,-3.793417E-5],"categories":[],"categories_nodes":[],"categories_segments":[],"categories_sizes":[],"default_left":[0,0,0,0,0,0,0,0,0,0,0,0,0,0,0,0,0,0,0,0,0,0,0,0,0,0,0,0,0,0,0],"id":50,"left_children":[1,3,5,7,9,-1,11,13,15,17,19,-1,-1,-1,-1,21,23,25,-1,27,29,-1,-1,-1,-1,-1,-1,-1,-1,-1,-1],"loss_changes":[6.0747158E-2,1.5811635E-2,2.6174635E-4,9.541733E-3,2.6569117E-3,0E0,4.5751035E-4,5.478561E-4,2.3760237E-3,1.226129E-3,1.8326696E-3,0E0,0E0,0E0,0E0,9.21546E-4,1.2046015E-3,8.3487795E-4,0E0,7.4864866E-4,3.5885535E-4,0E0,0E0,0E0,0E0,0E0,0E0,0E0,0E0,0E0,0E0],"parents":[2147483647,0,0,1,1,2,2,3,3,4,4,6,6,7,7,8,8,9,9,10,10,15,15,16,16,17,17,19,19,20,20],"right_children":[2,4,6,8,10,-1,12,14,16,18,20,-1,-1,-1,-1,22,24,26,-1,28,30,-1,-1,-1,-1,-1,-1,-1,-1,-1,-1],"split_conditions":[3.1880064E0,1.7885878E0,1.7712876E6,8.326121E-1,1E0,-2.2917897E-4,1E0,6.108421E-1,1.4132483E0,2.7778301E0,2.6747352E6,-2.3427328E-4,-3.3106984E-4,1.9949906E-4,4.3613123E-4,3.2910198E-1,1.623699E0,1.7960024E0,1.362834E-4,1.8034052E0,7.692308E-1,6.373985E-5,1.4284707E-4,2.3458645E-4,1.2794226E-4,1.3254966E-4,-3.7768375E-6,1.1003926E-4,-1.5928052E-5,-1.18447024E-4,-3.793417E-5],"split_indices":[0,0,5,0,10,0,10,0,0,0,5,0,0,0,0,4,0,0,0,0,3,0,0,0,0,0,0,0,0,0,0],"split_type":[0,0,0,0,0,0,0,0,0,0,0,0,0,0,0,0,0,0,0,0,0,0,0,0,0,0,0,0,0,0,0],"sum_hessian":[6.33E2,5.13E2,1.2E2,2.76E2,2.37E2,4E1,8E1,2.7E1,2.49E2,8.8E1,1.49E2,3E1,5E1,5E0,2.2E1,1.53E2,9.6E1,6.3E1,2.5E1,8.3E1,6.6E1,1.11E2,4.2E1,4.3E1,5.3E1,1E1,5.3E1,1E1,7.3E1,5E1,1.6E1],"tree_param":{"num_deleted":"0","num_feature":"11","num_nodes":"31","size_leaf_vector":"1"}},{"base_weights":[-3.6401258E-4,4.632477E-3,-1.9796213E-2,2.690861E-2,3.4741203E-3,-2.36197E-4,-2.1154772E-2,2.1400246E-4,4.2347386E-4,7.520783E-3,-6.6737225E-4,-2.2236863E-4,-2.3218617E-2,3.3731507E-3,9.2302235E-3,2.8511332E-3,-2.2205766E-3,-2.1642464E-4,-3.4531014E-4,-5.0421197E-5,8.176772E-5,1.1829873E-4,2.0194151E-4,1.2455736E-5,1.322438E-4,3.6728945E-6,-7.94013E-5],"categories":[],"categories_nodes":[],"categories_segments":[],"categories_sizes":[],"default_left":[0,0,0,0,0,0,0,0,0,0,0,0,0,0,0,0,0,0,0,0,0,0,0,0,0,0,0],"id":51,"left_children":[1,3,5,7,9,-1,11,-1,-1,13,15,-1,17,19,21,23,25,-1,-1,-1,-1,-1,-1,-1,-1,-1,-1],"loss_changes":[6.4561315E-2,1.35566825E-2,2.4374574E-4,4.2365305E-4,8.451667E-3,0E0,6.907508E-4,0E0,0E0,1.776848E-3,1.3725706E-3,0E0,1.6346574E-4,1.263333E-3,7.0708245E-4,9.708192E-4,1.4472245E-3,0E0,0E0,0E0,0E0,0E0,0E0,0E0,0E0,0E0,0E0],"parents":[2147483647,0,0,1,1,2,2,3,3,4,4,6,6,9,9,10,10,12,12,13,13,14,14,15,15,16,16],"right_children":[2,4,6,8,10,-1,12,-1,-1,14,16,-1,18,20,22,24,26,-1,-1,-1,-1,-1,-1,-1,-1,-1,-1],"split_conditions":[3.1880064E0,8.326121E-1,1E0,6.1142105E-1,1.7848761E0,-2.36197E-4,2.512381E-1,2.1400246E-4,4.2347386E-4,1.1131696E0,1E0,-2.2236863E-4,4E-3,1.9113342E5,4.528698E5,2.7778301E0,7.5346594E5,-2.1642464E-4,-3.4531014E-4,-5.0421197E-5,8.176772E-5,1.1829873E-4,2.0194151E-4,1.2455736E-5,1.322438E-4,3.6728945E-6,-7.94013E-5],"split_indices":[0,0,10,0,0,0,4,0,0,0,10,0,1,7,8,0,7,0,0,0,0,0,0,0,0,0,0],"split_type":[0,0,0,0,0,0,0,0,0,0,0,0,0,0,0,0,0,0,0,0,0,0,0,0,0,0,0],"sum_hessian":[6.63E2,5.28E2,1.35E2,2.5E1,5.03E2,4.4E1,9.1E1,6E0,1.9E1,2.54E2,2.49E2,2.7E1,6.4E1,7.5E1,1.79E2,7.6E1,1.73E2,9E0,5.5E1,1.9E1,5.6E1,1.53E2,2.6E1,5.9E1,1.7E1,1E2,7.3E1],"tree_param":{"num_deleted":"0","num_feature":"11","num_nodes":"27","size_leaf_vector":"1"}},{"base_weights":[-5.668084E-4,4.5861937E-3,-2.0059386E-2,2.7087731E-2,3.4609397E-3,-1.740444E-2,-2.1581702E-2,1.8768123E-4,4.1618015E-4,7.513534E-3,-5.9424456E-5,-2.8466806E-4,-2.1382712E-4,-2.3116825E-4,-3.434234E-4,5.4823104E-3,1.1271323E-2,-1.7946253E-3,5.1737875E-3,1.6869519E-5,9.836632E-5,1.9906613E-4,1.0207081E-4,2.3198265E-5,-5.1075902E-5,1.9396869E-4,4.562157E-5],"categories":[],"categories_nodes":[],"categories_segments":[],"categories_sizes":[],"default_left":[0,0,0,0,0,0,0,0,0,0,0,0,0,0,0,0,0,0,0,0,0,0,0,0,0,0,0],"id":52,"left_children":[1,3,5,7,9,11,13,-1,-1,15,17,-1,-1,-1,-1,19,21,23,25,-1,-1,-1,-1,-1,-1,-1,-1],"loss_changes":[6.437699E-2,1.2743465E-2,1.6596541E-4,3.2453425E-4,6.905484E-3,3.3451244E-5,7.035807E-4,0E0,0E0,1.6556121E-3,2.3702604E-3,0E0,0E0,0E0,0E0,8.9646084E-4,7.6520815E-4,1.2070183E-3,1.0381398E-3,0E0,0E0,0E0,0E0,0E0,0E0,0E0,0E0],"parents":[2147483647,0,0,1,1,2,2,3,3,4,4,5,5,6,6,9,9,10,10,15,15,16,16,17,17,18,18],"right_children":[2,4,6,8,10,12,14,-1,-1,16,18,-1,-1,-1,-1,20,22,24,26,-1,-1,-1,-1,-1,-1,-1,-1],"split_conditions":[3.1880064E0,8.326121E-1,1.7712876E6,2E-1,1.7848761E0,3.3070045E0,1E0,1.8768123E-4,4.1618015E-4,1.4132483E0,2.7778301E0,-2.8466806E-4,-2.1382712E-4,-2.3116825E-4,-3.434234E-4,1.9173731E-1,4.0331478E6,1.9733926E0,2.7844307E0,1.6869519E-5,9.836632E-5,1.9906613E-4,1.0207081E-4,2.3198265E-5,-5.1075902E-5,1.9396869E-4,4.562157E-5],"split_indices":[0,0,5,2,0,0,10,0,0,0,0,0,0,0,0,4,5,0,0,0,0,0,0,0,0,0,0],"split_type":[0,0,0,0,0,0,0,0,0,0,0,0,0,0,0,0,0,0,0,0,0,0,0,0,0,0,0],"sum_hessian":[6.39E2,5.06E2,1.33E2,2.3E1,4.83E2,5.3E1,8E1,4E0,1.9E1,2.24E2,2.59E2,2.2E1,3.1E1,2.8E1,5.2E1,1.47E2,7.7E1,1.95E2,6.4E1,3.7E1,1.1E2,4.5E1,3.2E1,6.7E1,1.28E2,1.1E1,5.3E1],"tree_param":{"num_deleted":"0","num_feature":"11","num_nodes":"27","size_leaf_vector":"1"}},{"base_weights":[1.290626E-4,4.434774E-3,-1.8482642E-2,2.6687244E-2,3.5429406E-3,-2.8623414E-4,-1.65127E-2,2.1464705E-4,4.0818698E-4,6.402608E-3,2.4228908E-4,-2.0132812E-4,-2.7470026E-4,3.6941108E-3,9.808398E-3,-1.591578E-3,5.2743005E-3,-1.8592019E-6,6.8345704E-5,1.5252689E-4,7.2802264E-5,3.091644E-5,-3.955518E-5,1.7595172E-4,5.5082717E-5],"categories":[],"categories_nodes":[],"categories_segments":[],"categories_sizes":[],"default_left":[0,0,0,0,0,0,0,0,0,0,0,0,0,0,0,0,0,0,0,0,0,0,0,0,0],"id":53,"left_children":[1,3,5,7,9,-1,11,-1,-1,13,15,-1,-1,17,19,21,23,-1,-1,-1,-1,-1,-1,-1,-1],"loss_changes":[5.160982E-2,1.0284645E-2,5.1606447E-5,2.4727546E-5,4.7555873E-3,0E0,1.2312084E-4,0E0,0E0,2.454401E-3,2.176984E-3,0E0,0E0,6.419099E-4,4.4711586E-4,7.770598E-4,5.7991326E-4,0E0,0E0,0E0,0E0,0E0,0E0,0E0,0E0],"parents":[2147483647,0,0,1,1,2,2,3,3,4,4,6,6,9,9,10,10,13,13,14,14,15,15,16,16],"right_children":[2,4,6,8,10,-1,12,-1,-1,14,16,-1,-1,18,20,22,24,-1,-1,-1,-1,-1,-1,-1,-1],"split_conditions":[3.1880064E0,8.326121E-1,3.3070045E0,1.8644114E-1,1.7885878E0,-2.8623414E-4,2.9818094E-1,2.1464705E-4,4.0818698E-4,1.4050951E0,2.7778301E0,-2.0132812E-4,-2.7470026E-4,4E-3,1.6334534E0,1.8034052E0,2.7844307E0,-1.8592019E-6,6.8345704E-5,1.5252689E-4,7.2802264E-5,3.091644E-5,-3.955518E-5,1.7595172E-4,5.5082717E-5],"split_indices":[0,0,0,4,0,0,4,0,0,0,0,0,0,1,0,0,0,0,0,0,0,0,0,0,0],"split_type":[0,0,0,0,0,0,0,0,0,0,0,0,0,0,0,0,0,0,0,0,0,0,0,0,0],"sum_hessian":[6.42E2,5.22E2,1.2E2,1.9E1,5.03E2,6.1E1,5.9E1,4E0,1.5E1,2.69E2,2.34E2,3.5E1,2.4E1,1.51E2,1.18E2,1.72E2,6.2E1,3.4E1,1.17E2,9.8E1,2E1,4.1E1,1.31E2,9E0,5.3E1],"tree_param":{"num_deleted":"0","num_feature":"11","num_nodes":"25","size_leaf_vector":"1"}},{"base_weights":[1.5654536E-4,4.94552E-3,-1.9226836E-2,8.385547E-3,8.3865685E-5,-2.225452E-4,-2.0591078E-2,2.3564331E-2,7.1629807E-3,-2.1900875E-3,6.385633E-3,-2.577457E-4,-3.5480893E-4,1.7130168E-4,3.6273993E-4,7.3571634E-3,-7.107087E-5,2.4485512E-4,-4.6281293E-3,1.772099E-4,4.8331493E-3,6.339965E-5,1.19675846E-4,3.303603E-5,-2.143769E-5,9.058681E-5,-8.735518E-5,1.3479419E-4,1.9300755E-5],"categories":[],"categories_nodes":[],"categories_segments":[],"categories_sizes":[],"default_left":[0,0,0,0,0,0,0,0,0,0,0,0,0,0,0,0,0,0,0,0,0,0,0,0,0,0,0,0,0],"id":54,"left_children":[1,3,5,7,9,-1,11,13,15,17,19,-1,-1,-1,-1,21,-1,23,25,-1,27,-1,-1,-1,-1,-1,-1,-1,-1],"loss_changes":[5.9504054E-2,8.595549E-3,3.031753E-4,5.4168906E-3,3.0805885E-3,0E0,5.0903484E-4,1.7539319E-4,6.973911E-4,9.39099E-4,4.7550723E-4,0E0,0E0,0E0,0E0,7.994417E-4,0E0,2.9377395E-4,1.3438154E-3,0E0,7.438152E-4,0E0,0E0,0E0,0E0,0E0,0E0,0E0,0E0],"parents":[2147483647,0,0,1,1,2,2,3,3,4,4,6,6,7,7,8,8,9,9,10,10,15,15,17,17,18,18,20,20],"right_children":[2,4,6,8,10,-1,12,14,16,18,20,-1,-1,-1,-1,22,-1,24,26,-1,28,-1,-1,-1,-1,-1,-1,-1,-1],"split_conditions":[3.1880064E0,1.7922965E0,1E0,8.326121E-1,2.7778301E0,-2.225452E-4,1.2238968E6,2E-1,1.7181041E6,1.9898236E0,2.7844307E0,-2.577457E-4,-3.5480893E-4,1.7130168E-4,3.6273993E-4,1.1131696E0,-7.107087E-5,2.9518154E-1,4E-3,1.772099E-4,1E0,6.339965E-5,1.19675846E-4,3.303603E-5,-2.143769E-5,9.058681E-5,-8.735518E-5,1.3479419E-4,1.9300755E-5],"split_indices":[0,0,10,0,0,0,7,2,7,0,0,0,0,0,0,0,0,4,1,0,10,0,0,0,0,0,0,0,0],"split_type":[0,0,0,0,0,0,0,0,0,0,0,0,0,0,0,0,0,0,0,0,0,0,0,0,0,0,0,0,0],"sum_hessian":[6.39E2,5.13E2,1.26E2,3E2,2.13E2,3.8E1,8.8E1,2.1E1,2.79E2,1.57E2,5.6E1,5.9E1,2.9E1,4E0,1.7E1,2.75E2,4E0,7.9E1,7.8E1,1E1,4.6E1,7.4E1,2.01E2,3.6E1,4.3E1,9E0,6.9E1,1.9E1,2.7E1],"tree_param":{"num_deleted":"0","num_feature":"11","num_nodes":"29","size_leaf_vector":"1"}},{"base_weights":[-3.789803E-5,4.579381E-3,-1.8436767E-2,2.7926883E-2,3.5048334E-3,-2.1713007E-4,-2.0081785E-2,1.9984324E-4,4.290447E-4,7.175791E-3,-8.646353E-4,-2.2855862E-4,-3.2450107E-4,4.7953003E-3,9.420009E-3,-2.8707075E-3,4.4148145E-3,7.749567E-5,-3.2207543E-5,1.5387796E-4,6.0074075E-5,1.0026621E-5,-5.5358825E-5,1.7941266E-4,4.0569408E-5],"categories":[],"categories_nodes":[],"categories_segments":[],"categories_sizes":[],"default_left":[0,0,0,0,0,0,0,0,0,0,0,0,0,0,0,0,0,0,0,0,0,0,0,0,0],"id":55,"left_children":[1,3,5,7,9,-1,11,-1,-1,13,15,-1,-1,17,19,21,23,-1,-1,-1,-1,-1,-1,-1,-1],"loss_changes":[5.589836E-2,1.3098408E-2,3.8799644E-4,2.7706847E-4,8.090433E-3,0E0,5.490184E-4,0E0,0E0,1.4186306E-3,2.4591852E-3,0E0,0E0,6.2589836E-4,9.6031E-4,6.122304E-4,7.8443927E-4,0E0,0E0,0E0,0E0,0E0,0E0,0E0,0E0],"parents":[2147483647,0,0,1,1,2,2,3,3,4,4,6,6,9,9,10,10,13,13,14,14,15,15,16,16],"right_children":[2,4,6,8,10,-1,12,-1,-1,14,16,-1,-1,18,20,22,24,-1,-1,-1,-1,-1,-1,-1,-1],"split_conditions":[3.1880064E0,8.326121E-1,1E0,6.108421E-1,1.7922965E0,-2.1713007E-4,7.226625E5,1.9984324E-4,4.290447E-4,1.4050951E0,2.7778301E0,-2.2855862E-4,-3.2450107E-4,1.4023714E0,1.6334534E0,1.9733926E0,2.7844307E0,7.749567E-5,-3.2207543E-5,1.5387796E-4,6.0074075E-5,1.0026621E-5,-5.5358825E-5,1.7941266E-4,4.0569408E-5],"split_indices":[0,0,10,0,0,0,7,0,0,0,0,0,0,0,0,0,0,0,0,0,0,0,0,0,0],"split_type":[0,0,0,0,0,0,0,0,0,0,0,0,0,0,0,0,0,0,0,0,0,0,0,0,0],"sum_hessian":[6.56E2,5.25E2,1.31E2,2.2E1,5.03E2,4.8E1,8.3E1,4E0,1.8E1,2.73E2,2.3E2,3.6E1,4.7E1,1.34E2,1.39E2,1.67E2,6.3E1,1.23E2,1.1E1,1.09E2,3E1,3.7E1,1.3E2,9E0,5.4E1],"tree_param":{"num_deleted":"0","num_feature":"11","num_nodes":"25","size_leaf_vector":"1"}},{"base_weights":[-2.223196E-4,-2.4069948E-3,6.501183E-3,9.152862E-4,-1.12649435E-2,1.0399988E-2,2.0403452E-3,-3.1698456E-3,4.747093E-3,-1.38828065E-2,-6.6714594E-4,1.1199446E-2,-2.4594614E-5,7.0443596E-3,-5.9674135E-3,-5.1138457E-5,-1.2379721E-2,5.2976706E-3,-2.198909E-3,-9.863202E-3,-1.9449139E-2,2.4844373E-3,-5.477125E-3,8.52419E-3,1.39335375E-2,8.838596E-3,2.7470312E-3,-8.678759E-3,8.366565E-5,-1.9454685E-5,5.3769494E-5,-2.0622743E-4,-4.067569E-5,9.9995115E-5,2.5972631E-5,6.68523E-5,-7.728494E-5,-2.8872397E-4,-7.947287E-5,-2.0948851E-4,-3.2676675E-4,-1.8558796E-5,7.5019576E-5,-1.6648748E-5,-1.1073011E-4,1.5994972E-4,8.8861365E-5,2.5569866E-4,9.758713E-5,1.0582611E-4,1.8257902E-4,1.0553711E-4,-1.6856478E-5,-2.0131306E-6,-1.555483E-4],"categories":[],"categories_nodes":[],"categories_segments":[],"categories_sizes":[],"default_left":[0,0,0,0,0,0,0,0,0,0,0,0,0,0,0,0,0,0,0,0,0,0,0,0,0,0,0,0,0,0,0,0,0,0,0,0,0,0,0,0,0,0,0,0,0,0,0,0,0,0,0,0,0,0,0],"id":56,"left_children":[1,3,5,7,9,11,13,15,17,19,21,23,-1,25,27,29,31,33,35,37,39,41,43,45,47,49,51,53,-1,-1,-1,-1,-1,-1,-1,-1,-1,-1,-1,-1,-1,-1,-1,-1,-1,-1,-1,-1,-1,-1,-1,-1,-1,-1,-1],"loss_changes":[9.342954E-3,1.4136038E-2,2.6919222E-3,5.493751E-3,3.625147E-3,8.2397554E-4,3.0072862E-3,4.882261E-3,7.038489E-4,2.157487E-3,4.2290188E-4,4.5175105E-4,0E0,3.303995E-4,9.819302E-4,6.4872403E-4,8.1690494E-4,9.918436E-4,3.3667096E-4,2.6951302E-3,3.7417933E-4,1.8591621E-4,9.9690544E-5,1.8958235E-4,9.2916656E-4,8.4314495E-5,2.8352515E-4,4.5727973E-4,0E0,0E0,0E0,0E0,0E0,0E0,0E0,0E0,0E0,0E0,0E0,0E0,0E0,0E0,0E0,0E0,0E0,0E0,0E0,0E0,0E0,0E0,0E0,0E0,0E0,0E0,0E0],"parents":[2147483647,0,0,1,1,2,2,3,3,4,4,5,5,6,6,7,7,8,8,9,9,10,10,11,11,13,13,14,14,15,15,16,16,17,17,18,18,19,19,20,20,21,21,22,22,23,23,24,24,25,25,26,26,27,27],"right_children":[2,4,6,8,10,12,14,16,18,20,22,24,-1,26,28,30,32,34,36,38,40,42,44,46,48,50,52,54,