{"learner":{"attributes":{"scikit_learn":"{\"_estimator_type\": \"regressor\"}"},"feature_names":["T1","mu","beta","tmdi frequency ratio","tmdi damping ratio","tmdi_1 stiffness","tmdi_2 stiffness","tmdi_1 damping","tmdi_2 damping","No.story","tmdi configuration"],"feature_types":["float","float","float","float","float","float","float","float","float","float","int"],"gradient_booster":{"model":{"gbtree_model_param":{"num_parallel_tree":"1","num_trees":"500"},"iteration_indptr":[0,1,2,3,4,5,6,7,8,9,10,11,12,13,14,15,16,17,18,19,20,21,22,23,24,25,26,27,28,29,30,31,32,33,34,35,36,37,38,39,40,41,42,43,44,45,46,47,48,49,50,51,52,53,54,55,56,57,58,59,60,61,62,63,64,65,66,67,68,69,70,71,72,73,74,75,76,77,78,79,80,81,82,83,84,85,86,87,88,89,90,91,92,93,94,95,96,97,98,99,100,101,102,103,104,105,106,107,108,109,110,111,112,113,114,115,116,117,118,119,120,121,122,123,124,125,126,127,128,129,130,131,132,133,134,135,136,137,138,139,140,141,142,143,144,145,146,147,148,149,150,151,152,153,154,155,156,157,158,159,160,161,162,163,164,165,166,167,168,169,170,171,172,173,174,175,176,177,178,179,180,181,182,183,184,185,186,187,188,189,190,191,192,193,194,195,196,197,198,199,200,201,202,203,204,205,206,207,208,209,210,211,212,213,214,215,216,217,218,219,220,221,222,223,224,225,226,227,228,229,230,231,232,233,234,235,236,237,238,239,240,241,242,243,244,245,246,247,248,249,250,251,252,253,254,255,256,257,258,259,260,261,262,263,264,265,266,267,268,269,270,271,272,273,274,275,276,277,278,279,280,281,282,283,284,285,286,287,288,289,290,291,292,293,294,295,296,297,298,299,300,301,302,303,304,305,306,307,308,309,310,311,312,313,314,315,316,317,318,319,320,321,322,323,324,325,326,327,328,329,330,331,332,333,334,335,336,337,338,339,340,341,342,343,344,345,346,347,348,349,350,351,352,353,354,355,356,357,358,359,360,361,362,363,364,365,366,367,368,369,370,371,372,373,374,375,376,377,378,379,380,381,382,383,384,385,386,387,388,389,390,391,392,393,394,395,396,397,398,399,400,401,402,403,404,405,406,407,408,409,410,411,412,413,414,415,416,417,418,419,420,421,422,423,424,425,426,427,428,429,430,431,432,433,434,435,436,437,438,439,440,441,442,443,444,445,446,447,448,449,450,451,452,453,454,455,456,457,458,459,460,461,462,463,464,465,466,467,468,469,470,471,472,473,474,475,476,477,478,479,480,481,482,483,484,485,486,487,488,489,490,491,492,493,494,495,496,497,498,499,500],"tree_info":[0,0,0,0,0,0,0,0,0,0,0,0,0,0,0,0,0,0,0,0,0,0,0,0,0,0,0,0,0,0,0,0,0,0,0,0,0,0,0,0,0,0,0,0,0,0,0,0,0,0,0,0,0,0,0,0,0,0,0,0,0,0,0,0,0,0,0,0,0,0,0,0,0,0,0,0,0,0,0,0,0,0,0,0,0,0,0,0,0,0,0,0,0,0,0,0,0,0,0,0,0,0,0,0,0,0,0,0,0,0,0,0,0,0,0,0,0,0,0,0,0,0,0,0,0,0,0,0,0,0,0,0,0,0,0,0,0,0,0,0,0,0,0,0,0,0,0,0,0,0,0,0,0,0,0,0,0,0,0,0,0,0,0,0,0,0,0,0,0,0,0,0,0,0,0,0,0,0,0,0,0,0,0,0,0,0,0,0,0,0,0,0,0,0,0,0,0,0,0,0,0,0,0,0,0,0,0,0,0,0,0,0,0,0,0,0,0,0,0,0,0,0,0,0,0,0,0,0,0,0,0,0,0,0,0,0,0,0,0,0,0,0,0,0,0,0,0,0,0,0,0,0,0,0,0,0,0,0,0,0,0,0,0,0,0,0,0,0,0,0,0,0,0,0,0,0,0,0,0,0,0,0,0,0,0,0,0,0,0,0,0,0,0,0,0,0,0,0,0,0,0,0,0,0,0,0,0,0,0,0,0,0,0,0,0,0,0,0,0,0,0,0,0,0,0,0,0,0,0,0,0,0,0,0,0,0,0,0,0,0,0,0,0,0,0,0,0,0,0,0,0,0,0,0,0,0,0,0,0,0,0,0,0,0,0,0,0,0,0,0,0,0,0,0,0,0,0,0,0,0,0,0,0,0,0,0,0,0,0,0,0,0,0,0,0,0,0,0,0,0,0,0,0,0,0,0,0,0,0,0,0,0,0,0,0,0,0,0,0,0,0,0,0,0,0,0,0,0,0,0,0,0,0,0,0,0,0,0,0,0,0,0,0,0,0,0,0,0,0,0,0,0,0,0,0,0,0,0,0,0,0,0,0,0,0,0,0,0,0,0,0,0,0,0,0,0,0,0,0,0,0,0,0,0,0,0,0,0,0,0,0,0,0,0,0,0,0,0,0,0],"trees":[{"base_weights":[-6.9604313E-4,9.47888E-3,-7.629429E-4,1.1754764E-3,7.2603826E-3,1.5719052E-2,-1.1456251E-3,1.9184788E-4,3.1457015E-4,-6.6938126E-5,1.2091176E-4],"categories":[],"categories_nodes":[],"categories_segments":[],"categories_sizes":[],"default_left":[0,0,0,0,0,0,0,0,0,0,0],"id":0,"left_children":[1,3,-1,-1,5,7,9,-1,-1,-1,-1],"loss_changes":[3.65933E-1,8.449036E-2,0E0,0E0,4.8652895E-2,2.0824522E-3,6.508728E-3,0E0,0E0,0E0,0E0],"parents":[2147483647,0,0,1,1,4,4,5,5,6,6],"right_children":[2,4,-1,-1,6,8,10,-1,-1,-1,-1],"split_conditions":[1.4E1,2E0,-7.629429E-4,1.1754764E-3,6E0,1.1871914E5,1.2E1,1.9184788E-4,3.1457015E-4,-6.6938126E-5,1.2091176E-4],"split_indices":[9,9,0,0,9,7,9,0,0,0,0],"split_type":[0,0,0,0,0,0,0,0,0,0,0],"sum_hessian":[8.88E2,7.1E2,1.78E2,2.7E1,6.83E2,3.4E2,3.43E2,6.5E1,2.75E2,2.6E2,8.3E1],"tree_param":{"num_deleted":"0","num_feature":"11","num_nodes":"11","size_leaf_vector":"1"}},{"base_weights":[-1.5766882E-4,9.905912E-3,-7.4364804E-4,1.1170387E-3,7.7148057E-3,1.5677761E-2,-9.915786E-4,1.8953925E-4,3.1300948E-4,-7.3400086E-5,1.4278716E-4],"categories":[],"categories_nodes":[],"categories_segments":[],"categories_sizes":[],"default_left":[0,0,0,0,0,0,0,0,0,0,0],"id":1,"left_children":[1,3,-1,-1,5,7,9,-1,-1,-1,-1],"loss_changes":[3.5102955E-1,7.643433E-2,0E0,0E0,4.6465676E-2,2.098903E-3,8.291611E-3,0E0,0E0,0E0,0E0],"parents":[2147483647,0,0,1,1,4,4,5,5,6,6],"right_children":[2,4,-1,-1,6,8,10,-1,-1,-1,-1],"split_conditions":[3.1880064E0,8.326121E-1,-7.4364804E-4,1.1170387E-3,1.7885878E0,1.1871914E5,2.7778301E0,1.8953925E-4,3.1300948E-4,-7.3400086E-5,1.4278716E-4],"split_indices":[0,0,0,0,0,7,0,0,0,0,0],"split_type":[0,0,0,0,0,0,0,0,0,0,0],"sum_hessian":[8.72E2,6.97E2,1.75E2,2.8E1,6.69E2,3.49E2,3.2E2,6.4E1,2.85E2,2.39E2,8.1E1],"tree_param":{"num_deleted":"0","num_feature":"11","num_nodes":"11","size_leaf_vector":"1"}},{"base_weights":[-2.997641E-4,9.516474E-3,-3.9901484E-2,1.9557578E-2,-1.231872E-3,-6.5315946E-4,-4.172727E-2,1.0611766E-3,1.6364455E-2,-3.5334856E-3,6.1712316E-3,-8.25575E-4,-6.5154E-4,1.8454257E-4,3.2843617E-4,7.381872E-5,-1.3253096E-4,3.567231E-4,5.4088385E-5],"categories":[],"categories_nodes":[],"categories_segments":[],"categories_sizes":[],"default_left":[0,0,0,0,0,0,0,0,0,0,0,0,0,0,0,0,0,0,0],"id":2,"left_children":[1,3,5,7,9,-1,11,-1,13,15,17,-1,-1,-1,-1,-1,-1,-1,-1],"loss_changes":[3.4052712E-1,7.578762E-2,2.7507544E-5,4.266867E-2,5.8150943E-3,0E0,6.277114E-4,0E0,2.697453E-3,7.072884E-3,3.3864963E-3,0E0,0E0,0E0,0E0,0E0,0E0,0E0,0E0],"parents":[2147483647,0,0,1,1,2,2,3,3,4,4,6,6,8,8,9,9,10,10],"right_children":[2,4,6,8,10,-1,12,-1,14,16,18,-1,-1,-1,-1,-1,-1,-1,-1],"split_conditions":[1.4E1,6E0,1E0,2E0,1.2E1,-6.5315946E-4,8.333333E-1,1.0611766E-3,1.1871914E5,7E0,4E-3,-8.25575E-4,-6.5154E-4,1.8454257E-4,3.2843617E-4,7.381872E-5,-1.3253096E-4,3.567231E-4,5.4088385E-5],"split_indices":[9,9,10,9,9,0,3,0,7,9,1,0,0,0,0,0,0,0,0],"split_type":[0,0,0,0,0,0,0,0,0,0,0,0,0,0,0,0,0,0,0],"sum_hessian":[8.74E2,7.01E2,1.73E2,3.62E2,3.39E2,5.4E1,1.19E2,2.7E1,3.35E2,2.59E2,8E1,8E1,3.9E1,5.9E1,2.76E2,8.4E1,1.75E2,1.5E1,6.5E1],"tree_param":{"num_deleted":"0","num_feature":"11","num_nodes":"19","size_leaf_vector":"1"}},{"base_weights":[1.7321076E-4,9.060348E-3,-7.231459E-4,1.0923375E-3,6.621815E-3,1.4751411E-2,-2.0309188E-3,2.3142897E-4,3.4432567E-4,-8.51439E-5,9.655224E-5],"categories":[],"categories_nodes":[],"categories_segments":[],"categories_sizes":[],"default_left":[0,0,0,0,0,0,0,0,0,0,0],"id":3,"left_children":[1,3,-1,-1,5,7,9,-1,-1,-1,-1],"loss_changes":[3.1199265E-1,8.837358E-2,0E0,0E0,4.912954E-2,2.891153E-3,6.2929373E-3,0E0,0E0,0E0,0E0],"parents":[2147483647,0,0,1,1,4,4,5,5,6,6],"right_children":[2,4,-1,-1,6,8,10,-1,-1,-1,-1],"split_conditions":[3.1880064E0,8.326121E-1,-7.231459E-4,1.0923375E-3,1.7885878E0,1.4132483E0,2.7778301E0,2.3142897E-4,3.4432567E-4,-8.51439E-5,9.655224E-5],"split_indices":[0,0,0,0,0,0,0,0,0,0,0],"split_type":[0,0,0,0,0,0,0,0,0,0,0],"sum_hessian":[8.95E2,7.3E2,1.65E2,3.3E1,6.97E2,3.59E2,3.38E2,2.27E2,1.32E2,2.5E2,8.8E1],"tree_param":{"num_deleted":"0","num_feature":"11","num_nodes":"11","size_leaf_vector":"1"}},{"base_weights":[6.7585695E-4,9.566337E-3,-3.821732E-2,1.061101E-3,7.31859E-3,-6.255907E-4,-7.49581E-4,1.5137935E-2,-1.067918E-3,2.4598342E-4,3.8505075E-4,-6.43923E-5,1.1147905E-4],"categories":[],"categories_nodes":[],"categories_segments":[],"categories_sizes":[],"default_left":[0,0,0,0,0,0,0,0,0,0,0,0,0],"id":4,"left_children":[1,3,5,-1,7,-1,-1,9,11,-1,-1,-1,-1],"loss_changes":[3.0292222E-1,7.5877294E-2,2.3427606E-4,0E0,4.4739682E-2,0E0,0E0,3.4556463E-3,5.62745E-3,0E0,0E0,0E0,0E0],"parents":[2147483647,0,0,1,1,2,2,4,4,7,7,8,8],"right_children":[2,4,6,-1,8,-1,-1,10,12,-1,-1,-1,-1],"split_conditions":[1.4E1,2E0,1E0,1.061101E-3,6E0,-6.255907E-4,-7.49581E-4,5E0,1.2E1,2.4598342E-4,3.8505075E-4,-6.43923E-5,1.1147905E-4],"split_indices":[9,9,10,0,9,0,0,9,9,0,0,0,0],"split_type":[0,0,0,0,0,0,0,0,0,0,0,0,0],"sum_hessian":[8.74E2,7.12E2,1.62E2,3.1E1,6.81E2,5.8E1,1.04E2,3.52E2,3.29E2,2.66E2,8.6E1,2.46E2,8.3E1],"tree_param":{"num_deleted":"0","num_feature":"11","num_nodes":"13","size_leaf_vector":"1"}},{"base_weights":[4.7749322E-4,9.058608E-3,-6.9365156E-4,1.0402298E-3,6.7195897E-3,1.3528283E-2,-1.7963974E-3,2.654496E-4,1.2123797E-4,-8.823526E-5,9.8647404E-5],"categories":[],"categories_nodes":[],"categories_segments":[],"categories_sizes":[],"default_left":[0,0,0,0,0,0,0,0,0,0,0],"id":5,"left_children":[1,3,-1,-1,5,7,9,-1,-1,-1,-1],"loss_changes":[2.952657E-1,8.10659E-2,0E0,0E0,4.1018102E-2,2.0352527E-3,6.651041E-3,0E0,0E0,0E0,0E0],"parents":[2147483647,0,0,1,1,4,4,5,5,6,6],"right_children":[2,4,-1,-1,6,8,10,-1,-1,-1,-1],"split_conditions":[3.1880064E0,8.326121E-1,-6.9365156E-4,1.0402298E-3,1.7960024E0,1.7848761E0,2.7778301E0,2.654496E-4,1.2123797E-4,-8.823526E-5,9.8647404E-5],"split_indices":[0,0,0,0,0,0,0,0,0,0,0],"split_type":[0,0,0,0,0,0,0,0,0,0,0],"sum_hessian":[9.07E2,7.4E2,1.67E2,3.4E1,7.06E2,3.92E2,3.14E2,3.52E2,4E1,2.22E2,9.2E1],"tree_param":{"num_deleted":"0","num_feature":"11","num_nodes":"11","size_leaf_vector":"1"}},{"base_weights":[8.763419E-5,8.591332E-3,-6.8420713E-4,1.0216483E-3,6.5531703E-3,1.3129479E-2,-1.7479961E-3,2.5873157E-4,1.2147829E-4,-9.011935E-5,1.1790015E-4],"categories":[],"categories_nodes":[],"categories_segments":[],"categories_sizes":[],"default_left":[0,0,0,0,0,0,0,0,0,0,0],"id":6,"left_children":[1,3,-1,-1,5,7,9,-1,-1,-1,-1],"loss_changes":[2.7715933E-1,6.7527466E-2,0E0,0E0,3.7581578E-2,1.9594058E-3,7.708808E-3,0E0,0E0,0E0,0E0],"parents":[2147483647,0,0,1,1,4,4,5,5,6,6],"right_children":[2,4,-1,-1,6,8,10,-1,-1,-1,-1],"split_conditions":[3.1880064E0,8.326121E-1,-6.8420713E-4,1.0216483E-3,1.7960024E0,1.7848761E0,2.7778301E0,2.5873157E-4,1.2147829E-4,-9.011935E-5,1.1790015E-4],"split_indices":[0,0,0,0,0,0,0,0,0,0,0],"split_type":[0,0,0,0,0,0,0,0,0,0,0],"sum_hessian":[8.8E2,7.16E2,1.64E2,2.9E1,6.87E2,3.83E2,3.04E2,3.4E2,4.3E1,2.2E2,8.4E1],"tree_param":{"num_deleted":"0","num_feature":"11","num_nodes":"11","size_leaf_vector":"1"}},{"base_weights":[-4.572809E-4,8.585366E-3,-6.6499936E-4,1.0115522E-3,6.555926E-3,1.3612786E-2,-1.1684012E-3,1.6985985E-4,2.7049566E-4,-6.587878E-5,1.009857E-4],"categories":[],"categories_nodes":[],"categories_segments":[],"categories_sizes":[],"default_left":[0,0,0,0,0,0,0,0,0,0,0],"id":7,"left_children":[1,3,-1,-1,5,7,9,-1,-1,-1,-1],"loss_changes":[2.8594851E-1,6.599161E-2,0E0,0E0,3.7245892E-2,1.3979524E-3,5.1657907E-3,0E0,0E0,0E0,0E0],"parents":[2147483647,0,0,1,1,4,4,5,5,6,6],"right_children":[2,4,-1,-1,6,8,10,-1,-1,-1,-1],"split_conditions":[3.1880064E0,8.326121E-1,-6.6499936E-4,1.0115522E-3,1.7885878E0,1.1871914E5,2.7778301E0,1.6985985E-4,2.7049566E-4,-6.587878E-5,1.009857E-4],"split_indices":[0,0,0,0,0,7,0,0,0,0,0],"split_type":[0,0,0,0,0,0,0,0,0,0,0],"sum_hessian":[8.92E2,7.11E2,1.81E2,2.9E1,6.82E2,3.56E2,3.26E2,6.5E1,2.91E2,2.4E2,8.6E1],"tree_param":{"num_deleted":"0","num_feature":"11","num_nodes":"11","size_leaf_vector":"1"}},{"base_weights":[2.041236E-4,8.460675E-3,-3.5182312E-2,1.6803645E-2,-8.0963515E-4,-5.7777384E-4,-3.7144985E-2,9.755206E-4,1.402103E-2,-3.050454E-3,5.594608E-3,-6.0283265E-4,-7.4621255E-4,2.067677E-4,3.2269163E-4,6.560909E-5,-1.20682E-4,3.4598325E-4,5.786121E-5],"categories":[],"categories_nodes":[],"categories_segments":[],"categories_sizes":[],"default_left":[0,0,0,0,0,0,0,0,0,0,0,0,0,0,0,0,0,0,0],"id":8,"left_children":[1,3,5,7,9,-1,11,-1,13,15,17,-1,-1,-1,-1,-1,-1,-1,-1],"loss_changes":[2.5945237E-1,5.5699777E-2,1.795888E-4,3.6973566E-2,4.925022E-3,0E0,2.36094E-4,0E0,3.2283813E-3,5.797092E-3,2.8181837E-3,0E0,0E0,0E0,0E0,0E0,0E0,0E0,0E0],"parents":[2147483647,0,0,1,1,2,2,3,3,4,4,6,6,8,8,9,9,10,10],"right_children":[2,4,6,8,10,-1,12,-1,14,16,18,-1,-1,-1,-1,-1,-1,-1,-1],"split_conditions":[3.1880064E0,1.7848761E0,1E0,8.326121E-1,2.7778301E0,-5.7777384E-4,7.226625E5,9.755206E-4,1.4050951E0,1.9733926E0,2.7844307E0,-6.0283265E-4,-7.4621255E-4,2.067677E-4,3.2269163E-4,6.560909E-5,-1.20682E-4,3.4598325E-4,5.786121E-5],"split_indices":[0,0,10,0,0,0,7,0,0,0,0,0,0,0,0,0,0,0,0],"split_type":[0,0,0,0,0,0,0,0,0,0,0,0,0,0,0,0,0,0,0],"sum_hessian":[8.86E2,7.19E2,1.67E2,3.78E2,3.41E2,6E1,1.07E2,2.6E1,3.52E2,2.53E2,8.8E1,4.7E1,6E1,1.92E2,1.6E2,8.7E1,1.66E2,1.3E1,7.5E1],"tree_param":{"num_deleted":"0","num_feature":"11","num_nodes":"19","size_leaf_vector":"1"}},{"base_weights":[5.083591E-4,8.786502E-3,-6.486796E-4,9.7511936E-4,6.8489877E-3,1.3464416E-2,-1.6566411E-4,2.1317716E-4,3.0243554E-4,-4.6464083E-5,1.2558057E-4],"categories":[],"categories_nodes":[],"categories_segments":[],"categories_sizes":[],"default_left":[0,0,0,0,0,0,0,0,0,0,0],"id":9,"left_children":[1,3,-1,-1,5,7,9,-1,-1,-1,-1],"loss_changes":[2.574467E-1,5.9913464E-2,0E0,0E0,3.1650394E-2,1.778625E-3,5.3972863E-3,0E0,0E0,0E0,0E0],"parents":[2147483647,0,0,1,1,4,4,5,5,6,6],"right_children":[2,4,-1,-1,6,8,10,-1,-1,-1,-1],"split_conditions":[1.4E1,2E0,-6.486796E-4,9.7511936E-4,6E0,2.9818094E-1,1.2E1,2.1317716E-4,3.0243554E-4,-4.6464083E-5,1.2558057E-4],"split_indices":[9,9,0,0,9,4,9,0,0,0,0],"split_type":[0,0,0,0,0,0,0,0,0,0,0],"sum_hessian":[8.75E2,7.1E2,1.65E2,2.9E1,6.81E2,3.5E2,3.31E2,2.09E2,1.41E2,2.48E2,8.3E1],"tree_param":{"num_deleted":"0","num_feature":"11","num_nodes":"11","size_leaf_vector":"1"}},{"base_weights":[3.9868607E-4,8.462561E-3,-3.4358475E-2,9.5293025E-4,6.3795513E-3,-5.5467285E-4,-3.6167275E-2,1.2992725E-2,-2.1162294E-3,-5.70856E-4,-7.1413076E-4,2.012663E-4,2.780586E-4,-9.436121E-5,1.0699821E-4],"categories":[],"categories_nodes":[],"categories_segments":[],"categories_sizes":[],"default_left":[0,0,0,0,0,0,0,0,0,0,0,0,0,0,0],"id":10,"left_children":[1,3,5,-1,7,-1,9,11,13,-1,-1,-1,-1,-1,-1],"loss_changes":[2.545024E-1,6.550345E-2,3.0247867E-4,0E0,3.9581075E-2,0E0,2.7871132E-4,1.5298724E-3,7.2573405E-3,0E0,0E0,0E0,0E0,0E0,0E0],"parents":[2147483647,0,0,1,1,2,2,4,4,6,6,7,7,8,8],"right_children":[2,4,6,-1,8,-1,10,12,14,-1,-1,-1,-1,-1,-1],"split_conditions":[3.1880064E0,8.326121E-1,1E0,9.5293025E-4,1.7960024E0,-5.5467285E-4,2.512381E-1,1.4050951E0,2.7778301E0,-5.70856E-4,-7.1413076E-4,2.012663E-4,2.780586E-4,-9.436121E-5,1.0699821E-4],"split_indices":[0,0,10,0,0,0,4,0,0,0,0,0,0,0,0],"split_type":[0,0,0,0,0,0,0,0,0,0,0,0,0,0,0],"sum_hessian":[9.06E2,7.36E2,1.7E2,3.3E1,7.03E2,5.4E1,1.16E2,3.95E2,3.08E2,3.9E1,7.7E1,1.93E2,2.02E2,2.24E2,8.4E1],"tree_param":{"num_deleted":"0","num_feature":"11","num_nodes":"15","size_leaf_vector":"1"}},{"base_weights":[-5.35278E-4,7.859921E-3,-3.363874E-2,9.272476E-4,5.762058E-3,-5.428983E-4,-3.569363E-2,1.2905306E-2,-1.7725669E-3,-5.473587E-4,-7.11519E-4,1.7801853E-4,3.083607E-4,-7.980278E-5,1.0262329E-4],"categories":[],"categories_nodes":[],"categories_segments":[],"categories_sizes":[],"default_left":[0,0,0,0,0,0,0,0,0,0,0,0,0,0,0],"id":11,"left_children":[1,3,5,-1,7,-1,9,11,13,-1,-1,-1,-1,-1,-1],"loss_changes":[2.431579E-1,6.1360244E-2,5.515814E-4,0E0,3.5868123E-2,0E0,7.709414E-4,4.0441863E-3,6.0212403E-3,0E0,0E0,0E0,0E0,0E0,0E0],"parents":[2147483647,0,0,1,1,2,2,4,4,6,6,7,7,8,8],"right_children":[2,4,6,-1,8,-1,10,12,14,-1,-1,-1,-1,-1,-1],"split_conditions":[3.1880064E0,8.326121E-1,1E0,9.272476E-4,1.7885878E0,-5.428983E-4,2.512381E-1,1.4050951E0,2.7778301E0,-5.473587E-4,-7.11519E-4,1.7801853E-4,3.083607E-4,-7.980278E-5,1.0262329E-4],"split_indices":[0,0,10,0,0,0,4,0,0,0,0,0,0,0,0],"split_type":[0,0,0,0,0,0,0,0,0,0,0,0,0,0,0],"sum_hessian":[8.73E2,6.97E2,1.76E2,3.2E1,6.65E2,6.1E1,1.15E2,3.41E2,3.24E2,3.8E1,7.7E1,1.82E2,1.59E2,2.41E2,8.3E1],"tree_param":{"num_deleted":"0","num_feature":"11","num_nodes":"15","size_leaf_vector":"1"}},{"base_weights":[4.3211043E-5,7.753373E-3,-3.2268412E-2,1.5333707E-2,-1.5714339E-3,-5.3696136E-4,-3.4008753E-2,8.428706E-4,1.2772011E-2,-3.9114016E-3,4.6079415E-3,-5.367408E-4,-6.7479507E-4,1.4103038E-4,2.566643E-4,6.685765E-5,-1.1815323E-4,2.3254433E-4,1.1813545E-5],"categories":[],"categories_nodes":[],"categories_segments":[],"categories_sizes":[],"default_left":[0,0,0,0,0,0,0,0,0,0,0,0,0,0,0,0,0,0,0],"id":12,"left_children":[1,3,5,7,9,-1,11,-1,13,15,17,-1,-1,-1,-1,-1,-1,-1,-1],"loss_changes":[2.2371788E-1,5.1270835E-2,2.0697713E-5,3.0242786E-2,4.7318335E-3,0E0,2.3980439E-4,0E0,1.918409E-3,4.394206E-3,2.8234385E-3,0E0,0E0,0E0,0E0,0E0,0E0,0E0,0E0],"parents":[2147483647,0,0,1,1,2,2,3,3,4,4,6,6,8,8,9,9,10,10],"right_children":[2,4,6,8,10,-1,12,-1,14,16,18,-1,-1,-1,-1,-1,-1,-1,-1],"split_conditions":[3.1880064E0,1.7922965E0,1E0,8.326121E-1,2.7778301E0,-5.3696136E-4,4.435763E5,8.428706E-4,1.1067619E5,1.9733926E0,1E0,-5.367408E-4,-6.7479507E-4,1.4103038E-4,2.566643E-4,6.685765E-5,-1.1815323E-4,2.3254433E-4,1.1813545E-5],"split_indices":[0,0,10,0,0,0,7,0,7,0,10,0,0,0,0,0,0,0,0],"split_type":[0,0,0,0,0,0,0,0,0,0,0,0,0,0,0,0,0,0,0],"sum_hessian":[8.96E2,7.24E2,1.72E2,3.99E2,3.25E2,6.5E1,1.07E2,3E1,3.69E2,2.36E2,8.9E1,3.8E1,6.9E1,6.4E1,3.05E2,5.8E1,1.78E2,2.9E1,6E1],"tree_param":{"num_deleted":"0","num_feature":"11","num_nodes":"19","size_leaf_vector":"1"}},{"base_weights":[-2.860282E-4,7.61639E-3,-3.2118578E-2,8.73765E-4,5.8035036E-3,-5.1907345E-4,-3.392174E-2,1.1769397E-2,-2.2880812E-3,-5.6807883E-4,-7.1038754E-4,2.3775078E-4,1.03441904E-4,-9.586152E-5,9.1212896E-5],"categories":[],"categories_nodes":[],"categories_segments":[],"categories_sizes":[],"default_left":[0,0,0,0,0,0,0,0,0,0,0,0,0,0,0],"id":13,"left_children":[1,3,5,-1,7,-1,9,11,13,-1,-1,-1,-1,-1,-1],"loss_changes":[2.2261848E-1,5.0449207E-2,3.6853552E-4,0E0,3.280466E-2,0E0,5.3086877E-4,2.4497993E-3,6.014001E-3,0E0,0E0,0E0,0E0,0E0,0E0],"parents":[2147483647,0,0,1,1,2,2,4,4,6,6,7,7,8,8],"right_children":[2,4,6,-1,8,-1,10,12,14,-1,-1,-1,-1,-1,-1],"split_conditions":[3.1880064E0,8.326121E-1,1E0,8.73765E-4,1.7997053E0,-5.1907345E-4,9.73633E5,1.7848761E0,2.7778301E0,-5.6807883E-4,-7.1038754E-4,2.3775078E-4,1.03441904E-4,-9.586152E-5,9.1212896E-5],"split_indices":[0,0,10,0,0,0,7,0,0,0,0,0,0,0,0],"split_type":[0,0,0,0,0,0,0,0,0,0,0,0,0,0,0],"sum_hessian":[8.83E2,7.08E2,1.75E2,3E1,6.78E2,5.8E1,1.17E2,3.9E2,2.88E2,7.1E1,4.6E1,3.33E2,5.7E1,2.06E2,8.2E1],"tree_param":{"num_deleted":"0","num_feature":"11","num_nodes":"15","size_leaf_vector":"1"}},{"base_weights":[-9.9731165E-5,7.5023104E-3,-3.1491105E-2,9.2407415E-4,5.4744557E-3,-5.115303E-4,-3.3280026E-2,1.2236934E-2,-8.7505474E-4,-5.30101E-4,-6.773566E-4,1.5547482E-4,2.5516E-4,-5.6598452E-5,1.08821994E-4],"categories":[],"categories_nodes":[],"categories_segments":[],"categories_sizes":[],"default_left":[0,0,0,0,0,0,0,0,0,0,0,0,0,0,0],"id":14,"left_children":[1,3,5,-1,7,-1,9,11,13,-1,-1,-1,-1,-1,-1],"loss_changes":[2.0809041E-1,5.9925452E-2,2.7783215E-4,0E0,2.8822394E-2,0E0,6.570667E-4,1.7805547E-3,5.1023443E-3,0E0,0E0,0E0,0E0,0E0,0E0],"parents":[2147483647,0,0,1,1,2,2,4,4,6,6,7,7,8,8],"right_children":[2,4,6,-1,8,-1,10,12,14,-1,-1,-1,-1,-1,-1],"split_conditions":[1.4E1,2E0,1E0,9.2407415E-4,6E0,-5.115303E-4,7.226625E5,2.407351E5,1.2E1,-5.30101E-4,-6.773566E-4,1.5547482E-4,2.5516E-4,-5.6598452E-5,1.08821994E-4],"split_indices":[9,9,10,0,9,0,7,7,9,0,0,0,0,0,0],"split_type":[0,0,0,0,0,0,0,0,0,0,0,0,0,0,0],"sum_hessian":[8.7E2,7.01E2,1.69E2,3.1E1,6.7E2,5.8E1,1.11E2,3.24E2,3.46E2,4.9E1,6.2E1,9.3E1,2.31E2,2.62E2,8.4E1],"tree_param":{"num_deleted":"0","num_feature":"11","num_nodes":"15","size_leaf_vector":"1"}},{"base_weights":[2.0513353E-4,7.407235E-3,-3.094736E-2,8.7248377E-4,5.551795E-3,-5.02545E-4,-3.25229E-2,1.1401014E-2,-1.898705E-3,-5.399677E-4,-6.6789053E-4,2.2441684E-4,1.0715803E-4,-8.287064E-5,8.397042E-5],"categories":[],"categories_nodes":[],"categories_segments":[],"categories_sizes":[],"default_left":[0,0,0,0,0,0,0,0,0,0,0,0,0,0,0],"id":15,"left_children":[1,3,5,-1,7,-1,9,11,13,-1,-1,-1,-1,-1,-1],"loss_changes":[1.9834211E-1,5.2497692E-2,1.3154745E-4,0E0,2.9960843E-2,0E0,2.9506534E-4,1.4264733E-3,5.014887E-3,0E0,0E0,0E0,0E0,0E0,0E0],"parents":[2147483647,0,0,1,1,2,2,4,4,6,6,7,7,8,8],"right_children":[2,4,6,-1,8,-1,10,12,14,-1,-1,-1,-1,-1,-1],"split_conditions":[3.1880064E0,8.326121E-1,1E0,8.7248377E-4,1.7960024E0,-5.02545E-4,2.0427205E6,1.7848761E0,2.7778301E0,-5.399677E-4,-6.6789053E-4,2.2441684E-4,1.0715803E-4,-8.287064E-5,8.397042E-5],"split_indices":[0,0,10,0,0,0,5,0,0,0,0,0,0,0,0],"split_type":[0,0,0,0,0,0,0,0,0,0,0,0,0,0,0],"sum_hessian":[8.82E2,7.17E2,1.65E2,3.1E1,6.86E2,5.3E1,1.12E2,3.84E2,3.02E2,6.1E1,5.1E1,3.41E2,4.3E1,2.16E2,8.6E1],"tree_param":{"num_deleted":"0","num_feature":"11","num_nodes":"15","size_leaf_vector":"1"}},{"base_weights":[-3.220534E-4,7.1886815E-3,-5.691691E-4,8.587614E-4,5.305743E-3,1.1633988E-2,-1.0573341E-3,1.725992E-4,2.6222886E-4,-6.087706E-5,9.638983E-5],"categories":[],"categories_nodes":[],"categories_segments":[],"categories_sizes":[],"default_left":[0,0,0,0,0,0,0,0,0,0,0],"id":16,"left_children":[1,3,-1,-1,5,7,9,-1,-1,-1,-1],"loss_changes":[1.9873275E-1,5.1192805E-2,0E0,0E0,2.691073E-2,1.8196553E-3,4.657645E-3,0E0,0E0,0E0,0E0],"parents":[2147483647,0,0,1,1,4,4,5,5,6,6],"right_children":[2,4,-1,-1,6,8,10,-1,-1,-1,-1],"split_conditions":[3.1880064E0,8.326121E-1,-5.691691E-4,8.587614E-4,1.7885878E0,1.4050951E0,2.7778301E0,1.725992E-4,2.6222886E-4,-6.087706E-5,9.638983E-5],"split_indices":[0,0,0,0,0,0,0,0,0,0,0],"split_type":[0,0,0,0,0,0,0,0,0,0,0],"sum_hessian":[8.7E2,6.98E2,1.72E2,3.1E1,6.67E2,3.34E2,3.33E2,1.75E2,1.59E2,2.46E2,8.7E1],"tree_param":{"num_deleted":"0","num_feature":"11","num_nodes":"11","size_leaf_vector":"1"}},{"base_weights":[-1.2397958E-4,6.874603E-3,-2.9888289E-2,8.5204263E-4,5.1347404E-3,-4.7789645E-4,-3.145039E-2,1.1491133E-2,-9.076287E-4,-6.239531E-4,-4.9164327E-4,1.0230511E-4,2.3655708E-4,-4.794153E-5,8.145659E-5],"categories":[],"categories_nodes":[],"categories_segments":[],"categories_sizes":[],"default_left":[0,0,0,0,0,0,0,0,0,0,0,0,0,0,0],"id":17,"left_children":[1,3,5,-1,7,-1,9,11,13,-1,-1,-1,-1,-1,-1],"loss_changes":[1.8164174E-1,4.7711123E-2,2.6346743E-4,0E0,2.6012424E-2,0E0,3.5718083E-4,2.4052039E-3,3.09957E-3,0E0,0E0,0E0,0E0,0E0,0E0],"parents":[2147483647,0,0,1,1,2,2,4,4,6,6,7,7,8,8],"right_children":[2,4,6,-1,8,-1,10,12,14,-1,-1,-1,-1,-1,-1],"split_conditions":[1.4E1,2E0,1E0,8.5204263E-4,6E0,-4.7789645E-4,8.333333E-1,1.8644114E-1,1.2E1,-6.239531E-4,-4.9164327E-4,1.0230511E-4,2.3655708E-4,-4.794153E-5,8.145659E-5],"split_indices":[9,9,10,0,9,0,3,4,9,0,0,0,0,0,0],"split_type":[0,0,0,0,0,0,0,0,0,0,0,0,0,0,0],"sum_hessian":[8.7E2,7.05E2,1.65E2,2.9E1,6.76E2,5E1,1.15E2,3.29E2,3.47E2,7.6E1,3.9E1,5.8E1,2.71E2,2.64E2,8.3E1],"tree_param":{"num_deleted":"0","num_feature":"11","num_nodes":"15","size_leaf_vector":"1"}},{"base_weights":[-1.2051016E-4,6.90263E-3,-5.4009224E-4,8.224467E-4,5.4329736E-3,1.073954E-2,-1.4554387E-3,2.1283988E-4,1.1287027E-4,-7.843428E-5,9.693466E-5],"categories":[],"categories_nodes":[],"categories_segments":[],"categories_sizes":[],"default_left":[0,0,0,0,0,0,0,0,0,0,0],"id":18,"left_children":[1,3,-1,-1,5,7,9,-1,-1,-1,-1],"loss_changes":[1.815457E-1,3.9235923E-2,0E0,0E0,2.531087E-2,1.2567975E-3,5.6100134E-3,0E0,0E0,0E0,0E0],"parents":[2147483647,0,0,1,1,4,4,5,5,6,6],"right_children":[2,4,-1,-1,6,8,10,-1,-1,-1,-1],"split_conditions":[3.1880064E0,8.326121E-1,-5.4009224E-4,8.224467E-4,1.7960024E0,1.6334534E0,2.7778301E0,2.1283988E-4,1.1287027E-4,-7.843428E-5,9.693466E-5],"split_indices":[0,0,0,0,0,0,0,0,0,0,0],"split_type":[0,0,0,0,0,0,0,0,0,0,0],"sum_hessian":[8.9E2,7.17E2,1.73E2,2.6E1,6.91E2,3.9E2,3.01E2,3.36E2,5.4E1,2.13E2,8.8E1],"tree_param":{"num_deleted":"0","num_feature":"11","num_nodes":"11","size_leaf_vector":"1"}},{"base_weights":[-1.4796229E-4,7.314281E-3,-2.9329093E-2,1.4729263E-2,-6.707868E-4,-4.7477268E-4,-3.0914325E-2,8.219071E-4,1.212677E-2,3.7649781E-3,-2.7700372E-3,-5.177674E-4,-6.429112E-4,1.9545674E-4,3.1551204E-4,1.39269705E-5,2.2374032E-4,-6.8112826E-7,-1.8587422E-4],"categories":[],"categories_nodes":[],"categories_segments":[],"categories_sizes":[],"default_left":[0,0,0,0,0,0,0,0,0,0,0,0,0,0,0,0,0,0,0],"id":19,"left_children":[1,3,5,7,9,-1,11,-1,13,15,17,-1,-1,-1,-1,-1,-1,-1,-1],"loss_changes":[1.9140491E-1,4.145628E-2,2.7275085E-4,2.7384087E-2,3.1578115E-3,0E0,3.9373338E-4,0E0,2.4256073E-3,2.7150414E-3,4.554287E-3,0E0,0E0,0E0,0E0,0E0,0E0,0E0,0E0],"parents":[2147483647,0,0,1,1,2,2,3,3,4,4,6,6,8,8,9,9,10,10],"right_children":[2,4,6,8,10,-1,12,-1,14,16,18,-1,-1,-1,-1,-1,-1,-1,-1],"split_conditions":[1.4E1,6E0,1E0,2E0,1E0,-4.7477268E-4,9.73633E5,8.219071E-4,5E0,1.2E1,3.7439272E6,-5.177674E-4,-6.429112E-4,1.9545674E-4,3.1551204E-4,1.39269705E-5,2.2374032E-4,-6.8112826E-7,-1.8587422E-4],"split_indices":[9,9,10,9,10,0,7,0,9,9,5,0,0,0,0,0,0,0,0],"split_type":[0,0,0,0,0,0,0,0,0,0,0,0,0,0,0,0,0,0,0],"sum_hessian":[8.77E2,6.99E2,1.78E2,3.62E2,3.37E2,5.8E1,1.2E2,2.8E1,3.34E2,1.08E2,2.29E2,7.1E1,4.9E1,2.54E2,8E1,8E1,2.8E1,1.67E2,6.2E1],"tree_param":{"num_deleted":"0","num_feature":"11","num_nodes":"19","size_leaf_vector":"1"}},{"base_weights":[-1.417628E-4,6.7734187E-3,-5.231595E-4,7.8927306E-4,4.955319E-3,1.1052401E-2,-1.033979E-3,1.7821546E-4,2.847212E-4,-5.2500793E-5,8.05808E-5],"categories":[],"categories_nodes":[],"categories_segments":[],"categories_sizes":[],"default_left":[0,0,0,0,0,0,0,0,0,0,0],"id":20,"left_children":[1,3,-1,-1,5,7,9,-1,-1,-1,-1],"loss_changes":[1.7551717E-1,4.6980947E-2,0E0,0E0,2.5281357E-2,1.9857027E-3,3.3891562E-3,0E0,0E0,0E0,0E0],"parents":[2147483647,0,0,1,1,4,4,5,5,6,6],"right_children":[2,4,-1,-1,6,8,10,-1,-1,-1,-1],"split_conditions":[1.4E1,2E0,-5.231595E-4,7.8927306E-4,6E0,5E0,1.2E1,1.7821546E-4,2.847212E-4,-5.2500793E-5,8.05808E-5],"split_indices":[9,9,0,0,9,9,9,0,0,0,0],"split_type":[0,0,0,0,0,0,0,0,0,0,0],"sum_hessian":[9.03E2,7.25E2,1.78E2,3.4E1,6.91E2,3.42E2,3.49E2,2.58E2,8.4E1,2.62E2,8.7E1],"tree_param":{"num_deleted":"0","num_feature":"11","num_nodes":"11","size_leaf_vector":"1"}},{"base_weights":[-2.27732E-4,6.351969E-3,-5.159637E-4,7.349163E-4,4.859933E-3,9.829222E-3,-2.1138296E-3,2.0007353E-4,1.0442894E-4,-9.138583E-5,8.7626184E-5],"categories":[],"categories_nodes":[],"categories_segments":[],"categories_sizes":[],"default_left":[0,0,0,0,0,0,0,0,0,0,0],"id":21,"left_children":[1,3,-1,-1,5,7,9,-1,-1,-1,-1],"loss_changes":[1.6290972E-1,3.5770178E-2,0E0,0E0,2.4105754E-2,1.5616529E-3,5.5933613E-3,0E0,0E0,0E0,0E0],"parents":[2147483647,0,0,1,1,4,4,5,5,6,6],"right_children":[2,4,-1,-1,6,8,10,-1,-1,-1,-1],"split_conditions":[3.1880064E0,8.326121E-1,-5.159637E-4,7.349163E-4,1.7997053E0,1.6334534E0,2.7778301E0,2.0007353E-4,1.0442894E-4,-9.138583E-5,8.7626184E-5],"split_indices":[0,0,0,0,0,0,0,0,0,0,0],"split_type":[0,0,0,0,0,0,0,0,0,0,0],"sum_hessian":[8.96E2,7.24E2,1.72E2,3E1,6.94E2,4.05E2,2.89E2,3.29E2,7.6E1,2.05E2,8.4E1],"tree_param":{"num_deleted":"0","num_feature":"11","num_nodes":"11","size_leaf_vector":"1"}},{"base_weights":[-1.12158086E-4,6.508708E-3,-5.0716713E-4,7.4710214E-4,4.9538827E-3,9.717339E-3,-2.1309294E-3,1.9865559E-4,8.671014E-5,-8.757534E-5,7.1445014E-5],"categories":[],"categories_nodes":[],"categories_segments":[],"categories_sizes":[],"default_left":[0,0,0,0,0,0,0,0,0,0,0],"id":22,"left_children":[1,3,-1,-1,5,7,9,-1,-1,-1,-1],"loss_changes":[1.5837722E-1,3.6895625E-2,0E0,0E0,2.2868235E-2,1.9653589E-3,4.2429157E-3,0E0,0E0,0E0,0E0],"parents":[2147483647,0,0,1,1,4,4,5,5,6,6],"right_children":[2,4,-1,-1,6,8,10,-1,-1,-1,-1],"split_conditions":[3.1880064E0,8.326121E-1,-5.0716713E-4,7.4710214E-4,1.8034052E0,1.7848761E0,2.7778301E0,1.9865559E-4,8.671014E-5,-8.757534E-5,7.1445014E-5],"split_indices":[0,0,0,0,0,0,0,0,0,0,0],"split_type":[0,0,0,0,0,0,0,0,0,0,0],"sum_hessian":[8.77E2,7.06E2,1.71E2,3E1,6.76E2,4.04E2,2.72E2,3.37E2,6.7E1,1.9E2,8.2E1],"tree_param":{"num_deleted":"0","num_feature":"11","num_nodes":"11","size_leaf_vector":"1"}},{"base_weights":[-1.9949503E-4,6.303575E-3,-2.6871977E-2,7.4811286E-4,4.7288067E-3,-4.264902E-4,-2.843845E-2,1.0343234E-2,-1.3704491E-3,-4.3659544E-4,-5.685864E-4,1.4193813E-4,2.4403134E-4,-5.8185473E-5,6.968464E-5],"categories":[],"categories_nodes":[],"categories_segments":[],"categories_sizes":[],"default_left":[0,0,0,0,0,0,0,0,0,0,0,0,0,0,0],"id":23,"left_children":[1,3,5,-1,7,-1,9,11,13,-1,-1,-1,-1,-1,-1],"loss_changes":[1.5662402E-1,3.8686708E-2,4.2575598E-4,0E0,2.3813633E-2,0E0,5.967021E-4,2.636794E-3,3.032382E-3,0E0,0E0,0E0,0E0,0E0,0E0],"parents":[2147483647,0,0,1,1,2,2,4,4,6,6,7,7,8,8],"right_children":[2,4,6,-1,8,-1,10,12,14,-1,-1,-1,-1,-1,-1],"split_conditions":[3.1880064E0,8.326121E-1,1E0,7.4811286E-4,1.7885878E0,-4.264902E-4,2.512381E-1,1.4050951E0,2.7778301E0,-4.3659544E-4,-5.685864E-4,1.4193813E-4,2.4403134E-4,-5.8185473E-5,6.968464E-5],"split_indices":[0,0,10,0,0,0,4,0,0,0,0,0,0,0,0],"split_type":[0,0,0,0,0,0,0,0,0,0,0,0,0,0,0],"sum_hessian":[9.01E2,7.25E2,1.76E2,3.1E1,6.94E2,5.5E1,1.21E2,3.61E2,3.33E2,4.1E1,8E1,1.86E2,1.75E2,2.48E2,8.5E1],"tree_param":{"num_deleted":"0","num_feature":"11","num_nodes":"15","size_leaf_vector":"1"}},{"base_weights":[2.1173069E-4,6.6520832E-3,-4.873432E-4,7.536777E-4,5.2005663E-3,1.0137324E-2,-1.6464498E-3,1.00089106E-4,2.0734491E-4,-7.7320205E-5,8.729215E-5],"categories":[],"categories_nodes":[],"categories_segments":[],"categories_sizes":[],"default_left":[0,0,0,0,0,0,0,0,0,0,0],"id":24,"left_children":[1,3,-1,-1,5,7,9,-1,-1,-1,-1],"loss_changes":[1.5070485E-1,3.483272E-2,0E0,0E0,2.3103498E-2,1.8882826E-3,4.6112644E-3,0E0,0E0,0E0,0E0],"parents":[2147483647,0,0,1,1,4,4,5,5,6,6],"right_children":[2,4,-1,-1,6,8,10,-1,-1,-1,-1],"split_conditions":[3.1880064E0,8.326121E-1,-4.873432E-4,7.536777E-4,1.7960024E0,1.1871914E5,2.7778301E0,1.00089106E-4,2.0734491E-4,-7.7320205E-5,8.729215E-5],"split_indices":[0,0,0,0,0,7,0,0,0,0,0],"split_type":[0,0,0,0,0,0,0,0,0,0,0],"sum_hessian":[8.82E2,7.1E2,1.72E2,2.8E1,6.82E2,3.96E2,2.86E2,7.2E1,3.24E2,2.05E2,8.1E1],"tree_param":{"num_deleted":"0","num_feature":"11","num_nodes":"11","size_leaf_vector":"1"}},{"base_weights":[2.2458403E-4,6.405745E-3,-4.737469E-4,7.1328494E-4,4.832038E-3,9.5896805E-3,-1.9013525E-3,1.9639767E-4,8.930891E-5,-7.968482E-5,7.043431E-5],"categories":[],"categories_nodes":[],"categories_segments":[],"categories_sizes":[],"default_left":[0,0,0,0,0,0,0,0,0,0,0],"id":25,"left_children":[1,3,-1,-1,5,7,9,-1,-1,-1,-1],"loss_changes":[1.4389072E-1,3.6555905E-2,0E0,0E0,2.2314636E-2,1.8833578E-3,3.954286E-3,0E0,0E0,0E0,0E0],"parents":[2147483647,0,0,1,1,4,4,5,5,6,6],"right_children":[2,4,-1,-1,6,8,10,-1,-1,-1,-1],"split_conditions":[3.1880064E0,8.326121E-1,-4.737469E-4,7.1328494E-4,1.7997053E0,1.6334534E0,2.7778301E0,1.9639767E-4,8.930891E-5,-7.968482E-5,7.043431E-5],"split_indices":[0,0,0,0,0,0,0,0,0,0,0],"split_type":[0,0,0,0,0,0,0,0,0,0,0],"sum_hessian":[9.02E2,7.28E2,1.74E2,3.3E1,6.95E2,4.07E2,2.88E2,3.36E2,7.1E1,2.03E2,8.5E1],"tree_param":{"num_deleted":"0","num_feature":"11","num_nodes":"11","size_leaf_vector":"1"}},{"base_weights":[3.6720543E-5,6.280045E-3,-2.5553863E-2,7.3891523E-4,4.7826055E-3,-4.1366604E-4,-2.7019689E-2,1.0466738E-2,-7.336698E-4,-4.0800206E-4,-5.4648845E-4,1.6804047E-4,2.7120544E-4,6.637853E-5,-5.252112E-5],"categories":[],"categories_nodes":[],"categories_segments":[],"categories_sizes":[],"default_left":[0,0,0,0,0,0,0,0,0,0,0,0,0,0,0],"id":26,"left_children":[1,3,5,-1,7,-1,9,11,13,-1,-1,-1,-1,-1,-1],"loss_changes":[1.4011928E-1,3.5210177E-2,2.2104383E-4,0E0,2.120382E-2,0E0,7.4519217E-4,1.8179938E-3,3.118133E-3,0E0,0E0,0E0,0E0,0E0,0E0],"parents":[2147483647,0,0,1,1,2,2,4,4,6,6,7,7,8,8],"right_children":[2,4,6,-1,8,-1,10,12,14,-1,-1,-1,-1,-1,-1],"split_conditions":[1.4E1,2E0,1E0,7.3891523E-4,6E0,-4.1366604E-4,2.512381E-1,5E0,1E0,-4.0800206E-4,-5.4648845E-4,1.6804047E-4,2.7120544E-4,6.637853E-5,-5.252112E-5],"split_indices":[9,9,10,0,9,0,4,9,10,0,0,0,0,0,0],"split_type":[0,0,0,0,0,0,0,0,0,0,0,0,0,0,0],"sum_hessian":[8.75E2,7.04E2,1.71E2,2.9E1,6.75E2,5.8E1,1.13E2,3.32E2,3.43E2,4E1,7.3E1,2.5E2,8.2E1,1.12E2,2.31E2],"tree_param":{"num_deleted":"0","num_feature":"11","num_nodes":"15","size_leaf_vector":"1"}},{"base_weights":[7.923165E-6,5.8482527E-3,-4.6742498E-4,1.2117204E-2,-9.0036116E-4,6.593707E-4,1.0070171E-2,3.2213493E-3,-3.0192663E-3,1.4396638E-4,2.8136853E-4,5.9452486E-6,2.0766635E-4,2.6485348E-5,-1.1613743E-4],"categories":[],"categories_nodes":[],"categories_segments":[],"categories_sizes":[],"default_left":[0,0,0,0,0,0,0,0,0,0,0,0,0,0,0],"id":27,"left_children":[1,3,-1,5,7,-1,9,11,13,-1,-1,-1,-1,-1,-1],"loss_changes":[1.321275E-1,3.0852523E-2,0E0,1.7756332E-2,3.083923E-3,0E0,3.991667E-3,2.7701785E-3,3.3637322E-3,0E0,0E0,0E0,0E0,0E0,0E0],"parents":[2147483647,0,0,1,1,3,3,4,4,6,6,7,7,8,8],"right_children":[2,4,-1,6,8,-1,10,12,14,-1,-1,-1,-1,-1,-1],"split_conditions":[3.1880064E0,1.7848761E0,-4.6742498E-4,8.326121E-1,1E0,6.593707E-4,1.4132483E0,2.7778301E0,5.633954E5,1.4396638E-4,2.8136853E-4,5.9452486E-6,2.0766635E-4,2.6485348E-5,-1.1613743E-4],"split_indices":[0,0,0,0,10,0,0,0,7,0,0,0,0,0,0],"split_type":[0,0,0,0,0,0,0,0,0,0,0,0,0,0,0],"sum_hessian":[8.96E2,7.28E2,1.68E2,3.77E2,3.51E2,2.9E1,3.48E2,1.19E2,2.32E2,2.41E2,1.07E2,8.8E1,3.1E1,9.8E1,1.34E2],"tree_param":{"num_deleted":"0","num_feature":"11","num_nodes":"15","size_leaf_vector":"1"}},{"base_weights":[-3.772452E-5,5.5385223E-3,-2.4022076E-2,1.09653855E-2,-1.5692788E-3,-3.8426116E-4,-2.5567204E-2,3.341798E-2,9.209177E-3,-3.9854706E-3,4.199366E-3,-3.8131254E-4,-2.7965637E-2,4.5130792E-4,6.853768E-4,1.09815424E-4,1.9472741E-4,5.052714E-5,-1.03795806E-4,3.090395E-4,2.8905599E-5,-3.6501454E-4,-5.4118515E-4],"categories":[],"categories_nodes":[],"categories_segments":[],"categories_sizes":[],"default_left":[0,0,0,0,0,0,0,0,0,0,0,0,0,0,0,0,0,0,0,0,0,0,0],"id":28,"left_children":[1,3,5,7,9,-1,11,13,15,17,19,-1,21,-1,-1,-1,-1,-1,-1,-1,-1,-1,-1],"loss_changes":[1.1769284E-1,2.7558377E-2,3.2167882E-4,1.5661981E-2,4.337564E-3,0E0,7.383302E-4,2.85469E-5,1.5301257E-3,2.3760765E-3,3.0005602E-3,0E0,1.2978539E-4,0E0,0E0,0E0,0E0,0E0,0E0,0E0,0E0,0E0,0E0],"parents":[2147483647,0,0,1,1,2,2,3,3,4,4,6,6,7,7,8,8,9,9,10,10,12,12],"right_children":[2,4,6,8,10,-1,12,14,16,18,20,-1,22,-1,-1,-1,-1,-1,-1,-1,-1,-1,-1],"split_conditions":[3.1880064E0,1.7960024E0,1E0,8.326121E-1,2.7778301E0,-3.8426116E-4,4.435763E5,2.512381E-1,2.407351E5,1.9733926E0,2.7844307E0,-3.8131254E-4,4E-3,4.5130792E-4,6.853768E-4,1.09815424E-4,1.9472741E-4,5.052714E-5,-1.03795806E-4,3.090395E-4,2.8905599E-5,-3.6501454E-4,-5.4118515E-4],"split_indices":[0,0,10,0,0,0,7,4,7,0,0,0,1,0,0,0,0,0,0,0,0,0,0],"split_type":[0,0,0,0,0,0,0,0,0,0,0,0,0,0,0,0,0,0,0,0,0,0,0],"sum_hessian":[8.78E2,7.13E2,1.65E2,4.04E2,3.09E2,5.7E1,1.08E2,2.8E1,3.76E2,2.18E2,9.1E1,3.8E1,7E1,1E1,1.8E1,1.07E2,2.69E2,4.2E1,1.76E2,1.5E1,7.6E1,1.1E1,5.9E1],"tree_param":{"num_deleted":"0","num_feature":"11","num_nodes":"23","size_leaf_vector":"1"}},{"base_weights":[3.7027293E-4,6.2294183E-3,-2.3813544E-2,3.5916492E-2,4.7838134E-3,-3.8456192E-4,-2.5116958E-2,4.911116E-4,7.434884E-4,9.871118E-3,-6.0904154E-4,-4.2131878E-4,-5.309847E-4,1.0386084E-4,2.1664835E-4,6.419298E-5,-4.6022175E-5],"categories":[],"categories_nodes":[],"categories_segments":[],"categories_sizes":[],"default_left":[0,0,0,0,0,0,0,0,0,0,0,0,0,0,0,0,0],"id":29,"left_children":[1,3,5,7,9,-1,11,-1,-1,13,15,-1,-1,-1,-1,-1,-1],"loss_changes":[1.2569144E-1,3.0470056E-2,1.7706305E-4,2.3265928E-4,1.8716749E-2,0E0,3.3787638E-4,0E0,0E0,2.6386194E-3,2.5348957E-3,0E0,0E0,0E0,0E0,0E0,0E0],"parents":[2147483647,0,0,1,1,2,2,3,3,4,4,6,6,9,9,10,10],"right_children":[2,4,6,8,10,-1,12,-1,-1,14,16,-1,-1,-1,-1,-1,-1],"split_conditions":[1.4E1,2E0,1E0,5.2441965E6,6E0,-3.8456192E-4,9.73633E5,4.911116E-4,7.434884E-4,2.407351E5,1E0,-4.2131878E-4,-5.309847E-4,1.0386084E-4,2.1664835E-4,6.419298E-5,-4.6022175E-5],"split_indices":[9,9,10,5,9,0,7,0,0,7,10,0,0,0,0,0,0],"split_type":[0,0,0,0,0,0,0,0,0,0,0,0,0,0,0,0,0],"sum_hessian":[8.85E2,7.13E2,1.72E2,3.2E1,6.81E2,5.6E1,1.16E2,1.2E1,2E1,3.5E2,3.31E2,7.3E1,4.3E1,1.05E2,2.45E2,1.04E2,2.27E2],"tree_param":{"num_deleted":"0","num_feature":"11","num_nodes":"17","size_leaf_vector":"1"}},{"base_weights":[5.8298034E-4,6.1545987E-3,-2.3431512E-2,6.9415383E-4,4.7499863E-3,-3.7626718E-4,-2.4870597E-2,9.52349E-3,-4.5349236E-4,-3.597566E-4,-5.037523E-4,1.2883985E-4,2.2721448E-4,-4.407808E-5,9.614936E-5],"categories":[],"categories_nodes":[],"categories_segments":[],"categories_sizes":[],"default_left":[0,0,0,0,0,0,0,0,0,0,0,0,0,0,0],"id":30,"left_children":[1,3,5,-1,7,-1,9,11,13,-1,-1,-1,-1,-1,-1],"loss_changes":[1.19359635E-1,3.15983E-2,2.5931E-4,0E0,1.7242461E-2,0E0,8.5745007E-4,2.455894E-3,3.6172129E-3,0E0,0E0,0E0,0E0,0E0,0E0],"parents":[2147483647,0,0,1,1,2,2,4,4,6,6,7,7,8,8],"right_children":[2,4,6,-1,8,-1,10,12,14,-1,-1,-1,-1,-1,-1],"split_conditions":[3.1880064E0,8.326121E-1,2.512381E-1,6.9415383E-4,1.7885878E0,-3.7626718E-4,1E0,1.4050951E0,2.7778301E0,-3.597566E-4,-5.037523E-4,1.2883985E-4,2.2721448E-4,-4.407808E-5,9.614936E-5],"split_indices":[0,0,4,0,0,0,10,0,0,0,0,0,0,0,0],"split_type":[0,0,0,0,0,0,0,0,0,0,0,0,0,0,0],"sum_hessian":[8.9E2,7.23E2,1.67E2,3E1,6.93E2,5.7E1,1.1E2,3.61E2,3.32E2,3.5E1,7.5E1,1.87E2,1.74E2,2.48E2,8.4E1],"tree_param":{"num_deleted":"0","num_feature":"11","num_nodes":"15","size_leaf_vector":"1"}},{"base_weights":[-1.3020335E-4,5.458731E-3,-2.2987586E-2,1.1376479E-2,-9.6494064E-4,-3.6986714E-4,-2.4374131E-2,6.2140595E-4,9.24148E-3,3.3326882E-3,-3.1372807E-3,-4.0127273E-4,-5.161463E-4,1.4860273E-4,2.307415E-4,2.4434308E-5,1.8706502E-4,1.04736275E-4,-8.8538516E-5],"categories":[],"categories_nodes":[],"categories_segments":[],"categories_sizes":[],"default_left":[0,0,0,0,0,0,0,0,0,0,0,0,0,0,0,0,0,0,0],"id":31,"left_children":[1,3,5,7,9,-1,11,-1,13,15,17,-1,-1,-1,-1,-1,-1,-1,-1],"loss_changes":[1.157378E-1,2.7684927E-2,2.6922673E-4,1.7577238E-2,3.2780247E-3,0E0,5.1510334E-4,0E0,1.2676027E-3,1.5917547E-3,3.3682287E-3,0E0,0E0,0E0,0E0,0E0,0E0,0E0,0E0],"parents":[2147483647,0,0,1,1,2,2,3,3,4,4,6,6,8,8,9,9,10,10],"right_children":[2,4,6,8,10,-1,12,-1,14,16,18,-1,-1,-1,-1,-1,-1,-1,-1],"split_conditions":[1.4E1,6E0,1E0,2E0,1E0,-3.6986714E-4,9.73633E5,6.2140595E-4,5E0,1.2E1,4E-3,-4.0127273E-4,-5.161463E-4,1.4860273E-4,2.307415E-4,2.4434308E-5,1.8706502E-4,1.04736275E-4,-8.8538516E-5],"split_indices":[9,9,10,9,10,0,7,0,9,9,1,0,0,0,0,0,0,0,0],"split_type":[0,0,0,0,0,0,0,0,0,0,0,0,0,0,0,0,0,0,0],"sum_hessian":[9.04E2,7.27E2,1.77E2,3.78E2,3.49E2,6E1,1.17E2,3.2E1,3.46E2,1.17E2,2.32E2,6.9E1,4.8E1,2.52E2,9.4E1,9.1E1,2.6E1,3.6E1,1.96E2],"tree_param":{"num_deleted":"0","num_feature":"11","num_nodes":"19","size_leaf_vector":"1"}},{"base_weights":[5.2779847E-5,5.751708E-3,-2.2775246E-2,6.323078E-4,4.4580232E-3,-3.6869597E-4,-2.412252E-2,8.691523E-3,-9.1169507E-4,-3.9606818E-4,-5.161846E-4,1.2135241E-4,1.9783239E-4,-5.8031204E-5,7.609131E-5],"categories":[],"categories_nodes":[],"categories_segments":[],"categories_sizes":[],"default_left":[0,0,0,0,0,0,0,0,0,0,0,0,0,0,0],"id":32,"left_children":[1,3,5,-1,7,-1,9,11,13,-1,-1,-1,-1,-1,-1],"loss_changes":[1.159158E-1,2.5967887E-2,2.1860749E-4,0E0,1.5534359E-2,0E0,6.075427E-4,1.548687E-3,3.3652473E-3,0E0,0E0,0E0,0E0,0E0,0E0],"parents":[2147483647,0,0,1,1,2,2,4,4,6,6,7,7,8,8],"right_children":[2,4,6,-1,8,-1,10,12,14,-1,-1,-1,-1,-1,-1],"split_conditions":[3.1880064E0,8.326121E-1,1E0,6.323078E-4,1.7960024E0,-3.6869597E-4,9.73633E5,1.4050951E0,2.7778301E0,-3.9606818E-4,-5.161846E-4,1.2135241E-4,1.9783239E-4,-5.8031204E-5,7.609131E-5],"split_indices":[0,0,10,0,0,0,7,0,0,0,0,0,0,0,0],"split_type":[0,0,0,0,0,0,0,0,0,0,0,0,0,0,0],"sum_hessian":[8.89E2,7.12E2,1.77E2,3E1,6.82E2,6.1E1,1.16E2,3.81E2,3.01E2,7E1,4.6E1,1.84E2,1.97E2,2.09E2,9.2E1],"tree_param":{"num_deleted":"0","num_feature":"11","num_nodes":"15","size_leaf_vector":"1"}},{"base_weights":[1.2281966E-4,5.36805E-3,-2.2170123E-2,1.1409663E-2,-8.8986126E-4,-1.9031346E-2,-2.3300514E-2,6.158588E-4,9.332987E-3,3.186881E-3,-2.8908632E-3,-4.0395017E-4,-3.0079682E-4,-3.5050206E-4,-4.7261652E-4,1.2594998E-4,2.2652898E-4,1.9761655E-5,1.8644515E-4,-8.100406E-6,-1.6546783E-4],"categories":[],"categories_nodes":[],"categories_segments":[],"categories_sizes":[],"default_left":[0,0,0,0,0,0,0,0,0,0,0,0,0,0,0,0,0,0,0,0,0],"id":33,"left_children":[1,3,5,7,9,11,13,-1,15,17,19,-1,-1,-1,-1,-1,-1,-1,-1,-1,-1],"loss_changes":[1.05591334E-1,2.7647708E-2,1.6682595E-4,1.6510483E-2,2.9459377E-3,4.1006133E-5,6.849021E-4,0E0,2.4117567E-3,1.7213816E-3,3.5745255E-3,0E0,0E0,0E0,0E0,0E0,0E0,0E0,0E0,0E0,0E0],"parents":[2147483647,0,0,1,1,2,2,3,3,4,4,5,5,6,6,8,8,9,9,10,10],"right_children":[2,4,6,8,10,12,14,-1,16,18,20,-1,-1,-1,-1,-1,-1,-1,-1,-1,-1],"split_conditions":[3.1880064E0,1.7848761E0,1E0,8.326121E-1,1E0,3.3070045E0,2.512381E-1,6.158588E-4,1.4050951E0,2.7778301E0,3.7439272E6,-4.0395017E-4,-3.0079682E-4,-3.5050206E-4,-4.7261652E-4,1.2594998E-4,2.2652898E-4,1.9761655E-5,1.8644515E-4,-8.100406E-6,-1.6546783E-4],"split_indices":[0,0,10,0,10,0,4,0,0,0,5,0,0,0,0,0,0,0,0,0,0],"split_type":[0,0,0,0,0,0,0,0,0,0,0,0,0,0,0,0,0,0,0,0,0],"sum_hessian":[9.01E2,7.3E2,1.71E2,3.71E2,3.59E2,5E1,1.21E2,3.1E1,3.4E2,1.18E2,2.41E2,2.2E1,2.8E1,4.3E1,7.8E1,1.82E2,1.58E2,9.1E1,2.7E1,1.72E2,6.9E1],"tree_param":{"num_deleted":"0","num_feature":"11","num_nodes":"21","size_leaf_vector":"1"}},{"base_weights":[-6.939625E-4,4.7221268E-3,-2.1769047E-2,1.0179528E-2,-1.3732823E-3,-3.5707655E-4,-2.2829356E-2,3.18677E-2,8.49659E-3,-2.8697792E-3,3.0287867E-3,-3.791212E-4,-4.999075E-4,4.6219135E-4,6.9510477E-4,8.1397564E-5,1.7457202E-4,5.8749334E-5,-9.430766E-5,2.8844268E-4,1.5210575E-5],"categories":[],"categories_nodes":[],"categories_segments":[],"categories_sizes":[],"default_left":[0,0,0,0,0,0,0,0,0,0,0,0,0,0,0,0,0,0,0,0,0],"id":34,"left_children":[1,3,5,7,9,-1,11,13,15,17,19,-1,-1,-1,-1,-1,-1,-1,-1,-1,-1],"loss_changes":[1.03289455E-1,2.3964847E-2,5.698204E-5,1.359918E-2,2.255092E-3,0E0,6.8265945E-4,1.1751801E-4,1.2821648E-3,3.419616E-3,2.3922299E-3,0E0,0E0,0E0,0E0,0E0,0E0,0E0,0E0,0E0,0E0],"parents":[2147483647,0,0,1,1,2,2,3,3,4,4,6,6,7,7,8,8,9,9,10,10],"right_children":[2,4,6,8,10,-1,12,14,16,18,20,-1,-1,-1,-1,-1,-1,-1,-1,-1,-1],"split_conditions":[3.1880064E0,1.7885878E0,1E0,8.326121E-1,2.7778301E0,-3.5707655E-4,1.2148959E6,6.7448065E6,1.1871914E5,1.9733926E0,2.7844307E0,-3.791212E-4,-4.999075E-4,4.6219135E-4,6.9510477E-4,8.1397564E-5,1.7457202E-4,5.8749334E-5,-9.430766E-5,2.8844268E-4,1.5210575E-5],"split_indices":[0,0,10,0,0,0,7,5,7,0,0,0,0,0,0,0,0,0,0,0,0],"split_type":[0,0,0,0,0,0,0,0,0,0,0,0,0,0,0,0,0,0,0,0,0],"sum_hessian":[9.03E2,7.19E2,1.84E2,3.79E2,3.4E2,6E1,1.24E2,2.6E1,3.53E2,2.54E2,8.6E1,8.2E1,4.2E1,1.4E1,1.2E1,6.5E1,2.88E2,6.8E1,1.86E2,1.2E1,7.4E1],"tree_param":{"num_deleted":"0","num_feature":"11","num_nodes":"21","size_leaf_vector":"1"}},{"base_weights":[9.744697E-5,5.1225694E-3,-2.1374084E-2,9.502897E-3,-1.2928843E-3,-2.3858253E-2,-2.013993E-2,3.0987924E-2,7.993186E-3,-3.5644784E-3,3.868205E-3,-3.115932E-4,-4.911175E-4,-4.0912593E-4,-3.3308155E-4,3.699079E-4,6.489769E-4,1.1341112E-4,1.7629535E-4,3.500724E-5,-8.2930776E-5,2.916213E-4,2.6361437E-5],"categories":[],"categories_nodes":[],"categories_segments":[],"categories_sizes":[],"default_left":[0,0,0,0,0,0,0,0,0,0,0,0,0,0,0,0,0,0,0,0,0,0,0],"id":35,"left_children":[1,3,5,7,9,11,13,15,17,19,21,-1,-1,-1,-1,-1,-1,-1,-1,-1,-1,-1,-1],"loss_changes":[1.0013008E-1,2.1144828E-2,5.9090555E-5,1.4251281E-2,3.6013017E-3,5.311705E-4,1.222156E-4,5.790349E-4,1.1296105E-3,1.0578067E-3,2.7030571E-3,0E0,0E0,0E0,0E0,0E0,0E0,0E0,0E0,0E0,0E0,0E0,0E0],"parents":[2147483647,0,0,1,1,2,2,3,3,4,4,5,5,6,6,7,7,8,8,9,9,10,10],"right_children":[2,4,6,8,10,12,14,16,18,20,22,-1,-1,-1,-1,-1,-1,-1,-1,-1,-1,-1,-1],"split_conditions":[3.1880064E0,1.7997053E0,7.1428573E-1,8.326121E-1,2.7778301E0,1E0,3.3070045E0,4E-1,1.4050951E0,1.9733926E0,2.7844307E0,-3.115932E-4,-4.911175E-4,-4.0912593E-4,-3.3308155E-4,3.699079E-4,6.489769E-4,1.1341112E-4,1.7629535E-4,3.500724E-5,-8.2930776E-5,2.916213E-4,2.6361437E-5],"split_indices":[0,0,3,0,0,10,0,2,0,0,0,0,0,0,0,0,0,0,0,0,0,0,0],"split_type":[0,0,0,0,0,0,0,0,0,0,0,0,0,0,0,0,0,0,0,0,0,0,0],"sum_hessian":[9.26E2,7.51E2,1.75E2,4.46E2,3.05E2,5.2E1,1.23E2,2.8E1,4.18E2,2.12E2,9.3E1,1.6E1,3.6E1,6.1E1,6.2E1,9E0,1.9E1,1.88E2,2.3E2,3E1,1.82E2,1.5E1,7.8E1],"tree_param":{"num_deleted":"0","num_feature":"11","num_nodes":"23","size_leaf_vector":"1"}},{"base_weights":[1.5317774E-4,5.2266927E-3,-2.0750578E-2,3.3938475E-2,4.0176474E-3,-1.9520717E-2,-4.2602053E-4,4.3856306E-4,7.224408E-4,7.5292424E-3,-1.8957182E-3,-4.0226686E-4,-3.306193E-4,1.6055992E-4,7.019508E-5,-8.658139E-5,6.396407E-5],"categories":[],"categories_nodes":[],"categories_segments":[],"categories_sizes":[],"default_left":[0,0,0,0,0,0,0,0,0,0,0,0,0,0,0,0,0],"id":36,"left_children":[1,3,5,7,9,11,-1,-1,-1,13,15,-1,-1,-1,-1,-1,-1],"loss_changes":[9.502814E-2,2.4892326E-2,2.618134E-5,5.710162E-4,1.4404658E-2,5.131215E-5,0E0,0E0,0E0,1.795778E-3,3.847735E-3,0E0,0E0,0E0,0E0,0E0,0E0],"parents":[2147483647,0,0,1,1,2,2,3,3,4,4,5,5,9,9,10,10],"right_children":[2,4,6,8,10,12,-1,-1,-1,14,16,-1,-1,-1,-1,-1,-1],"split_conditions":[3.1880064E0,8.326121E-1,3.2821563E-1,1.9346604E-1,1.9733926E0,3.2264843E0,-4.2602053E-4,4.3856306E-4,7.224408E-4,1.6334534E0,2.7778301E0,-4.0226686E-4,-3.306193E-4,1.6055992E-4,7.019508E-5,-8.658139E-5,6.396407E-5],"split_indices":[0,0,4,4,0,0,0,0,0,0,0,0,0,0,0,0,0],"split_type":[0,0,0,0,0,0,0,0,0,0,0,0,0,0,0,0,0],"sum_hessian":[8.94E2,7.2E2,1.74E2,2.8E1,6.92E2,1.18E2,5.6E1,1.1E1,1.7E1,4.34E2,2.58E2,4.7E1,7.1E1,3.33E2,1.01E2,1.7E2,8.8E1],"tree_param":{"num_deleted":"0","num_feature":"11","num_nodes":"17","size_leaf_vector":"1"}},{"base_weights":[3.3573902E-4,5.0384747E-3,-2.0599216E-2,1.0954176E-2,-5.6022883E-4,-3.3322617E-4,-2.187703E-2,3.156749E-2,8.884484E-3,3.1316439E-3,-2.36747E-3,-1.8905457E-2,-2.4491897E-2,4.1080327E-4,6.36529E-4,1.305197E-4,2.5850083E-4,1.7833741E-5,1.8376485E-4,2.9209255E-5,-1.2525589E-4,-3.96706E-4,-3.0099298E-4,-2.9146095E-4,-4.8571284E-4],"categories":[],"categories_nodes":[],"categories_segments":[],"categories_sizes":[],"default_left":[0,0,0,0,0,0,0,0,0,0,0,0,0,0,0,0,0,0,0,0,0,0,0,0,0],"id":37,"left_children":[1,3,5,7,9,-1,11,13,15,17,19,21,23,-1,-1,-1,-1,-1,-1,-1,-1,-1,-1,-1,-1],"loss_changes":[8.802104E-2,2.4183927E-2,1.6147643E-4,1.4864977E-2,2.516125E-3,0E0,3.6061928E-4,6.464124E-5,2.9285345E-3,1.8127032E-3,4.3794634E-3,1.1743978E-5,3.7078187E-4,0E0,0E0,0E0,0E0,0E0,0E0,0E0,0E0,0E0,0E0,0E0,0E0],"parents":[2147483647,0,0,1,1,2,2,3,3,4,4,6,6,7,7,8,8,9,9,10,10,11,11,12,12],"right_children":[2,4,6,8,10,-1,12,14,16,18,20,22,24,-1,-1,-1,-1,-1,-1,-1,-1,-1,-1,-1,-1],"split_conditions":[3.1880064E0,1.6334534E0,1E0,8.326121E-1,1E0,-3.3322617E-4,2.0427205E6,1.8999061E-1,1.4159601E0,2.7778301E0,2.5671568E6,3.2264843E0,4E-3,4.1080327E-4,6.36529E-4,1.305197E-4,2.5850083E-4,1.7833741E-5,1.8376485E-4,2.9209255E-5,-1.2525589E-4,-3.96706E-4,-3.0099298E-4,-2.9146095E-4,-4.8571284E-4],"split_indices":[0,0,10,0,10,0,5,4,0,0,5,0,1,0,0,0,0,0,0,0,0,0,0,0,0],"split_type":[0,0,0,0,0,0,0,0,0,0,0,0,0,0,0,0,0,0,0,0,0,0,0,0,0],"sum_hessian":[8.92E2,7.29E2,1.63E2,3.54E2,3.75E2,5.8E1,1.05E2,3.1E1,3.23E2,1.23E2,2.52E2,5.3E1,5.2E1,9E0,2.2E1,2.38E2,8.5E1,9.4E1,2.9E1,1.33E2,1.19E2,2.4E1,2.9E1,1E1,4.2E1],"tree_param":{"num_deleted":"0","num_feature":"11","num_nodes":"25","size_leaf_vector":"1"}},{"base_weights":[-2.6719668E-4,4.492397E-3,-2.0250361E-2,2.8777165E-2,3.391641E-3,-1.6894046E-2,-2.1575019E-2,3.8647244E-4,5.8598624E-4,6.9919755E-3,-1.663154E-3,-3.5416102E-4,-2.6132094E-4,-3.6435813E-4,-4.677148E-4,4.968938E-5,1.4535051E-4,-7.09353E-5,5.76245E-5],"categories":[],"categories_nodes":[],"categories_segments":[],"categories_sizes":[],"default_left":[0,0,0,0,0,0,0,0,0,0,0,0,0,0,0,0,0,0,0],"id":38,"left_children":[1,3,5,7,9,11,13,-1,-1,15,17,-1,-1,-1,-1,-1,-1,-1,-1],"loss_changes":[8.45502E-2,1.9095693E-2,3.9577484E-4,3.1951815E-5,1.2532507E-2,5.7680532E-5,3.4369156E-4,0E0,0E0,1.4352594E-3,2.9660813E-3,0E0,0E0,0E0,0E0,0E0,0E0,0E0,0E0],"parents":[2147483647,0,0,1,1,2,2,3,3,4,4,5,5,6,6,9,9,10,10],"right_children":[2,4,6,8,10,12,14,-1,-1,16,18,-1,-1,-1,-1,-1,-1,-1,-1],"split_conditions":[3.1880064E0,8.326121E-1,1E0,2.512381E-1,1.7997053E0,3.3070045E0,1.2238968E6,3.8647244E-4,5.8598624E-4,1.0418206E5,2.7778301E0,-3.5416102E-4,-2.6132094E-4,-3.6435813E-4,-4.677148E-4,4.968938E-5,1.4535051E-4,-7.09353E-5,5.76245E-5],"split_indices":[0,0,10,4,0,0,7,0,0,7,0,0,0,0,0,0,0,0,0],"split_type":[0,0,0,0,0,0,0,0,0,0,0,0,0,0,0,0,0,0,0],"sum_hessian":[8.87E2,7.17E2,1.7E2,3E1,6.87E2,5.2E1,1.18E2,1E1,2E1,4.01E2,2.86E2,2.6E1,2.6E1,8.1E1,3.7E1,6.6E1,3.35E2,1.97E2,8.9E1],"tree_param":{"num_deleted":"0","num_feature":"11","num_nodes":"19","size_leaf_vector":"1"}},{"base_weights":[1.9413141E-4,5.6090085E-3,-2.0044677E-2,1.0729659E-2,-4.639736E-4,-2.9841953E-4,-2.0643333E-2,5.5021734E-4,8.748199E-3,6.9560218E-3,-1.6988821E-3,-3.2859348E-4,-2.2037687E-2,1.381403E-4,2.2640424E-4,7.2722425E-5,2.7338465E-4,5.5121407E-5,-7.516985E-5,-3.236738E-4,-4.5471836E-4],"categories":[],"categories_nodes":[],"categories_segments":[],"categories_sizes":[],"default_left":[0,0,0,0,0,0,0,0,0,0,0,0,0,0,0,0,0,0,0,0,0],"id":39,"left_children":[1,3,5,7,9,-1,11,-1,13,15,17,-1,19,-1,-1,-1,-1,-1,-1,-1,-1],"loss_changes":[9.293572E-2,2.0809289E-2,9.304285E-5,1.3346542E-2,2.8248632E-3,0E0,2.3264438E-4,0E0,1.3953522E-3,9.81356E-4,2.9101768E-3,0E0,6.937571E-4,0E0,0E0,0E0,0E0,0E0,0E0,0E0,0E0],"parents":[2147483647,0,0,1,1,2,2,3,3,4,4,6,6,8,8,9,9,10,10,12,12],"right_children":[2,4,6,8,10,-1,12,-1,14,16,18,-1,20,-1,-1,-1,-1,-1,-1,-1,-1],"split_conditions":[1.4E1,6E0,4E-3,2E0,4E-3,-2.9841953E-4,1E0,5.5021734E-4,5E0,1.2E1,1E0,-3.2859348E-4,4.435763E5,1.381403E-4,2.2640424E-4,7.2722425E-5,2.7338465E-4,5.5121407E-5,-7.516985E-5,-3.236738E-4,-4.5471836E-4],"split_indices":[9,9,1,9,1,0,10,0,9,9,10,0,7,0,0,0,0,0,0,0,0],"split_type":[0,0,0,0,0,0,0,0,0,0,0,0,0,0,0,0,0,0,0,0,0],"sum_hessian":[8.46E2,6.68E2,1.78E2,3.62E2,3.06E2,2.7E1,1.51E2,3.3E1,3.29E2,4.3E1,2.63E2,5.3E1,9.8E1,2.41E2,8.8E1,3.2E1,1.1E1,8.8E1,1.75E2,3.7E1,6.1E1],"tree_param":{"num_deleted":"0","num_feature":"11","num_nodes":"21","size_leaf_vector":"1"}},{"base_weights":[1.0986911E-4,4.8913835E-3,-1.9593898E-2,5.6457246E-4,3.6934433E-3,-3.1524219E-4,-2.075174E-2,7.289715E-3,-2.1183917E-3,-3.4176165E-4,-4.4156358E-4,1.5665487E-4,6.890764E-5,-9.1935544E-5,7.0049595E-5],"categories":[],"categories_nodes":[],"categories_segments":[],"categories_sizes":[],"default_left":[0,0,0,0,0,0,0,0,0,0,0,0,0,0,0],"id":40,"left_children":[1,3,5,-1,7,-1,9,11,13,-1,-1,-1,-1,-1,-1],"loss_changes":[8.394616E-2,2.1814214E-2,1.7305464E-4,0E0,1.4353484E-2,0E0,3.8615614E-4,1.7141532E-3,4.412513E-3,0E0,0E0,0E0,0E0,0E0,0E0],"parents":[2147483647,0,0,1,1,2,2,4,4,6,6,7,7,8,8],"right_children":[2,4,6,-1,8,-1,10,12,14,-1,-1,-1,-1,-1,-1],"split_conditions":[3.1880064E0,8.326121E-1,1E0,5.6457246E-4,1.9733926E0,-3.1524219E-4,9.73633E5,1.6334534E0,2.7778301E0,-3.4176165E-4,-4.4156358E-4,1.5665487E-4,6.890764E-5,-9.1935544E-5,7.0049595E-5],"split_indices":[0,0,10,0,0,0,7,0,0,0,0,0,0,0,0],"split_type":[0,0,0,0,0,0,0,0,0,0,0,0,0,0,0],"sum_hessian":[8.89E2,7.16E2,1.73E2,3.1E1,6.85E2,5.8E1,1.15E2,4.23E2,2.62E2,6.9E1,4.6E1,3.19E2,1.04E2,1.77E2,8.5E1],"tree_param":{"num_deleted":"0","num_feature":"11","num_nodes":"15","size_leaf_vector":"1"}},{"base_weights":[1.7579709E-4,4.5672175E-3,-1.9276848E-2,5.263951E-4,3.5305342E-3,-3.067282E-4,-2.0416353E-2,7.069728E-3,-1.4414515E-3,-3.1561783E-4,-4.37635E-4,1.0325785E-4,1.7003172E-4,-6.855521E-5,6.208399E-5],"categories":[],"categories_nodes":[],"categories_segments":[],"categories_sizes":[],"default_left":[0,0,0,0,0,0,0,0,0,0,0,0,0,0,0],"id":41,"left_children":[1,3,5,-1,7,-1,9,11,13,-1,-1,-1,-1,-1,-1],"loss_changes":[7.5603515E-2,1.7710175E-2,1.7340854E-4,0E0,1.2204788E-2,0E0,7.967204E-4,1.2249202E-3,3.128036E-3,0E0,0E0,0E0,0E0,0E0,0E0],"parents":[2147483647,0,0,1,1,2,2,4,4,6,6,7,7,8,8],"right_children":[2,4,6,-1,8,-1,10,12,14,-1,-1,-1,-1,-1,-1],"split_conditions":[3.1880064E0,8.326121E-1,1E0,5.263951E-4,1.7997053E0,-3.067282E-4,2.0427205E6,2.9818094E-1,2.7778301E0,-3.1561783E-4,-4.37635E-4,1.0325785E-4,1.7003172E-4,-6.855521E-5,6.208399E-5],"split_indices":[0,0,10,0,0,0,5,4,0,0,0,0,0,0,0],"split_type":[0,0,0,0,0,0,0,0,0,0,0,0,0,0,0],"sum_hessian":[8.83E2,7.21E2,1.62E2,2.9E1,6.92E2,5.2E1,1.1E2,4.04E2,2.88E2,5.6E1,5.4E1,2.37E2,1.67E2,1.96E2,9.2E1],"tree_param":{"num_deleted":"0","num_feature":"11","num_nodes":"15","size_leaf_vector":"1"}},{"base_weights":[4.3897347E-5,4.587532E-3,-1.8813754E-2,9.2659015E-3,-3.30495E-4,-2.8146114E-4,-1.9299656E-2,2.6869977E-2,7.737125E-3,-1.7391763E-3,4.3118764E-3,-3.7758233E-4,-1.651836E-2,3.1525374E-4,5.6548393E-4,1.0681663E-4,2.237877E-4,5.8364458E-5,-7.868559E-5,2.7052063E-4,3.6829326E-5,-2.2368223E-4,-3.2925213E-4],"categories":[],"categories_nodes":[],"categories_segments":[],"categories_sizes":[],"default_left":[0,0,0,0,0,0,0,0,0,0,0,0,0,0,0,0,0,0,0,0,0,0,0],"id":42,"left_children":[1,3,5,7,9,-1,11,13,15,17,19,-1,21,-1,-1,-1,-1,-1,-1,-1,-1,-1,-1],"loss_changes":[7.634354E-2,1.6523052E-2,1.4018267E-5,9.695977E-3,2.3029062E-3,0E0,9.684637E-5,5.1392056E-4,2.8419103E-3,3.3105165E-3,1.9299865E-3,0E0,3.7224032E-5,0E0,0E0,0E0,0E0,0E0,0E0,0E0,0E0,0E0,0E0],"parents":[2147483647,0,0,1,1,2,2,3,3,4,4,6,6,7,7,8,8,9,9,10,10,12,12],"right_children":[2,4,6,8,10,-1,12,14,16,18,20,-1,22,-1,-1,-1,-1,-1,-1,-1,-1,-1,-1],"split_conditions":[3.1880064E0,1.6334534E0,4E-3,8.326121E-1,2.7778301E0,-2.8146114E-4,3.3315163E0,1.3834708E5,1.4132483E0,1.9733926E0,2.7844307E0,-3.7758233E-4,3.9173556E5,3.1525374E-4,5.6548393E-4,1.0681663E-4,2.237877E-4,5.8364458E-5,-7.868559E-5,2.7052063E-4,3.6829326E-5,-2.2368223E-4,-3.2925213E-4],"split_indices":[0,0,1,0,0,0,0,7,0,0,0,0,7,0,0,0,0,0,0,0,0,0,0],"split_type":[0,0,0,0,0,0,0,0,0,0,0,0,0,0,0,0,0,0,0,0,0,0,0],"sum_hessian":[8.89E2,7.17E2,1.72E2,3.67E2,3.5E2,2.4E1,1.48E2,2.8E1,3.39E2,2.69E2,8.1E1,1.03E2,4.5E1,9E0,1.9E1,2.34E2,1.05E2,9.1E1,1.78E2,1.4E1,6.7E1,1.2E1,3.3E1],"tree_param":{"num_deleted":"0","num_feature":"11","num_nodes":"23","size_leaf_vector":"1"}},{"base_weights":[-1.7453052E-5,4.7731944E-3,-1.8708736E-2,5.199239E-4,3.7483945E-3,-3.002214E-4,-1.9842496E-2,6.850549E-3,-1.5756426E-3,-3.1411342E-4,-2.2393344E-2,1.4271894E-4,6.945523E-5,1.2998452E-4,-5.5403732E-5,-2.6139058E-4,-4.4375064E-4],"categories":[],"categories_nodes":[],"categories_segments":[],"categories_sizes":[],"default_left":[0,0,0,0,0,0,0,0,0,0,0,0,0,0,0,0,0],"id":43,"left_children":[1,3,5,-1,7,-1,9,11,13,-1,15,-1,-1,-1,-1,-1,-1],"loss_changes":[8.0320135E-2,1.6900228E-2,2.0451099E-4,0E0,1.13242455E-2,0E0,5.2908063E-4,1.1006854E-3,3.0803643E-3,0E0,4.443433E-4,0E0,0E0,0E0,0E0,0E0,0E0],"parents":[2147483647,0,0,1,1,2,2,4,4,6,6,7,7,8,8,10,10],"right_children":[2,4,6,-1,8,-1,10,12,14,-1,16,-1,-1,-1,-1,-1,-1],"split_conditions":[1.4E1,2E0,1E0,5.199239E-4,7E0,-3.002214E-4,2.0427205E6,6E0,4E-3,-3.1411342E-4,4E-3,1.4271894E-4,6.945523E-5,1.2998452E-4,-5.5403732E-5,-2.6139058E-4,-4.4375064E-4],"split_indices":[9,9,10,0,9,0,5,9,1,0,1,0,0,0,0,0,0],"split_type":[0,0,0,0,0,0,0,0,0,0,0,0,0,0,0,0,0],"sum_hessian":[8.95E2,7.13E2,1.82E2,2.9E1,6.84E2,6.1E1,1.21E2,4.32E2,2.52E2,6E1,6.1E1,3.39E2,9.3E1,3.5E1,2.17E2,1.1E1,5E1],"tree_param":{"num_deleted":"0","num_feature":"11","num_nodes":"17","size_leaf_vector":"1"}},{"base_weights":[-2.7208106E-4,4.1954583E-3,-1.8140664E-2,9.159572E-3,-1.0913996E-3,-1.5968088E-2,-1.9070568E-2,5.240957E-4,7.4500055E-3,5.3748176E-3,-2.348671E-3,-3.2921252E-4,-2.4326847E-4,-2.9387916E-4,-2.1452615E-2,1.0945008E-4,2.1971023E-4,3.481175E-5,2.7061504E-4,3.1956537E-5,-7.690172E-5,-2.6982027E-4,-4.1692142E-4],"categories":[],"categories_nodes":[],"categories_segments":[],"categories_sizes":[],"default_left":[0,0,0,0,0,0,0,0,0,0,0,0,0,0,0,0,0,0,0,0,0,0,0],"id":44,"left_children":[1,3,5,7,9,11,13,-1,15,17,19,-1,-1,-1,21,-1,-1,-1,-1,-1,-1,-1,-1],"loss_changes":[6.904801E-2,1.8171234E-2,4.4986606E-5,1.1433763E-2,2.7442328E-3,6.118044E-5,5.545467E-4,0E0,2.171917E-3,1.7443779E-3,2.0673755E-3,0E0,0E0,0E0,1.2093969E-4,0E0,0E0,0E0,0E0,0E0,0E0,0E0,0E0],"parents":[2147483647,0,0,1,1,2,2,3,3,4,4,5,5,6,6,8,8,9,9,10,10,14,14],"right_children":[2,4,6,8,10,12,14,-1,16,18,20,-1,-1,-1,22,-1,-1,-1,-1,-1,-1,-1,-1],"split_conditions":[1.4E1,6E0,1E0,2E0,4E-3,1.451315E6,7.226625E5,5.240957E-4,5E0,1.2E1,1E0,-3.2921252E-4,-2.4326847E-4,-2.9387916E-4,4E-3,1.0945008E-4,2.1971023E-4,3.481175E-5,2.7061504E-4,3.1956537E-5,-7.690172E-5,-2.6982027E-4,-4.1692142E-4],"split_indices":[9,9,10,9,1,7,7,0,9,9,10,0,0,0,1,0,0,0,0,0,0,0,0],"split_type":[0,0,0,0,0,0,0,0,0,0,0,0,0,0,0,0,0,0,0,0,0,0,0],"sum_hessian":[8.63E2,6.91E2,1.72E2,3.56E2,3.35E2,5.7E1,1.15E2,2.8E1,3.28E2,5.4E1,2.81E2,3.2E1,2.5E1,5.2E1,6.3E1,2.44E2,8.4E1,4E1,1.4E1,8.6E1,1.95E2,1E1,5.3E1],"tree_param":{"num_deleted":"0","num_feature":"11","num_nodes":"23","size_leaf_vector":"1"}},{"base_weights":[-1.6795911E-4,4.228475E-3,-1.7827263E-2,2.9094579E-2,3.128458E-3,-2.7894104E-4,-1.8997911E-2,3.768106E-4,5.919734E-4,6.3716974E-3,-1.9053959E-3,-3.1557816E-4,-4.3122782E-4,1.1097254E-4,2.5656432E-4,-7.9921076E-5,6.849079E-5],"categories":[],"categories_nodes":[],"categories_segments":[],"categories_sizes":[],"default_left":[0,0,0,0,0,0,0,0,0,0,0,0,0,0,0,0,0],"id":45,"left_children":[1,3,5,7,9,-1,11,-1,-1,13,15,-1,-1,-1,-1,-1,-1],"loss_changes":[6.894026E-2,1.935706E-2,2.9419363E-4,9.125471E-5,1.1146469E-2,0E0,6.2739104E-4,0E0,0E0,1.1310633E-3,3.616218E-3,0E0,0E0,0E0,0E0,0E0,0E0],"parents":[2147483647,0,0,1,1,2,2,3,3,4,4,6,6,9,9,10,10],"right_children":[2,4,6,8,10,-1,12,-1,-1,14,16,-1,-1,-1,-1,-1,-1],"split_conditions":[3.1880064E0,8.326121E-1,1E0,4E-1,1.8034052E0,-2.7894104E-4,1.2538058E6,3.768106E-4,5.919734E-4,8.3645025E6,2.7778301E0,-3.1557816E-4,-4.3122782E-4,1.1097254E-4,2.5656432E-4,-7.9921076E-5,6.849079E-5],"split_indices":[0,0,10,2,0,0,7,0,0,5,0,0,0,0,0,0,0],"split_type":[0,0,0,0,0,0,0,0,0,0,0,0,0,0,0,0,0],"sum_hessian":[8.86E2,7.1E2,1.76E2,2.9E1,6.81E2,5.6E1,1.2E2,9E0,2E1,4.14E2,2.67E2,8.5E1,3.5E1,3.95E2,1.9E1,1.87E2,8E1],"tree_param":{"num_deleted":"0","num_feature":"11","num_nodes":"17","size_leaf_vector":"1"}},{"base_weights":[4.0648086E-4,4.568816E-3,-1.7267564E-2,5.2809436E-4,3.4984038E-3,-2.6094078E-4,-1.8628005E-2,7.055383E-3,-1.1928324E-3,-2.781578E-4,-2.03949E-2,9.3283925E-5,1.6488126E-4,4.974088E-5,-5.923121E-5,-2.480954E-4,-3.9452463E-4],"categories":[],"categories_nodes":[],"categories_segments":[],"categories_sizes":[],"default_left":[0,0,0,0,0,0,0,0,0,0,0,0,0,0,0,0,0],"id":46,"left_children":[1,3,5,-1,7,-1,9,11,13,-1,15,-1,-1,-1,-1,-1,-1],"loss_changes":[6.59934E-2,1.846202E-2,4.8438832E-4,0E0,1.1622311E-2,0E0,4.4697523E-4,1.4246535E-3,2.3383608E-3,0E0,1.7635152E-4,0E0,0E0,0E0,0E0,0E0,0E0],"parents":[2147483647,0,0,1,1,2,2,4,4,6,6,7,7,8,8,10,10],"right_children":[2,4,6,-1,8,-1,10,12,14,-1,16,-1,-1,-1,-1,-1,-1],"split_conditions":[3.1880064E0,8.326121E-1,1E0,5.2809436E-4,1.7960024E0,-2.6094078E-4,2.512381E-1,1.4050951E0,1E0,-2.781578E-4,4E-3,9.3283925E-5,1.6488126E-4,4.974088E-5,-5.923121E-5,-2.480954E-4,-3.9452463E-4],"split_indices":[0,0,10,0,0,0,4,0,10,0,1,0,0,0,0,0,0],"split_type":[0,0,0,0,0,0,0,0,0,0,0,0,0,0,0,0,0],"sum_hessian":[8.95E2,7.25E2,1.7E2,3E1,6.95E2,5.4E1,1.16E2,3.95E2,3E2,4.1E1,7.5E1,1.89E2,2.06E2,1.02E2,1.98E2,1E1,6.5E1],"tree_param":{"num_deleted":"0","num_feature":"11","num_nodes":"17","size_leaf_vector":"1"}},{"base_weights":[3.3726465E-4,4.3648793E-3,-3.189004E-4,8.746459E-3,-8.988331E-5,2.4411472E-2,7.317513E-3,2.0826573E-3,-2.572252E-3,3.1736348E-4,5.050523E-4,9.327455E-5,1.9736454E-4,1.5644931E-5,1.1568983E-4,1.01087644E-4,-6.6273315E-5],"categories":[],"categories_nodes":[],"categories_segments":[],"categories_sizes":[],"default_left":[0,0,0,0,0,0,0,0,0,0,0,0,0,0,0,0,0],"id":47,"left_children":[1,3,-1,5,7,9,11,13,15,-1,-1,-1,-1,-1,-1,-1,-1],"loss_changes":[6.266413E-2,1.4093428E-2,0E0,7.9693105E-3,1.9414609E-3,1.4907308E-4,2.4929047E-3,9.827197E-4,1.3647063E-3,0E0,0E0,0E0,0E0,0E0,0E0,0E0,0E0],"parents":[2147483647,0,0,1,1,3,3,4,4,5,5,6,6,7,7,8,8],"right_children":[2,4,-1,6,8,10,12,14,16,-1,-1,-1,-1,-1,-1,-1,-1],"split_conditions":[3.1880064E0,1.6334534E0,-3.189004E-4,8.326121E-1,2.9618508E-1,2.512381E-1,1.4078158E0,2.7778301E0,4E-3,3.1736348E-4,5.050523E-4,9.327455E-5,1.9736454E-4,1.5644931E-5,1.1568983E-4,1.01087644E-4,-6.6273315E-5],"split_indices":[0,0,0,0,4,4,0,0,1,0,0,0,0,0,0,0,0],"split_type":[0,0,0,0,0,0,0,0,0,0,0,0,0,0,0,0,0],"sum_hessian":[8.86E2,7.21E2,1.65E2,3.63E2,3.58E2,2.9E1,3.34E2,1.91E2,1.67E2,1E1,1.9E1,1.99E2,1.35E2,1.48E2,4.3E1,1.8E1,1.49E2],"tree_param":{"num_deleted":"0","num_feature":"11","num_nodes":"17","size_leaf_vector":"1"}},{"base_weights":[-9.056932E-5,4.0794993E-3,-1.695881E-2,8.69129E-3,-4.5438283E-4,-1.47681935E-2,-1.7983459E-2,2.6013538E-2,7.186064E-3,2.9911736E-3,-2.196721E-3,-2.2924188E-4,-3.0655973E-4,-1.5555312E-2,-3.87479E-4,3.113771E-4,5.476149E-4,1.0164105E-4,2.3046235E-4,1.3284857E-5,1.8457838E-4,2.2900618E-5,-1.1554627E-4,-3.2607213E-4,-2.5160008E-4],"categories":[],"categories_nodes":[],"categories_segments":[],"categories_sizes":[],"default_left":[0,0,0,0,0,0,0,0,0,0,0,0,0,0,0,0,0,0,0,0,0,0,0,0,0],"id":48,"left_children":[1,3,5,7,9,11,13,15,17,19,21,-1,-1,23,-1,-1,-1,-1,-1,-1,-1,-1,-1,-1,-1],"loss_changes":[6.2814E-2,1.4975022E-2,1.3171509E-4,9.069297E-3,2.1797742E-3,5.808007E-5,4.903935E-4,4.0811673E-4,2.8654728E-3,1.9232803E-3,3.3387316E-3,0E0,0E0,3.1515956E-5,0E0,0E0,0E0,0E0,0E0,0E0,0E0,0E0,0E0,0E0,0E0],"parents":[2147483647,0,0,1,1,2,2,3,3,4,4,5,5,6,6,7,7,8,8,9,9,10,10,13,13],"right_children":[2,4,6,8,10,12,14,16,18,20,22,-1,-1,24,-1,-1,-1,-1,-1,-1,-1,-1,-1,-1,-1],"split_conditions":[3.1880064E0,1.6334534E0,1E0,8.326121E-1,1E0,7.692308E-1,2.0655278E6,2.512381E-1,1.4159601E0,2.7778301E0,2.5671568E6,-2.2924188E-4,-3.0655973E-4,3.2264843E0,-3.87479E-4,3.113771E-4,5.476149E-4,1.0164105E-4,2.3046235E-4,1.3284857E-5,1.8457838E-4,2.2900618E-5,-1.1554627E-4,-3.2607213E-4,-2.5160008E-4],"split_indices":[0,0,10,0,10,3,5,4,0,0,5,0,0,0,0,0,0,0,0,0,0,0,0,0,0],"split_type":[0,0,0,0,0,0,0,0,0,0,0,0,0,0,0,0,0,0,0,0,0,0,0,0,0],"sum_hessian":[8.91E2,7.15E2,1.76E2,3.54E2,3.61E2,6.1E1,1.15E2,2.7E1,3.27E2,1.21E2,2.4E2,2.9E1,3.2E1,6.6E1,4.9E1,9E0,1.8E1,2.48E2,7.9E1,9.2E1,2.9E1,1.3E2,1.1E2,2.9E1,3.7E1],"tree_param":{"num_deleted":"0","num_feature":"11","num_nodes":"25","size_leaf_vector":"1"}},{"base_weights":[-6.232097E-5,3.9957766E-3,-1.6615339E-2,2.634766E-2,2.9886896E-3,-2.652026E-4,-1.7686095E-2,3.3778118E-4,5.449287E-4,5.7873516E-3,-1.7708642E-3,-2.9048524E-4,-3.8876393E-4,5.164913E-5,1.2196971E-4,5.262437E-5,-7.7694E-5],"categories":[],"categories_nodes":[],"categories_segments":[],"categories_sizes":[],"default_left":[0,0,0,0,0,0,0,0,0,0,0,0,0,0,0,0,0],"id":49,"left_children":[1,3,5,7,9,-1,11,-1,-1,13,15,-1,-1,-1,-1,-1,-1],"loss_changes":[6.0388435E-2,1.6173683E-2,1.8813461E-4,2.267491E-4,9.227952E-3,0E0,4.4836104E-4,0E0,0E0,1.009264E-3,2.8711571E-3,0E0,0E0,0E0,0E0,0E0,0E0],"parents":[2147483647,0,0,1,1,2,2,3,3,4,4,6,6,9,9,10,10],"right_children":[2,4,6,8,10,-1,12,-1,-1,14,16,-1,-1,-1,-1,-1,-1],"split_conditions":[3.1880064E0,8.326121E-1,1E0,1.9346604E-1,1.9733926E0,-2.652026E-4,1.2148959E6,3.3778118E-4,5.449287E-4,1.9221174E6,1E0,-2.9048524E-4,-3.8876393E-4,5.164913E-5,1.2196971E-4,5.262437E-5,-7.7694E-5],"split_indices":[0,0,10,4,0,0,7,0,0,5,10,0,0,0,0,0,0],"split_type":[0,0,0,0,0,0,0,0,0,0,0,0,0,0,0,0,0],"sum_hessian":[8.97E2,7.21E2,1.76E2,3E1,6.91E2,6E1,1.16E2,1E1,2E1,4.35E2,2.56E2,7.5E1,4.1E1,9.1E1,3.44E2,8.8E1,1.68E2],"tree_param":{"num_deleted":"0","num_feature":"11","num_nodes":"17","size_leaf_vector":"1"}},{"base_weights":[1.8951402E-4,3.9891344E-3,-1.6033953E-2,2.5420856E-2,2.944735E-3,-1.3921797E-2,-1.6893798E-2,3.412303E-4,5.3961197E-4,5.824476E-3,-1.8588367E-3,-2.765092E-4,-1.8684533E-4,-2.4735334E-4,-3.446633E-4,9.283613E-5,1.7717364E-4,-8.0404745E-5,6.3890235E-5],"categories":[],"categories_nodes":[],"categories_segments":[],"categories_sizes":[],"default_left":[0,0,0,0,0,0,0,0,0,0,0,0,0,0,0,0,0,0,0],"id":50,"left_children":[1,3,5,7,9,11,13,-1,-1,15,17,-1,-1,-1,-1,-1,-1,-1,-1],"loss_changes":[5.4248173E-2,1.5884418E-2,6.809831E-5,3.1368434E-4,9.431128E-3,5.3289346E-5,4.342161E-4,0E0,0E0,1.2561716E-3,3.3716233E-3,0E0,0E0,0E0,0E0,0E0,0E0,0E0,0E0],"parents":[2147483647,0,0,1,1,2,2,3,3,4,4,5,5,6,6,9,9,10,10],"right_children":[2,4,6,8,10,12,14,-1,-1,16,18,-1,-1,-1,-1,-1,-1,-1,-1],"split_conditions":[3.1880064E0,8.326121E-1,4E-1,2.512381E-1,1.9733926E0,3.3315163E0,1E0,3.412303E-4,5.3961197E-4,3.3781275E5,2.7778301E0,-2.765092E-4,-1.8684533E-4,-2.4735334E-4,-3.446633E-4,9.283613E-5,1.7717364E-4,-8.0404745E-5,6.3890235E-5],"split_indices":[0,0,2,4,0,0,10,0,0,8,0,0,0,0,0,0,0,0,0],"split_type":[0,0,0,0,0,0,0,0,0,0,0,0,0,0,0,0,0,0,0],"sum_hessian":[8.78E2,7.12E2,1.66E2,3.2E1,6.8E2,5.3E1,1.13E2,1.3E1,1.9E1,4.25E2,2.55E2,4E1,1.3E1,3.9E1,7.4E1,3.5E2,7.5E1,1.74E2,8.1E1],"tree_param":{"num_deleted":"0","num_feature":"11","num_nodes":"19","size_leaf_vector":"1"}},{"base_weights":[-1.4853518E-4,3.7203492E-3,-1.5954843E-2,2.4141744E-2,2.7282168E-3,-1.3686419E-2,-1.693462E-2,3.3534947E-4,5.045578E-4,5.7266513E-3,-1.6872743E-3,-2.7894022E-4,-2.126094E-4,-1.3138968E-2,-1.871266E-2,8.2021295E-5,1.4774707E-4,-6.2547784E-5,4.3720174E-5,-2.8264444E-4,-2.0460144E-4,-2.0789319E-4,-3.6949708E-4],"categories":[],"categories_nodes":[],"categories_segments":[],"categories_sizes":[],"default_left":[0,0,0,0,0,0,0,0,0,0,0,0,0,0,0,0,0,0,0,0,0,0,0],"id":51,"left_children":[1,3,5,7,9,11,13,-1,-1,15,17,-1,-1,19,21,-1,-1,-1,-1,-1,-1,-1,-1],"loss_changes":[5.4424178E-2,1.4420556E-2,1.5717E-4,1.18833035E-4,9.052282E-3,1.6065314E-6,5.504973E-4,0E0,0E0,1.1534858E-3,1.892519E-3,0E0,0E0,1.3349112E-5,4.7769397E-4,0E0,0E0,0E0,0E0,0E0,0E0,0E0,0E0],"parents":[2147483647,0,0,1,1,2,2,3,3,4,4,5,5,6,6,9,9,10,10,13,13,14,14],"right_children":[2,4,6,8,10,12,14,-1,-1,16,18,-1,-1,20,22,-1,-1,-1,-1,-1,-1,-1,-1],"split_conditions":[3.1880064E0,8.326121E-1,1E0,2.512381E-1,1.7997053E0,1.451315E6,4.435763E5,3.3534947E-4,5.045578E-4,2.9818094E-1,2.7778301E0,-2.7894022E-4,-2.126094E-4,3.2264843E0,4E-3,8.2021295E-5,1.4774707E-4,-6.2547784E-5,4.3720174E-5,-2.8264444E-4,-2.0460144E-4,-2.0789319E-4,-3.6949708E-4],"split_indices":[0,0,10,4,0,7,7,0,0,4,0,0,0,0,1,0,0,0,0,0,0,0,0],"split_type":[0,0,0,0,0,0,0,0,0,0,0,0,0,0,0,0,0,0,0,0,0,0,0],"sum_hessian":[8.88E2,7.14E2,1.74E2,3.2E1,6.82E2,5.7E1,1.17E2,1.3E1,1.9E1,4.06E2,2.76E2,3.2E1,2.5E1,4E1,7.7E1,2.58E2,1.48E2,1.95E2,8.1E1,1.7E1,2.3E1,1.2E1,6.5E1],"tree_param":{"num_deleted":"0","num_feature":"11","num_nodes":"23","size_leaf_vector":"1"}},{"base_weights":[-6.594784E-5,4.01404E-3,-1.5856247E-2,8.292434E-3,-2.1621576E-4,-2.557451E-4,-1.6766679E-2,2.3077577E-2,6.91064E-3,-1.5893686E-3,3.998244E-3,-1.3241713E-2,-1.867574E-2,3.558751E-4,5.210767E-4,8.9425965E-5,2.2952569E-4,6.219812E-5,-8.629459E-5,2.6090193E-4,2.971231E-5,-2.8450848E-4,-2.093078E-4,-2.1867127E-4,-3.601342E-4],"categories":[],"categories_nodes":[],"categories_segments":[],"categories_sizes":[],"default_left":[0,0,0,0,0,0,0,0,0,0,0,0,0,0,0,0,0,0,0,0,0,0,0,0,0],"id":52,"left_children":[1,3,5,7,9,-1,11,13,15,17,19,21,23,-1,-1,-1,-1,-1,-1,-1,-1,-1,-1,-1,-1],"loss_changes":[5.804545E-2,1.2960463E-2,1.18725E-4,7.1136095E-3,2.0954967E-3,0E0,5.8714673E-4,4.688278E-5,3.673573E-3,4.1431715E-3,2.1237638E-3,1.9846484E-5,1.6305223E-4,0E0,0E0,0E0,0E0,0E0,0E0,0E0,0E0,0E0,0E0,0E0,0E0],"parents":[2147483647,0,0,1,1,2,2,3,3,4,4,6,6,7,7,8,8,9,9,10,10,11,11,12,12],"right_children":[2,4,6,8,10,-1,12,14,16,18,20,22,24,-1,-1,-1,-1,-1,-1,-1,-1,-1,-1,-1,-1],"split_conditions":[3.1880064E0,1.6334534E0,1E0,8.326121E-1,2.7778301E0,-2.557451E-4,2.512381E-1,2.9818094E-1,1.4159601E0,1.9733926E0,2.7844307E0,3.2264843E0,4E-3,3.558751E-4,5.210767E-4,8.9425965E-5,2.2952569E-4,6.219812E-5,-8.629459E-5,2.6090193E-4,2.971231E-5,-2.8450848E-4,-2.093078E-4,-2.1867127E-4,-3.601342E-4],"split_indices":[0,0,10,0,0,0,4,4,0,0,0,0,1,0,0,0,0,0,0,0,0,0,0,0,0],"split_type":[0,0,0,0,0,0,0,0,0,0,0,0,0,0,0,0,0,0,0,0,0,0,0,0,0],"sum_hessian":[8.99E2,7.15E2,1.84E2,3.55E2,3.6E2,6.1E1,1.23E2,2.9E1,3.26E2,2.72E2,8.8E1,4.6E1,7.7E1,1.9E1,1E1,2.37E2,8.9E1,1.04E2,1.68E2,1.6E1,7.2E1,1.9E1,2.7E1,9E0,6.8E1],"tree_param":{"num_deleted":"0","num_feature":"11","num_nodes":"25","size_leaf_vector":"1"}},{"base_weights":[-3.585576E-4,3.383628E-3,-1.5304132E-2,4.297346E-4,2.6550055E-3,-3.1007675E-4,-1.3660807E-2,4.9653514E-3,-1.3411489E-3,-2.2968637E-4,-3.0066908E-4,1.2231468E-4,6.937735E-5,-7.151651E-5,6.53958E-5],"categories":[],"categories_nodes":[],"categories_segments":[],"categories_sizes":[],"default_left":[0,0,0,0,0,0,0,0,0,0,0,0,0,0,0],"id":53,"left_children":[1,3,5,-1,7,-1,9,11,13,-1,-1,-1,-1,-1,-1],"loss_changes":[4.9437195E-2,1.0123089E-2,1.7983094E-4,0E0,6.3124564E-3,0E0,8.345023E-5,8.389093E-4,3.0810544E-3,0E0,0E0,0E0,0E0,0E0,0E0],"parents":[2147483647,0,0,1,1,2,2,4,4,6,6,7,7,8,8],"right_children":[2,4,6,-1,8,-1,10,12,14,-1,-1,-1,-1,-1,-1],"split_conditions":[3.1880064E0,8.326121E-1,3.3070045E0,4.297346E-4,1.9733926E0,-3.1007675E-4,3.2821563E-1,7.6420426E-1,2.7778301E0,-2.2968637E-4,-3.0066908E-4,1.2231468E-4,6.937735E-5,-7.151651E-5,6.53958E-5],"split_indices":[0,0,0,0,0,0,4,3,0,0,0,0,0,0,0],"split_type":[0,0,0,0,0,0,0,0,0,0,0,0,0,0,0],"sum_hessian":[8.82E2,7.06E2,1.76E2,2.4E1,6.82E2,9E1,8.6E1,4.32E2,2.5E2,6.1E1,2.5E1,1.84E2,2.48E2,1.65E2,8.5E1],"tree_param":{"num_deleted":"0","num_feature":"11","num_nodes":"15","size_leaf_vector":"1"}},{"base_weights":[3.079516E-4,3.952565E-3,-1.5161795E-2,7.880463E-3,-1.4374257E-4,-1.2737708E-2,-1.616822E-2,2.1628344E-2,6.535681E-3,5.224783E-3,-1.1193542E-3,-2.7356905E-4,-2.0001084E-4,-1.4158264E-2,-3.6345216E-4,2.83322E-4,4.4978064E-4,8.922852E-5,1.6826238E-4,-1.28134225E-5,1.9936956E-4,4.6486133E-5,-5.567196E-5,-3.066652E-4,-2.3381467E-4],"categories":[],"categories_nodes":[],"categories_segments":[],"categories_sizes":[],"default_left":[0,0,0,0,0,0,0,0,0,0,0,0,0,0,0,0,0,0,0,0,0,0,0,0,0],"id":54,"left_children":[1,3,5,7,9,11,13,15,17,19,21,-1,-1,23,-1,-1,-1,-1,-1,-1,-1,-1,-1,-1,-1],"loss_changes":[4.9675424E-2,1.1473215E-2,2.0391867E-4,6.5882467E-3,1.8390069E-3,5.3187832E-5,5.1203E-4,1.606606E-4,1.4124559E-3,1.7697555E-3,2.0313258E-3,0E0,0E0,7.227436E-5,0E0,0E0,0E0,0E0,0E0,0E0,0E0,0E0,0E0,0E0,0E0],"parents":[2147483647,0,0,1,1,2,2,3,3,4,4,5,5,6,6,7,7,8,8,9,9,10,10,13,13],"right_children":[2,4,6,8,10,12,14,16,18,20,22,-1,-1,24,-1,-1,-1,-1,-1,-1,-1,-1,-1,-1,-1],"split_conditions":[3.1880064E0,1.6334534E0,1E0,8.326121E-1,4E-3,9.0932056E5,1.2238968E6,2.512381E-1,2.9818094E-1,1.9775048E0,1E0,-2.7356905E-4,-2.0001084E-4,3.218797E0,-3.6345216E-4,2.83322E-4,4.4978064E-4,8.922852E-5,1.6826238E-4,-1.28134225E-5,1.9936956E-4,4.6486133E-5,-5.567196E-5,-3.066652E-4,-2.3381467E-4],"split_indices":[0,0,10,0,1,7,7,4,4,0,10,0,0,0,0,0,0,0,0,0,0,0,0,0,0],"split_type":[0,0,0,0,0,0,0,0,0,0,0,0,0,0,0,0,0,0,0,0,0,0,0,0,0],"sum_hessian":[8.79E2,7.12E2,1.67E2,3.63E2,3.49E2,5.3E1,1.14E2,3.1E1,3.32E2,5.3E1,2.96E2,2.3E1,3E1,7.5E1,3.9E1,1.1E1,2E1,1.99E2,1.33E2,2.6E1,2.7E1,1.01E2,1.95E2,2.6E1,4.9E1],"tree_param":{"num_deleted":"0","num_feature":"11","num_nodes":"25","size_leaf_vector":"1"}},{"base_weights":[4.0383347E-5,3.5615398E-3,-1.4868141E-2,6.497188E-3,-1.6089199E-3,-1.2754037E-2,-1.5983276E-2,2.1432035E-2,5.4842667E-3,-4.2892834E-3,4.359801E-3,-2.7601546E-4,-1.05744E-2,-2.62923E-4,-3.4739624E-4,2.554261E-4,4.7056895E-4,7.350913E-5,1.2230377E-4,-2.691421E-5,-1.0342041E-4,2.609937E-4,4.0003437E-5,-2.1434143E-4,-1.4373359E-4],"categories":[],"categories_nodes":[],"categories_segments":[],"categories_sizes":[],"default_left":[0,0,0,0,0,0,0,0,0,0,0,0,0,0,0,0,0,0,0,0,0,0,0,0,0],"id":55,"left_children":[1,3,5,7,9,11,13,15,17,19,21,-1,23,-1,-1,-1,-1,-1,-1,-1,-1,-1,-1,-1,-1],"loss_changes":[4.6983708E-2,1.0999796E-2,1.9928068E-4,6.871514E-3,4.2262645E-3,1.3816264E-4,2.714228E-4,5.2347034E-4,7.048901E-4,6.548979E-4,1.7235463E-3,0E0,7.0738606E-6,0E0,0E0,0E0,0E0,0E0,0E0,0E0,0E0,0E0,0E0,0E0,0E0],"parents":[2147483647,0,0,1,1,2,2,3,3,4,4,5,5,6,6,7,7,8,8,9,9,10,10,12,12],"right_children":[2,4,6,8,10,12,14,16,18,20,22,-1,24,-1,-1,-1,-1,-1,-1,-1,-1,-1,-1,-1,-1],"split_conditions":[3.1880064E0,1.9733926E0,1E0,8.326121E-1,2.7778301E0,9.0932056E5,9.73633E5,2.512381E-1,1.4050951E0,1E0,2.7844307E0,-2.7601546E-4,7.6253927E-1,-2.62923E-4,-3.4739624E-4,2.554261E-4,4.7056895E-4,7.350913E-5,1.2230377E-4,-2.691421E-5,-1.0342041E-4,2.609937E-4,4.0003437E-5,-2.1434143E-4,-1.4373359E-4],"split_indices":[0,0,10,0,0,7,7,4,0,10,0,0,3,0,0,0,0,0,0,0,0,0,0,0,0],"split_type":[0,0,0,0,0,0,0,0,0,0,0,0,0,0,0,0,0,0,0,0,0,0,0,0,0],"sum_hessian":[8.93E2,7.23E2,1.7E2,4.61E2,2.62E2,6.3E1,1.07E2,2.8E1,4.33E2,1.81E2,8.1E1,2.9E1,3.4E1,6.8E1,3.9E1,1.1E1,1.7E1,1.84E2,2.49E2,5.7E1,1.24E2,1.4E1,6.7E1,2.3E1,1.1E1],"tree_param":{"num_deleted":"0","num_feature":"11","num_nodes":"25","size_leaf_vector":"1"}},{"base_weights":[-2.4806513E-4,3.494518E-3,-1.4738802E-2,6.3259485E-3,-1.0614878E-3,-2.9935237E-4,-1.3135918E-2,1.7390115E-2,5.6000366E-3,-2.9231957E-3,3.0513392E-3,-1.9941133E-4,-1.4954872E-2,2.5211723E-4,4.1056192E-4,4.4762837E-5,1.16379095E-4,-5.016505E-6,-8.15192E-5,2.6010448E-4,2.2408407E-5,-1.8539456E-4,-3.178447E-4],"categories":[],"categories_nodes":[],"categories_segments":[],"categories_sizes":[],"default_left":[0,0,0,0,0,0,0,0,0,0,0,0,0,0,0,0,0,0,0,0,0,0,0],"id":56,"left_children":[1,3,5,7,9,-1,11,13,15,17,19,-1,21,-1,-1,-1,-1,-1,-1,-1,-1,-1,-1],"loss_changes":[4.7559425E-2,8.998024E-3,1.8928945E-4,3.3562072E-3,2.0609642E-3,0E0,2.2648368E-4,1.6766693E-4,8.506533E-4,7.1982224E-4,1.6812014E-3,0E0,3.463328E-4,0E0,0E0,0E0,0E0,0E0,0E0,0E0,0E0,0E0,0E0],"parents":[2147483647,0,0,1,1,2,2,3,3,4,4,6,6,7,7,8,8,9,9,10,10,12,12],"right_children":[2,4,6,8,10,-1,12,14,16,18,20,-1,22,-1,-1,-1,-1,-1,-1,-1,-1,-1,-1],"split_conditions":[3.1880064E0,1.8034052E0,3.3070045E0,8.326121E-1,2.7778301E0,-2.9935237E-4,2.9518154E-1,2.9818094E-1,1.1871914E5,1E0,2.7844307E0,-1.9941133E-4,1E0,2.5211723E-4,4.1056192E-4,4.4762837E-5,1.16379095E-4,-5.016505E-6,-8.15192E-5,2.6010448E-4,2.2408407E-5,-1.8539456E-4,-3.178447E-4],"split_indices":[0,0,0,0,0,0,4,4,7,10,0,0,10,0,0,0,0,0,0,0,0,0,0],"split_type":[0,0,0,0,0,0,0,0,0,0,0,0,0,0,0,0,0,0,0,0,0,0,0],"sum_hessian":[8.75E2,6.96E2,1.79E2,4.29E2,2.67E2,9.1E1,8.8E1,2.5E1,4.04E2,1.84E2,8.3E1,4.1E1,4.7E1,1.6E1,9E0,7.1E1,3.33E2,6.6E1,1.18E2,1.1E1,7.2E1,1.6E1,3.1E1],"tree_param":{"num_deleted":"0","num_feature":"11","num_nodes":"23","size_leaf_vector":"1"}},{"base_weights":[-6.950985E-6,3.3189894E-3,-1.4226798E-2,6.3938815E-3,-1.1467584E-3,-2.0269437E-4,-1.4731851E-2,2.002636E-2,5.302277E-3,-2.9830998E-3,3.286607E-3,-1.26363E-2,-1.5604342E-2,2.72572E-4,4.7256044E-4,6.0151506E-5,1.3465295E-4,1.7616576E-5,-7.4049225E-5,1.6338796E-4,3.1698823E-7,-2.8685137E-4,-1.9215544E-4,-2.4774548E-4,-3.4699132E-4],"categories":[],"categories_nodes":[],"categories_segments":[],"categories_sizes":[],"default_left":[0,0,0,0,0,0,0,0,0,0,0,0,0,0,0,0,0,0,0,0,0,0,0,0,0],"id":57,"left_children":[1,3,5,7,9,-1,11,13,15,17,19,21,23,-1,-1,-1,-1,-1,-1,-1,-1,-1,-1,-1,-1],"loss_changes":[4.1666258E-2,9.811761E-3,1.1791289E-4,6.188594E-3,2.3870268E-3,0E0,6.2443316E-5,5.2584615E-4,1.5584826E-3,8.2322303E-4,1.5510584E-3,1.4248723E-4,4.1993894E-4,0E0,0E0,0E0,0E0,0E0,0E0,0E0,0E0,0E0,0E0,0E0,0E0],"parents":[2147483647,0,0,1,1,2,2,3,3,4,4,6,6,7,7,8,8,9,9,10,10,11,11,12,12],"right_children":[2,4,6,8,10,-1,12,14,16,18,20,22,24,-1,-1,-1,-1,-1,-1,-1,-1,-1,-1,-1,-1],"split_conditions":[3.1880064E0,1.7960024E0,4E-3,8.326121E-1,2.7778301E0,-2.0269437E-4,1E0,2.9818094E-1,1.4050951E0,1.9733926E0,1E0,8.9501575E5,9.73633E5,2.72572E-4,4.7256044E-4,6.0151506E-5,1.3465295E-4,1.7616576E-5,-7.4049225E-5,1.6338796E-4,3.1698823E-7,-2.8685137E-4,-1.9215544E-4,-2.4774548E-4,-3.4699132E-4],"split_indices":[0,0,1,0,0,0,10,4,0,0,10,7,7,0,0,0,0,0,0,0,0,0,0,0,0],"split_type":[0,0,0,0,0,0,0,0,0,0,0,0,0,0,0,0,0,0,0,0,0,0,0,0,0],"sum_hessian":[8.79E2,7.13E2,1.66E2,4.22E2,2.91E2,2.5E1,1.41E2,3E1,3.92E2,2.06E2,8.5E1,4.6E1,9.5E1,1.7E1,1.3E1,1.92E2,2E2,4.2E1,1.64E2,3.1E1,5.4E1,1.8E1,2.8E1,5.8E1,3.7E1],"tree_param":{"num_deleted":"0","num_feature":"11","num_nodes":"25","size_leaf_vector":"1"}},{"base_weights":[-6.636536E-8,3.3126604E-3,-1.3743939E-2,1.9990627E-2,2.4800505E-3,-1.15465615E-2,-1.462943E-2,2.9351184E-4,4.552418E-4,4.9325842E-3,-1.6108854E-3,-1.3784297E-2,-1.7657336E-4,-2.2165418E-4,-1.655366E-2,8.220573E-5,1.4163941E-4,1.2550982E-4,-5.4109205E-5,-2.8939758E-4,-1.8325608E-4,-1.8686877E-4,-3.2828748E-4],"categories":[],"categories_nodes":[],"categories_segments":[],"categories_sizes":[],"default_left":[0,0,0,0,0,0,0,0,0,0,0,0,0,0,0,0,0,0,0,0,0,0,0],"id":58,"left_children":[1,3,5,7,9,11,13,-1,-1,15,17,19,-1,-1,21,-1,-1,-1,-1,-1,-1,-1,-1],"loss_changes":[3.938318E-2,9.62913E-3,1.5796721E-4,2.3747422E-4,6.6799955E-3,1.099403E-4,4.0198676E-4,0E0,0E0,5.313046E-4,2.750569E-3,8.69669E-6,0E0,0E0,3.0017085E-4,0E0,0E0,0E0,0E0,0E0,0E0,0E0,0E0],"parents":[2147483647,0,0,1,1,2,2,3,3,4,4,5,5,6,6,9,9,10,10,11,11,14,14],"right_children":[2,4,6,8,10,12,14,-1,-1,16,18,20,-1,-1,22,-1,-1,-1,-1,-1,-1,-1,-1],"split_conditions":[3.1880064E0,8.326121E-1,1E0,2.9818094E-1,1.9733926E0,3.3070045E0,7.226625E5,2.9351184E-4,4.552418E-4,3.3781275E5,4E-3,8E-1,-1.7657336E-4,-2.2165418E-4,4E-3,8.220573E-5,1.4163941E-4,1.2550982E-4,-5.4109205E-5,-2.8939758E-4,-1.8325608E-4,-1.8686877E-4,-3.2828748E-4],"split_indices":[0,0,10,4,0,0,7,0,0,8,1,2,0,0,1,0,0,0,0,0,0,0,0],"split_type":[0,0,0,0,0,0,0,0,0,0,0,0,0,0,0,0,0,0,0,0,0,0,0],"sum_hessian":[8.63E2,6.96E2,1.67E2,3.2E1,6.64E2,5.2E1,1.15E2,1.9E1,1.3E1,4.15E2,2.49E2,2.2E1,3E1,5.1E1,6.4E1,3.52E2,6.3E1,3.3E1,2.16E2,1.3E1,9E0,1.1E1,5.3E1],"tree_param":{"num_deleted":"0","num_feature":"11","num_nodes":"23","size_leaf_vector":"1"}},{"base_weights":[-7.830621E-5,3.2537512E-3,-1.3920178E-2,6.246453E-3,-9.5467165E-4,-1.1807032E-2,-1.47903105E-2,1.8468203E-2,5.3709373E-3,-2.774054E-3,3.982615E-3,-2.2933703E-4,-1.4926783E-4,-2.0779547E-4,-2.8349538E-4,1.9884456E-4,4.116711E-4,1.7683582E-5,1.1534212E-4,2.45578E-5,-7.095721E-5,2.4087286E-4,3.2942364E-5],"categories":[],"categories_nodes":[],"categories_segments":[],"categories_sizes":[],"default_left":[0,0,0,0,0,0,0,0,0,0,0,0,0,0,0,0,0,0,0,0,0,0,0],"id":59,"left_children":[1,3,5,7,9,11,13,15,17,19,21,-1,-1,-1,-1,-1,-1,-1,-1,-1,-1,-1,-1],"loss_changes":[4.1601133E-2,9.162204E-3,1.4714524E-4,4.448453E-3,2.73284E-3,1.6506761E-5,3.7958845E-5,5.684858E-4,1.4777221E-3,9.5934793E-4,1.6054455E-3,0E0,0E0,0E0,0E0,0E0,0E0,0E0,0E0,0E0,0E0,0E0,0E0],"parents":[2147483647,0,0,1,1,2,2,3,3,4,4,5,5,6,6,7,7,8,8,9,9,10,10],"right_children":[2,4,6,8,10,12,14,16,18,20,22,-1,-1,-1,-1,-1,-1,-1,-1,-1,-1,-1,-1],"split_conditions":[3.1880064E0,1.7960024E0,4.435763E5,8.326121E-1,2.7778301E0,1.8730283E5,4E-3,2.512381E-1,1.0418206E5,1.9733926E0,2.7844307E0,-2.2933703E-4,-1.4926783E-4,-2.0779547E-4,-2.8349538E-4,1.9884456E-4,4.116711E-4,1.7683582E-5,1.1534212E-4,2.45578E-5,-7.095721E-5,2.4087286E-4,3.2942364E-5],"split_indices":[0,0,7,0,0,8,1,4,7,0,0,0,0,0,0,0,0,0,0,0,0,0,0],"split_type":[0,0,0,0,0,0,0,0,0,0,0,0,0,0,0,0,0,0,0,0,0,0,0],"sum_hessian":[9E2,7.26E2,1.74E2,4.24E2,3.02E2,5.5E1,1.19E2,2.7E1,3.97E2,2.21E2,8.1E1,4.6E1,9E0,1.7E1,1.02E2,1E1,1.7E1,6.4E1,3.33E2,4.5E1,1.76E2,1.5E1,6.6E1],"tree_param":{"num_deleted":"0","num_feature":"11","num_nodes":"23","size_leaf_vector":"1"}},{"base_weights":[3.8638717E-4,3.5937808E-3,-1.3383281E-2,6.4884285E-3,-1.4636604E-3,-2.788326E-4,-1.1811447E-2,2.1622127E-2,5.43706E-3,-3.7653018E-3,3.3680913E-3,-2.5644808E-4,-1.9892026E-4,2.8116175E-4,4.473094E-4,9.3770264E-5,1.8569086E-4,-6.6719126E-6,-9.792335E-5,2.3493663E-4,2.6224241E-5],"categories":[],"categories_nodes":[],"categories_segments":[],"categories_sizes":[],"default_left":[0,0,0,0,0,0,0,0,0,0,0,0,0,0,0,0,0,0,0,0,0],"id":60,"left_children":[1,3,5,7,9,-1,11,13,15,17,19,-1,-1,-1,-1,-1,-1,-1,-1,-1,-1],"loss_changes":[3.9973024E-2,1.0754897E-2,2.6344135E-4,7.31292E-3,2.993099E-3,0E0,5.372893E-5,1.1629984E-4,7.191263E-4,9.346127E-4,1.5623649E-3,0E0,0E0,0E0,0E0,0E0,0E0,0E0,0E0,0E0,0E0],"parents":[2147483647,0,0,1,1,2,2,3,3,4,4,6,6,7,7,8,8,9,9,10,10],"right_children":[2,4,6,8,10,-1,12,14,16,18,20,-1,-1,-1,-1,-1,-1,-1,-1,-1,-1],"split_conditions":[3.1880064E0,1.9733926E0,3.3070045E0,8.326121E-1,2.7778301E0,-2.788326E-4,7.1428573E-1,1.3834708E5,7.350133E6,1E0,2.7844307E0,-2.5644808E-4,-1.9892026E-4,2.8116175E-4,4.473094E-4,9.3770264E-5,1.8569086E-4,-6.6719126E-6,-9.792335E-5,2.3493663E-4,2.6224241E-5],"split_indices":[0,0,0,0,0,0,3,7,5,10,0,0,0,0,0,0,0,0,0,0,0],"split_type":[0,0,0,0,0,0,0,0,0,0,0,0,0,0,0,0,0,0,0,0,0],"sum_hessian":[9.03E2,7.33E2,1.7E2,4.66E2,2.67E2,7.9E1,9.1E1,2.9E1,4.37E2,1.81E2,8.6E1,2.8E1,6.3E1,1E1,1.9E1,4.05E2,3.2E1,5.6E1,1.25E2,1.4E1,7.2E1],"tree_param":{"num_deleted":"0","num_feature":"11","num_nodes":"21","size_leaf_vector":"1"}},{"base_weights":[3.3315312E-4,3.5110158E-3,-1.2912929E-2,6.424803E-3,-1.2659465E-3,-1.42811695E-2,-1.1396264E-2,2.0311542E-2,5.415192E-3,3.1914993E-3,-3.5366965E-3,-1.8148441E-4,-2.772819E-4,-1.751316E-4,-1.346349E-2,2.6100082E-4,4.142495E-4,7.1141454E-5,1.2432307E-4,7.9051615E-6,1.6163391E-4,-2.305974E-5,-1.9866232E-4,-1.637604E-4,-2.8093628E-4],"categories":[],"categories_nodes":[],"categories_segments":[],"categories_sizes":[],"default_left":[0,0,0,0,0,0,0,0,0,0,0,0,0,0,0,0,0,0,0,0,0,0,0,0,0],"id":61,"left_children":[1,3,5,7,9,11,13,15,17,19,21,-1,-1,-1,23,-1,-1,-1,-1,-1,-1,-1,-1,-1,-1],"loss_changes":[3.7635487E-2,1.0043769E-2,1.9625016E-4,6.1710607E-3,2.7846457E-3,1.12015754E-4,2.2548065E-4,6.2611885E-5,8.250568E-4,1.4153513E-3,2.9794052E-3,0E0,0E0,0E0,1.7703511E-4,0E0,0E0,0E0,0E0,0E0,0E0,0E0,0E0,0E0,0E0],"parents":[2147483647,0,0,1,1,2,2,3,3,4,4,5,5,6,6,7,7,8,8,9,9,10,10,14,14],"right_children":[2,4,6,8,10,12,14,16,18,20,22,-1,-1,-1,24,-1,-1,-1,-1,-1,-1,-1,-1,-1,-1],"split_conditions":[3.1880064E0,1.8034052E0,3.3070045E0,8.326121E-1,1E0,3.1957097E0,2.9618508E-1,1.8999061E-1,1.4050951E0,2.7778301E0,4.0669938E6,-1.8148441E-4,-2.772819E-4,-1.751316E-4,1E0,2.6100082E-4,4.142495E-4,7.1141454E-5,1.2432307E-4,7.9051615E-6,1.6163391E-4,-2.305974E-5,-1.9866232E-4,-1.637604E-4,-2.8093628E-4],"split_indices":[0,0,0,0,10,0,4,4,0,0,5,0,0,0,10,0,0,0,0,0,0,0,0,0,0],"split_type":[0,0,0,0,0,0,0,0,0,0,0,0,0,0,0,0,0,0,0,0,0,0,0,0,0],"sum_hessian":[8.92E2,7.2E2,1.72E2,4.47E2,2.73E2,8.6E1,8.6E1,2.9E1,4.18E2,9.2E1,1.81E2,1.3E1,7.3E1,4.7E1,3.9E1,9E0,2E1,1.89E2,2.29E2,6.2E1,3E1,1.38E2,4.3E1,1.2E1,2.7E1],"tree_param":{"num_deleted":"0","num_feature":"11","num_nodes":"25","size_leaf_vector":"1"}},{"base_weights":[1.2293522E-4,3.1562385E-3,-1.2818689E-2,2.1676743E-2,2.3487655E-3,-2.6221827E-4,-1.1291405E-2,3.1172545E-4,4.8357458E-4,5.6038764E-3,-6.687363E-4,-1.834844E-4,-1.3839741E-2,6.968568E-5,1.7020741E-4,4.7387828E-5,-4.326405E-5,-1.8198254E-4,-2.902017E-4],"categories":[],"categories_nodes":[],"categories_segments":[],"categories_sizes":[],"default_left":[0,0,0,0,0,0,0,0,0,0,0,0,0,0,0,0,0,0,0],"id":62,"left_children":[1,3,5,7,9,-1,11,-1,-1,13,15,-1,17,-1,-1,-1,-1,-1,-1],"loss_changes":[3.4938928E-2,1.0731503E-2,1.7852522E-4,2.0349585E-4,6.8007805E-3,0E0,1.6039424E-4,0E0,0E0,2.1620253E-3,1.934146E-3,0E0,4.2368658E-5,0E0,0E0,0E0,0E0,0E0,0E0],"parents":[2147483647,0,0,1,1,2,2,3,3,4,4,6,6,9,9,10,10,12,12],"right_children":[2,4,6,8,10,-1,12,-1,-1,14,16,-1,18,-1,-1,-1,-1,-1,-1],"split_conditions":[3.1880064E0,8.326121E-1,3.3070045E0,2.9818094E-1,1.6334534E0,-2.6221827E-4,3.2821563E-1,3.1172545E-4,4.8357458E-4,1.4132483E0,1E0,-1.834844E-4,1E0,6.968568E-5,1.7020741E-4,4.7387828E-5,-4.326405E-5,-1.8198254E-4,-2.902017E-4],"split_indices":[0,0,0,4,0,0,4,0,0,0,10,0,10,0,0,0,0,0,0],"split_type":[0,0,0,0,0,0,0,0,0,0,0,0,0,0,0,0,0,0,0],"sum_hessian":[8.88E2,7.2E2,1.68E2,2.9E1,6.91E2,8.6E1,8.2E1,1.6E1,1.3E1,3.32E2,3.59E2,5.6E1,2.6E1,2.2E2,1.12E2,1.22E2,2.37E2,1E1,1.6E1],"tree_param":{"num_deleted":"0","num_feature":"11","num_nodes":"19","size_leaf_vector":"1"}},{"base_weights":[4.470328E-5,3.246907E-3,-1.2800754E-2,1.9756913E-2,2.5613E-3,-1.4083391E-2,-1.1418642E-2,2.8747148E-4,4.483382E-4,4.597434E-3,-9.958417E-4,-1.9850992E-4,-2.7172407E-4,-1.9465626E-4,-2.469489E-4,1.3941134E-4,5.973688E-5,-5.8058973E-5,5.5424163E-5],"categories":[],"categories_nodes":[],"categories_segments":[],"categories_sizes":[],"default_left":[0,0,0,0,0,0,0,0,0,0,0,0,0,0,0,0,0,0,0],"id":63,"left_children":[1,3,5,7,9,11,13,-1,-1,15,17,-1,-1,-1,-1,-1,-1,-1,-1],"loss_changes":[3.6280412E-2,7.9408735E-3,1.5118904E-4,1.5159976E-4,4.922451E-3,7.627532E-6,1.847744E-5,0E0,0E0,1.7115688E-3,2.1152208E-3,0E0,0E0,0E0,0E0,0E0,0E0,0E0,0E0],"parents":[2147483647,0,0,1,1,2,2,3,3,4,4,5,5,6,6,9,9,10,10],"right_children":[2,4,6,8,10,12,14,-1,-1,16,18,-1,-1,-1,-1,-1,-1,-1,-1],"split_conditions":[1.4E1,2E0,1.5E1,3.2821563E-1,7E0,4E-3,3.2910198E-1,2.8747148E-4,4.483382E-4,7.1428573E-1,1.2E1,-1.9850992E-4,-2.7172407E-4,-1.9465626E-4,-2.469489E-4,1.3941134E-4,5.973688E-5,-5.8058973E-5,5.5424163E-5],"split_indices":[9,9,9,4,9,1,4,0,0,3,9,0,0,0,0,0,0,0,0],"split_type":[0,0,0,0,0,0,0,0,0,0,0,0,0,0,0,0,0,0,0],"sum_hessian":[8.8E2,7.05E2,1.75E2,2.7E1,6.78E2,8.6E1,8.9E1,1.6E1,1.1E1,4.31E2,2.47E2,1.5E1,7.1E1,6.4E1,2.5E1,1.37E2,2.94E2,1.61E2,8.6E1],"tree_param":{"num_deleted":"0","num_feature":"11","num_nodes":"19","size_leaf_vector":"1"}},{"base_weights":[-4.9235354E-5,3.0561585E-3,-1.2679886E-2,1.9329797E-2,2.373699E-3,-1.3914608E-2,-1.1317995E-2,2.9315255E-4,4.2726015E-4,4.5716236E-3,-7.931561E-4,-1.8791364E-4,-2.6887408E-4,-1.25488965E-2,-1.6354056E-4,7.5131866E-6,9.727863E-5,5.7615096E-5,-4.8772854E-5,-1.5827434E-4,-2.6252904E-4],"categories":[],"categories_nodes":[],"categories_segments":[],"categories_sizes":[],"default_left":[0,0,0,0,0,0,0,0,0,0,0,0,0,0,0,0,0,0,0,0,0],"id":64,"left_children":[1,3,5,7,9,11,13,-1,-1,15,17,-1,-1,19,-1,-1,-1,-1,-1,-1,-1],"loss_changes":[3.5378806E-2,7.994929E-3,1.4183298E-4,1.4737248E-5,4.84814E-3,4.639104E-5,1.67083E-4,0E0,0E0,1.1449223E-3,2.0533064E-3,0E0,0E0,2.516508E-4,0E0,0E0,0E0,0E0,0E0,0E0,0E0],"parents":[2147483647,0,0,1,1,2,2,3,3,4,4,5,5,6,6,9,9,10,10,13,13],"right_children":[2,4,6,8,10,12,14,-1,-1,16,18,-1,-1,20,-1,-1,-1,-1,-1,-1,-1],"split_conditions":[3.1880064E0,8.326121E-1,3.3070045E0,6.7448065E6,1.7997053E0,3.1957097E0,8.333333E-1,2.9315255E-4,4.2726015E-4,8.378672E-1,1E0,-1.8791364E-4,-2.6887408E-4,1E0,-1.6354056E-4,7.5131866E-6,9.727863E-5,5.7615096E-5,-4.8772854E-5,-1.5827434E-4,-2.6252904E-4],"split_indices":[0,0,0,5,0,0,3,0,0,0,10,0,0,10,0,0,0,0,0,0,0],"split_type":[0,0,0,0,0,0,0,0,0,0,0,0,0,0,0,0,0,0,0,0,0],"sum_hessian":[9E2,7.23E2,1.77E2,2.8E1,6.95E2,8.8E1,8.9E1,1.7E1,1.1E1,4.1E2,2.85E2,1.4E1,7.4E1,5.7E1,3.2E1,5.7E1,3.53E2,9.1E1,1.94E2,1.8E1,3.9E1],"tree_param":{"num_deleted":"0","num_feature":"11","num_nodes":"21","size_leaf_vector":"1"}},{"base_weights":[1.95344E-4,3.082344E-3,-1.2188628E-2,6.027961E-3,-4.0417127E-4,-1.0637767E-2,-1.2988293E-2,1.8167282E-2,4.990965E-3,-1.6629513E-3,3.0874398E-3,-1.217809E-2,-8.813148E-3,-1.1543626E-2,-2.9552888E-4,2.148754E-4,3.8758584E-4,6.62996E-5,1.3701049E-4,2.8784902E-5,-5.8512775E-5,2.3394261E-4,2.5920004E-5,-2.615316E-4,-1.7070756E-4,-1.2433999E-4,-1.8717242E-4,-1.5488485E-4,-2.2435709E-4],"categories":[],"categories_nodes":[],"categories_segments":[],"categories_sizes":[],"default_left":[0,0,0,0,0,0,0,0,0,0,0,0,0,0,0,0,0,0,0,0,0,0,0,0,0,0,0,0,0],"id":65,"left_children":[1,3,5,7,9,11,13,15,17,19,21,23,25,27,-1,-1,-1,-1,-1,-1,-1,-1,-1,-1,-1,-1,-1,-1,-1],"loss_changes":[3.1392537E-2,7.314632E-3,6.7703426E-5,4.768461E-3,1.4423549E-3,6.692344E-5,2.6138313E-4,2.9514916E-4,1.1847345E-3,1.158763E-3,1.3824627E-3,4.7161244E-5,1.8455321E-5,2.8066337E-5,0E0,0E0,0E0,0E0,0E0,0E0,0E0,0E0,0E0,0E0,0E0,0E0,0E0,0E0,0E0],"parents":[2147483647,0,0,1,1,2,2,3,3,4,4,5,5,6,6,7,7,8,8,9,9,10,10,11,11,12,12,13,13],"right_children":[2,4,6,8,10,12,14,16,18,20,22,24,26,28,-1,-1,-1,-1,-1,-1,-1,-1,-1,-1,-1,-1,-1,-1,-1],"split_conditions":[3.1880064E0,1.7885878E0,1E0,8.326121E-1,2.7778301E0,9.0932056E5,1.2148959E6,2.512381E-1,1.4132483E0,1.9733926E0,2.7844307E0,3.3070045E0,1.9622442E6,4E-3,-2.9552888E-4,2.148754E-4,3.8758584E-4,6.62996E-5,1.3701049E-4,2.8784902E-5,-5.8512775E-5,2.3394261E-4,2.5920004E-5,-2.615316E-4,-1.7070756E-4,-1.2433999E-4,-1.8717242E-4,-1.5488485E-4,-2.2435709E-4],"split_indices":[0,0,10,0,0,7,7,4,0,0,0,0,7,1,0,0,0,0,0,0,0,0,0,0,0,0,0,0,0],"split_type":[0,0,0,0,0,0,0,0,0,0,0,0,0,0,0,0,0,0,0,0,0,0,0,0,0,0,0,0,0],"sum_hessian":[8.76E2,7.11E2,1.65E2,3.85E2,3.26E2,6.1E1,1.04E2,2.9E1,3.56E2,2.4E2,8.6E1,3E1,3.1E1,7.3E1,3.1E1,1E1,1.9E1,2.25E2,1.31E2,7.6E1,1.64E2,1.2E1,7.4E1,1.6E1,1.4E1,1.4E1,1.7E1,1.3E1,6E1],"tree_param":{"num_deleted":"0","num_feature":"11","num_nodes":"29","size_leaf_vector":"1"}},{"base_weights":[-2.901984E-4,2.6497787E-3,-1.2016205E-2,1.9597352E-2,2.0424582E-3,-2.4837567E-4,-1.0594689E-2,2.7670755E-4,4.4930744E-4,4.6465257E-3,-6.3503615E-4,-1.6779201E-4,-2.525693E-4,6.611331E-5,1.4586862E-4,4.013872E-5,-3.837446E-5],"categories":[],"categories_nodes":[],"categories_segments":[],"categories_sizes":[],"default_left":[0,0,0,0,0,0,0,0,0,0,0,0,0,0,0,0,0],"id":66,"left_children":[1,3,5,7,9,-1,11,-1,-1,13,15,-1,-1,-1,-1,-1,-1],"loss_changes":[3.1299934E-2,7.4324086E-3,2.117157E-4,1.7956365E-4,4.897559E-3,0E0,3.1721685E-4,0E0,0E0,1.2122467E-3,1.3952481E-3,0E0,0E0,0E0,0E0,0E0,0E0],"parents":[2147483647,0,0,1,1,2,2,3,3,4,4,6,6,9,9,10,10],"right_children":[2,4,6,8,10,-1,12,-1,-1,14,16,-1,-1,-1,-1,-1,-1],"split_conditions":[1.4E1,2E0,1.5E1,2.9818094E-1,6E0,-2.4837567E-4,3.2821563E-1,2.7670755E-4,4.4930744E-4,5E0,1E0,-1.6779201E-4,-2.525693E-4,6.611331E-5,1.4586862E-4,4.013872E-5,-3.837446E-5],"split_indices":[9,9,9,4,9,0,4,0,0,9,10,0,0,0,0,0,0],"split_type":[0,0,0,0,0,0,0,0,0,0,0,0,0,0,0,0,0],"sum_hessian":[9.06E2,7.25E2,1.81E2,2.4E1,7.01E2,8.8E1,9.3E1,1.4E1,1E1,3.55E2,3.46E2,6.4E1,2.9E1,2.67E2,8.8E1,1.17E2,2.29E2],"tree_param":{"num_deleted":"0","num_feature":"11","num_nodes":"17","size_leaf_vector":"1"}},{"base_weights":[1.04062136E-4,2.8920209E-3,-1.1664322E-2,1.7659238E-2,2.1409448E-3,-9.623415E-3,-1.2566627E-2,2.300871E-4,3.6869937E-4,4.413215E-3,-9.3195133E-4,-1.1531431E-2,-1.4425331E-4,-1.0682074E-2,-2.880004E-4,5.183958E-5,1.0725941E-4,-4.9830916E-5,5.7362748E-5,-2.489981E-4,-1.5988661E-4,-2.4232385E-4,-1.7225616E-4],"categories":[],"categories_nodes":[],"categories_segments":[],"categories_sizes":[],"default_left":[0,0,0,0,0,0,0,0,0,0,0,0,0,0,0,0,0,0,0,0,0,0,0],"id":67,"left_children":[1,3,5,7,9,11,13,-1,-1,15,17,19,-1,21,-1,-1,-1,-1,-1,-1,-1,-1,-1],"loss_changes":[2.9464096E-2,8.014476E-3,1.9580685E-4,1.6008317E-4,4.8359684E-3,1.11681875E-4,4.793387E-4,0E0,0E0,8.64618E-4,2.088513E-3,2.7345726E-5,0E0,1.249602E-4,0E0,0E0,0E0,0E0,0E0,0E0,0E0,0E0,0E0],"parents":[2147483647,0,0,1,1,2,2,3,3,4,4,5,5,6,6,9,9,10,10,11,11,13,13],"right_children":[2,4,6,8,10,12,14,-1,-1,16,18,20,-1,22,-1,-1,-1,-1,-1,-1,-1,-1,-1],"split_conditions":[3.1880064E0,8.326121E-1,1E0,2.512381E-1,1.7997053E0,9.0932056E5,9.73633E5,2.300871E-4,3.6869937E-4,1.4050951E0,2.7778301E0,3.3070045E0,-1.4425331E-4,3.218797E0,-2.880004E-4,5.183958E-5,1.0725941E-4,-4.9830916E-5,5.7362748E-5,-2.489981E-4,-1.5988661E-4,-2.4232385E-4,-1.7225616E-4],"split_indices":[0,0,10,4,0,7,7,0,0,0,0,0,0,0,0,0,0,0,0,0,0,0,0],"split_type":[0,0,0,0,0,0,0,0,0,0,0,0,0,0,0,0,0,0,0,0,0,0,0],"sum_hessian":[8.96E2,7.25E2,1.71E2,3.4E1,6.91E2,5.6E1,1.15E2,1.2E1,2.2E1,3.97E2,2.94E2,2.5E1,3.1E1,7.3E1,4.2E1,1.83E2,2.14E2,2.05E2,8.9E1,1.3E1,1.2E1,2.4E1,4.9E1],"tree_param":{"num_deleted":"0","num_feature":"11","num_nodes":"23","size_leaf_vector":"1"}},{"base_weights":[-1.280692E-4,2.6232149E-3,-1.1564348E-2,5.60995E-3,-1.5271356E-3,-9.269453E-3,-1.2650616E-2,1.8125996E-2,4.4842176E-3,-2.9234553E-3,2.0391254E-3,-1.0620829E-2,-1.3262256E-4,-9.564221E-3,-1.4067967E-2,2.0086512E-4,3.925055E-4,4.8765527E-5,1.161983E-4,3.0662326E-5,-7.6785116E-5,1.5774345E-4,-1.7664603E-5,-2.1830288E-4,-1.2444655E-4,-1.2644789E-4,-2.0104453E-4,-1.5098057E-4,-2.7740863E-4],"categories":[],"categories_nodes":[],"categories_segments":[],"categories_sizes":[],"default_left":[0,0,0,0,0,0,0,0,0,0,0,0,0,0,0,0,0,0,0,0,0,0,0,0,0,0,0,0,0],"id":68,"left_children":[1,3,5,7,9,11,13,15,17,19,21,23,-1,25,27,-1,-1,-1,-1,-1,-1,-1,-1,-1,-1,-1,-1,-1,-1],"loss_changes":[2.7907837E-2,8.871705E-3,3.1150877E-4,5.780043E-3,1.4998536E-3,9.343214E-5,3.6414526E-4,5.2160304E-4,1.2469189E-3,1.2064115E-3,1.6504305E-3,7.308787E-5,0E0,6.226334E-5,2.7471967E-4,0E0,0E0,0E0,0E0,0E0,0E0,0E0,0E0,0E0,0E0,0E0,0E0,0E0,0E0],"parents":[2147483647,0,0,1,1,2,2,3,3,4,4,5,5,6,6,7,7,8,8,9,9,10,10,11,11,13,13,14,14],"right_children":[2,4,6,8,10,12,14,16,18,20,22,24,-1,26,28,-1,-1,-1,-1,-1,-1,-1,-1,-1,-1,-1,-1,-1,-1],"split_conditions":[3.1880064E0,1.7960024E0,1E0,8.326121E-1,2.7778301E0,1.451315E6,4.435763E5,2.512381E-1,1.4050951E0,1.9733926E0,1E0,3.3233504E0,-1.3262256E-4,9.0480053E-1,4E-3,2.0086512E-4,3.925055E-4,4.8765527E-5,1.161983E-4,3.0662326E-5,-7.6785116E-5,1.5774345E-4,-1.7664603E-5,-2.1830288E-4,-1.2444655E-4,-1.2644789E-4,-2.0104453E-4,-1.5098057E-4,-2.7740863E-4],"split_indices":[0,0,10,0,0,7,7,4,0,0,10,0,0,3,1,0,0,0,0,0,0,0,0,0,0,0,0,0,0],"split_type":[0,0,0,0,0,0,0,0,0,0,0,0,0,0,0,0,0,0,0,0,0,0,0,0,0,0,0,0,0],"sum_hessian":[8.85E2,7.14E2,1.71E2,4.15E2,2.99E2,5.8E1,1.13E2,3.3E1,3.82E2,2.15E2,8.4E1,3.3E1,2.5E1,3.8E1,7.5E1,1.1E1,2.2E1,1.88E2,1.94E2,4.5E1,1.7E2,2.6E1,5.8E1,2.4E1,9E0,1.4E1,2.4E1,1.1E1,6.4E1],"tree_param":{"num_deleted":"0","num_feature":"11","num_nodes":"29","size_leaf_vector":"1"}},{"base_weights":[-5.2818865E-5,2.8596625E-3,-1.1653361E-2,1.8012822E-2,2.2101745E-3,-9.586553E-3,-1.2597522E-2,2.3685883E-4,3.8916874E-4,4.544591E-3,-7.874565E-4,-1.1172635E-2,-8.04506E-3,-2.1224479E-4,-3.0638382E-4,5.0042112E-5,1.1388766E-4,-3.9057297E-5,4.539478E-5,-2.3897432E-4,-1.609344E-4,-1.6536393E-4,-9.425581E-5],"categories":[],"categories_nodes":[],"categories_segments":[],"categories_sizes":[],"default_left":[0,0,0,0,0,0,0,0,0,0,0,0,0,0,0,0,0,0,0,0,0,0,0],"id":69,"left_children":[1,3,5,7,9,11,13,-1,-1,15,17,19,21,-1,-1,-1,-1,-1,-1,-1,-1,-1,-1],"loss_changes":[2.996804E-2,6.9380202E-3,2.2658333E-4,1.8247496E-4,4.7690254E-3,5.681161E-5,3.5181828E-4,0E0,0E0,1.1102315E-3,1.2783485E-3,3.3939723E-6,4.1977037E-5,0E0,0E0,0E0,0E0,0E0,0E0,0E0,0E0,0E0,0E0],"parents":[2147483647,0,0,1,1,2,2,3,3,4,4,5,5,6,6,9,9,10,10,11,11,12,12],"right_children":[2,4,6,8,10,12,14,-1,-1,16,18,20,22,-1,-1,-1,-1,-1,-1,-1,-1,-1,-1],"split_conditions":[3.1880064E0,8.326121E-1,1E0,2.512381E-1,1.7960024E0,9.0932056E5,3.580378E6,2.3685883E-4,3.8916874E-4,1.4050951E0,2.7778301E0,3.3070045E0,7.6420426E-1,-2.1224479E-4,-3.0638382E-4,5.0042112E-5,1.1388766E-4,-3.9057297E-5,4.539478E-5,-2.3897432E-4,-1.609344E-4,-1.6536393E-4,-9.425581E-5],"split_indices":[0,0,10,4,0,7,5,0,0,0,0,0,3,0,0,0,0,0,0,0,0,0,0],"split_type":[0,0,0,0,0,0,0,0,0,0,0,0,0,0,0,0,0,0,0,0,0,0,0],"sum_hessian":[8.85E2,7.08E2,1.77E2,2.8E1,6.8E2,5.9E1,1.18E2,1.2E1,1.6E1,3.82E2,2.98E2,2.6E1,3.3E1,9.4E1,2.4E1,1.78E2,2.04E2,2.12E2,8.6E1,1.3E1,1.3E1,2.4E1,9E0],"tree_param":{"num_deleted":"0","num_feature":"11","num_nodes":"23","size_leaf_vector":"1"}},{"base_weights":[1.7808411E-4,2.8093637E-3,-1.0756359E-2,1.8379748E-2,2.108799E-3,-9.024787E-3,-1.1522811E-2,2.4704437E-4,4.1387856E-4,4.149044E-3,-1.3472306E-3,-1.0117015E-2,-1.3095536E-4,-1.7992037E-4,-1.3407926E-2,6.733769E-5,1.2263778E-4,-5.956351E-5,4.1289157E-5,-2.1448123E-4,-1.4264131E-4,-1.2186832E-4,-2.7435544E-4],"categories":[],"categories_nodes":[],"categories_segments":[],"categories_sizes":[],"default_left":[0,0,0,0,0,0,0,0,0,0,0,0,0,0,0,0,0,0,0,0,0,0,0],"id":70,"left_children":[1,3,5,7,9,11,13,-1,-1,15,17,19,-1,-1,21,-1,-1,-1,-1,-1,-1,-1,-1],"loss_changes":[2.5809553E-2,7.847767E-3,1.2693368E-4,3.1917077E-4,4.8920354E-3,5.3341035E-5,2.7334318E-4,0E0,0E0,5.343957E-4,1.7231354E-3,3.366964E-5,0E0,0E0,4.201224E-4,0E0,0E0,0E0,0E0,0E0,0E0,0E0,0E0],"parents":[2147483647,0,0,1,1,2,2,3,3,4,4,5,5,6,6,9,9,10,10,11,11,14,14],"right_children":[2,4,6,8,10,12,14,-1,-1,16,18,20,-1,-1,22,-1,-1,-1,-1,-1,-1,-1,-1],"split_conditions":[1.4E1,2E0,1E0,2.9618508E-1,7E0,1.451315E6,2.0427205E6,2.4704437E-4,4.1387856E-4,3.3781275E5,1.2E1,1.5E1,-1.3095536E-4,-1.7992037E-4,4E-3,6.733769E-5,1.2263778E-4,-5.956351E-5,4.1289157E-5,-2.1448123E-4,-1.4264131E-4,-1.2186832E-4,-2.7435544E-4],"split_indices":[9,9,10,4,9,7,5,0,0,8,9,9,0,0,1,0,0,0,0,0,0,0,0],"split_type":[0,0,0,0,0,0,0,0,0,0,0,0,0,0,0,0,0,0,0,0,0,0,0],"sum_hessian":[8.95E2,7.22E2,1.73E2,3E1,6.92E2,5.7E1,1.16E2,1.5E1,1.5E1,4.35E2,2.57E2,3.4E1,2.3E1,6.2E1,5.4E1,3.61E2,7.4E1,1.69E2,8.8E1,1.9E1,1.5E1,1E1,4.4E1],"tree_param":{"num_deleted":"0","num_feature":"11","num_nodes":"23","size_leaf_vector":"1"}},{"base_weights":[-3.0696878E-4,2.3949267E-3,-1.1068327E-2,1.8091448E-2,1.7149115E-3,-1.5843315E-4,-1.1531588E-2,2.3900514E-4,3.957089E-4,3.8761608E-3,-1.1508582E-3,-2.287168E-4,-1.7308918E-4,5.5819095E-5,1.2331102E-4,-4.990936E-5,4.272357E-5],"categories":[],"categories_nodes":[],"categories_segments":[],"categories_sizes":[],"default_left":[0,0,0,0,0,0,0,0,0,0,0,0,0,0,0,0,0],"id":71,"left_children":[1,3,5,7,9,-1,11,-1,-1,13,15,-1,-1,-1,-1,-1,-1],"loss_changes":[2.6369426E-2,7.7075325E-3,1.1503138E-4,2.3056939E-4,4.3152357E-3,0E0,1.4874898E-4,0E0,0E0,9.344872E-4,1.5996065E-3,0E0,0E0,0E0,0E0,0E0,0E0],"parents":[2147483647,0,0,1,1,2,2,3,3,4,4,6,6,9,9,10,10],"right_children":[2,4,6,8,10,-1,12,-1,-1,14,16,-1,-1,-1,-1,-1,-1],"split_conditions":[3.1880064E0,8.326121E-1,4E-3,2.512381E-1,1.7997053E0,-1.5843315E-4,3.3315163E0,2.3900514E-4,3.957089E-4,3.299859E-1,2.7778301E0,-2.287168E-4,-1.7308918E-4,5.5819095E-5,1.2331102E-4,-4.990936E-5,4.272357E-5],"split_indices":[0,0,1,4,0,0,0,0,0,4,0,0,0,0,0,0,0],"split_type":[0,0,0,0,0,0,0,0,0,0,0,0,0,0,0,0,0],"sum_hessian":[9.05E2,7.24E2,1.81E2,2.9E1,6.95E2,3.1E1,1.5E2,1.3E1,1.6E1,3.96E2,2.99E2,1.07E2,4.3E1,3.03E2,9.3E1,2.07E2,9.2E1],"tree_param":{"num_deleted":"0","num_feature":"11","num_nodes":"17","size_leaf_vector":"1"}},{"base_weights":[1.0477047E-4,2.8393865E-3,-1.1007173E-2,5.0242343E-3,-1.2499022E-3,-9.203434E-3,-1.1899427E-2,1.6216502E-2,4.179637E-3,-5.3421236E-3,6.001034E-4,-1.0898529E-2,-7.5844033E-3,-1.3369392E-4,-1.2713361E-2,2.2354643E-4,3.738188E-4,6.9902126E-5,2.4925693E-4,-1.3040577E-4,-5.992626E-5,1.6296064E-4,-1.8460769E-5,-2.319388E-4,-1.3533991E-4,-1.09649896E-4,-1.5861672E-4,-2.0873499E-4,-3.0382315E-4],"categories":[],"categories_nodes":[],"categories_segments":[],"categories_sizes":[],"default_left":[0,0,0,0,0,0,0,0,0,0,0,0,0,0,0,0,0,0,0,0,0,0,0,0,0,0,0,0,0],"id":72,"left_children":[1,3,5,7,9,11,13,15,17,19,21,23,25,-1,27,-1,-1,-1,-1,-1,-1,-1,-1,-1,-1,-1,-1,-1,-1],"loss_changes":[2.6771724E-2,6.3229515E-3,1.7051958E-4,4.290036E-3,1.873152E-3,8.749403E-5,3.4032948E-4,2.813693E-4,1.593336E-3,2.5136746E-4,2.2395493E-3,7.027597E-5,5.9492886E-6,0E0,3.253864E-4,0E0,0E0,0E0,0E0,0E0,0E0,0E0,0E0,0E0,0E0,0E0,0E0,0E0,0E0],"parents":[2147483647,0,0,1,1,2,2,3,3,4,4,5,5,6,6,7,7,8,8,9,9,10,10,11,11,12,12,14,14],"right_children":[2,4,6,8,10,12,14,16,18,20,22,24,26,-1,28,-1,-1,-1,-1,-1,-1,-1,-1,-1,-1,-1,-1,-1,-1],"split_conditions":[1.4E1,7E0,1E0,2E0,8E0,9.0932056E5,4E-3,2.9818094E-1,8.3645025E6,8.2396734E-1,4E-3,1.5E1,1.9622442E6,-1.3369392E-4,3.5673475E6,2.2354643E-4,3.738188E-4,6.9902126E-5,2.4925693E-4,-1.3040577E-4,-5.992626E-5,1.6296064E-4,-1.8460769E-5,-2.319388E-4,-1.3533991E-4,-1.09649896E-4,-1.5861672E-4,-2.0873499E-4,-3.0382315E-4],"split_indices":[9,9,10,9,9,7,1,4,5,3,1,9,7,0,5,0,0,0,0,0,0,0,0,0,0,0,0,0,0],"split_type":[0,0,0,0,0,0,0,0,0,0,0,0,0,0,0,0,0,0,0,0,0,0,0,0,0,0,0,0,0],"sum_hessian":[8.79E2,7.06E2,1.73E2,4.6E2,2.46E2,6.1E1,1.12E2,3.1E1,4.29E2,7.6E1,1.7E2,2.7E1,3.4E1,1.8E1,9.4E1,1.7E1,1.4E1,4.12E2,1.7E1,4.1E1,3.5E1,2.7E1,1.43E2,1.7E1,1E1,1.5E1,1.9E1,7E1,2.4E1],"tree_param":{"num_deleted":"0","num_feature":"11","num_nodes":"29","size_leaf_vector":"1"}},{"base_weights":[-6.0908455E-6,2.4346537E-3,-1.0763409E-2,4.682208E-3,-1.3231498E-3,-8.848352E-3,-1.1691662E-2,1.486405E-2,4.094834E-3,