{"learner":{"attributes":{"scikit_learn":"{\"_estimator_type\": \"regressor\"}"},"feature_names":["T1","mu","beta","tmdi frequency ratio","tmdi damping ratio","tmdi_1 stiffness","tmdi_2 stiffness","tmdi_1 damping","tmdi_2 damping","No.story","tmdi configuration"],"feature_types":["float","float","float","float","float","float","float","float","float","float","int"],"gradient_booster":{"model":{"gbtree_model_param":{"num_parallel_tree":"1","num_trees":"500"},"iteration_indptr":[0,1,2,3,4,5,6,7,8,9,10,11,12,13,14,15,16,17,18,19,20,21,22,23,24,25,26,27,28,29,30,31,32,33,34,35,36,37,38,39,40,41,42,43,44,45,46,47,48,49,50,51,52,53,54,55,56,57,58,59,60,61,62,63,64,65,66,67,68,69,70,71,72,73,74,75,76,77,78,79,80,81,82,83,84,85,86,87,88,89,90,91,92,93,94,95,96,97,98,99,100,101,102,103,104,105,106,107,108,109,110,111,112,113,114,115,116,117,118,119,120,121,122,123,124,125,126,127,128,129,130,131,132,133,134,135,136,137,138,139,140,141,142,143,144,145,146,147,148,149,150,151,152,153,154,155,156,157,158,159,160,161,162,163,164,165,166,167,168,169,170,171,172,173,174,175,176,177,178,179,180,181,182,183,184,185,186,187,188,189,190,191,192,193,194,195,196,197,198,199,200,201,202,203,204,205,206,207,208,209,210,211,212,213,214,215,216,217,218,219,220,221,222,223,224,225,226,227,228,229,230,231,232,233,234,235,236,237,238,239,240,241,242,243,244,245,246,247,248,249,250,251,252,253,254,255,256,257,258,259,260,261,262,263,264,265,266,267,268,269,270,271,272,273,274,275,276,277,278,279,280,281,282,283,284,285,286,287,288,289,290,291,292,293,294,295,296,297,298,299,300,301,302,303,304,305,306,307,308,309,310,311,312,313,314,315,316,317,318,319,320,321,322,323,324,325,326,327,328,329,330,331,332,333,334,335,336,337,338,339,340,341,342,343,344,345,346,347,348,349,350,351,352,353,354,355,356,357,358,359,360,361,362,363,364,365,366,367,368,369,370,371,372,373,374,375,376,377,378,379,380,381,382,383,384,385,386,387,388,389,390,391,392,393,394,395,396,397,398,399,400,401,402,403,404,405,406,407,408,409,410,411,412,413,414,415,416,417,418,419,420,421,422,423,424,425,426,427,428,429,430,431,432,433,434,435,436,437,438,439,440,441,442,443,444,445,446,447,448,449,450,451,452,453,454,455,456,457,458,459,460,461,462,463,464,465,466,467,468,469,470,471,472,473,474,475,476,477,478,479,480,481,482,483,484,485,486,487,488,489,490,491,492,493,494,495,496,497,498,499,500],"tree_info":[0,0,0,0,0,0,0,0,0,0,0,0,0,0,0,0,0,0,0,0,0,0,0,0,0,0,0,0,0,0,0,0,0,0,0,0,0,0,0,0,0,0,0,0,0,0,0,0,0,0,0,0,0,0,0,0,0,0,0,0,0,0,0,0,0,0,0,0,0,0,0,0,0,0,0,0,0,0,0,0,0,0,0,0,0,0,0,0,0,0,0,0,0,0,0,0,0,0,0,0,0,0,0,0,0,0,0,0,0,0,0,0,0,0,0,0,0,0,0,0,0,0,0,0,0,0,0,0,0,0,0,0,0,0,0,0,0,0,0,0,0,0,0,0,0,0,0,0,0,0,0,0,0,0,0,0,0,0,0,0,0,0,0,0,0,0,0,0,0,0,0,0,0,0,0,0,0,0,0,0,0,0,0,0,0,0,0,0,0,0,0,0,0,0,0,0,0,0,0,0,0,0,0,0,0,0,0,0,0,0,0,0,0,0,0,0,0,0,0,0,0,0,0,0,0,0,0,0,0,0,0,0,0,0,0,0,0,0,0,0,0,0,0,0,0,0,0,0,0,0,0,0,0,0,0,0,0,0,0,0,0,0,0,0,0,0,0,0,0,0,0,0,0,0,0,0,0,0,0,0,0,0,0,0,0,0,0,0,0,0,0,0,0,0,0,0,0,0,0,0,0,0,0,0,0,0,0,0,0,0,0,0,0,0,0,0,0,0,0,0,0,0,0,0,0,0,0,0,0,0,0,0,0,0,0,0,0,0,0,0,0,0,0,0,0,0,0,0,0,0,0,0,0,0,0,0,0,0,0,0,0,0,0,0,0,0,0,0,0,0,0,0,0,0,0,0,0,0,0,0,0,0,0,0,0,0,0,0,0,0,0,0,0,0,0,0,0,0,0,0,0,0,0,0,0,0,0,0,0,0,0,0,0,0,0,0,0,0,0,0,0,0,0,0,0,0,0,0,0,0,0,0,0,0,0,0,0,0,0,0,0,0,0,0,0,0,0,0,0,0,0,0,0,0,0,0,0,0,0,0,0,0,0,0,0,0,0,0,0,0,0,0,0,0,0,0,0,0,0,0,0,0,0,0,0,0,0,0,0,0,0,0,0,0,0,0,0,0,0,0],"trees":[{"base_weights":[-5.2815543E-5,-7.4080606E-3,2.1327674E-2,2.5822257E-3,-3.6011606E-2,3.3720933E-2,4.866055E-3,-1.0515815E-2,1.5202544E-2,-4.3237388E-2,-8.556245E-3,4.5202233E-2,2.418281E-2,-5.2723386E-3,1.9870887E-2,4.1284034E-4,-3.5534877E-2,7.4090686E-4,1.3763869E-2,-3.0918084E-2,-7.3691586E-4,-1.3264348E-2,4.8982656E-5,1.0688398E-3,3.5800215E-2,3.276367E-4,1.3408013E-2,1.0401192E-4,-8.143774E-3,2.5167275E-2,8.420783E-3,-5.31693E-3,1.1230006E-2,-4.3425623E-2,-1.5593586E-3,1.7644642E-2,2.7333035E-3,-4.741111E-2,-7.0131626E-3,-1.7774511E-2,-3.1760563E-5,5.2782174E-2,2.781028E-4,2.5988804E-4,2.68142E-6,3.1588996E-5,-1.0304388E-2,2.4346523E-4,3.6071832E-4,1.3151091E-4,6.070793E-5,7.347664E-4,-3.670912E-2,1.5675213E-2,-4.07362E-3,-3.171117E-2,-6.450921E-4,3.57125E-5,-7.736942E-5,8.8336365E-3,2.211034E-2,-5.190326E-3,3.6101879E-4,-7.5783837E-4,-3.5128452E-2,-1.4839181E-2,1.4001798E-4,-2.622859E-4,-1.5809697E-4,7.619514E-4,4.6469955E-4,-2.8308506E-5,-1.2694135E-2,-6.255065E-3,1.4516363E-2,-6.057039E-4,-2.5807458E-4,1.1914356E-2,3.2868644E-4,4.776031E-6,-9.776341E-5,-2.3756929E-2,-6.0443615E-4,-1.4417358E-4,1.2160437E-2,2.7001921E-2,1.903232E-2,-1.1002622E-2,-6.8692863E-4,-6.887161E-4,7.556478E-5,-1.0305132E-3,-5.118303E-4,-1.1395948E-4,-2.0892116E-4,6.632312E-3,-1.9656118E-2,2.223214E-2,-5.6759745E-5,2.1947661E-4,8.708741E-3,-5.689221E-4,-9.481085E-3,3.7736908E-4,8.992182E-3,2.8715309E-2,2.1382308E-4,2.0855414E-2,2.1935055E-5,-1.0005719E-5,-2.306631E-4,1.154226E-4,-4.453352E-3,5.7639834E-5,-9.532011E-5,-4.531404E-5,1.5724055E-4,-3.718352E-4,4.932571E-5,3.0985844E-4,1.8792934E-4,4.179779E-5,1.7929763E-4,1.12953385E-5,-2.4170318E-4,2.4436496E-4,-1.5375047E-6,2.4179812E-4,3.6716458E-4,2.2133192E-4,4.5708034E-4,2.5390598E-5,-1.0190418E-4],"categories":[],"categories_nodes":[],"categories_segments":[],"categories_sizes":[],"default_left":[0,0,0,0,0,0,0,0,0,0,0,0,0,0,0,0,0,0,0,0,0,0,0,0,0,0,0,0,0,0,0,0,0,0,0,0,0,0,0,0,0,0,0,0,0,0,0,0,0,0,0,0,0,0,0,0,0,0,0,0,0,0,0,0,0,0,0,0,0,0,0,0,0,0,0,0,0,0,0,0,0,0,0,0,0,0,0,0,0,0,0,0,0,0,0,0,0,0,0,0,0,0,0,0,0,0,0,0,0,0,0,0,0,0,0,0,0,0,0,0,0,0,0,0,0,0,0,0,0,0,0,0,0],"id":0,"left_children":[1,3,5,7,9,11,13,15,17,19,21,23,25,27,29,31,33,-1,35,37,-1,39,-1,-1,41,-1,43,-1,45,47,49,51,53,55,57,59,61,63,65,67,-1,69,-1,-1,-1,-1,71,-1,-1,-1,-1,73,75,77,79,81,-1,-1,-1,83,85,87,-1,-1,89,91,-1,-1,-1,-1,-1,-1,93,95,97,-1,-1,99,-1,-1,-1,101,-1,-1,103,105,107,109,111,-1,-1,113,-1,-1,-1,115,117,119,-1,-1,121,-1,123,-1,125,127,-1,129,-1,-1,-1,-1,131,-1,-1,-1,-1,-1,-1,-1,-1,-1,-1,-1,-1,-1,-1,-1,-1,-1,-1,-1,-1],"loss_changes":[1.7141277E-1,2.3184241E-1,5.6755573E-2,9.967133E-2,4.1291207E-2,1.6318962E-2,1.8511876E-2,8.094838E-2,1.9520268E-2,3.439647E-2,2.7252738E-3,2.5700375E-2,2.4450943E-3,2.9793833E-3,2.7596373E-3,1.2889543E-2,2.4060577E-2,0E0,1.2751102E-2,3.9093956E-2,0E0,1.5363274E-3,0E0,0E0,1.1814721E-2,0E0,2.2374885E-3,0E0,1.4447765E-3,1.743529E-4,8.74988E-5,2.5863707E-2,4.9618557E-3,6.8204105E-3,4.1246036E-4,8.500442E-3,1.71442E-2,8.884117E-3,6.285458E-3,1.4011888E-4,0E0,1.2538731E-3,0E0,0E0,0E0,0E0,9.406358E-4,0E0,0E0,0E0,0E0,1.116887E-2,3.460059E-3,2.1028398E-3,3.0830904E-4,4.0535443E-3,0E0,0E0,0E0,5.394945E-3,1.6843155E-3,1.6152968E-3,0E0,0E0,3.202034E-2,1.135442E-2,0E0,0E0,0E0,0E0,0E0,0E0,4.217741E-4,1.3428607E-2,5.8859587E-3,0E0,0E0,7.22975E-4,0E0,0E0,0E0,8.542609E-3,0E0,0E0,3.7060985E-3,3.5315007E-4,2.8812848E-3,2.205144E-3,1.4307227E-3,0E0,0E0,8.7284227E-4,0E0,0E0,0E0,2.6979414E-3,1.0149803E-2,2.3887493E-4,0E0,0E0,9.460128E-4,0E0,1.9909516E-3,0E0,5.9417635E-3,3.0789524E-5,0E0,2.9280558E-3,0E0,0E0,0E0,0E0,7.2189723E-4,0E0,0E0,0E0,0E0,0E0,0E0,0E0,0E0,0E0,0E0,0E0,0E0,0E0,0E0,0E0,0E0,0E0,0E0,0E0,0E0],"parents":[2147483647,0,0,1,1,2,2,3,3,4,4,5,5,6,6,7,7,8,8,9,9,10,10,11,11,12,12,13,13,14,14,15,15,16,16,18,18,19,19,21,21,24,24,26,26,28,28,29,29,30,30,31,31,32,32,33,33,34,34,35,35,36,36,37,37,38,38,39,39,41,41,46,46,51,51,52,52,53,53,54,54,55,55,59,59,60,60,61,61,64,64,65,65,72,72,73,73,74,74,77,77,81,81,84,84,85,85,86,86,87,87,88,88,91,91,95,95,96,96,97,97,100,100,102,102,104,104,105,105,107,107,112,112],"right_children":[2,4,6,8,10,12,14,16,18,20,22,24,26,28,30,32,34,-1,36,38,-1,40,-1,-1,42,-1,44,-1,46,48,50,52,54,56,58,60,62,64,66,68,-1,70,-1,-1,-1,-1,72,-1,-1,-1,-1,74,76,78,80,82,-1,-1,-1,84,86,88,-1,-1,90,92,-1,-1,-1,-1,-1,-1,94,96,98,-1,-1,100,-1,-1,-1,102,-1,-1,104,106,108,110,112,-1,-1,114,-1,-1,-1,116,118,120,-1,-1,122,-1,124,-1,126,128,-1,130,-1,-1,-1,-1,132,-1,-1,-1,-1,-1,-1,-1,-1,-1,-1,-1,-1,-1,-1,-1,-1,-1,-1,-1,-1],"split_conditions":[4.8827665E6,8.6629675E5,1.3944438E6,1.9221174E6,4.5592685E6,8.9501575E5,5.990728E6,1.7050514E5,1.8730283E5,1.42531E6,8E-1,7.1428573E-1,7.6420426E-1,4E-3,1.7181041E6,2.166475E5,1.8316859E6,7.4090686E-4,6.8379575E5,2.8855352E6,-7.3691586E-4,4.771122E6,4.8982656E-5,1.0688398E-3,5.238434E5,3.276367E-4,9.847712E5,1.0401192E-4,1.5446185E6,1.2E-2,1.6E-2,5.7849194E3,1.3834708E5,1.6662341E6,8E-3,2.3876158E6,1E0,2.2556085E6,3.6518382E6,1.1644444E6,-3.1760563E-5,8.27695E-1,2.781028E-4,2.5988804E-4,2.68142E-6,3.1588996E-5,5.332752E6,2.4346523E-4,3.6071832E-4,1.3151091E-4,6.070793E-5,1.068888E5,1.6078205E5,1.1871914E5,1.2E-2,4.435763E5,-6.450921E-4,3.57125E-5,-7.736942E-5,7.692308E-1,7.692308E-1,2.8256142E6,3.6101879E-4,-7.5783837E-4,6E-1,1.0608942E6,1.4001798E-4,-2.622859E-4,-1.5809697E-4,7.619514E-4,4.6469955E-4,-2.8308506E-5,1.6E-2,1.0985295E3,4.3488096E3,-6.057039E-4,-2.5807458E-4,6.3839214E3,3.2868644E-4,4.776031E-6,-9.776341E-5,8.761726E5,-6.0443615E-4,-1.4417358E-4,2.694852E5,4.198364E6,6.2930344E5,7.5346594E5,3.6633718E6,-6.887161E-4,7.556478E-5,9.379052E5,-5.118303E-4,-1.1395948E-4,-2.0892116E-4,2.6676957E4,8.1398266E4,1.5436658E5,-5.6759745E-5,2.1947661E-4,9.421883E4,-5.689221E-4,4.244187E5,3.7736908E-4,2.1729948E6,2.4738732E6,2.1382308E-4,5.903279E5,2.1935055E-5,-1.0005719E-5,-2.306631E-4,1.154226E-4,7.226625E5,5.7639834E-5,-9.532011E-5,-4.531404E-5,1.5724055E-4,-3.718352E-4,4.932571E-5,3.0985844E-4,1.8792934E-4,4.179779E-5,1.7929763E-4,1.12953385E-5,-2.4170318E-4,2.4436496E-4,-1.5375047E-6,2.4179812E-4,3.6716458E-4,2.2133192E-4,4.5708034E-4,2.5390598E-5,-1.0190418E-4],"split_indices":[5,7,7,5,5,7,5,7,7,7,2,3,3,1,7,5,5,0,7,5,0,5,0,0,7,0,7,0,7,1,1,7,7,5,1,5,2,5,5,7,0,3,0,0,0,0,5,0,0,0,0,5,5,7,1,7,0,0,0,3,3,5,0,0,2,7,0,0,0,0,0,0,1,7,7,0,0,7,0,0,0,5,0,0,7,5,7,7,5,0,0,7,0,0,0,5,5,5,0,0,7,0,7,0,5,5,0,7,0,0,0,0,7,0,0,0,0,0,0,0,0,0,0,0,0,0,0,0,0,0,0,0,0],"split_type":[0,0,0,0,0,0,0,0,0,0,0,0,0,0,0,0,0,0,0,0,0,0,0,0,0,0,0,0,0,0,0,0,0,0,0,0,0,0,0,0,0,0,0,0,0,0,0,0,0,0,0,0,0,0,0,0,0,0,0,0,0,0,0,0,0,0,0,0,0,0,0,0,0,0,0,0,0,0,0,0,0,0,0,0,0,0,0,0,0,0,0,0,0,0,0,0,0,0,0,0,0,0,0,0,0,0,0,0,0,0,0,0,0,0,0,0,0,0,0,0,0,0,0,0,0,0,0,0,0,0,0,0,0],"sum_hessian":[1.088E3,8.1E2,2.78E2,6.01E2,2.09E2,1.58E2,1.2E2,2.95E2,3.06E2,1.65E2,4.4E1,7E1,8.8E1,7.2E1,4.8E1,2.06E2,8.9E1,8E0,2.98E2,9.9E1,6.6E1,3.2E1,1.2E1,1.1E1,5.9E1,6.8E1,2E1,1.2E1,6E1,3.2E1,1.6E1,1.35E2,7.1E1,7.2E1,1.7E1,2.2E2,7.8E1,5.8E1,4.1E1,2.2E1,1E1,2.4E1,3.5E1,1.2E1,8E0,1E1,5E1,1.8E1,1.4E1,8E0,8E0,1.14E2,2.1E1,5.5E1,1.6E1,3.5E1,3.7E1,9E0,8E0,7.5E1,1.45E2,6.1E1,1.7E1,2.4E1,3.4E1,2.9E1,1.2E1,1E1,1.2E1,1.2E1,1.2E1,1.2E1,3.8E1,7.6E1,3.8E1,1E1,1.1E1,4.3E1,1.2E1,8E0,8E0,2.6E1,9E0,1E1,6.5E1,5.3E1,9.2E1,2.6E1,3.5E1,2.2E1,1.2E1,2E1,9E0,2.4E1,1.4E1,3.9E1,3.7E1,2.7E1,1.1E1,1.3E1,3E1,9E0,1.7E1,8E0,5.7E1,4.3E1,1E1,8.3E1,9E0,1.2E1,1.4E1,9E0,2.6E1,1.1E1,9E0,1.5E1,2.4E1,2.5E1,1.2E1,1.6E1,1.1E1,1.7E1,1.3E1,9E0,8E0,2.5E1,3.2E1,9E0,3.4E1,7.4E1,9E0,1E1,1.6E1],"tree_param":{"num_deleted":"0","num_feature":"11","num_nodes":"133","size_leaf_vector":"1"}},{"base_weights":[7.2732415E-5,1.4185249E-2,-7.0866087E-4,1.0031045E-3,1.1158594E-2,2.2707164E-2,-1.3537639E-3,1.9047458E-2,2.6553227E-2,-5.3302185E-3,9.8449895E-3,6.8947654E-3,2.174007E-2,2.8345698E-2,1.6335417E-2,5.168814E-3,-9.762213E-3,3.350436E-4,6.396669E-3,-4.435213E-3,1.6049132E-2,2.2824602E-2,6.608267E-5,5.119916E-4,2.6709473E-2,2.3164912E-4,1.4441114E-4,2.5930803E-3,1.0779615E-2,-1.1972829E-2,-6.6912523E-3,2.9418713E-3,1.2988475E-2,-1.9495219E-5,-8.575199E-5,1.2346402E-4,2.2147571E-4,3.0530273E-4,1.9541081E-2,2.9479545E-2,2.4669534E-2,4.739078E-3,-7.2814175E-5,1.8096916E-4,8.0932914E-5,-4.500132E-3,-1.3393944E-2,-3.892833E-3,-1.06702205E-2,-4.26577E-5,5.831501E-3,1.7780345E-4,1.1442805E-4,2.142623E-4,2.7485305E-4,4.2060408E-4,2.5849306E-4,2.2332405E-4,3.153395E-2,2.726638E-3,1.5368663E-4,-1.7117146E-4,6.734955E-5,-1.3236087E-4,-1.408498E-2,-6.807588E-4,-5.437065E-3,-1.6372316E-4,-8.092329E-3,9.750818E-4,-1.8451476E-5,1.0233893E-4,4.4959488E-5,1.5651078E-4,4.3147415E-4,7.8551995E-5,-1.200275E-6,-2.1131821E-4,-1.5920421E-4,-5.504444E-5,3.941354E-5,-8.805417E-5,-5.1455943E-5,-3.953815E-5,-1.3508297E-4,1.8626977E-5,3.7618715E-6],"categories":[],"categories_nodes":[],"categories_segments":[],"categories_sizes":[],"default_left":[0,0,0,0,0,0,0,0,0,0,0,0,0,0,0,0,0,0,0,0,0,0,0,0,0,0,0,0,0,0,0,0,0,0,0,0,0,0,0,0,0,0,0,0,0,0,0,0,0,0,0,0,0,0,0,0,0,0,0,0,0,0,0,0,0,0,0,0,0,0,0,0,0,0,0,0,0,0,0,0,0,0,0,0,0,0,0],"id":1,"left_children":[1,3,-1,-1,5,7,9,11,13,15,17,19,21,23,25,27,29,-1,31,33,35,37,-1,-1,39,-1,-1,41,43,45,47,49,51,-1,-1,-1,-1,-1,53,55,57,59,-1,-1,-1,61,63,65,67,69,71,-1,-1,-1,-1,-1,-1,-1,73,75,-1,-1,-1,-1,77,79,81,-1,83,85,-1,-1,-1,-1,-1,-1,-1,-1,-1,-1,-1,-1,-1,-1,-1,-1,-1],"loss_changes":[9.064901E-1,1.8279122E-1,0E0,0E0,1.222776E-1,5.6874156E-3,1.817673E-2,7.343553E-3,3.4197718E-3,1.4056485E-2,6.4196764E-3,4.531089E-3,3.1752363E-3,2.9749721E-3,1.9340683E-4,1.2727214E-3,1.3590939E-3,0E0,2.0341647E-3,1.3872178E-4,1.3160985E-4,9.077564E-4,0E0,0E0,1.938343E-4,0E0,0E0,1.1937416E-3,3.792867E-4,1.2353137E-3,9.7173173E-4,5.263241E-4,4.8853923E-5,0E0,0E0,0E0,0E0,0E0,5.4985285E-5,2.0124465E-3,3.666114E-3,7.84177E-4,0E0,0E0,0E0,2.1232725E-3,1.78013E-5,2.6910903E-4,1.6484736E-4,4.831469E-5,1.410708E-4,0E0,0E0,0E0,0E0,0E0,0E0,0E0,3.1022578E-3,4.485192E-4,0E0,0E0,0E0,0E0,5.130656E-6,3.050329E-4,4.9657654E-5,0E0,2.9067125E-4,6.6621524E-6,0E0,0E0,0E0,0E0,0E0,0E0,0E0,0E0,0E0,0E0,0E0,0E0,0E0,0E0,0E0,0E0,0E0],"parents":[2147483647,0,0,1,1,4,4,5,5,6,6,7,7,8,8,9,9,10,10,11,11,12,12,13,13,14,14,15,15,16,16,18,18,19,19,20,20,21,21,24,24,27,27,28,28,29,29,30,30,31,31,32,32,38,38,39,39,40,40,41,41,45,45,46,46,47,47,48,48,49,49,50,50,58,58,59,59,64,64,65,65,66,66,68,68,69,69],"right_children":[2,4,-1,-1,6,8,10,12,14,16,18,20,22,24,26,28,30,-1,32,34,36,38,-1,-1,40,-1,-1,42,44,46,48,50,52,-1,-1,-1,-1,-1,54,56,58,60,-1,-1,-1,62,64,66,68,70,72,-1,-1,-1,-1,-1,-1,-1,74,76,-1,-1,-1,-1,78,80,82,-1,84,86,-1,-1,-1,-1,-1,-1,-1,-1,-1,-1,-1,-1,-1,-1,-1,-1,-1],"split_conditions":[3.1880064E0,8.326121E-1,-7.0866087E-4,1.0031045E-3,1.7885878E0,1.4050951E0,2.7778301E0,1.8644114E-1,1.6334534E0,1.9733926E0,2.7844307E0,1.1111435E0,1.4023714E0,4E-3,1.7848761E0,9.0054077E-1,8.27695E-1,3.350436E-4,8.333333E-1,8.365562E-1,4E-3,7.6755E-1,6.608267E-5,5.119916E-4,7.6420426E-1,2.3164912E-4,1.4441114E-4,8.27695E-1,1.7960024E0,4E-3,9.0909094E-1,7.1428573E-1,2.8042228E0,-1.9495219E-5,-8.575199E-5,1.2346402E-4,2.2147571E-4,3.0530273E-4,1.6E-2,1.6171806E0,1.6171806E0,7.6755E-1,-7.2814175E-5,1.8096916E-4,8.0932914E-5,1.9775048E0,1.9898236E0,8E-3,1.9939237E0,2.8042228E0,2.7976272E0,1.7780345E-4,1.1442805E-4,2.142623E-4,2.7485305E-4,4.2060408E-4,2.5849306E-4,2.2332405E-4,7.692308E-1,7.082404E-1,1.5368663E-4,-1.7117146E-4,6.734955E-5,-1.3236087E-4,1.9939237E0,1.9816141E0,1.2E-2,-1.6372316E-4,1.2E-2,6.666667E-1,-1.8451476E-5,1.0233893E-4,4.4959488E-5,1.5651078E-4,4.3147415E-4,7.8551995E-5,-1.200275E-6,-2.1131821E-4,-1.5920421E-4,-5.504444E-5,3.941354E-5,-8.805417E-5,-5.1455943E-5,-3.953815E-5,-1.3508297E-4,1.8626977E-5,3.7618715E-6],"split_indices":[0,0,0,0,0,0,0,4,0,0,0,0,0,1,0,3,3,0,3,0,1,3,0,0,3,0,0,3,0,1,3,3,0,0,0,0,0,0,1,0,0,3,0,0,0,0,0,1,0,0,0,0,0,0,0,0,0,0,3,3,0,0,0,0,0,0,1,0,1,3,0,0,0,0,0,0,0,0,0,0,0,0,0,0,0,0,0],"split_type":[0,0,0,0,0,0,0,0,0,0,0,0,0,0,0,0,0,0,0,0,0,0,0,0,0,0,0,0,0,0,0,0,0,0,0,0,0,0,0,0,0,0,0,0,0,0,0,0,0,0,0,0,0,0,0,0,0,0,0,0,0,0,0,0,0,0,0,0,0,0,0,0,0,0,0,0,0,0,0,0,0,0,0,0,0,0,0],"sum_hessian":[1.092E3,8.81E2,2.11E2,3.6E1,8.45E2,4.39E2,4.06E2,2.28E2,2.11E2,3E2,1.06E2,4.2E1,1.86E2,1.78E2,3.3E1,8.9E1,2.11E2,1.6E1,9E1,1.9E1,2.3E1,1.74E2,1.2E1,1.6E1,1.62E2,1.8E1,1.5E1,6.2E1,2.7E1,1.21E2,9E1,6E1,3E1,1E1,9E0,8E0,1.5E1,9.6E1,7.8E1,6.3E1,9.9E1,5E1,1.2E1,1.2E1,1.5E1,2E1,1.01E2,5.4E1,3.6E1,3E1,3E1,1.8E1,1.2E1,5.4E1,2.4E1,3.6E1,2.7E1,5.4E1,4.5E1,4.1E1,9E0,1E1,1E1,2.6E1,7.5E1,1.8E1,3.6E1,1.5E1,2.1E1,1.8E1,1.2E1,1.2E1,1.8E1,9E0,3.6E1,1.7E1,2.4E1,1.2E1,6.3E1,9E0,9E0,1.2E1,2.4E1,9E0,1.2E1,9E0,9E0],"tree_param":{"num_deleted":"0","num_feature":"11","num_nodes":"87","size_leaf_vector":"1"}},{"base_weights":[-1.4780178E-4,2.9031034E-3,-3.517891E-2,4.6747588E-3,-3.757663E-2,-2.5565077E-2,-7.172291E-4,-3.211303E-4,1.945731E-2,-2.6598077E-2,-7.253407E-4,-4.988879E-3,-5.022639E-2,1.6639265E-3,-4.430219E-2,2.5965167E-2,8.751548E-3,-4.917187E-3,-7.0949044E-4,8.355675E-3,-1.8797638E-2,-3.2062337E-4,-7.007902E-4,2.7684765E-3,-5.4177275E-4,-2.8855124E-4,-6.7608524E-4,3.3889346E-2,8.940038E-3,1.938922E-2,-3.0261728E-3,-9.2384245E-5,-2.0519255E-5,1.5298441E-5,1.7655618E-4,-2.7428518E-4,-1.4956758E-4,-2.4888008E-5,1.3479902E-2,4.445167E-2,2.6061364E-2,2.4288021E-2,-6.7655467E-3,2.456094E-2,8.209457E-3,5.640604E-3,-1.1561377E-2,2.7149806E-3,-4.1703347E-2,2.1484552E-2,-9.167633E-3,2.6723096E-2,1.0458875E-3,1.9660905E-2,3.1621132E-2,3.667307E-4,1.2260389E-4,-9.625296E-5,-4.52995E-5,3.5940693E-4,2.1675834E-4,1.943131E-4,-6.9181415E-6,1.7854492E-5,1.0549232E-4,-1.9033231E-4,-3.9831895E-5,4.215798E-3,-4.8762423E-4,-3.14264E-2,-6.2768825E-4,3.8546108E-2,1.4277373E-2,-1.4588665E-2,1.1261476E-4,2.4553403E-4,3.6520613E-4,6.6131E-5,2.4358155E-2,4.822491E-4,2.7004534E-2,-3.1408862E-7,1.8021563E-4,-1.923563E-4,-4.9860065E-4,2.537953E-4,6.9000456E-4,2.3449789E-4,-3.3252698E-5,-1.0088959E-4,-2.3995733E-4,1.986565E-4,3.4169693E-4,4.059679E-4,2.4615723E-4],"categories":[],"categories_nodes":[],"categories_segments":[],"categories_sizes":[],"default_left":[0,0,0,0,0,0,0,0,0,0,0,0,0,0,0,0,0,0,0,0,0,0,0,0,0,0,0,0,0,0,0,0,0,0,0,0,0,0,0,0,0,0,0,0,0,0,0,0,0,0,0,0,0,0,0,0,0,0,0,0,0,0,0,0,0,0,0,0,0,0,0,0,0,0,0,0,0,0,0,0,0,0,0,0,0,0,0,0,0,0,0,0,0,0,0],"id":2,"left_children":[1,3,5,7,9,11,-1,13,15,17,-1,19,21,23,25,27,29,31,-1,33,35,-1,-1,37,-1,-1,-1,39,41,43,45,-1,-1,-1,-1,-1,-1,47,49,51,53,55,57,59,61,63,65,67,69,71,73,75,-1,77,79,-1,-1,-1,-1,-1,-1,-1,-1,-1,-1,-1,-1,81,-1,83,-1,85,87,89,-1,-1,-1,-1,91,-1,93,-1,-1,-1,-1,-1,-1,-1,-1,-1,-1,-1,-1,-1,-1],"loss_changes":[1.1606323E-1,7.182007E-2,1.8699504E-2,7.075644E-2,8.752737E-3,3.2225333E-2,0E0,6.267133E-2,1.6633287E-2,2.0597536E-2,0E0,6.7908494E-3,3.7960857E-3,3.5405796E-2,6.0363077E-3,1.9933552E-2,1.17104165E-2,1.5384992E-4,0E0,8.239747E-4,1.6975682E-4,0E0,0E0,2.0107193E-2,0E0,0E0,0E0,7.27506E-3,1.1975726E-2,2.631478E-3,3.3939849E-3,0E0,0E0,0E0,0E0,0E0,0E0,6.1092556E-2,2.539566E-2,2.9030792E-2,1.5489906E-3,1.834238E-3,6.0602208E-5,5.988516E-4,1.1841035E-3,2.8286217E-4,7.4432045E-4,3.261603E-2,1.8395483E-3,1.2115132E-2,3.8439163E-3,8.045137E-5,0E0,1.9327793E-3,1.0799989E-4,0E0,0E0,0E0,0E0,0E0,0E0,0E0,0E0,0E0,0E0,0E0,0E0,2.2052089E-2,0E0,2.2405908E-3,0E0,8.565139E-3,6.5142885E-3,7.8747235E-4,0E0,0E0,0E0,0E0,2.486622E-4,0E0,3.2126717E-4,0E0,0E0,0E0,0E0,0E0,0E0,0E0,0E0,0E0,0E0,0E0,0E0,0E0,0E0],"parents":[2147483647,0,0,1,1,2,2,3,3,4,4,5,5,7,7,8,8,9,9,11,11,12,12,13,13,14,14,15,15,16,16,17,17,19,19,20,20,23,23,27,27,28,28,29,29,30,30,37,37,38,38,39,39,40,40,41,41,42,42,43,43,44,44,45,45,46,46,47,47,48,48,49,49,50,50,51,51,53,53,54,54,67,67,69,69,71,71,72,72,73,73,78,78,80,80],"right_children":[2,4,6,8,10,12,-1,14,16,18,-1,20,22,24,26,28,30,32,-1,34,36,-1,-1,38,-1,-1,-1,40,42,44,46,-1,-1,-1,-1,-1,-1,48,50,52,54,56,58,60,62,64,66,68,70,72,74,76,-1,78,80,-1,-1,-1,-1,-1,-1,-1,-1,-1,-1,-1,-1,82,-1,84,-1,86,88,90,-1,-1,-1,-1,92,-1,94,-1,-1,-1,-1,-1,-1,-1,-1,-1,-1,-1,-1,-1,-1],"split_conditions":[1.9205934E6,9.653797E5,2.420763E6,3.2732683E-1,1.2103815E6,7.0674026E-1,-7.172291E-4,1.3944438E6,1.3944438E6,7.0674026E-1,-7.253407E-4,1E0,1.9404806E6,6.972219E5,1.42531E6,6.882172E5,7.0674026E-1,1.0608942E6,-7.0949044E-4,2.129907E6,6.6389686E-1,-3.2062337E-4,-7.007902E-4,2.941742E-1,-5.4177275E-4,-2.8855124E-4,-6.7608524E-4,8.9501575E5,7.0674026E-1,1.7181041E6,1E0,-9.2384245E-5,-2.0519255E-5,1.5298441E-5,1.7655618E-4,-2.7428518E-4,-1.4956758E-4,8.5209056E5,1.085468E6,6.8817106E5,1E0,8.55869E5,8.4511644E5,1E0,1E0,7.11254E-1,7.127676E-1,4.279345E5,8.9501575E5,5.238434E5,1.2538058E6,6.200716E5,1.0458875E-3,1.1740881E6,1.1740881E6,3.667307E-4,1.2260389E-4,-9.625296E-5,-4.52995E-5,3.5940693E-4,2.1675834E-4,1.943131E-4,-6.9181415E-6,1.7854492E-5,1.0549232E-4,-1.9033231E-4,-3.9831895E-5,2.5E-1,-4.8762423E-4,8.2956815E-1,-6.2768825E-4,4.6101822E5,5.42734E5,1E0,1.1261476E-4,2.4553403E-4,3.6520613E-4,6.6131E-5,7.082404E-1,4.822491E-4,7.082404E-1,-3.1408862E-7,1.8021563E-4,-1.923563E-4,-4.9860065E-4,2.537953E-4,6.9000456E-4,2.3449789E-4,-3.3252698E-5,-1.0088959E-4,-2.3995733E-4,1.986565E-4,3.4169693E-4,4.059679E-4,2.4615723E-4],"split_indices":[7,8,7,4,8,3,0,7,7,3,0,10,7,8,7,8,3,7,0,7,3,0,0,4,0,0,0,7,3,7,10,0,0,0,0,0,0,7,7,7,10,7,8,10,10,3,3,8,7,7,7,7,0,7,7,0,0,0,0,0,0,0,0,0,0,0,0,4,0,3,0,7,8,10,0,0,0,0,3,0,3,0,0,0,0,0,0,0,0,0,0,0,0,0,0],"split_type":[0,0,0,0,0,0,0,0,0,0,0,0,0,0,0,0,0,0,0,0,0,0,0,0,0,0,0,0,0,0,0,0,0,0,0,0,0,0,0,0,0,0,0,0,0,0,0,0,0,0,0,0,0,0,0,0,0,0,0,0,0,0,0,0,0,0,0,0,0,0,0,0,0,0,0,0,0,0,0,0,0,0,0,0,0,0,0,0,0,0,0,0,0,0,0],"sum_hessian":[1.084E3,9.98E2,8.6E1,9.57E2,4.1E1,6.3E1,2.3E1,7.16E2,2.41E2,2.9E1,1.2E1,3.5E1,2.8E1,6.86E2,3E1,1.49E2,9.2E1,1.8E1,1.1E1,1.8E1,1.7E1,8E0,2E1,6.71E2,1.5E1,1.2E1,1.8E1,1.01E2,4.8E1,4.8E1,4.4E1,9E0,9E0,9E0,9E0,9E0,8E0,5.33E2,1.38E2,4.1E1,6E1,2.4E1,2.4E1,3.2E1,1.6E1,2.2E1,2.2E1,5.01E2,3.2E1,1.02E2,3.6E1,3E1,1.1E1,3E1,3E1,1.6E1,8E0,1.6E1,8E0,1.6E1,1.6E1,8E0,8E0,1E1,1.2E1,1.4E1,8E0,4.85E2,1.6E1,1.8E1,1.4E1,2.9E1,7.3E1,2.8E1,8E0,1.3E1,1.7E1,8E0,2.2E1,8E0,2.2E1,3.48E2,1.37E2,8E0,1E1,1.6E1,1.3E1,5.6E1,1.7E1,1.4E1,1.4E1,9E0,1.3E1,9E0,1.3E1],"tree_param":{"num_deleted":"0","num_feature":"11","num_nodes":"95","size_leaf_vector":"1"}},{"base_weights":[2.3431547E-5,3.1133634E-3,-3.459101E-2,4.8514195E-3,-3.8590916E-2,-2.4972774E-2,-7.0351025E-4,6.341585E-5,1.9017318E-2,-2.7573733E-2,-7.172495E-4,-4.9654633E-2,-4.952593E-3,2.0425108E-3,-4.3797925E-2,2.528956E-2,8.515948E-3,-7.0163084E-4,-4.432547E-3,-3.1717934E-4,-6.927245E-4,8.264805E-3,-1.7909328E-2,3.049871E-3,-5.231548E-4,-2.853325E-4,-6.6834484E-4,3.3735506E-2,8.067398E-3,-3.5428777E-3,1.9170487E-2,-9.079125E-5,-1.0389257E-5,1.5132157E-5,1.7463598E-4,-2.7130212E-4,-1.3991384E-4,5.314704E-3,-1.013527E-2,4.395393E-2,2.6020354E-2,-6.996848E-3,2.4014087E-2,4.865538E-3,-1.1431672E-2,2.4281586E-2,8.12127E-3,2.9069134E-3,2.2643667E-2,-4.3521482E-2,3.6441025E-3,2.6419858E-2,1.0343016E-3,1.9442877E-2,3.8610405E-4,-1.0587575E-4,-3.0149658E-5,3.625597E-4,1.21286845E-4,-6.25287E-6,1.0431545E-4,-1.881857E-4,-3.9403873E-5,3.5531897E-4,2.1429305E-4,1.9222581E-4,-6.8438694E-6,4.274604E-3,-4.7427477E-4,3.1197349E-2,-3.8001554E-3,-3.9621964E-4,-6.206084E-4,1.6973224E-2,-9.063015E-3,2.4277868E-4,3.61038E-4,6.5420616E-5,2.4087293E-2,4.7021203E-6,1.6702864E-4,4.610128E-4,2.563014E-4,-8.0811085E-5,-2.057635E-6,2.9303832E-4,1.0580005E-4,-1.7431162E-4,1.1140497E-4,1.964958E-4,3.378627E-4],"categories":[],"categories_nodes":[],"categories_segments":[],"categories_sizes":[],"default_left":[0,0,0,0,0,0,0,0,0,0,0,0,0,0,0,0,0,0,0,0,0,0,0,0,0,0,0,0,0,0,0,0,0,0,0,0,0,0,0,0,0,0,0,0,0,0,0,0,0,0,0,0,0,0,0,0,0,0,0,0,0,0,0,0,0,0,0,0,0,0,0,0,0,0,0,0,0,0,0,0,0,0,0,0,0,0,0,0,0,0,0],"id":3,"left_children":[1,3,5,7,9,11,-1,13,15,17,-1,19,21,23,25,27,29,-1,31,-1,-1,33,35,37,-1,-1,-1,39,41,43,45,-1,-1,-1,-1,-1,-1,47,49,51,53,55,57,59,61,63,65,67,69,71,73,75,-1,77,-1,-1,-1,-1,-1,-1,-1,-1,-1,-1,-1,-1,-1,79,-1,81,83,-1,-1,85,87,-1,-1,-1,89,-1,-1,-1,-1,-1,-1,-1,-1,-1,-1,-1,-1],"loss_changes":[1.1615525E-1,7.245415E-2,1.8768713E-2,6.4976454E-2,7.512469E-3,3.1872872E-2,0E0,6.2329184E-2,1.572448E-2,1.949585E-2,0E0,3.7006214E-3,6.4844266E-3,3.1505074E-2,5.8951937E-3,2.1691926E-2,1.1888193E-2,0E0,1.806361E-4,0E0,0E0,8.061483E-4,2.8632302E-4,2.015109E-2,0E0,0E0,0E0,6.8188086E-3,1.2419492E-2,2.9742406E-3,2.5700107E-3,0E0,0E0,0E0,0E0,0E0,0E0,2.3925772E-2,4.570266E-2,2.8399006E-2,1.7188266E-3,1.9259576E-4,1.7911401E-3,4.5051007E-4,7.2736735E-4,5.853027E-4,1.1588016E-3,2.933959E-2,1.5951995E-2,7.547885E-4,1.21794315E-2,7.7934936E-5,0E0,1.889512E-3,0E0,0E0,0E0,0E0,0E0,0E0,0E0,0E0,0E0,0E0,0E0,0E0,0E0,1.8207964E-2,0E0,2.8707795E-3,1.8748458E-4,0E0,0E0,1.8804297E-3,3.7593374E-3,0E0,0E0,0E0,2.4222583E-4,0E0,0E0,0E0,0E0,0E0,0E0,0E0,0E0,0E0,0E0,0E0,0E0],"parents":[2147483647,0,0,1,1,2,2,3,3,4,4,5,5,7,7,8,8,9,9,11,11,12,12,13,13,14,14,15,15,16,16,18,18,21,21,22,22,23,23,27,27,28,28,29,29,30,30,37,37,38,38,39,39,40,40,41,41,42,42,43,43,44,44,45,45,46,46,47,47,48,48,49,49,50,50,51,51,53,53,67,67,69,69,70,70,73,73,74,74,78,78],"right_children":[2,4,6,8,10,12,-1,14,16,18,-1,20,22,24,26,28,30,-1,32,-1,-1,34,36,38,-1,-1,-1,40,42,44,46,-1,-1,-1,-1,-1,-1,48,50,52,54,56,58,60,62,64,66,68,70,72,74,76,-1,78,-1,-1,-1,-1,-1,-1,-1,-1,-1,-1,-1,-1,-1,80,-1,82,84,-1,-1,86,88,-1,-1,-1,90,-1,-1,-1,-1,-1,-1,-1,-1,-1,-1,-1,-1],"split_conditions":[1.9205934E6,9.653797E5,2.420763E6,8E-1,1.2081995E6,1E0,-7.0351025E-4,1.3944438E6,1.3944438E6,1E0,-7.172495E-4,1.9404806E6,1E0,6.972219E5,1.42531E6,6.882172E5,1E0,-7.0163084E-4,6.6389686E-1,-3.1717934E-4,-6.927245E-4,2.129907E6,6.6389686E-1,8.6629675E5,-5.231548E-4,-2.853325E-4,-6.6834484E-4,8.9501575E5,1E0,1E0,1.7181041E6,-9.079125E-5,-1.0389257E-5,1.5132157E-5,1.7463598E-4,-2.7130212E-4,-1.3991384E-4,6E-1,6E-1,6.8817106E5,1E0,8.55869E5,8.55869E5,7.11254E-1,7.127676E-1,1E0,1E0,4.279345E5,5.42734E5,8.9501575E5,1.085468E6,6.200716E5,1.0343016E-3,1.1740881E6,3.8610405E-4,-1.0587575E-4,-3.0149658E-5,3.625597E-4,1.21286845E-4,-6.25287E-6,1.0431545E-4,-1.881857E-4,-3.9403873E-5,3.5531897E-4,2.1429305E-4,1.9222581E-4,-6.8438694E-6,4E-1,-4.7427477E-4,5.238434E5,7.658745E-1,-3.9621964E-4,-6.206084E-4,1E0,1.2538058E6,2.4277868E-4,3.61038E-4,6.5420616E-5,7.082404E-1,4.7021203E-6,1.6702864E-4,4.610128E-4,2.563014E-4,-8.0811085E-5,-2.057635E-6,2.9303832E-4,1.0580005E-4,-1.7431162E-4,1.1140497E-4,1.964958E-4,3.378627E-4],"split_indices":[7,8,7,2,7,2,0,7,7,2,0,7,10,8,7,8,2,0,3,0,0,7,3,7,0,0,0,7,2,10,7,0,0,0,0,0,0,2,2,7,10,7,7,3,3,10,10,8,8,7,7,7,0,7,0,0,0,0,0,0,0,0,0,0,0,0,0,2,0,7,3,0,0,10,7,0,0,0,3,0,0,0,0,0,0,0,0,0,0,0,0],"split_type":[0,0,0,0,0,0,0,0,0,0,0,0,0,0,0,0,0,0,0,0,0,0,0,0,0,0,0,0,0,0,0,0,0,0,0,0,0,0,0,0,0,0,0,0,0,0,0,0,0,0,0,0,0,0,0,0,0,0,0,0,0,0,0,0,0,0,0,0,0,0,0,0,0,0,0,0,0,0,0,0,0,0,0,0,0,0,0,0,0,0,0],"sum_hessian":[1.084E3,9.96E2,8.8E1,9.57E2,3.9E1,6.4E1,2.4E1,7.16E2,2.41E2,2.7E1,1.2E1,2.8E1,3.6E1,6.86E2,3E1,1.5E2,9.1E1,1.1E1,1.6E1,8E0,2E1,1.8E1,1.8E1,6.72E2,1.4E1,1.2E1,1.8E1,1E2,5E1,4.3E1,4.8E1,8E0,8E0,9E0,9E0,9E0,9E0,5.74E2,9.8E1,4.1E1,5.9E1,2.6E1,2.4E1,2.1E1,2.2E1,3.2E1,1.6E1,5.05E2,6.9E1,2.8E1,7E1,3E1,1.1E1,3E1,2.9E1,1.8E1,8E0,1.6E1,8E0,9E0,1.2E1,1.4E1,8E0,1.6E1,1.6E1,8E0,8E0,4.9E2,1.5E1,5.2E1,1.7E1,1.4E1,1.4E1,3.4E1,3.6E1,1.3E1,1.7E1,8E0,2.2E1,3.49E2,1.41E2,2.9E1,2.3E1,9E0,8E0,1.7E1,1.7E1,2.8E1,8E0,9E0,1.3E1],"tree_param":{"num_deleted":"0","num_feature":"11","num_nodes":"91","size_leaf_vector":"1"}},{"base_weights":[6.800229E-5,-6.973685E-3,2.0784605E-2,2.613858E-3,-3.429467E-2,3.2482617E-2,5.0781313E-3,-1.0300308E-2,1.5056786E-2,-4.1133426E-2,-8.15318E-3,4.398385E-2,2.3071729E-2,-3.5694025E-3,2.2246245E-2,4.6385752E-4,-3.4554347E-2,7.248717E-4,1.3654153E-2,-2.9384281E-2,-7.037048E-4,-1.2763771E-2,5.0487564E-5,3.4969445E-2,1.0228441E-3,1.2653267E-2,2.5908193E-2,1.0240655E-4,-5.8193346E-3,2.5496686E-2,9.93041E-5,-5.057338E-3,1.1263E-2,-4.2053916E-2,-1.8030968E-3,1.7292276E-2,3.3037816E-3,-4.5329664E-2,-6.822379E-3,-1.714684E-2,-2.9472574E-5,5.107307E-2,2.7151653E-4,2.4953738E-4,-3.649672E-6,2.2026781E-2,3.4234967E-4,-7.6389587E-3,8.40866E-5,3.5237882E-4,2.3446948E-4,2.386283E-3,-2.7677316E-2,1.5166727E-2,-4.9085535E-5,-3.0953623E-2,-6.2545046E-4,3.185E-5,-7.896878E-5,8.503715E-3,2.1658601E-2,-4.8863357E-3,3.5558705E-4,-7.24917E-4,-3.3565592E-2,-1.4292083E-2,1.3915317E-4,-2.5390412E-4,-1.5176923E-4,4.5031874E-4,7.366129E-4,1.973835E-4,3.1123933E-4,3.2330914E-5,-9.755327E-3,-4.5281076E-3,1.9592715E-2,-1.9316588E-2,-5.891945E-4,1.004129E-2,2.8074003E-4,-2.3744306E-2,-5.806032E-4,3.589572E-4,5.162803E-3,2.2627143E-2,1.0727509E-4,-1.0097891E-2,-9.867027E-4,-6.599417E-4,7.550491E-5,-1.4833253E-3,-4.9598335E-4,-2.6963557E-5,-1.207265E-2,6.4658574E-3,-1.6617844E-2,2.5083318E-2,1.3928956E-4,-4.758557E-4,-2.3937504E-5,2.1315033E-4,4.980638E-3,-4.9995305E-4,-6.900522E-5,1.9567754E-2,-4.097966E-3,2.0492239E-2,2.9797573E-2,-6.2769705E-6,-2.2079912E-4,1.100892E-4,-4.6895943E-3,5.8595924E-5,-9.9774006E-5,-1.09710665E-4,-2.0008814E-4,1.3267824E-4,-1.2446409E-4,-3.2730418E-4,4.8130834E-5,3.6448613E-4,2.0808376E-4,2.412519E-5,9.7339565E-5,1.4414261E-4,2.768719E-4,-1.5833088E-5,-1.3996458E-4,2.609548E-4,1.5479204E-4,4.0347717E-4,2.3732331E-4,2.1048789E-5,-1.0362906E-4],"categories":[],"categories_nodes":[],"categories_segments":[],"categories_sizes":[],"default_left":[0,0,0,0,0,0,0,0,0,0,0,0,0,0,0,0,0,0,0,0,0,0,0,0,0,0,0,0,0,0,0,0,0,0,0,0,0,0,0,0,0,0,0,0,0,0,0,0,0,0,0,0,0,0,0,0,0,0,0,0,0,0,0,0,0,0,0,0,0,0,0,0,0,0,0,0,0,0,0,0,0,0,0,0,0,0,0,0,0,0,0,0,0,0,0,0,0,0,0,0,0,0,0,0,0,0,0,0,0,0,0,0,0,0,0,0,0,0,0,0,0,0,0,0,0,0,0,0,0,0,0,0,0,0,0],"id":4,"left_children":[1,3,5,7,9,11,13,15,17,19,21,23,25,27,29,31,33,-1,35,37,-1,39,-1,41,-1,43,45,-1,47,49,-1,51,53,55,57,59,61,63,65,67,-1,69,-1,-1,-1,71,-1,73,-1,-1,-1,75,77,79,-1,81,-1,-1,-1,83,85,87,-1,-1,89,91,-1,-1,-1,-1,-1,-1,-1,-1,93,95,97,99,-1,101,-1,103,-1,-1,105,107,-1,109,111,-1,-1,113,-1,-1,115,117,119,121,-1,-1,-1,-1,123,-1,-1,125,127,129,131,-1,-1,-1,133,-1,-1,-1,-1,-1,-1,-1,-1,-1,-1,-1,-1,-1,-1,-1,-1,-1,-1,-1,-1,-1,-1],"loss_changes":[1.5871634E-1,2.1278581E-1,5.054578E-2,9.6890494E-2,3.7386224E-2,1.6086623E-2,1.7746365E-2,7.729407E-2,1.852636E-2,3.1835973E-2,2.6117135E-3,2.269417E-2,2.3022667E-3,2.217068E-3,1.6144942E-3,1.2339542E-2,2.2275612E-2,0E0,1.1201989E-2,3.6026314E-2,0E0,1.4515957E-3,0E0,1.073055E-2,0E0,2.1815542E-3,2.4363399E-5,0E0,1.6341591E-3,1.4850125E-4,0E0,2.3133358E-2,4.2492663E-3,6.367013E-3,3.952485E-4,8.296408E-3,1.7044375E-2,8.1593245E-3,6.054418E-3,1.4383439E-4,0E0,1.1399463E-3,0E0,0E0,0E0,2.3731962E-4,0E0,1.3358325E-3,0E0,0E0,0E0,1.2461807E-2,5.0499365E-3,2.0813644E-3,0E0,3.4180805E-3,0E0,0E0,0E0,5.158607E-3,1.6189516E-3,1.2297486E-3,0E0,0E0,2.9665384E-2,1.0560807E-2,0E0,0E0,0E0,0E0,0E0,0E0,0E0,0E0,8.4485346E-4,1.0076009E-2,1.0396093E-3,8.9636585E-3,0E0,1.2961433E-3,0E0,8.66431E-3,0E0,0E0,8.88465E-3,1.4712885E-3,0E0,2.025923E-3,1.3886228E-3,0E0,0E0,9.835332E-4,0E0,0E0,3.5992544E-4,3.1396109E-3,7.869883E-3,1.5952624E-4,0E0,0E0,0E0,0E0,1.9492419E-4,0E0,0E0,3.908137E-4,8.4023963E-4,6.3745305E-4,4.0194765E-4,0E0,0E0,0E0,6.8965956E-4,0E0,0E0,0E0,0E0,0E0,0E0,0E0,0E0,0E0,0E0,0E0,0E0,0E0,0E0,0E0,0E0,0E0,0E0,0E0,0E0,0E0,0E0],"parents":[2147483647,0,0,1,1,2,2,3,3,4,4,5,5,6,6,7,7,8,8,9,9,10,10,11,11,12,12,13,13,14,14,15,15,16,16,18,18,19,19,21,21,23,23,25,25,26,26,28,28,29,29,31,31,32,32,33,33,34,34,35,35,36,36,37,37,38,38,39,39,41,41,45,45,47,47,51,51,52,52,53,53,55,55,59,59,60,60,61,61,64,64,65,65,74,74,75,75,76,76,77,77,79,79,81,81,84,84,85,85,87,87,88,88,91,91,94,94,95,95,96,96,97,97,102,102,105,105,106,106,107,107,108,108,112,112],"right_children":[2,4,6,8,10,12,14,16,18,20,22,24,26,28,30,32,34,-1,36,38,-1,40,-1,42,-1,44,46,-1,48,50,-1,52,54,56,58,60,62,64,66,68,-1,70,-1,-1,-1,72,-1,74,-1,-1,-1,76,78,80,-1,82,-1,-1,-1,84,86,88,-1,-1,90,92,-1,-1,-1,-1,-1,-1,-1,-1,94,96,98,100,-1,102,-1,104,-1,-1,106,108,-1,110,112,-1,-1,114,-1,-1,116,118,120,122,-1,-1,-1,-1,124,-1,-1,126,128,130,132,-1,-1,-1,134,-1,-1,-1,-1,-1,-1,-1,-1,-1,-1,-1,-1,-1,-1,-1,-1,-1,-1,-1,-1,-1,-1],"split_conditions":[4.8827665E6,8.6629675E5,1.3944438E6,1.9221174E6,4.5592685E6,8.9501575E5,6.097692E6,1.7050514E5,1.8730283E5,1.42531E6,3.2732683E-1,3.2821563E-1,2.9818094E-1,4E-3,1.7181041E6,2.166475E5,1.8316859E6,7.248717E-4,6.8379575E5,2.8855352E6,-7.037048E-4,4.771122E6,5.0487564E-5,5.238434E5,1.0228441E-3,9.847712E5,1.2E-2,1.0240655E-4,5.990728E6,6.564957E6,9.93041E-5,4.4377485E3,1.386131E5,1.6662341E6,8E-3,2.3876158E6,3.5355338E-1,2.2556085E6,3.6518382E6,1.1644444E6,-2.9472574E-5,2.5491065E-1,2.7151653E-4,2.4953738E-4,-3.649672E-6,1.2401432E6,3.4234967E-4,1.5446185E6,8.40866E-5,3.5237882E-4,2.3446948E-4,1.068888E5,8.875497E3,1.07058484E5,-4.9085535E-5,4.435763E5,-6.2545046E-4,3.185E-5,-7.896878E-5,2.7406197E5,6.582717E5,2.8256142E6,3.5558705E-4,-7.24917E-4,2.941742E-1,1.0608942E6,1.3915317E-4,-2.5390412E-4,-1.5176923E-4,4.5031874E-4,7.366129E-4,1.973835E-4,3.1123933E-4,3.2330914E-5,5.332752E6,1.0985295E3,1.5436658E5,1.3265338E5,-5.891945E-4,6.3839214E3,2.8074003E-4,9.634774E5,-5.806032E-4,3.589572E-4,2.1729948E6,5.903279E5,1.0727509E-4,7.5346594E5,3.6633718E6,-6.599417E-4,7.550491E-5,9.379052E5,-4.9598335E-4,-2.6963557E-5,1.6E-2,4.5087543E2,8.1398266E4,2.4056953E3,1.3928956E-4,-4.758557E-4,-2.3937504E-5,2.1315033E-4,3.215641E5,-4.9995305E-4,-6.900522E-5,2.751806E5,2.9518154E-1,4.1219185E6,6.352517E5,-6.2769705E-6,-2.2079912E-4,1.100892E-4,7.226625E5,5.8595924E-5,-9.9774006E-5,-1.09710665E-4,-2.0008814E-4,1.3267824E-4,-1.2446409E-4,-3.2730418E-4,4.8130834E-5,3.6448613E-4,2.0808376E-4,2.412519E-5,9.7339565E-5,1.4414261E-4,2.768719E-4,-1.5833088E-5,-1.3996458E-4,2.609548E-4,1.5479204E-4,4.0347717E-4,2.3732331E-4,2.1048789E-5,-1.0362906E-4],"split_indices":[5,7,7,5,5,7,5,7,7,7,4,4,4,1,7,5,5,0,7,5,0,5,0,7,0,7,1,0,5,5,0,7,8,5,1,5,4,5,5,7,0,4,0,0,0,7,0,7,0,0,0,5,7,8,0,7,0,0,0,7,7,5,0,0,4,7,0,0,0,0,0,0,0,0,5,7,5,5,0,7,0,5,0,0,5,7,0,7,5,0,0,7,0,0,1,8,5,7,0,0,0,0,5,0,0,8,4,5,7,0,0,0,7,0,0,0,0,0,0,0,0,0,0,0,0,0,0,0,0,0,0,0,0,0,0],"split_type":[0,0,0,0,0,0,0,0,0,0,0,0,0,0,0,0,0,0,0,0,0,0,0,0,0,0,0,0,0,0,0,0,0,0,0,0,0,0,0,0,0,0,0,0,0,0,0,0,0,0,0,0,0,0,0,0,0,0,0,0,0,0,0,0,0,0,0,0,0,0,0,0,0,0,0,0,0,0,0,0,0,0,0,0,0,0,0,0,0,0,0,0,0,0,0,0,0,0,0,0,0,0,0,0,0,0,0,0,0,0,0,0,0,0,0,0,0,0,0,0,0,0,0,0,0,0,0,0,0,0,0,0,0,0,0],"sum_hessian":[1.086E3,8.11E2,2.75E2,6.01E2,2.1E2,1.57E2,1.18E2,2.95E2,3.06E2,1.66E2,4.4E1,6.9E1,8.8E1,7.9E1,3.9E1,2.05E2,9E1,8E0,2.98E2,1E2,6.6E1,3.2E1,1.2E1,5.8E1,1.1E1,2E1,6.8E1,1.2E1,6.7E1,3.1E1,8E0,1.36E2,6.9E1,7.3E1,1.7E1,2.2E2,7.8E1,5.8E1,4.2E1,2.2E1,1E1,2.4E1,3.4E1,1.2E1,8E0,3E1,3.8E1,5.9E1,8E0,1.7E1,1.4E1,1.03E2,3.3E1,5.5E1,1.4E1,3.6E1,3.7E1,9E0,8E0,7.4E1,1.46E2,6E1,1.8E1,2.4E1,3.4E1,3E1,1.2E1,1E1,1.2E1,1.2E1,1.2E1,1.4E1,1.6E1,1E1,4.9E1,7.4E1,2.9E1,2.5E1,8E0,3.5E1,2E1,2.7E1,9E0,9E0,6.5E1,1.35E2,1.1E1,2.5E1,3.5E1,2.2E1,1.2E1,2.1E1,9E0,1.2E1,3.7E1,3.9E1,3.5E1,1.6E1,1.3E1,1.1E1,1.4E1,1.3E1,2.2E1,1.3E1,1.4E1,2.5E1,4E1,1.07E2,2.8E1,1.2E1,1.3E1,9E0,2.6E1,1.1E1,1E1,2.4E1,1.3E1,3.1E1,8E0,2.3E1,1.2E1,8E0,8E0,1.2E1,1E1,9E0,1.6E1,3E1,1E1,9.2E1,1.5E1,1.9E1,9E0,1E1,1.6E1],"tree_param":{"num_deleted":"0","num_feature":"11","num_nodes":"135","size_leaf_vector":"1"}},{"base_weights":[9.795507E-5,1.3644151E-2,-6.855915E-4,9.7253395E-4,1.0701629E-2,2.1839932E-2,-1.2818954E-3,1.8334836E-2,2.5490012E-2,-5.2257944E-3,9.861463E-3,8.327401E-3,2.0901626E-2,2.72207E-2,1.5959939E-2,5.017484E-3,-9.598023E-3,3.291939E-4,6.5064663E-3,-1.04169434E-4,2.1144273E-4,2.2160728E-2,6.736175E-5,2.5403412E-2,4.1956044E-4,1.9391231E-2,1.1186145E-2,2.5082557E-3,1.0573668E-2,-1.1706737E-2,-6.6654836E-3,1.2548069E-2,2.323816E-3,-5.267387E-3,1.0494041E-4,2.4125796E-2,2.3107369E-4,2.1407165E-2,2.9161153E-2,2.798563E-4,1.5266667E-4,9.2698334E-5,1.6264468E-4,4.669696E-3,-7.650178E-5,1.7728916E-4,7.956751E-5,-1.3416523E-2,-9.83571E-3,-1.0016934E-2,-2.6913777E-3,1.7297234E-4,1.08821245E-4,4.333497E-3,-1.13631E-3,-9.3594674E-5,-2.6642489E-5,2.9989405E-4,1.990853E-4,3.592157E-4,1.7156603E-2,4.439134E-4,1.6405553E-2,2.8224865E-3,1.467779E-4,-1.0997709E-2,-1.7204525E-2,6.771583E-5,-1.2912531E-2,-1.1135484E-2,-6.815928E-5,-8.1423816E-5,-1.4221125E-3,2.424357E-3,1.00043435E-4,-2.817406E-5,-2.6773505E-6,2.2883099E-4,1.3904915E-4,3.1968553E-4,1.1752129E-4,-2.0469952E-6,7.988746E-5,-1.6968763E-4,-1.13100825E-4,-1.1526866E-4,-2.6318306E-4,-1.6549745E-4,-9.979242E-5,-9.8958204E-5,-1.7273854E-4,1.7283244E-5,-6.199892E-5,5.3361695E-5,1.2426611E-5],"categories":[],"categories_nodes":[],"categories_segments":[],"categories_sizes":[],"default_left":[0,0,0,0,0,0,0,0,0,0,0,0,0,0,0,0,0,0,0,0,0,0,0,0,0,0,0,0,0,0,0,0,0,0,0,0,0,0,0,0,0,0,0,0,0,0,0,0,0,0,0,0,0,0,0,0,0,0,0,0,0,0,0,0,0,0,0,0,0,0,0,0,0,0,0,0,0,0,0,0,0,0,0,0,0,0,0,0,0,0,0,0,0,0,0],"id":5,"left_children":[1,3,-1,-1,5,7,9,11,13,15,17,19,21,23,25,27,29,-1,31,33,-1,35,-1,37,-1,39,41,43,45,47,49,51,53,55,-1,57,-1,59,61,-1,-1,-1,-1,63,-1,-1,-1,65,67,69,71,-1,-1,73,75,-1,-1,-1,-1,-1,77,-1,79,81,-1,83,85,-1,87,89,-1,-1,91,93,-1,-1,-1,-1,-1,-1,-1,-1,-1,-1,-1,-1,-1,-1,-1,-1,-1,-1,-1,-1,-1],"loss_changes":[8.3988905E-1,1.7239173E-1,0E0,0E0,1.1281533E-1,5.1363707E-3,1.798243E-2,5.6568906E-3,3.0621886E-3,1.3573518E-2,6.0615586E-3,3.7127715E-3,3.3502802E-3,1.5433133E-3,3.5639666E-4,1.2421766E-3,1.2329519E-3,0E0,2.2704022E-3,1.2254585E-3,0E0,5.3020567E-4,0E0,1.5832186E-3,0E0,1.911018E-4,3.257557E-5,1.2522386E-3,3.6105234E-4,2.5832467E-4,1.1850712E-3,1.0253023E-4,3.8738045E-4,1.1191965E-4,0E0,1.0341406E-4,0E0,2.1416023E-3,6.448336E-3,0E0,0E0,0E0,0E0,6.838284E-4,0E0,0E0,0E0,3.697006E-4,3.017567E-3,1.7708307E-4,2.1126226E-4,0E0,0E0,2.4353451E-4,2.2440705E-5,0E0,0E0,0E0,0E0,0E0,3.048163E-4,0E0,1.6894932E-3,4.884639E-4,0E0,6.810296E-5,5.6363735E-4,0E0,7.624924E-5,2.3662951E-4,0E0,0E0,3.6695355E-4,6.495815E-5,0E0,0E0,0E0,0E0,0E0,0E0,0E0,0E0,0E0,0E0,0E0,0E0,0E0,0E0,0E0,0E0,0E0,0E0,0E0,0E0,0E0],"parents":[2147483647,0,0,1,1,4,4,5,5,6,6,7,7,8,8,9,9,10,10,11,11,12,12,13,13,14,14,15,15,16,16,18,18,19,19,21,21,23,23,25,25,26,26,27,27,28,28,29,29,30,30,31,31,32,32,33,33,35,35,37,37,38,38,43,43,47,47,48,48,49,49,50,50,53,53,54,54,60,60,62,62,63,63,65,65,66,66,68,68,69,69,72,72,73,73],"right_children":[2,4,-1,-1,6,8,10,12,14,16,18,20,22,24,26,28,30,-1,32,34,-1,36,-1,38,-1,40,42,44,46,48,50,52,54,56,-1,58,-1,60,62,-1,-1,-1,-1,64,-1,-1,-1,66,68,70,72,-1,-1,74,76,-1,-1,-1,-1,-1,78,-1,80,82,-1,84,86,-1,88,90,-1,-1,92,94,-1,-1,-1,-1,-1,-1,-1,-1,-1,-1,-1,-1,-1,-1,-1,-1,-1,-1,-1,-1,-1],"split_conditions":[3.1880064E0,8.326121E-1,-6.855915E-4,9.7253395E-4,1.7885878E0,1.4050951E0,2.7778301E0,1.8730283E5,1.6334534E0,1.9733926E0,2.7844307E0,1.1131696E0,1.4023714E0,3.1385478E5,6.582717E5,9.0054077E-1,8.27695E-1,3.291939E-4,6.9196856E5,1.29470336E5,2.1144273E-4,7.6755E-1,6.736175E-5,1.6171806E0,4.1956044E-4,1.7848761E0,1.069095E6,8.27695E-1,1.7960024E0,2.0877712E0,2.985309E5,2.8042228E0,1.42531E6,9.9254364E-1,1.0494041E-4,4.198364E6,2.3107369E-4,7.6420426E-1,9.799361E5,2.798563E-4,1.5266667E-4,9.2698334E-5,1.6264468E-4,7.6755E-1,-7.650178E-5,1.7728916E-4,7.956751E-5,7.6253927E-1,2.0923555E0,1.1004971E6,1.9857203E0,1.7297234E-4,1.08821245E-4,1.2148959E6,2.7976272E0,-9.3594674E-5,-2.6642489E-5,2.9989405E-4,1.990853E-4,3.592157E-4,5.633954E5,4.439134E-4,1.623699E0,1.4755978E6,1.467779E-4,9.847712E5,7.307574E5,6.771583E-5,7.6755E-1,5.380135E3,-6.815928E-5,-8.1423816E-5,2.0969372E0,2.7976272E0,1.00043435E-4,-2.817406E-5,-2.6773505E-6,2.2883099E-4,1.3904915E-4,3.1968553E-4,1.1752129E-4,-2.0469952E-6,7.988746E-5,-1.6968763E-4,-1.13100825E-4,-1.1526866E-4,-2.6318306E-4,-1.6549745E-4,-9.979242E-5,-9.8958204E-5,-1.7273854E-4,1.7283244E-5,-6.199892E-5,5.3361695E-5,1.2426611E-5],"split_indices":[0,0,0,0,0,0,0,7,0,0,0,0,0,8,7,3,3,0,7,6,0,3,0,0,0,0,7,3,0,0,7,0,7,3,0,6,0,3,7,0,0,0,0,3,0,0,0,3,0,6,0,0,0,7,0,0,0,0,0,0,7,0,0,7,0,7,7,0,3,7,0,0,0,0,0,0,0,0,0,0,0,0,0,0,0,0,0,0,0,0,0,0,0,0,0],"split_type":[0,0,0,0,0,0,0,0,0,0,0,0,0,0,0,0,0,0,0,0,0,0,0,0,0,0,0,0,0,0,0,0,0,0,0,0,0,0,0,0,0,0,0,0,0,0,0,0,0,0,0,0,0,0,0,0,0,0,0,0,0,0,0,0,0,0,0,0,0,0,0,0,0,0,0,0,0,0,0,0,0,0,0,0,0,0,0,0,0,0,0,0,0,0,0],"sum_hessian":[1.089E3,8.8E2,2.09E2,3.6E1,8.44E2,4.37E2,4.07E2,2.26E2,2.11E2,3.01E2,1.06E2,4.7E1,1.79E2,1.77E2,3.4E1,9E1,2.11E2,1.6E1,9E1,2.5E1,2.2E1,1.65E2,1.4E1,1.46E2,3.1E1,1.8E1,1.6E1,6.3E1,2.7E1,1.21E2,9E1,3.6E1,5.4E1,1.6E1,9E0,9.6E1,6.9E1,7.4E1,7.2E1,1E1,8E0,8E0,8E0,5.1E1,1.2E1,1.2E1,1.5E1,6E1,6.1E1,4.8E1,4.2E1,2.2E1,1.4E1,3.4E1,2E1,8E0,8E0,8.6E1,1E1,2.3E1,5.1E1,4.4E1,2.8E1,4.2E1,9E0,3.9E1,2.1E1,1E1,5.1E1,3.7E1,1.1E1,9E0,3.3E1,2.4E1,1E1,8E0,1.2E1,3.7E1,1.4E1,1E1,1.8E1,2.4E1,1.8E1,1.1E1,2.8E1,9E0,1.2E1,4.2E1,9E0,2.1E1,1.6E1,1.9E1,1.4E1,9E0,1.5E1],"tree_param":{"num_deleted":"0","num_feature":"11","num_nodes":"95","size_leaf_vector":"1"}},{"base_weights":[2.9131003E-5,1.3540648E-2,-5.6066215E-2,9.610987E-4,1.0617855E-2,-5.9853616E-4,-5.8960732E-2,2.1566147E-2,-1.138609E-3,-6.221011E-4,-7.539232E-4,1.7981047E-2,2.5321702E-2,-5.0181537E-3,9.749261E-3,6.544607E-3,2.055597E-2,2.7073987E-2,1.5786728E-2,4.9612983E-3,-9.318687E-3,3.2544968E-4,6.432417E-3,-4.5581474E-3,1.5524211E-2,2.1640467E-2,5.5904078E-5,3.0442419E-2,2.1276444E-2,1.75054E-2,1.0727169E-4,1.0455057E-2,2.4802587E-3,-3.961865E-3,-1.1968799E-2,2.2349284E-4,1.9740424E-4,-8.633627E-6,-9.230397E-5,2.2078717E-4,1.19073535E-4,1.5509274E-2,2.3038665E-2,2.3923298E-2,4.2975263E-4,3.0178944E-2,1.20204035E-2,2.4964657E-4,1.513154E-4,1.753114E-4,7.8665995E-5,-7.564839E-5,4.617584E-3,-7.628958E-3,1.0159641E-3,-8.461206E-3,-2.0231983E-2,7.0331534E-3,-1.3157982E-2,2.0830355E-4,1.3005048E-4,1.6786171E-2,2.6624054E-2,2.138072E-4,4.1527764E-4,2.1922424E-4,4.247505E-4,1.9311704E-2,-9.835789E-5,1.01402765E-2,1.6454109E-3,-4.577361E-3,-2.1716853E-4,6.833475E-5,-3.1367436E-3,-1.5291502E-4,-6.895038E-3,-1.348897E-2,-3.1434285E-4,9.586446E-3,2.3786986E-5,-7.3744806E-5,-2.4542873E-4,2.4196343E-4,7.663233E-5,2.80765E-4,5.3026347E-4,1.6757075E-4,3.0787862E-4,1.9677788E-4,2.6443002E-5,6.522159E-5,-3.8029964E-5,-1.3067851E-4,7.0917563E-6,-9.2806855E-5,2.1205296E-5,-5.876859E-5,-1.3305774E-4,-1.9036242E-4,-1.1388738E-4,8.195636E-5,1.5138656E-4],"categories":[],"categories_nodes":[],"categories_segments":[],"categories_sizes":[],"default_left":[0,0,0,0,0,0,0,0,0,0,0,0,0,0,0,0,0,0,0,0,0,0,0,0,0,0,0,0,0,0,0,0,0,0,0,0,0,0,0,0,0,0,0,0,0,0,0,0,0,0,0,0,0,0,0,0,0,0,0,0,0,0,0,0,0,0,0,0,0,0,0,0,0,0,0,0,0,0,0,0,0,0,0,0,0,0,0,0,0,0,0,0,0,0,0,0,0,0,0,0,0,0,0],"id":6,"left_children":[1,3,5,-1,7,-1,9,11,13,-1,-1,15,17,19,21,23,25,27,29,31,33,-1,35,37,39,41,-1,43,45,47,-1,49,51,53,55,-1,57,-1,-1,-1,-1,59,61,63,-1,65,67,-1,-1,-1,-1,-1,69,71,73,75,77,79,81,-1,-1,83,85,-1,-1,-1,-1,87,-1,89,91,93,-1,-1,95,-1,97,99,-1,101,-1,-1,-1,-1,-1,-1,-1,-1,-1,-1,-1,-1,-1,-1,-1,-1,-1,-1,-1,-1,-1,-1,-1],"loss_changes":[8.2387465E-1,1.6811244E-1,1.072824E-3,0E0,1.0814363E-1,0E0,4.0265918E-4,5.4015666E-3,1.7198356E-2,0E0,0E0,6.520696E-3,3.081262E-3,1.2921324E-2,5.924483E-3,4.3577906E-3,3.0786768E-3,2.7893335E-3,2.6027765E-4,1.21442E-3,2.9337797E-3,0E0,6.8398193E-3,2.3131017E-4,1.9368436E-4,1.1171773E-3,0E0,2.7868673E-3,5.240565E-3,1.6559474E-4,0E0,3.531871E-4,1.2244517E-3,1.3037964E-3,3.8865544E-3,0E0,5.6614806E-3,0E0,0E0,0E0,0E0,1.01586804E-4,2.6467144E-3,2.7098004E-3,0E0,1.3961326E-3,5.3017735E-3,0E0,0E0,0E0,0E0,0E0,8.368639E-4,1.2116279E-3,6.148915E-4,5.693482E-4,1.2469757E-3,5.1133917E-4,9.3562645E-4,0E0,0E0,1.6644588E-3,4.0125214E-3,0E0,0E0,0E0,0E0,5.1956717E-4,0E0,8.436566E-4,6.46251E-4,1.0691027E-3,0E0,0E0,3.9124268E-4,0E0,5.7363487E-4,4.4754008E-5,0E0,1.3772468E-4,0E0,0E0,0E0,0E0,0E0,0E0,0E0,0E0,0E0,0E0,0E0,0E0,0E0,0E0,0E0,0E0,0E0,0E0,0E0,0E0,0E0,0E0,0E0],"parents":[2147483647,0,0,1,1,2,2,4,4,6,6,7,7,8,8,11,11,12,12,13,13,14,14,15,15,16,16,17,17,18,18,19,19,20,20,22,22,23,23,24,24,25,25,27,27,28,28,29,29,31,31,32,32,33,33,34,34,36,36,41,41,42,42,43,43,45,45,46,46,52,52,53,53,54,54,55,55,56,56,57,57,58,58,61,61,62,62,67,67,69,69,70,70,71,71,74,74,76,76,77,77,79,79],"right_children":[2,4,6,-1,8,-1,10,12,14,-1,-1,16,18,20,22,24,26,28,30,32,34,-1,36,38,40,42,-1,44,46,48,-1,50,52,54,56,-1,58,-1,-1,-1,-1,60,62,64,-1,66,68,-1,-1,-1,-1,-1,70,72,74,76,78,80,82,-1,-1,84,86,-1,-1,-1,-1,88,-1,90,92,94,-1,-1,96,-1,98,100,-1,102,-1,-1,-1,-1,-1,-1,-1,-1,-1,-1,-1,-1,-1,-1,-1,-1,-1,-1,-1,-1,-1,-1,-1],"split_conditions":[3.1880064E0,8.326121E-1,1E0,9.610987E-4,1.7885878E0,-5.9853616E-4,2.512381E-1,1.4050951E0,2.7778301E0,-6.221011E-4,-7.539232E-4,1.8644114E-1,1.6334534E0,1.9733926E0,2.7844307E0,1.1111435E0,1.4023714E0,4.1219185E6,1.2526672E6,1.9346604E-1,1E0,3.2544968E-4,1E0,1.7358948E5,2E0,3.1197775E6,5.5904078E-5,1.6171806E0,1E0,2.941742E-1,1.0727169E-4,1.7960024E0,2.5491065E-1,4.764457E6,3.7439272E6,2.2349284E-4,2.5671568E6,-8.633627E-6,-9.230397E-5,2.2078717E-4,1.19073535E-4,2.970509E6,1E0,2.6228475E6,4.2975263E-4,2.9818094E-1,1.623699E0,2.4964657E-4,1.513154E-4,1.753114E-4,7.8665995E-5,-7.564839E-5,1E0,2.561213E-1,3.3086744E-1,1.9857203E0,2.0923555E0,2.9618508E-1,3.2910198E-1,2.0830355E-4,1.3005048E-4,7.799442E6,8.3645025E6,2.138072E-4,4.1527764E-4,2.1922424E-4,4.247505E-4,1.4159601E0,-9.835789E-5,1.7997053E0,3.882387E6,2.2401592E6,-2.1716853E-4,6.833475E-5,5.8287065E6,-1.5291502E-4,2.1015162E0,1.9898236E0,-3.1434285E-4,1.1492649E5,2.3786986E-5,-7.3744806E-5,-2.4542873E-4,2.4196343E-4,7.663233E-5,2.80765E-4,5.3026347E-4,1.6757075E-4,3.0787862E-4,1.9677788E-4,2.6443002E-5,6.522159E-5,-3.8029964E-5,-1.3067851E-4,7.0917563E-6,-9.2806855E-5,2.1205296E-5,-5.876859E-5,-1.3305774E-4,-1.9036242E-4,-1.1388738E-4,8.195636E-5,1.5138656E-4],"split_indices":[0,0,10,0,0,0,4,0,0,0,0,4,0,0,0,0,0,5,6,4,10,0,10,5,10,5,0,0,10,4,0,0,4,5,5,0,5,0,0,0,0,5,10,5,0,4,0,0,0,0,0,0,10,4,4,0,0,4,4,0,0,5,5,0,0,0,0,0,0,0,5,5,0,0,5,0,0,0,0,6,0,0,0,0,0,0,0,0,0,0,0,0,0,0,0,0,0,0,0,0,0,0,0],"split_type":[0,0,0,0,0,0,0,0,0,0,0,0,0,0,0,0,0,0,0,0,0,0,0,0,0,0,0,0,0,0,0,0,0,0,0,0,0,0,0,0,0,0,0,0,0,0,0,0,0,0,0,0,0,0,0,0,0,0,0,0,0,0,0,0,0,0,0,0,0,0,0,0,0,0,0,0,0,0,0,0,0,0,0,0,0,0,0,0,0,0,0,0,0,0,0,0,0,0,0,0,0,0,0],"sum_hessian":[1.085E3,8.75E2,2.1E2,3.6E1,8.39E2,7E1,1.4E2,4.34E2,4.05E2,4.9E1,9.1E1,2.25E2,2.09E2,2.99E2,1.06E2,4.2E1,1.83E2,1.75E2,3.4E1,9E1,2.09E2,1.6E1,9E1,1.9E1,2.3E1,1.71E2,1.2E1,1.08E2,6.7E1,2.6E1,8E0,2.7E1,6.3E1,7E1,1.39E2,3E1,6E1,9E0,1E1,1.4E1,9E0,3.4E1,1.37E2,5E1,5.8E1,3.3E1,3.4E1,1.4E1,1.2E1,1.2E1,1.5E1,1.2E1,5.1E1,4E1,3E1,9.9E1,4E1,4E1,2E1,2.3E1,1.1E1,5.2E1,8.5E1,3.3E1,1.7E1,1.1E1,2.2E1,2.5E1,9E0,1.7E1,3.4E1,3.2E1,8E0,1.4E1,1.6E1,2.5E1,7.4E1,2E1,2E1,2.6E1,1.4E1,1.1E1,9E0,3.9E1,1.3E1,7.3E1,1.2E1,1.5E1,1E1,9E0,8E0,1.9E1,1.5E1,1.4E1,1.8E1,8E0,8E0,5.1E1,2.3E1,1.1E1,9E0,1.5E1,1.1E1],"tree_param":{"num_deleted":"0","num_feature":"11","num_nodes":"103","size_leaf_vector":"1"}},{"base_weights":[-7.588186E-5,1.3282834E-2,-6.695035E-4,9.49798E-4,1.0397052E-2,2.1175232E-2,-1.1746525E-3,1.7597057E-2,2.4907425E-2,-5.0137374E-3,9.635994E-3,4.611497E-3,1.9637778E-2,2.6605085E-2,1.5610473E-2,4.906055E-3,-9.2681805E-3,3.2174814E-4,6.3564563E-3,-5.1960447E-3,1.942393E-4,1.2142325E-2,2.1805467E-2,4.8598644E-4,2.5096675E-2,1.8973123E-2,1.0933955E-2,8.6926315E-3,1.7657473E-3,-5.772274E-3,-1.0854662E-2,1.2265412E-2,2.2657681E-3,-2.6064965E-5,-9.662456E-5,1.4955699E-2,7.169289E-5,1.9650698E-2,2.9664277E-4,2.3352077E-2,3.9410527E-4,2.7435206E-4,1.4872724E-4,9.031396E-5,1.5927237E-4,1.0898273E-2,-4.3573727E-6,-8.6675056E-5,3.5954325E-3,-1.1124449E-2,-4.0809682E-4,-8.576299E-3,-1.2893975E-2,1.6932396E-4,1.05989726E-4,4.2335605E-3,-1.1217793E-3,8.597664E-5,2.2176486E-4,1.5455417E-2,2.7158682E-4,2.3966867E-2,1.4600795E-4,1.2960442E-2,8.195029E-3,1.8976872E-3,1.0105026E-4,-1.2987945E-2,-5.444131E-5,4.9701123E-3,-5.1987E-3,-1.1001346E-2,-6.0505434E-3,-9.775625E-5,-1.3978413E-2,2.3544156E-3,9.8121694E-5,-2.7984259E-5,-2.525089E-6,2.0556568E-4,1.333797E-4,2.5794032E-4,3.3038371E-4,1.891482E-4,1.0669621E-4,3.77743E-5,1.4929131E-4,6.2337254E-5,-2.8507826E-5,-1.1031997E-4,-2.3278811E-4,4.097466E-5,7.24767E-5,-3.480844E-6,-1.15886476E-4,-1.5528107E-4,-9.672315E-5,-4.2031672E-5,-1.3438227E-4,-2.3129574E-4,-1.546066E-4,5.2275507E-5,1.17848185E-5],"categories":[],"categories_nodes":[],"categories_segments":[],"categories_sizes":[],"default_left":[0,0,0,0,0,0,0,0,0,0,0,0,0,0,0,0,0,0,0,0,0,0,0,0,0,0,0,0,0,0,0,0,0,0,0,0,0,0,0,0,0,0,0,0,0,0,0,0,0,0,0,0,0,0,0,0,0,0,0,0,0,0,0,0,0,0,0,0,0,0,0,0,0,0,0,0,0,0,0,0,0,0,0,0,0,0,0,0,0,0,0,0,0,0,0,0,0,0,0,0,0,0,0],"id":7,"left_children":[1,3,-1,-1,5,7,9,11,13,15,17,19,21,23,25,27,29,-1,31,33,-1,35,37,-1,39,41,43,45,47,49,51,53,55,-1,-1,57,-1,59,-1,61,-1,-1,-1,-1,-1,63,-1,-1,65,67,69,71,73,-1,-1,75,77,-1,-1,79,-1,81,-1,83,85,87,-1,89,-1,91,93,95,97,-1,99,101,-1,-1,-1,-1,-1,-1,-1,-1,-1,-1,-1,-1,-1,-1,-1,-1,-1,-1,-1,-1,-1,-1,-1,-1,-1,-1,-1],"loss_changes":[8.0558246E-1,1.64665E-1,0E0,0E0,1.0504073E-1,5.3842366E-3,1.694003E-2,5.898416E-3,2.9149055E-3,1.2748627E-2,5.792157E-3,3.6806455E-3,2.9035509E-3,2.6244074E-3,3.429409E-4,1.0667336E-3,1.1075921E-3,0E0,2.1718335E-3,1.3590511E-4,0E0,7.1491906E-4,4.037097E-4,0E0,1.3624132E-3,1.9293092E-4,3.3615623E-5,8.226223E-4,8.598298E-4,1.9477413E-3,5.5848435E-4,1.0288553E-4,3.7137856E-4,0E0,0E0,6.947238E-4,0E0,7.0665777E-4,0E0,6.458089E-4,0E0,0E0,0E0,0E0,0E0,7.774867E-5,0E0,0E0,3.3209205E-4,3.6089262E-4,9.276084E-4,3.683162E-4,2.7249753E-4,0E0,0E0,2.3646024E-4,2.2402368E-5,0E0,0E0,8.019805E-5,0E0,5.395934E-4,0E0,5.083764E-5,3.197682E-4,4.701951E-4,0E0,4.5376318E-4,0E0,7.2487746E-6,4.0691032E-4,9.10433E-5,4.4384052E-4,0E0,1.1593476E-4,6.375478E-5,0E0,0E0,0E0,0E0,0E0,0E0,0E0,0E0,0E0,0E0,0E0,0E0,0E0,0E0,0E0,0E0,0E0,0E0,0E0,0E0,0E0,0E0,0E0,0E0,0E0,0E0,0E0],"parents":[2147483647,0,0,1,1,4,4,5,5,6,6,7,7,8,8,9,9,10,10,11,11,12,12,13,13,14,14,15,15,16,16,18,18,19,19,21,21,22,22,24,24,25,25,26,26,27,27,28,28,29,29,30,30,31,31,32,32,35,35,37,37,39,39,45,45,48,48,49,49,50,50,51,51,52,52,55,55,56,56,59,59,61,61,63,63,64,64,65,65,67,67,69,69,70,70,71,71,72,72,74,74,75,75],"right_children":[2,4,-1,-1,6,8,10,12,14,16,18,20,22,24,26,28,30,-1,32,34,-1,36,38,-1,40,42,44,46,48,50,52,54,56,-1,-1,58,-1,60,-1,62,-1,-1,-1,-1,-1,64,-1,-1,66,68,70,72,74,-1,-1,76,78,-1,-1,80,-1,82,-1,84,86,88,-1,90,-1,92,94,96,98,-1,100,102,-1,-1,-1,-1,-1,-1,-1,-1,-1,-1,-1,-1,-1,-1,-1,-1,-1,-1,-1,-1,-1,-1,-1,-1,-1,-1,-1],"split_conditions":[3.1880064E0,8.326121E-1,-6.695035E-4,9.49798E-4,1.7885878E0,1.4050951E0,2.7778301E0,6.761534E3,1.6334534E0,1.9733926E0,2.7844307E0,1.1131696E0,4E-3,4E-3,6.582717E5,5.633954E5,8E-3,3.2174814E-4,6.9196856E5,1.8596108E3,1.942393E-4,1.1131696E0,1.6E-2,4.8598644E-4,2.2044365E6,1.7848761E0,1.069095E6,1.8034052E0,6.8817106E5,1.9816141E0,7.307574E5,2.8042228E0,1.42531E6,-2.6064965E-5,-9.662456E-5,4.244187E5,7.169289E-5,5.238434E5,2.9664277E-4,1.6792876E6,3.9410527E-4,2.7435206E-4,1.4872724E-4,9.031396E-5,1.5927237E-4,1.7960024E0,-4.3573727E-6,-8.6675056E-5,1.5446185E6,1.1471722E6,2.0923555E0,2.985309E5,1.9898236E0,1.6932396E-4,1.05989726E-4,1.2148959E6,2.7976272E0,8.597664E-5,2.2176486E-4,3.829371E5,2.7158682E-4,1.6171806E0,1.4600795E-4,2.0082025E4,1.4990483E5,1.7997053E0,1.0105026E-4,7.02102E5,-5.444131E-5,7.4756525E5,6E-1,5.295686E4,1.8824898E6,-9.775625E-5,1.9939237E0,2.7976272E0,9.8121694E-5,-2.7984259E-5,-2.525089E-6,2.0556568E-4,1.333797E-4,2.5794032E-4,3.3038371E-4,1.891482E-4,1.0669621E-4,3.77743E-5,1.4929131E-4,6.2337254E-5,-2.8507826E-5,-1.1031997E-4,-2.3278811E-4,4.097466E-5,7.24767E-5,-3.480844E-6,-1.15886476E-4,-1.5528107E-4,-9.672315E-5,-4.2031672E-5,-1.3438227E-4,-2.3129574E-4,-1.546066E-4,5.2275507E-5,1.17848185E-5],"split_indices":[0,0,0,0,0,0,0,7,0,0,0,0,1,1,7,7,1,0,7,7,0,0,1,0,6,0,7,0,7,0,7,0,7,0,0,7,0,7,0,7,0,0,0,0,0,0,0,0,7,7,0,7,0,0,0,7,0,0,0,7,0,0,0,6,7,0,0,7,0,7,2,6,6,0,0,0,0,0,0,0,0,0,0,0,0,0,0,0,0,0,0,0,0,0,0,0,0,0,0,0,0,0,0],"split_type":[0,0,0,0,0,0,0,0,0,0,0,0,0,0,0,0,0,0,0,0,0,0,0,0,0,0,0,0,0,0,0,0,0,0,0,0,0,0,0,0,0,0,0,0,0,0,0,0,0,0,0,0,0,0,0,0,0,0,0,0,0,0,0,0,0,0,0,0,0,0,0,0,0,0,0,0,0,0,0,0,0,0,0,0,0,0,0,0,0,0,0,0,0,0,0,0,0,0,0,0,0,0,0],"sum_hessian":[1.088E3,8.77E2,2.11E2,3.6E1,8.41E2,4.35E2,4.06E2,2.25E2,2.1E2,3E2,1.06E2,3.1E1,1.94E2,1.76E2,3.4E1,9E1,2.1E2,1.6E1,9E1,1.7E1,1.4E1,4.5E1,1.49E2,1.5E1,1.61E2,1.8E1,1.6E1,4E1,5E1,6.7E1,1.43E2,3.6E1,5.4E1,9E0,8E0,3E1,1.5E1,8.8E1,6.1E1,1.34E2,2.7E1,1E1,8E0,8E0,8E0,3.2E1,8E0,8E0,4.2E1,3.3E1,3.4E1,7E1,7.3E1,2.2E1,1.4E1,3.4E1,2E1,1E1,2E1,3.8E1,5E1,1.26E2,8E0,1.6E1,1.6E1,3.2E1,1E1,2.5E1,8E0,1.6E1,1.8E1,3.4E1,3.6E1,1.5E1,5.8E1,2.4E1,1E1,8E0,1.2E1,2.6E1,1.2E1,7.5E1,5.1E1,8E0,8E0,8E0,8E0,1.8E1,1.4E1,1.7E1,8E0,8E0,8E0,9E0,9E0,1.9E1,1.5E1,2.5E1,1.1E1,8E0,5E1,9E0,1.5E1],"tree_param":{"num_deleted":"0","num_feature":"11","num_nodes":"103","size_leaf_vector":"1"}},{"base_weights":[4.1140753E-5,2.938812E-3,-3.26151E-2,1.2039952E-2,-1.7465991E-3,-2.353691E-2,-5.4913785E-2,7.202927E-3,2.7990552E-2,-5.896446E-3,1.4991773E-2,-4.6830647E-2,-4.643522E-3,-5.043524E-4,-7.7183696E-4,1.32012265E-2,-7.4579148E-3,9.795716E-4,1.8213978E-2,-3.5941047E-3,-2.8517604E-2,2.3521354E-2,4.982224E-3,-2.992665E-4,-6.532735E-4,8.296612E-3,-1.7339261E-2,5.9706788E-3,2.6366765E-2,-4.0398372E-4,-9.773745E-5,1.44529445E-2,2.373361E-2,-6.572079E-3,1.2231968E-2,-4.3224334E-4,-6.7024666E-4,1.5580808E-4,2.4666341E-2,-5.658432E-3,3.336658E-4,1.839864E-5,1.7209983E-4,-1.35814E-4,-2.6231268E-4,1.1483917E-2,-3.2050625E-4,6.5900804E-4,1.3820444E-2,2.687701E-4,-1.1536871E-2,2.359201E-2,5.480191E-3,1.7999421E-4,2.6834708E-2,-4.9600797E-3,-5.85817E-4,2.9102199E-2,-1.0821176E-3,1.5793003E-4,-7.5542997E-3,2.8875133E-2,1.9686725E-2,3.9829014E-5,-7.799282E-3,9.2162297E-4,2.3084007E-2,2.2562448E-2,6.5092403E-3,-3.5969648E-3,-3.213648E-4,1.5046117E-4,3.5638583E-4,1.2541862E-4,-9.748101E-6,3.8513532E-4,2.2065245E-4,5.046927E-4,-1.2089605E-2,4.04784E-4,1.8379395E-4,-1.2511647E-2,9.8975245E-3,-1.2728707E-4,-4.5152796E-5,2.2841695E-4,4.0120675E-4,1.2869004E-4,2.2255601E-2,-9.880535E-3,-8.32562E-6,1.0434148E-2,-1.6722629E-2,7.674676E-4,1.3872276E-2,1.6679142E-4,3.7243878E-4,-5.860378E-4,2.2513636E-4,-1.9452015E-4,3.170975E-3,-3.6646647E-3,1.1962014E-2,-7.118113E-3,-2.4322342E-2,-1.1315875E-4,-1.8553346E-4,2.3645212E-4,-7.201622E-6,3.107238E-4,1.9133993E-4,-1.5659461E-4,-7.6218843E-3,1.958665E-4,5.699387E-5,-9.578864E-5,-3.213674E-4,2.812469E-4,1.5319492E-5,-9.494411E-5,9.132923E-5,-2.0145526E-5,9.2954266E-5,-2.2479464E-6,-5.356413E-4,2.3683134E-4,6.702996E-5,-3.999357E-4,-3.1902626E-5,-4.8285406E-4,4.1549965E-6,-4.320242E-5,-1.3621419E-4],"categories":[],"categories_nodes":[],"categories_segments":[],"categories_sizes":[],"default_left":[0,0,0,0,0,0,0,0,0,0,0,0,0,0,0,0,0,0,0,0,0,0,0,0,0,0,0,0,0,0,0,0,0,0,0,0,0,0,0,0,0,0,0,0,0,0,0,0,0,0,0,0,0,0,0,0,0,0,0,0,0,0,0,0,0,0,0,0,0,0,0,0,0,0,0,0,0,0,0,0,0,0,0,0,0,0,0,0,0,0,0,0,0,0,0,0,0,0,0,0,0,0,0,0,0,0,0,0,0,0,0,0,0,0,0,0,0,0,0,0,0,0,0,0,0,0,0,0,0,0,0,0,0],"id":8,"left_children":[1,3,5,7,9,11,13,15,17,19,21,23,25,-1,-1,27,29,-1,31,33,35,37,39,-1,-1,41,43,45,47,-1,49,51,53,55,57,59,-1,-1,61,63,-1,-1,-1,-1,-1,65,-1,-1,67,-1,69,71,73,-1,75,77,-1,79,81,-1,83,85,87,-1,89,91,93,95,97,99,-1,-1,-1,-1,-1,-1,-1,101,103,-1,-1,105,107,-1,-1,-1,-1,-1,109,111,-1,113,115,-1,117,-1,-1,119,-1,-1,121,123,125,127,129,-1,-1,-1,-1,-1,-1,-1,131,-1,-1,-1,-1,-1,-1,-1,-1,-1,-1,-1,-1,-1,-1,-1,-1,-1,-1,-1,-1],"loss_changes":[1.0333395E-1,4.2791534E-2,1.6723916E-2,2.610771E-2,4.6141494E-2,2.8388884E-2,2.849251E-4,2.32267E-2,3.951068E-2,2.7604932E-2,1.1152612E-2,3.286168E-3,6.2223864E-3,0E0,0E0,1.7643858E-2,1.4715569E-2,0E0,1.0686256E-3,2.2891134E-2,3.70568E-2,5.460009E-4,1.508459E-2,0E0,0E0,7.4342487E-4,2.622404E-4,2.2159357E-2,2.2568993E-2,0E0,1.5843896E-2,3.396823E-3,3.13011E-4,2.7319446E-2,1.7326593E-2,2.5025604E-3,0E0,0E0,7.5190887E-4,8.5000193E-4,0E0,0E0,0E0,0E0,0E0,1.2843701E-2,0E0,0E0,2.8571207E-3,0E0,4.8055393E-3,1.0129232E-3,7.166201E-4,0E0,1.9531697E-4,1.535683E-2,0E0,1.5658606E-3,5.6454893E-3,0E0,1.5397073E-4,7.5265765E-4,5.0594006E-4,0E0,5.1113777E-4,9.573604E-3,1.773739E-2,1.0936158E-3,2.3328871E-3,2.419704E-3,0E0,0E0,0E0,0E0,0E0,0E0,0E0,1.0744242E-2,1.0226229E-2,0E0,0E0,5.2993186E-5,2.3451853E-3,0E0,0E0,0E0,0E0,0E0,1.2567174E-4,8.8913366E-5,0E0,1.1450527E-3,1.5256228E-3,0E0,4.9471296E-3,0E0,0E0,1.1250986E-3,0E0,0E0,4.283925E-4,2.3329165E-2,2.8303815E-3,1.4220801E-2,1.8908879E-2,0E0,0E0,0E0,0E0,0E0,0E0,0E0,2.2556633E-4,0E0,0E0,0E0,0E0,0E0,0E0,0E0,0E0,0E0,0E0,0E0,0E0,0E0,0E0,0E0,0E0,0E0,0E0,0E0,0E0],"parents":[2147483647,0,0,1,1,2,2,3,3,4,4,5,5,6,6,7,7,8,8,9,9,10,10,11,11,12,12,15,15,16,16,18,18,19,19,20,20,21,21,22,22,25,25,26,26,27,27,28,28,30,30,31,31,32,32,33,33,34,34,35,35,38,38,39,39,45,45,48,48,50,50,51,51,52,52,54,54,55,55,57,57,58,58,60,60,61,61,62,62,64,64,65,65,66,66,67,67,68,68,69,69,77,77,78,78,81,81,82,82,88,88,89,89,91,91,92,92,94,94,97,97,100,100,101,101,102,102,103,103,104,104,112,112],"right_children":[2,4,6,8,10,12,14,16,18,20,22,24,26,-1,-1,28,30,-1,32,34,36,38,40,-1,-1,42,44,46,48,-1,50,52,54,56,58,60,-1,-1,62,64,-1,-1,-1,-1,-1,66,-1,-1,68,-1,70,72,74,-1,76,78,-1,80,82,-1,84,86,88,-1,90,92,94,96,98,100,-1,-1,-1,-1,-1,-1,-1,102,104,-1,-1,106,108,-1,-1,-1,-1,-1,110,112,-1,114,116,-1,118,-1,-1,120,-1,-1,122,124,126,128,130,-1,-1,-1,-1,-1,-1,-1,132,-1,-1,-1,-1,-1,-1,-1,-1,-1,-1,-1,-1,-1,-1,-1,-1,-1,-1,-1,-1],"split_conditions":[1.9205934E6,1E0,2.420763E6,3.2821563E-1,2.4373258E6,1E0,1E0,8.5209056E5,8.9501575E5,2.0334969E6,6.8817106E5,1.9404806E6,1E0,-5.043524E-4,-7.7183696E-4,4E-1,6E-1,9.795716E-4,3.5437748E-1,8E-1,9.6507E5,2.4550952E6,3.0562502E6,-2.992665E-4,-6.532735E-4,2.129907E6,3.5602042E-1,3.4408553E5,5.238434E5,-4.0398372E-4,1.085468E6,1.3944438E6,1.485194E6,1.3944438E6,1.4694228E6,2.9518154E-1,-6.7024666E-4,1.5580808E-4,3.014521E6,2.670567E6,3.336658E-4,1.839864E-5,1.7209983E-4,-1.35814E-4,-2.6231268E-4,2E-1,-3.2050625E-4,6.5900804E-4,6.706507E5,2.687701E-4,1.42531E6,1.1859412E6,3.3086744E-1,1.7999421E-4,1.7057228E6,3.4408553E5,-5.85817E-4,1.3413014E6,1E0,1.5793003E-4,6.234896E5,4.5466028E5,3.5666232E6,3.9829014E-5,2.970509E6,5.7849194E3,1.9113342E5,5.903279E5,6E-1,1.1644444E6,-3.213648E-4,1.5046117E-4,3.5638583E-4,1.2541862E-4,-9.748101E-6,3.8513532E-4,2.2065245E-4,9.405638E5,2.0082025E4,4.04784E-4,1.8379395E-4,1.6792876E6,1.6972088E6,-1.2728707E-4,-4.5152796E-5,2.2841695E-4,4.0120675E-4,1.2869004E-4,4.198364E6,2.7425838E6,-8.32562E-6,2.4056953E3,8.875497E3,7.674676E-4,2.7406197E5,1.6679142E-4,3.7243878E-4,7.31476E5,2.2513636E-4,-1.9452015E-4,2.9718485E-1,8.3311706E5,1.3834708E5,4E-1,1.818132E6,-1.1315875E-4,-1.8553346E-4,2.3645212E-4,-7.201622E-6,3.107238E-4,1.9133993E-4,-1.5659461E-4,2.8930385E6,1.958665E-4,5.699387E-5,-9.578864E-5,-3.213674E-4,2.812469E-4,1.5319492E-5,-9.494411E-5,9.132923E-5,-2.0145526E-5,9.2954266E-5,-2.2479464E-6,-5.356413E-4,2.3683134E-4,6.702996E-5,-3.999357E-4,-3.1902626E-5,-4.8285406E-4,4.1549965E-6,-4.320242E-5,-1.3621419E-4],"split_indices":[7,10,7,4,6,2,10,7,7,6,7,7,10,0,0,2,2,0,4,2,7,6,6,0,0,7,4,7,7,0,7,7,7,7,7,4,0,0,6,6,0,0,0,0,0,2,0,0,7,0,7,7,4,0,7,7,0,7,2,0,7,7,6,0,6,7,7,7,2,7,0,0,0,0,0,0,0,6,6,0,0,7,7,0,0,0,0,0,6,6,0,7,7,0,7,0,0,7,0,0,4,6,7,2,6,0,0,0,0,0,0,0,6,0,0,0,0,0,0,0,0,0,0,0,0,0,0,0,0,0,0,0,0],"split_type":[0,0,0,0,0,0,0,0,0,0,0,0,0,0,0,0,0,0,0,0,0,0,0,0,0,0,0,0,0,0,0,0,0,0,0,0,0,0,0,0,0,0,0,0,0,0,0,0,0,0,0,0,0,0,0,0,0,0,0,0,0,0,0,0,0,0,0,0,0,0,0,0,0,0,0,0,0,0,0,0,0,0,0,0,0,0,0,0,0,0,0,0,0,0,0,0,0,0,0,0,0,0,0,0,0,0,0,0,0,0,0,0,0,0,0,0,0,0,0,0,0,0,0,0,0,0,0,0,0,0,0,0,0],"sum_hessian":[1.09E3,1.002E3,8.8E1,3.4E2,6.62E2,6.4E1,2.4E1,2.62E2,7.8E1,5.31E2,1.31E2,2.8E1,3.6E1,1.2E1,1.2E1,1.86E2,7.6E1,1.1E1,6.7E1,4.83E2,4.8E1,7E1,6.1E1,8E0,2E1,1.8E1,1.8E1,1.21E2,6.5E1,1.6E1,6E1,4.2E1,2.5E1,4.07E2,7.6E1,2.4E1,2.4E1,8E0,6.2E1,4.2E1,1.9E1,9E0,9E0,9E0,9E0,1.04E2,1.7E1,1.9E1,4.6E1,2E1,4E1,2E1,2.2E1,8E0,1.7E1,3.93E2,1.4E1,3.3E1,4.3E1,8E0,1.6E1,3.1E1,3.1E1,8E0,3.4E1,5.5E1,4.9E1,2E1,2.6E1,2.7E1,1.3E1,8E0,1.2E1,1.2E1,1E1,9E0,8E0,2.23E2,1.7E2,2.4E1,9E0,2.1E1,2.2E1,8E0,8E0,1.1E1,2E1,8E0,2.3E1,2.6E1,8E0,3.6E1,1.9E1,8E0,4.1E1,1.1E1,9E0,1.7E1,9E0,9E0,1.8E1,1.64E2,5.9E1,1.22E2,4.8E1,1.2E1,9E0,1.1E1,1.1E1,1.3E1,1E1,9E0,1.7E1,1.7E1,1.9E1,1.1E1,8E0,2.3E1,1.8E1,9E0,8E0,9E0,9E0,1.52E2,1.2E1,2.6E1,3.3E1,1.7E1,1.05E2,2.9E1,1.9E1,9E0,8E0],"tree_param":{"num_deleted":"0","num_feature":"11","num_nodes":"133","size_leaf_vector":"1"}},{"base_weights":[1.0560111E-5,-6.5200557E-3,1.9201573E-2,-4.982006E-3,-3.467226E-2,1.1356907E-2,3.5110924E-2,-1.8574713E-3,-2.2484886E-2,-6.905227E-4,-4.4669965E-3,2.3723515E-2,4.415423E-3,3.8107812E-2,2.5674831E-2,-1.01802405E-2,4.54621E-3,-3.6790986E-2,-5.1131244E-3,3.3479235E-5,-1.2063454E-4,3.065896E-2,1.4680449E-2,1.3479249E-2,-4.7207866E-3,4.671042E-2,2.6329025E-4,7.987709E-5,5.168027E-4,-2.798892E-3,-3.2080375E-2,1.7187048E-2,-2.9287295E-4,1.1098299E-4,-4.7577146E-2,-1.0962568E-2,4.6008867E-3,2.6264222E-4,3.79709E-2,2.722967E-4,9.235324E-3,8.914649E-3,2.7916007E-4,-1.0816738E-2,9.323776E-3,3.596865E-2,7.055779E-4,-6.711425E-4,-3.5312594E-4,-2.3426412E-2,-6.1249826E-4,1.2327725E-2,3.802154E-2,-1.7303267E-2,1.3026402E-2,-4.008071E-2,-5.5977702E-2,-1.6415581E-2,4.8651286E-6,7.001373E-5,4.1345134E-5,6.976554E-4,2.2178159E-4,-2.5735742E-6,1.879409E-4,1.2187562E-2,5.12714E-6,-3.7889588E-3,-2.7117302E-4,2.8402748E-4,-3.776507E-5,4.6571992E-2,1.4433521E-4,-4.935858E-3,8.6812675E-3,-5.79569E-4,1.5638603E-4,5.9662084E-3,1.7849823E-2,6.1716227E-4,2.1570426E-4,-4.13409E-2,7.0227515E-3,6.7067756E-3,2.2874175E-2,-6.4575486E-4,-1.3222318E-4,-5.018438E-4,-7.801818E-4,-8.082764E-5,-2.9939672E-4,6.7523746E-3,2.5928844E-4,-1.2850593E-4,9.372972E-5,7.0958957E-4,3.5349617E-4,-9.341427E-4,-1.583421E-2,1.4569536E-2,-5.7215407E-3,8.559428E-3,-2.1270031E-4,1.6805598E-4,2.2010496E-3,1.999701E-2,1.1353791E-4,-6.3429965E-4,-3.2451723E-2,-5.777074E-3,2.288095E-2,1.8235737E-2,-4.7217235E-3,2.4791231E-2,1.1443369E-4,-2.8498287E-5,2.055593E-4,-5.437773E-5,1.6809435E-4,-3.2545405E-4,-7.3681585E-5,1.03202095E-4,2.7034985E-4,-1.04372455E-4,-3.4033685E-5,1.7822013E-4,1.831285E-5,1.00645826E-4,-4.92209E-5,2.9228505E-4,1.7760659E-4,7.681426E-5,-6.298634E-4,-1.2099578E-5,-1.2044427E-4,3.7524506E-4,9.8782606E-5,-7.928522E-5,2.934324E-4,3.5999106E-5,-9.265441E-5,1.5111413E-4,3.3664994E-4],"categories":[],"categories_nodes":[],"categories_segments":[],"categories_sizes":[],"default_left":[0,0,0,0,0,0,0,0,0,0,0,0,0,0,0,0,0,0,0,0,0,0,0,0,0,0,0,0,0,0,0,0,0,0,0,0,0,0,0,0,0,0,0,0,0,0,0,0,0,0,0,0,0,0,0,0,0,0,0,0,0,0,0,0,0,0,0,0,0,0,0,0,0,0,0,0,0,0,0,0,0,0,0,0,0,0,0,0,0,0,0,0,0,0,0,0,0,0,0,0,0,0,0,0,0,0,0,0,0,0,0,0,0,0,0,0,0,0,0,0,0,0,0,0,0,0,0,0,0,0,0,0,0,0,0,0,0,0,0,0,0,0,0],"id":9,"left_children":[1,3,5,7,9,11,13,15,17,-1,19,21,23,25,27,29,31,33,35,-1,-1,37,39,41,43,45,-1,-1,-1,47,49,51,53,-1,55,57,59,-1,61,-1,63,65,-1,67,69,71,-1,73,-1,75,-1,77,79,81,83,85,87,89,-1,-1,-1,-1,-1,-1,-1,91,-1,93,-1,-1,-1,95,-1,97,99,-1,101,103,105,-1,-1,107,109,111,113,-1,-1,-1,-1,-1,-1,115,-1,-1,-1,-1,-1,117,119,121,123,125,-1,-1,127,129,-1,-1,131,133,135,137,139,141,-1,-1,-1,-1,-1,-1,-1,-1,-1,-1,-1,-1,-1,-1,-1,-1,-1,-1,-1,-1,-1,-1,-1,-1,-1,-1,-1,-1,-1],"loss_changes":[1.3673395E-1,3.5073057E-2,3.4171827E-2,4.2232327E-2,2.8247919E-2,1.5947817E-2,1.5949607E-3,3.5061993E-2,2.8888978E-2,0E0,7.860771E-4,3.7520006E-3,1.0083524E-2,8.38922E-3,7.862933E-3,4.6142828E-2,2.2760296E-2,3.2173946E-2,3.1188023E-3,0E0,0E0,1.5895069E-3,1.1172881E-3,2.472939E-3,5.323366E-3,3.292799E-3,0E0,0E0,0E0,1.2067532E-2,1.0404088E-2,9.959156E-3,6.1398257E-2,0E0,1.0310262E-3,2.1137353E-3,9.723677E-6,0E0,6.3059404E-3,0E0,1.1969332E-3,1.1897259E-3,0E0,3.427254E-3,3.4272189E-3,5.8124103E-3,0E0,8.019922E-3,0E0,2.9513132E-2,0E0,2.8794613E-3,4.0893927E-3,6.987437E-2,9.306192E-3,1.1479076E-2,4.724413E-5,1.7044595E-3,0E0,0E0,0E0,0E0,0E0,0E0,0E0,1.4167461E-3,0E0,2.2951202E-3,0E0,0E0,0E0,1.8587522E-3,0E0,6.003679E-3,5.4262397E-3,0E0,4.179428E-3,1.1951412E-3,6.2904414E-4,0E0,0E0,4.241824E-3,1.2311114E-2,1.2471423E-2,1.2814235E-3,0E0,0E0,0E0,0E0,0E0,0E0,2.0025922E-3,0E0,0E0,0E0,0E0,0E0,5.4610865E-3,3.833685E-3,1.9258121E-3,1.3659598E-4,8.058511E-4,0E0,0E0,1.1487636E-3,4.216889E-4,0E0,0E0,2.7810447E-2,6.7031884E-4,2.9904377E-3,7.204961E-3,1.1115236E-3,1.573015E-3,0E0,0E0,0E0,0E0,0E0,0E0,0E0,0E0,0E0,0E0,0E0,0E0,0E0,0E0,0E0,0E0,0E0,0E0,0E0,0E0,0E0,0E0,0E0,0E0,0E0,0E0,0E0,0E0,0E0],"parents":[2147483647,0,0,1,1,2,2,3,3,4,4,5,5,6,6,7,7,8,8,10,10,11,11,12,12,13,13,14,14,15,15,16,16,17,17,18,18,21,21,22,22,23,23,24,24,25,25,29,29,30,30,31,31,32,32,34,34,35,35,36,36,38,38,40,40,41,41,43,43,44,44,45,45,47,47,49,49,51,51,52,52,53,53,54,54,55,55,56,56,57,57,65,65,67,67,71,71,73,73,74,74,76,76,77,77,78,78,81,81,82,82,83,83,84,84,91,91,97,97,98,98,99,99,100,100,101,101,104,104,105,105,108,108,109,109,110,110,111,111,112,112,113,113],"right_children":[2,4,6,8,10,12,14,16,18,-1,20,22,24,26,28,30,32,34,36,-1,-1,38,40,42,44,46,-1,-1,-1,48,50,52,54,-1,56,58,60,-1,62,-1,64,66,-1,68,70,72,-1,74,-1,76,-1,78,80,82,84,86,88,90,-1,-1,-1,-1,-1,-1,-1,92,-1,94,-1,-1,-1,96,-1,98,100,-1,102,104,106,-1,-1,108,110,112,114,-1,-1,-1,-1,-1,-1,116,-1,-1,-1,-1,-1,118,120,122,124,126,-1,-1,128,130,-1,-1,132,134,136,138,140,142,-1,-1,-1,-1,-1,-1,-1,-1,-1,-1,-1,-1,-1,-1,-1,-1,-1,-1,-1,-1,-1,-1,-1,-1,-1,-1,-1,-1,-1],"split_conditions":[4.8827665E6,9.653797E5,6.24475E6,4.0669938E6,2.2556085E6,8E-1,8.3869735E6,1.8533986E6,4.4981785E6,-6.905227E-4,2.9001375E6,1E0,1E0,1E0,1E0,1.4000995E6,4E-1,6E-1,8E-1,3.3479235E-5,-1.2063454E-4,5.2492475E6,6E-1,5.990728E6,5.990728E6,7.350133E6,2.6329025E-4,7.987709E-5,5.168027E-4,1.7704608E5,4.435763E5,3.1124982E6,3.3896805E2,1.1098299E-4,1E0,4.771122E6,3.3086744E-1,2.6264222E-4,5.747625E6,2.722967E-4,4.982113E6,5.747625E6,2.7916007E-4,3.5437748E-1,3.5437748E-1,7.148169E6,7.055779E-4,2.166475E5,-3.5312594E-4,3.3896805E2,-6.1249826E-4,2.3313882E6,3.499944E6,3.6518382E6,2.8256142E6,4.1219185E6,1E0,1E0,4.8651286E-6,7.001373E-5,4.1345134E-5,6.976554E-4,2.2178159E-4,-2.5735742E-6,1.879409E-4,5.5877E6,5.12714E-6,5.604993E6,-2.7117302E-4,2.8402748E-4,-3.776507E-5,3.3086744E-1,1.4433521E-4,5.466391E-2,1.386131E5,-5.79569E-4,4.2135566E5,2.0178612E6,1.9346604E-1,6.1716227E-4,2.1570426E-4,2.8855352E6,3.8696498E6,5.42734E5,8.572546E5,-6.4575486E-4,-1.3222318E-4,-5.018438E-4,-7.801818E-4,-8.082764E-5,-2.9939672E-4,3.3174664E-1,2.5928844E-4,-1.2850593E-4,9.372972E-5,7.0958957E-4,3.5349617E-4,1.3265338E5,3.3896805E2,3.6734544E5,1.5388572E5,1.7446196E6,-2.1270031E-4,1.6805598E-4,1.882254E-1,1E0,1.1353791E-4,-6.3429965E-4,6E-1,1E0,2.9518154E-1,1.9221174E6,2.3313882E6,2.9718485E-1,1.1443369E-4,-2.8498287E-5,2.055593E-4,-5.437773E-5,1.6809435E-4,-3.2545405E-4,-7.3681585E-5,1.03202095E-4,2.7034985E-4,-1.04372455E-4,-3.4033685E-5,1.7822013E-4,1.831285E-5,1.00645826E-4,-4.92209E-5,2.9228505E-4,1.7760659E-4,7.681426E-5,-6.298634E-4,-1.2099578E-5,-1.2044427E-4,3.7524506E-4,9.8782606E-5,-7.928522E-5,2.934324E-4,3.5999106E-5,-9.265441E-5,1.5111413E-4,3.3664994E-4],"split_indices":[5,8,5,5,5,2,5,5,5,0,5,10,10,10,10,5,2,2,2,0,0,5,2,5,5,5,0,0,0,8,8,5,8,0,2,5,4,0,5,0,5,5,0,4,4,5,0,5,0,8,0,5,5,5,5,5,10,10,0,0,0,0,0,0,0,5,0,5,0,0,0,4,0,4,8,0,8,5,4,0,0,5,5,8,8,0,0,0,0,0,0,4,0,0,0,0,0,5,8,5,8,5,0,0,4,10,0,0,2,10,4,5,5,4,0,0,0,0,0,0,0,0,0,0,0,0,0,0,0,0,0,0,0,0,0,0,0,0,0,0,0,0,0],"split_type":[0,0,0,0,0,0,0,0,0,0,0,0,0,0,0,0,0,0,0,0,0,0,0,0,0,0,0,0,0,0,0,0,0,0,0,0,0,0,0,0,0,0,0,0,0,0,0,0,0,0,0,0,0,0,0,0,0,0,0,0,0,0,0,0,0,0,0,0,0,0,0,0,0,0,0,0,0,0,0,0,0,0,0,0,0,0,0,0,0,0,0,0,0,0,0,0,0,0,0,0,0,0,0,0,0,0,0,0,0,0,0,0,0,0,0,0,0,0,0,0,0,0,0,0,0,0,0,0,0,0,0,0,0,0,0,0,0,0,0,0,0,0,0],"sum_hessian":[1.089E3,8.13E2,2.76E2,7.72E2,4.1E1,1.86E2,9E1,6.56E2,1.16E2,2.3E1,1.8E1,6.6E1,1.2E2,6.6E1,2.4E1,2.85E2,3.71E2,6.3E1,5.3E1,8E0,1E1,3.6E1,3E1,6E1,6E1,4.2E1,2.4E1,1.2E1,1.2E1,2.14E2,7.1E1,1.02E2,2.69E2,1.2E1,5.1E1,3.3E1,2E1,1.8E1,1.8E1,1.1E1,1.9E1,4.2E1,1.8E1,4.2E1,1.8E1,2.4E1,1.8E1,1.99E2,1.5E1,5E1,2.1E1,8.4E1,1.8E1,1.18E2,1.51E2,3E1,2.1E1,2.2E1,1.1E1,8E0,1.2E1,8E0,1E1,8E0,1.1E1,3E1,1.2E1,2.7E1,1.5E1,8E0,1E1,1.6E1,8E0,1.37E2,6.2E1,2.4E1,2.6E1,4E1,4.4E1,1E1,8E0,5.9E1,5.9E1,9.3E1,5.8E1,2E1,1E1,1E1,1.1E1,1.1E1,1.1E1,2E1,1E1,1.7E1,1E1,8E0,8E0,1.01E2,3.6E1,4.4E1,1.8E1,1.8E1,8E0,1.2E1,2.8E1,3.4E1,1E1,2.4E1,3.5E1,3.3E1,2.6E1,4.6E1,4.7E1,5E1,8E0,1.1E1,9E0,8.2E1,1.9E1,1.6E1,2E1,2.6E1,1.8E1,8E0,1E1,9E0,9E0,1.4E1,1.4E1,1.7E1,1.7E1,1.2E1,2.3E1,1.6E1,1.7E1,1.6E1,1E1,9E0,3.7E1,1.3E1,3.4E1,1.1E1,3.9E1],"tree_param":{"num_deleted":"0","num_feature":"11","num_nodes":"143","size_leaf_vector":"1"}},{"base_weights":[1.9377585E-4,1.297432E-2,-5.380342E-2,9.239563E-4,1.0185873E-2,-5.716051E-4,-5.6670938E-2,2.0701312E-2,-1.17927E-3,-6.188061E-4,-7.420602E-4,1.718326E-2,2.4369922E-2,-5.0009564E-3,9.618193E-3,6.0823616E-3,1.958462E-2,2.6025623E-2,1.520591E-2,4.7758673E-3,-9.10853E-3,3.175319E-4,6.400702E-3,-4.652725E-3,1.5152769E-2,2.0621572E-2,4.977904E-5,2.9210132E-2,2.0525537E-2,2.3569737E-4,1.2706634E-2,1.0167813E-2,2.3036397E-3,-3.799942E-3,-1.1680567E-2,2.1991965E-4,3.0035464E-4,-8.548091E-6,-9.4459814E-5,2.1399844E-4,1.1130204E-4,1.6070705E-2,2.27402E-2,2.2915572E-2,4.15346E-4,2.9098187E-2,1.1366443E-2,1.9795177E-4,9.7348784E-5,1.6994865E-4,7.694852E-5,-7.563922E-5,4.441122E-3,-7.40277E-3,1.0876675E-3,-8.286737E-3,-1.9644616E-2,7.0181247E-3,-1.2829594E-2,1.886529E-2,6.937347E-5,2.0103438E-2,5.1103777E-4,2.0818021E-4,3.990404E-4,2.0862473E-4,4.0850157E-4,1.8513277E-2,-1.0093133E-4,9.759575E-3,1.4948494E-3,-4.432278E-3,-2.1114502E-4,6.88675E-5,-3.0448874E-3,-1.2022199E-2,-6.850628E-3,-1.3379349E-2,-3.0541472E-4,9.584232E-3,2.3338715E-5,-7.2307885E-5,-2.3881922E-4,1.7628429E-4,2.6096933E-4,7.556037E-5,2.559706E-4,1.585084E-4,2.9825405E-4,1.898688E-4,2.4918396E-5,6.361487E-5,-3.7154838E-5,-1.2765973E-4,7.753699E-6,-9.06453E-5,2.114051E-5,-9.833428E-5,-1.5987834E-4,-5.623445E-5,-1.3470792E-4,-1.9018936E-4,-1.0846275E-4,7.561713E-5,1.3502529E-4],"categories":[],"categories_nodes":[],"categories_segments":[],"categories_sizes":[],"default_left":[0,0,0,0,0,0,0,0,0,0,0,0,0,0,0,0,0,0,0,0,0,0,0,0,0,0,0,0,0,0,0,0,0,0,0,0,0,0,0,0,0,0,0,0,0,0,0,0,0,0,0,0,0,0,0,0,0,0,0,0,0,0,0,0,0,0,0,0,0,0,0,0,0,0,0,0,0,0,0,0,0,0,0,0,0,0,0,0,0,0,0,0,0,0,0,0,0,0,0,0,0,0,0,0,0],"id":10,"left_children":[1,3,5,-1,7,-1,9,11,13,-1,-1,15,17,19,21,23,25,27,29,31,33,-1,35,37,39,41,-1,43,45,-1,47,49,51,53,55,-1,57,-1,-1,-1,-1,59,61,63,-1,65,67,-1,-1,-1,-1,-1,69,71,73,75,77,79,81,83,-1,85,-1,-1,-1,-1,-1,87,-1,89,91,93,-1,-1,95,97,99,101,-1,103,-1,-1,-1,-1,-1,-1,-1,-1,-1,-1,-1,-1,-1,-1,-1,-1,-1,-1,-1,-1,-1,-1,-1,-1,-1],"loss_changes":[7.53612E-1,1.5552692E-1,1.2171865E-3,0E0,1.0124893E-1,0E0,4.7779083E-4,5.2600354E-3,1.6884023E-2,0E0,0E0,5.958736E-3,2.8360784E-3,1.2171525E-2,5.5664415E-3,4.1601094E-3,2.9139519E-3,2.5356486E-3,1.2812391E-4,1.1762874E-3,2.8638914E-3,0E0,6.543664E-3,2.4411362E-4,1.861779E-4,1.3218299E-3,0E0,2.8172135E-3,5.086975E-3,0E0,2.9521668E-4,3.2495498E-4,1.180864E-3,1.2583061E-3,3.7023034E-3,0E0,5.4704826E-3,0E0,0E0,0E0,0E0,1.5949374E-3,5.1803477E-3,2.4778172E-3,0E0,1.3652872E-3,5.0869705E-3,0E0,0E0,0E0,0E0,0E0,7.8456127E-4,1.1488977E-3,6.0807006E-4,4.6482263E-4,1.142865E-3,5.166817E-4,8.7843556E-4,2.2214279E-4,0E0,1.4351755E-3,0E0,0E0,0E0,0E0,0E0,5.416218E-4,0E0,7.922775E-4,6.0176593E-4,1.0334161E-3,0E0,0E0,3.762889E-4,1.9021798E-5,6.655869E-4,8.728076E-5,0E0,7.282244E-5,0E0,0E0,0E0,0E0,0E0,0E0,0E0,0E0,0E0,0E0,0E0,0E0,0E0,0E0,0E0,0E0,0E0,0E0,0E0,0E0,0E0,0E0,0E0,0E0,0E0],"parents":[2147483647,0,0,1,1,2,2,4,4,6,6,7,7,8,8,11,11,12,12,13,13,14,14,15,15,16,16,17,17,18,18,19,19,20,20,22,22,23,23,24,24,25,25,27,27,28,28,30,30,31,31,32,32,33,33,34,34,36,36,41,41,42,42,43,43,45,45,46,46,52,52,53,53,54,54,55,55,56,56,57,57,58,58,59,59,61,61,67,67,69,69,70,70,71,71,74,74,75,75,76,76,77,77,79,79],"right_children":[2,4,6,-1,8,-1,10,12,14,-1,-1,16,18,20,22,24,26,28,30,32,34,-1,36,38,40,42,-1,44,46,-1,48,50,52,54,56,-1,58,-1,-1,-1,-1,60,62,64,-1,66,68,-1,-1,-1,-1,-1,70,72,74,76,78,80,82,84,-1,86,-1,-1,-1,-1,-1,88,-1,90,92,94,-1,-1,96,98,100,102,-1,104,-1,-1,-1,-1,-1,-1,-1,-1,-1,-1,-1,-1,-1,-1,-1,-1,-1,-1,-1,-1,-1,-1,-1,-1,-1],"split_conditions":[3.1880064E0,8.326121E-1,1E0,9.239563E-4,1.7885878E0,-5.716051E-4,2.0427205E6,1.4050951E0,2.7778301E0,-6.188061E-4,-7.420602E-4,1.8644114E-1,1.6334534E0,1.9733926E0,2.7844307E0,1.1111435E0,1.4023714E0,4.1219185E6,2.5E-1,1.9346604E-1,1E0,3.175319E-4,1E0,1.7358948E5,2E0,1E0,4.977904E-5,1.6171806E0,1E0,2.3569737E-4,1.7848761E0,1.7960024E0,2.5491065E-1,4.764457E6,3.7439272E6,2.1991965E-4,2.5671568E6,-8.548091E-6,-9.4459814E-5,2.1399844E-4,1.1130204E-4,7.799442E6,8.3645025E6,2.6228475E6,4.15346E-4,2.9818094E-1,1.623699E0,1.9795177E-4,9.7348784E-5,1.6994865E-4,7.694852E-5,-7.563922E-5,1E0,2.561213E-1,3.3086744E-1,1.9857203E0,2.0923555E0,2.9618508E-1,3.2910198E-1,1.1131696E0,6.937347E-5,1.8999061E-1,5.1103777E-4,2.0818021E-4,3.990404E-4,2.0862473E-4,4.0850157E-4,1.4159601E0,-1.0093133E-4,1.7997053E0,3.882387E6,2.2401592E6,-2.1114502E-4,6.88675E-5,5.8287065E6,2E0,2.1015162E0,1.9898236E0,-3.0541472E-4,2E0,2.3338715E-5,-7.2307885E-5,-2.3881922E-4,1.7628429E-4,2.6096933E-4,7.556037E-5,2.559706E-4,1.585084E-4,2.9825405E-4,1.898688E-4,2.4918396E-5,6.361487E-5,-3.7154838E-5,-1.2765973E-4,7.753699E-6,-9.06453E-5,2.114051E-5,-9.833428E-5,-1.5987834E-4,-5.623445E-5,-1.3470792E-4,-1.9018936E-4,-1.0846275E-4,7.561713E-5,1.3502529E-4],"split_indices":[0,0,10,0,0,0,5,0,0,0,0,4,0,0,0,0,0,5,4,4,10,0,10,5,10,10,0,0,10,0,0,0,4,5,5,0,5,0,0,0,0,5,5,5,0,4,0,0,0,0,0,0,10,4,4,0,0,4,4,0,0,4,0,0,0,0,0,0,0,0,5,5,0,0,5,10,0,0,0,10,0,0,0,0,0,0,0,0,0,0,0,0,0,0,0,0,0,0,0,0,0,0,0,0,0],"split_type":[0,0,0,0,0,0,0,0,0,0,0,0,0,0,0,0,0,0,0,0,0,0,0,0,0,0,0,0,0,0,0,0,0,0,0,0,0,0,0,0,0,0,0,0,0,0,0,0,0,0,0,0,0,0,0,0,0,0,0,0,0,0,0,0,0,0,0,0,0,0,0,0,0,0,0,0,0,0,0,0,0,0,0,0,0,0,0,0,0,0,0,0,0,0,0,0,0,0,0,0,0,0,0,0,0],"sum_hessian":[1.09E3,8.82E2,2.08E2,3.6E1,8.46E2,6.9E1,1.39E2,4.39E2,4.07E2,7E1,6.9E1,2.27E2,2.12E2,3.01E2,1.06E2,4.1E1,1.86E2,1.78E2,3.4E1,8.9E1,2.12E2,1.6E1,9E1,1.9E1,2.2E1,1.74E2,1.2E1,1.1E2,6.8E1,1E1,2.4E1,2.7E1,6.2E1,7E1,1.42E2,3E1,6E1,9E0,1E1,1.4E1,8E0,5.8E1,1.16E2,5.2E1,5.8E1,3.4E1,3.4E1,1.2E1,1.2E1,1.2E1,1.5E1,1.2E1,5E1,4E1,3E1,1.01E2,4.1E1,4E1,2E1,4.5E1,1.3E1,1.04E2,1.2E1,3.5E1,1.7E1,1.1E1,2.3E1,2.5E1,9E0,1.7E1,3.3E1,3.2E1,8E0,1.4E1,1.6E1,2.6E1,7.5E1,2.1E1,2E1,2.6E1,1.4E1,1.1E1,9E0,2E1,2.5E1,8E0,9.6E1,1.5E1,1E1,9E0,8E0,1.8E1,1.5E1,1.4E1,1.8E1,8E0,8E0,8E0,1.8E1,5.1E1,2.4E1,1.2E1,9E0,1E1,1.6E1],"tree_param":{"num_deleted":"0","num_feature":"11","num_nodes":"105","size_leaf_vector":"1"}},{"base_weights":[-8.897567E-5,1.2794398E-2,-5.3134184E-2,9.130923E-4,1.0017906E-2,-5.661062E-4,-5.588535E-2,2.0723706E-2,-6.103395E-4,-6.125738E-4,-7.304018E-4,1.8626612E-2,2.6896382E-2,-4.0325113E-3,9.661933E-3,8.973219E-3,2.0671291E-2,3.228656E-2,1.5347556E-2,5.8298768E-3,-8.991204E-3,3.139202E-4,6.4729205E-3,-8.7467226E-4,1.5188313E-2,1.1704369E-2,2.239421E-2,4.642243E-4,3.4406024E-4,3.1065612E-4,4.135978E-3,9.180165E-3,2.4954195E-3,-3.7586866E-3,-1.1544146E-2,2.173478E-4,4.1696578E-4,-8.669478E-5,5.4656033E-5,1.6996047E-2,1.08392516E-4,4.473633E-5,1.5715932E-2,1.9106556E-2,2.525093E-2,1.1144738E-6,8.8964916E-5,1.9753515E-4,5.342322E-3,5.272826E-3,1.7507806E-4,-7.4991686E-3,1.0343753E-3,-8.154074E-3,-1.9421598E-2,6.9390195E-3,-1.2974093E-2,1.2248757E-4,2.420785E-4,7.284955E-5,2.5742044E-4,2.0015467E-2,1.0236185E-4,2.2654394E-2,3.5357708E-4,2.0219681E-4,3.1831174E-4,-1.2997789E-5,1.3553759E-4,-2.7706572E-3,9.285444E-5,-1.1027769E-2,-2.5737816E-3,5.4101264E-3,-8.1081154E-5,-1.0076855E-2,-5.9079216E-3,-1.3102603E-4,-2.7666343E-4,9.476209E-3,2.3075514E-5,-7.032271E-5,-2.3622192E-4,2.1189715E-4,2.8027175E-4,2.0973997E-4,3.1356837E-4,5.2131778E-5,-4.844849E-5,-6.358098E-5,2.0401514E-5,-8.011056E-5,-1.9436082E-4,-9.991051E-5,4.880475E-5,4.1732583E-5,7.672195E-5,-1.616473E-4,-9.8457844E-5,-6.790356E-6,-1.3314515E-4,7.478648E-5,1.3348942E-4],"categories":[],"categories_nodes":[],"categories_segments":[],"categories_sizes":[],"default_left":[0,0,0,0,0,0,0,0,0,0,0,0,0,0,0,0,0,0,0,0,0,0,0,0,0,0,0,0,0,0,0,0,0,0,0,0,0,0,0,0,0,0,0,0,0,0,0,0,0,0,0,0,0,0,0,0,0,0,0,0,0,0,0,0,0,0,0,0,0,0,0,0,0,0,0,0,0,0,0,0,0,0,0,0,0,0,0,0,0,0,0,0,0,0,0,0,0,0,0,0,0,0,0],"id":11,"left_children":[1,3,5,-1,7,-1,9,11,13,-1,-1,15,17,19,21,23,25,27,29,31,33,-1,35,37,39,41,43,-1,-1,-1,45,47,49,51,53,-1,55,-1,-1,57,-1,-1,59,61,63,-1,-1,-1,65,67,69,71,73,75,77,79,81,-1,-1,-1,-1,83,-1,85,-1,-1,87,-1,-1,89,-1,91,93,95,-1,97,99,-1,-1,101,-1,-1,-1,-1,-1,-1,-1,-1,-1,-1,-1,-1,-1,-1,-1,-1,-1,-1,-1,-1,-1,-1,-1],"loss_changes":[7.4490374E-1,1.5207013E-1,1.067698E-3,0E0,9.57049E-2,0E0,3.2019615E-4,4.922822E-3,1.4908885E-2,0E0,0E0,6.0517564E-3,5.97851E-3,1.5604068E-2,5.346787E-3,3.5020034E-3,3.7547052E-3,5.430728E-4,3.95858E-3,1.1724308E-3,2.7885698E-3,0E0,6.2671723E-3,8.144352E-4,2.4103187E-4,1.3543293E-3,1.5555918E-3,0E0,0E0,0E0,2.3411814E-4,1.3702149E-3,3.5352606E-4,1.2806705E-3,3.6337636E-3,0E0,5.3302594E-3,0E0,0E0,3.384389E-4,0E0,0E0,1.4407611E-3,8.455366E-4,5.1292777E-4,0E0,0E0,0E0,2.054587E-3,9.552385E-4,7.069516E-4,6.66806E-4,1.1206114E-3,3.766711E-4,1.002863E-3,5.0510233E-4,8.2684914E-4,0E0,0E0,0E0,0E0,3.5002455E-4,0E0,8.2342327E-4,0E0,0E0,4.6684025E-4,0E0,0E0,2.643034E-4,0E0,4.048387E-4,7.1106554E-4,1.6643084E-5,0E0,2.2843014E-4,1.3323246E-3,0E0,0E0,7.099891E-5,0E0,0E0,0E0,0E0,0E0,0E0,0E0,0E0,0E0,0E0,0E0,0E0,0E0,0E0,0E0,0E0,0E0,0E0,0E0,0E0,0E0,0E0,0E0],"parents":[2147483647,0,0,1,1,2,2,4,4,6,6,7,7,8,8,11,11,12,12,13,13,14,14,15,15,16,16,17,17,18,18,19,19,20,20,22,22,23,23,24,24,25,25,26,26,30,30,31,31,32,32,33,33,34,34,36,36,39,39,42,42,43,43,44,44,48,48,49,49,50,50,51,51,52,52,53,53,54,54,55,55,56,56,61,61,63,63,66,66,69,69,71,71,72,72,73,73,75,75,76,76,79,79],"right_children":[2,4,6,-1,8,-1,10,12,14,-1,-1,16,18,20,22,24,26,28,30,32,34,-1,36,38,40,42,44,-1,-1,-1,46,48,50,52,54,-1,56,-1,-1,58,-1,-1,60,62,64,-1,-1,-1,66,68,70,72,74,76,78,80,82,-1,-1,-1,-1,84,-1,86,-1,-1,88,-1,-1,90,-1,92,94,96,-1,98,100,-1,-1,102,-1,-1,-1,-1,-1,-1,-1,-1,-1,-1,-1,-1,-1,-1,-1,-1,-1,-1,-1,-1,-1,-1,-1],"split_conditions":[1.4E1,2E0,1E0,9.130923E-4,6E0,-5.661062E-4,2.0427205E6,5E0,1.2E1,-6.125738E-4,-7.304018E-4,1.1067619E5,9.799361E5,7E0,4E-3,3E0,4E-3,8E-3,1E0,1.2E-2,1E0,3.139202E-4,1E0,2E0,2.5359455E5,1E0,5.903279E5,4.642243E-4,3.4406024E-4,3.1065612E-4,1.2E-2,1E0,2.4413832E6,1.1644444E6,3.7439272E6,2.173478E-4,2.5671568E6,-8.669478E-5,5.4656033E-5,9.751039E2,1.08392516E-4,4.473633E-5,3.499944E6,5.633954E5,4E0,1.1144738E-6,8.8964916E-5,1.9753515E-4,2.7406197E5,1.2368352E6,5.5877E6,8E0,1.6E-2,8E0,8E-3,6.9196856E5,1.9014445E6,1.2248757E-4,2.420785E-4,7.284955E-5,2.5742044E-4,1.6E-2,1.0236185E-4,1E0,3.5357708E-4,2.0219681E-4,3.0601422E6,-1.2997789E-5,1.3553759E-4,2E-2,9.285444E-5,3.674636E6,2.3084115E6,8E0,-8.1081154E-5,2.816977E5,1.2E-2,-1.3102603E-4,-2.7666343E-4,2E0,2.3075514E-5,-7.032271E-5,-2.3622192E-4,2.1189715E-4,2.8027175E-4,2.0973997E-4,3.1356837E-4,5.2131778E-5,-4.844849E-5,-6.358098E-5,2.0401514E-5,-8.011056E-5,-1.9436082E-4,-9.991051E-5,4.880475E-5,4.1732583E-5,7.672195E-5,-1.616473E-4,-9.8457844E-5,-6.790356E-6,-1.3314515E-4,7.478648E-5,1.3348942E-4],"split_indices":[9,9,10,0,9,0,5,9,9,0,0,7,7,9,1,9,1,1,10,1,10,0,10,10,5,10,7,0,0,0,1,10,5,7,5,0,5,0,0,7,0,0,5,7,9,0,0,0,7,5,5,9,1,9,1,7,7,0,0,0,0,1,0,10,0,0,5,0,0,1,0,5,5,9,0,7,1,0,0,10,0,0,0,0,0,0,0,0,0,0,0,0,0,0,0,0,0,0,0,0,0,0,0],"split_type":[0,0,0,0,0,0,0,0,0,0,0,0,0,0,0,0,0,0,0,0,0,0,0,0,0,0,0,0,0,0,0,0,0,0,0,0,0,0,0,0,0,0,0,0,0,0,0,0,0,0,0,0,0,0,0,0,0,0,0,0,0,0,0,0,0,0,0,0,0,0,0,0,0,0,0,0,0,0,0,0,0,0,0,0,0,0,0,0,0,0,0,0,0,0,0,0,0,0,0,0,0,0,0],"sum_hessian":[1.088E3,8.76E2,2.12E2,3.6E1,8.4E2,7E1,1.42E2,4.18E2,4.22E2,7.2E1,7E1,3.15E2,1.03E2,3.17E2,1.05E2,5.6E1,2.59E2,6.9E1,3.4E1,1.06E2,2.11E2,1.6E1,8.9E1,2.2E1,3.4E1,4.3E1,2.16E2,2.3E1,4.6E1,1.7E1,1.7E1,5.2E1,5.4E1,7E1,1.41E2,3E1,5.9E1,1E1,1.2E1,2.5E1,9E0,1.5E1,2.8E1,1.04E2,1.12E2,8E0,9E0,1.7E1,3.5E1,2.4E1,3E1,3.9E1,3.1E1,1E2,4.1E1,4E1,1.9E1,9E0,1.6E1,1.1E1,1.7E1,9.5E1,9E0,7.2E1,4E1,1E1,2.5E1,1.2E1,1.2E1,2.2E1,8E0,2.2E1,1.7E1,2E1,1.1E1,5.2E1,4.8E1,1.3E1,2.8E1,2.6E1,1.4E1,1E1,9E0,5.7E1,3.8E1,3E1,4.2E1,1.3E1,1.2E1,1.4E1,8E0,1.3E1,9E0,9E0,8E0,8E0,1.2E1,1.7E1,3.5E1,2.4E1,2.4E1,1E1,1.6E1],"tree_param":{"num_deleted":"0","num_feature":"11","num_nodes":"103","size_leaf_vector":"1"}},{"base_weights":[1.2569029E-4,1.2810242E-2,-5.240809E-2,9.023561E-4,1.0076765E-2,-5.593615E-4,-5.509976E-2,2.075677E-2,-6.018095E-4,-5.787401E-4,-7.003188E-4,1.8432908E-2,2.7488688E-2,-3.985075E-3,9.395515E-3,1.3830681E-2,2.2777718E-2,3.789069E-4,1.943266E-2,5.6935283E-3,-8.828425E-3,2.3130517E-4,4.392639E-3,8.5189035E-3,1.9471638E-4,1.8863091E-2,2.4577033E-2,1.509587E-2,3.288214E-4,8.880819E-3,4.131043E-3,-3.7173205E-3,-1.1339488E-2,-1.8070183E-3,1.03060175E-2,-6.4306085E-5,1.8599058E-4,1.07691056E-4,2.8355187E-4,2.9573314E-2,2.1627182E-2,3.089044E-4,5.195798E-5,1.1343912E-2,9.407479E-6,9.032613E-3,1.5459347E-3,-7.673694E-3,3.4231195E-4,-7.785324E-3,-1.4733941E-2,3.5238948E-3,-1.3909169E-4,1.7399211E-4,4.6453755E-3,3.578353E-2,2.0320296E-4,1.7438078E-2,2.7437659E-2,7.454789E-5,1.7798117E-4,5.7123554E-5,1.5279322E-4,-3.7249592E-3,7.666291E-3,-1.04573555E-2,-2.3496861E-5,-7.4633004E-5,3.4573174E-3,-9.731966E-3,-5.6224233E-3,-2.3035279E-4,-9.997136E-3,9.662399E-5,-1.0572295E-5,1.7176062E-5,8.8862624E-5,3.2109703E-4,5.019432E-4,2.264472E-4,1.2446896E-4,3.8274872E-4,2.5306563E-4,-9.010839E-5,1.0478239E-5,1.5210983E-4,2.5459914E-5,-8.913961E-5,-1.5102379E-4,6.627784E-5,1.406977E-5,-1.3489608E-4,-7.664538E-5,-1.0472927E-4,-2.952162E-5,-7.366204E-5,-1.3165356E-4],"categories":[],"categories_nodes":[],"categories_segments":[],"categories_sizes":[],"default_left":[0,0,0,0,0,0,0,0,0,0,0,0,0,0,0,0,0,0,0,0,0,0,0,0,0,0,0,0,0,0,0,0,0,0,0,0,0,0,0,0,0,0,0,0,0,0,0,0,0,0,0,0,0,0,0,0,0,0,0,0,0,0,0,0,0,0,0,0,0,0,0,0,0,0,0,0,0,0,0,0,0,0,0,0,0,0,0,0,0,0,0,0,0,0,0,0,0],"id":12,"left_children":[1,3,5,-1,7,-1,9,11,13,-1,-1,15,17,19,21,23,25,-1,27,29,31,-1,33,35,-1,37,39,41,-1,43,45,47,49,51,53,-1,-1,-1,-1,55,57,-1,-1,59,-1,61,63,65,67,69,71,73,-1,-1,75,77,-1,79,81,-1,-1,-1,-1,83,85,87,-1,-1,89,91,93,-1,95,-1,-1,-1,-1,-1,-1,-1,-1,-1,-1,-1,-1,-1,-1,-1,-1,-1,-1,-1,-1,-1,-1,-1,-1],"loss_changes":[7.263456E-1,1.4770837E-1,9.4270706E-4,0E0,9.604026E-2,0E0,1.4340878E-4,6.0794353E-3,1.4311001E-2,0E0,0E0,6.0036406E-3,2.6915967E-3,1.4863354E-2,5.1323725E-3,1.7536152E-3,6.704256E-4,0E0,8.371528E-4,4.912028E-4,2.6658848E-3,0E0,2.6582093E-3,4.7420235E-3,0E0,2.3090057E-3,9.374097E-4,2.827879E-3,0E0,6.6970265E-4,9.1102545E-4,1.1429879E-3,1.5863776E-3,1.9026292E-3,7.900903E-4,0E0,0E0,0E0,0E0,2.3299195E-3,1.2497269E-3,0E0,0E0,3.6445912E-4,0E0,3.289187E-4,1.6092843E-3,5.538161E-4,7.522951E-4,2.4422072E-4,1.2648441E-3,4.790657E-4,0E0,0E0,1.3796781E-4,1.6818382E-4,0E0,2.1538232E-4,1.0703504E-4,0E0,0E0,0E0,0E0,4.6910433E-4,6.02679E-4,5.8650505E-5,0E0,0E0,1.0982173E-4,1.0376959E-4,3.2723555E-4,0E0,5.9597194E-5,0E0,0E0,0E0,0E0,0E0,0E0,0E0,0E0,0E0,0E0,0E0,0E0,0E0,0E0,0E0,0E0,0E0,0E0,0E0,0E0,0E0,0E0,0E0,0E0],"parents":[2147483647,0,0,1,1,2,2,4,4,6,6,7,7,8,8,11,11,12,12,13,13,14,14,15,15,16,16,18,18,19,19,20,20,22,22,23,23,25,25,26,26,27,27,29,29,30,30,31,31,32,32,33,33,34,34,39,39,40,40,43,43,45,45,46,46,47,47,48,48,49,49,50,50,51,51,54,54,55,55,57,57,58,58,63,63,64,64,65,65,68,68,69,69,70,70,72,72],"right_children":[2,4,6,-1,8,-1,10,12,14,-1,-1,16,18,20,22,24,26,-1,28,30,32,-1,34,36,-1,38,40,42,-1,44,46,48,50,52,54,-1,-1,-1,-1,56,58,-1,-1,60,-1,62,64,66,68,70,72,74,-1,-1,76,78,-1,80,82,-1,-1,-1,-1,84,86,88,-1,-1,90,92,94,-1,96,-1,-1,-1,-1,-1,-1,-1,-1,-1,-1,-1,-1,-1,-1,-1,-1,-1,-1,-1,-1,-1,-1,-1,-1],"split_conditions":[1.4E1,2E0,1E0,9.023561E-4,6E0,-5.593615E-4,4E-1,5E0,1.2E1,-5.787401E-4,-7.003188E-4,6E-1,8E-1,7E0,1E0,2E-1,1E0,3.789069E-4,2.8269422E6,4E-1,1E0,2.3130517E-4,2E0,3E0,1.9471638E-4,3E0,3E0,1E0,3.288214E-4,5.493503E4,1E0,8E0,6E-1,8E-1,6.9328444E5,-6.4306085E-5,1.8599058E-4,1.07691056E-4,2.8355187E-4,3.6750665E6,4.528698E5,3.089044E-4,5.195798E-5,1E0,9.407479E-6,8E-1,1.9221174E6,8E-1,4E-1,8E0,2.3333238E6,4E-1,-1.3909169E-4,1.7399211E-4,2.3177048E6,8E-1,2.0320296E-4,2.0082025E4,3.2824785E6,7.454789E-5,1.7798117E-4,5.7123554E-5,1.5279322E-4,8E-1,7.3093225E5,4E-1,-2.3496861E-5,-7.4633004E-5,8E-1,4E-1,2E0,-2.3035279E-4,6.200716E5,9.662399E-5,-1.0572295E-5,1.7176062E-5,8.8862624E-5,3.2109703E-4,5.019432E-4,2.264472E-4,1.2446896E-4,3.8274872E-4,2.5306563E-4,-9.010839E-5,1.0478239E-5,1.5210983E-4,2.5459914E-5,-8.913961E-5,-1.5102379E-4,6.627784E-5,1.406977E-5,-1.3489608E-4,-7.664538E-5,-1.0472927E-4,-2.952162E-5,-7.366204E-5,-1.3165356E-4],"split_indices":[9,9,10,0,9,0,2,9,9,0,0,2,2,9,10,2,10,0,6,2,10,0,10,9,0,9,9,10,0,6,10,9,2,2,8,0,0,0,0,6,8,0,0,10,0,2,6,2,2,9,6,2,0,0,6,2,0,6,6,0,0,0,0,2,8,2,0,0,2,2,10,0,8,0,0,0,0,0,0,0,0,0,0,0,0,0,0,0,0,0,0,0,0,0,0,0,0],"split_type":[0,0,0,0,0,0,0,0,0,0,0,0,0,0,0,0,0,0,0,0,0,0,0,0,0,0,0,0,0,0,0,0,0,0,0,0,0,0,0,0,0,0,0,0,0,0,0,0,0,0,0,0,0,0,0,0,0,0,0,0,0,0,0,0,0,0,0,0,0,0,0,0,0,0,0,0,0,0,0,0,0,0,0,0,0,0,0,0,0,0,0,0,0,0,0,0,0],"sum_hessian":[1.088E3,8.77E2,2.11E2,3.6E1,8.41E2,7E1,1.41E2,4.2E2,4.21E2,4.5E1,9.6E1,3.15E2,1.05E2,3.15E2,1.06E2,1.55E2,1.6E2,6.9E1,3.6E1,1.05E2,2.1E2,3.5E1,7.1E1,4.8E1,1.07E2,5.4E1,1.06E2,2.5E1,1.1E1,3.3E1,7.2E1,7E1,1.4E2,3.5E1,3.6E1,1.6E1,3.2E1,1.8E1,3.6E1,3.6E1,7E1,1.2E1,1.3E1,2.5E1,8E0,2.4E1,4.8E1,3.5E1,3.5E1,7E1,7E1,2.3E1,1.2E1,2E1,1.6E1,2.3E1,1.3E1,4.3E1,2.7E1,1.1E1,1.4E1,1.2E1,1.2E1,2.6E1,2.2E1,2.3E1,1.2E1,1.1E1,2.4E1,3.5E1,3.5E1,3.5E1,3.5E1,1.1E1,1.2E1,8E0,8E0,1.1E1,1.2E1,3.5E1,8E0,1.4E1,1.3E1,1.4E1,1.2E1,1.1E1,1.1E1,1.1E1,1.2E1,1.2E1,1.2E1,2.3E1,1.2E1,1.7E1,1.8E1,8E0,2.7E1],"tree_param":{"num_deleted":"0","num_feature":"11","num_nodes":"97","size_leaf_vector":"1"}},{"base_weights":[6.239692E-5,1.2488579E-2,-6.278062E-4,8.917461E-4,9.783143E-3,1.9999499E-2,-1.158313E-3,1.6661398E-2,2.3447957E-2,-4.855038E-3,9.28626E-3,3.9023398E-3,1.8529307E-2,2.5045991E-2,1.4650869E-2,4.5311027E-3,-8.79822E-3,3.090508E-4,6.141514E-3,-5.0988514E-3,1.9414545E-4,1.9616015E-2,6.136442E-5,2.8239517E-2,1.9464703E-2,1.78821E-2,1.0177679E-2,2.089615E-3,9.862625E-3,-1.0708071E-2,-6.120088E-3,1.1892218E-2,2.1611946E-3,-1.7414244E-5,-9.5240044E-5,1.4666228E-2,2.597926E-4,2.2168923E-2,3.3214126E-2,2.3927515E-2,9.692789E-3,2.5775714E-4,1.4117546E-4,8.206125E-5,1.5026177E-4,4.17945E-3,-7.576776E-5,1.6466658E-4,7.4786E-5,-1.2433286E-2,-8.028685E-3,-9.356518E-3,-2.2897352E-3,1.6398728E-4,1.0304809E-4,4.0493556E-3,-1.0886547E-3,9.453215E-5,1.5709069E-2,2.0220417E-4,3.9514343E-4,4.599728E-4,3.5411553E-4,3.542031E-4,1.4736143E-2,3.2219377E-5,1.6027503E-4,2.3078998E-3,1.4044899E-4,-1.0274663E-2,-1.5940234E-2,-9.871381E-3,-5.2033615E-6,-1.329865E-4,-6.8337847E-3,-7.4489966E-5,-1.0829086E-3,2.2150516E-3,9.486643E-5,-2.8558221E-5,-1.4810882E-6,2.0420144E-4,1.268859E-4,1.2113851E-4,2.0848349E-4,7.245961E-5,-8.555738E-6,-1.4478175E-4,-9.5463874E-5,-2.2828493E-4,-1.3942165E-4,-1.3279635E-4,-5.6525994E-5,-5.181487E-5,-1.2127225E-4,2.0191228E-5,-5.658474E-5,4.9697457E-5,1.0764572E-5],"categories":[],"categories_nodes":[],"categories_segments":[],"categories_sizes":[],"default_left":[0,0,0,0,0,0,0,0,0,0,0,0,0,0,0,0,0,0,0,0,0,0,0,0,0,0,0,0,0,0,0,0,0,0,0,0,0,0,0,0,0,0,0,0,0,0,0,0,0,0,0,0,0,0,0,0,0,0,0,0,0,0,0,0,0,0,0,0,0,0,0,0,0,0,0,0,0,0,0,0,0,0,0,0,0,0,0,0,0,0,0,0,0,0,0,0,0,0,0],"id":13,"left_children":[1,3,-1,-1,5,7,9,11,13,15,17,19,21,23,25,27,29,-1,31,33,-1,35,-1,37,39,41,43,45,47,49,51,53,55,-1,-1,57,-1,59,61,63,65,-1,-1,-1,-1,67,-1,-1,-1,69,71,73,75,-1,-1,77,79,-1,81,-1,-1,-1,-1,-1,83,-1,-1,85,-1,87,89,91,-1,-1,93,-1,95,97,-1,-1,-1,-1,-1,-1,-1,-1,-1,-1,-1,-1,-1,-1,-1,-1,-1,-1,-1,-1,-1],"loss_changes":[7.038448E-1,1.4506036E-1,0E0,0E0,9.425523E-2,4.628256E-3,1.579826E-2,5.2900575E-3,2.6133582E-3,1.1217264E-2,5.323449E-3,3.3663614E-3,2.7654916E-3,2.6229993E-3,3.238879E-4,1.1509074E-3,1.0239258E-3,0E0,2.0572557E-3,1.7182447E-4,0E0,1.37043E-3,0E0,2.6157573E-3,2.7335696E-3,1.5689107E-4,4.5491848E-5,1.1267895E-3,3.0283816E-4,4.6874583E-4,1.1066734E-3,9.315973E-5,3.4190153E-4,0E0,0E0,2.5537517E-4,0E0,2.4867319E-3,3.4943223E-6,1.8438008E-3,5.4156967E-4,0E0,0E0,0E0,0E0,6.8356376E-4,0E0,0E0,0E0,3.88843E-4,7.098012E-4,1.2851134E-4,1.943729E-4,0E0,0E0,2.266221E-4,2.5567664E-5,0E0,1.0116957E-4,0E0,0E0,0E0,0E0,0E0,5.2290503E-5,0E0,0E0,4.7140042E-4,0E0,9.984011E-5,1.1980347E-4,1.865481E-4,0E0,0E0,1.3629941E-4,0E0,3.448238E-4,5.9153535E-5,0E0,0E0,0E0,0E0,0E0,0E0,0E0,0E0,0E0,0E0,0E0,0E0,0E0,0E0,0E0,0E0,0E0,0E0,0E0,0E0,0E0],"parents":[2147483647,0,0,1,1,4,4,5,5,6,6,7,7,8,8,9,9,10,10,11,11,12,12,13,13,14,14,15,15,16,16,18,18,19,19,21,21,23,23,24,24,25,25,26,26,27,27,28,28,29,29,30,30,31,31,32,32,35,35,37,37,38,38,39,39,40,40,45,45,49,49,50,50,51,51,52,52,55,55,56,56,58,58,64,64,67,67,69,69,70,70,71,71,74,74,76,76,77,77],"right_children":[2,4,-1,-1,6,8,10,12,14,16,18,20,22,24,26,28,30,-1,32,34,-1,36,-1,38,40,42,44,46,48,50,52,54,56,-1,-1,58,-1,60,62,64,66,-1,-1,-1,-1,68,-1,-1,-1,70,72,74,76,-1,-1,78,80,-1,82,-1,-1,-1,-1,-1,84,-1,-1,86,-1,88,90,92,-1,-1,94,-1,96,98,-1,-1,-1,-1,-1,-1,-1,-1,-1,-1,-1,-1,-1,-1,-1,-1,-1,-1,-1,-1,-1],"split_conditions":[3.1880064E0,8.326121E-1,-6.278062E-4,8.917461E-4,1.7885878E0,1.4050951E0,2.7778301E0,6.761534E3,1.6334534E0,1.9733926E0,2.7844307E0,1.1131696E0,1.4023714E0,4.1219185E6,6.582717E5,9.0054077E-1,8.27695E-1,3.090508E-4,6.9196856E5,1.6279653E5,1.9414545E-4,3.5628305E6,6.136442E-5,1.6171806E0,7.6420426E-1,1.7848761E0,4.982113E6,8.27695E-1,1.7960024E0,4.771122E6,2.985309E5,2.8042228E0,4.0669938E6,-1.7414244E-5,-9.5240044E-5,8.3524334E-1,2.597926E-4,4.5466028E5,1.623699E0,1.6204413E0,7.6755E-1,2.5775714E-4,1.4117546E-4,8.206125E-5,1.5026177E-4,7.6755E-1,-7.576776E-5,1.6466658E-4,7.4786E-5,1.0608942E6,7.127676E-1,2.0877712E0,1.9857203E0,1.6398728E-4,1.0304809E-4,3.240494E6,2.7976272E0,9.453215E-5,3.1124982E6,2.0220417E-4,3.9514343E-4,4.599728E-4,3.5411553E-4,3.542031E-4,1.6269536E0,3.2219377E-5,1.6027503E-4,7.082404E-1,1.4044899E-4,2.0877712E0,1.1644444E6,5.9251655E6,-5.2033615E-6,-1.329865E-4,2.1060925E0,-7.4489966E-5,2.0969372E0,2.7976272E0,9.486643E-5,-2.8558221E-5,-1.4810882E-6,2.0420144E-4,1.268859E-4,1.2113851E-4,2.0848349E-4,7.245961E-5,-8.555738E-6,-1.4478175E-4,-9.5463874E-5,-2.2828493E-4,-1.3942165E-4,-1.3279635E-4,-5.6525994E-5,-5.181487E-5,-1.2127225E-4,2.0191228E-5,-5.658474E-5,4.9697457E-5,1.0764572E-5],"split_indices":[0,0,0,0,0,0,0,7,0,0,0,0,0,5,7,3,3,0,7,5,0,5,0,0,3,0,5,3,0,5,7,0,5,0,0,0,0,7,0,0,3,0,0,0,0,3,0,0,0,7,3,0,0,0,0,5,0,0,5,0,0,0,0,0,0,0,0,3,0,0,7,5,0,0,0,0,0,0,0,0,0,0,0,0,0,0,0,0,0,0,0,0,0,0,0,0,0,0,0],"split_type":[0,0,0,0,0,0,0,0,0,0,0,0,0,0,0,0,0,0,0,0,0,0,0,0,0,0,0,0,0,0,0,0,0,0,0,0,0,0,0,0,0,0,0,0,0,0,0,0,0,0,0,0,0,0,0,0,0,0,0,0,0,0,0,0,0,0,0,0,0,0,0,0,0,0,0,0,0,0,0,0,0,0,0,0,0,0,0,0,0,0,0,0,0,0,0,0,0,0,0],"sum_hessian":[1.087E3,8.78E2,2.09E2,3.6E1,8.42E2,4.35E2,4.07E2,2.24E2,2.11E2,3.01E2,1.06E2,2.9E1,1.95E2,1.77E2,3.4E1,8.9E1,2.12E2,1.6E1,9E1,1.7E1,1.2E1,1.8E2,1.5E1,1.1E2,6.7E1,1.8E1,1.6E1,6.2E1,2.7E1,1.22E2,9E1,3.6E1,5.4E1,8E0,9E0,5.2E1,1.28E2,5.2E1,5.8E1,4.5E1,2.2E1,1E1,8E0,8E0,8E0,5E1,1.2E1,1.2E1,1.5E1,7.2E1,5E1,4.8E1,4.2E1,2.2E1,1.4E1,3.4E1,2E1,8E0,4.4E1,3.6E1,1.6E1,2.2E1,3.6E1,2.7E1,1.8E1,8E0,1.4E1,4.1E1,9E0,4.7E1,2.5E1,4E1,1E1,2.7E1,2.1E1,9E0,3.3E1,2.4E1,1E1,8E0,1.2E1,3.4E1,1E1,8E0,1E1,1.8E1,2.3E1,2.5E1,2.2E1,1.3E1,1.2E1,3.2E1,8E0,1.3E1,8E0,1.9E1,1.4E1,9E0,1.5E1],"tree_param":{"num_deleted":"0","num_feature":"11","num_nodes":"99","size_leaf_vector":"1"}},{"base_weights":[2.5837653E-5,1.2360549E-2,-6.19249E-4,8.8126084E-4,9.68137E-3,1.9950412E-2,-6.1066786E-4,1.8053632E-2,2.5631212E-2,-3.93465E-3,9.180595E-3,1.3344166E-2,2.3012837E-2,3.0396646E-2,1.4601604E-2,5.827087E-3,-8.773739E-3,1.2017612E-2,2.7358918E-3,8.30893E-3,1.5901042E-2,1.9828975E-2,2.4533834E-2,3.820341E-4,2.2362937E-4,7.664995E-5,1.6990744E-2,1.1325296E-2,3.3707388E-3,-6.266573E-3,-1.0622785E-2,1.4503698E-2,9.139535E-3,5.1312433E-3,-3.3786641E-6,-4.526286E-3,1.4678042E-2,1.7029254E-2,9.299975E-5,2.6629705E-4,9.298693E-5,3.0643606E-4,1.7628049E-4,2.6783135E-4,8.4791354E-5,9.284801E-5,1.65939E-4,-1.2721156E-4,5.456939E-3,-9.419993E-3,-2.288216E-3,-1.2443401E-2,-8.778048E-3,1.342177E-4,1.9903116E-4,5.3735008E-3,1.6612414E-4,2.4652122E-6,1.1535323E-4,-1.1959155E-5,-1.056077E-4,1.6175337E-2,9.534617E-5,1.7550053E-2,1.3108843E-4,1.5047297E-4,3.6383322E-3,-1.1591225E-2,-6.2727877E-3,-7.061238E-4,-4.1662157E-3,-1.0403825E-2,-2.3438089E-4,-6.855059E-3,-1.0318491E-2,1.2523052E-4,2.1539036E-5,1.1724734E-4,2.221473E-4,1.6988144E-4,2.2852313E-4,1.2210311E-5,1.05041516E-4,-1.556158E-4,-9.499132E-5,-1.0937208E-4,-3.5920773E-5,-1.9696581E-5,9.06491E-6,-3.5245088E-5,-6.041536E-5,-1.373713E-4,-9.1729125E-5,-1.1894575E-4,-5.9985014E-5,-1.7678233E-4,-1.0095736E-4],"categories":[],"categories_nodes":[],"categories_segments":[],"categories_sizes":[],"default_left":[0,0,0,0,0,0,0,0,0,0,0,0,0,0,0,0,0,0,0,0,0,0,0,0,0,0,0,0,0,0,0,0,0,0,0,0,0,0,0,0,0,0,0,0,0,0,0,0,0,0,0,0,0,0,0,0,0,0,0,0,0,0,0,0,0,0,0,0,0,0,0,0,0,0,0,0,0,0,0,0,0,0,0,0,0,0,0,0,0,0,0,0,0,0,0,0,0],"id":14,"left_children":[1,3,-1,-1,5,7,9,11,13,15,17,19,21,23,25,27,29,31,33,35,37,39,41,-1,-1,-1,43,45,47,49,51,53,55,57,-1,59,61,63,-1,-1,-1,-1,-1,-1,-1,-1,-1,-1,65,67,69,71,73,-1,-1,75,-1,-1,-1,-1,-1,77,-1,79,-1,-1,81,83,85,87,89,91,-1,93,95,-1,-1,-1,-1,-1,-1,-1,-1,-1,-1,-1,-1,-1,-1,-1,-1,-1,-1,-1,-1,-1,-1],"loss_changes":[6.8802726E-1,1.4159507E-1,0E0,0E0,8.8896945E-2,4.0736347E-3,1.3737981E-2,7.143222E-3,4.969932E-3,1.4931068E-2,1.923481E-3,2.0050444E-3,2.5928766E-4,4.4192374E-4,5.433769E-4,1.3799048E-3,9.11599E-4,3.969241E-4,2.470206E-4,4.8078755E-3,8.780062E-4,1.3032779E-3,4.491806E-4,0E0,0E0,0E0,1.1341898E-3,1.7492194E-4,2.2029027E-3,1.1326245E-3,2.937978E-4,7.088017E-5,5.680977E-4,4.1129318E-4,0E0,2.893275E-4,2.6877504E-4,1.15480274E-4,0E0,0E0,0E0,0E0,0E0,0E0,0E0,0E0,0E0,0E0,7.8151945E-4,2.7578976E-4,1.2184722E-4,6.2053837E-4,1.1588819E-4,0E0,0E0,3.7570554E-4,0E0,0E0,0E0,0E0,0E0,2.64558E-4,0E0,1.4266185E-4,0E0,0E0,6.951085E-4,3.789831E-5,1.8394593E-4,3.3507324E-5,5.2011455E-6,4.1118823E-5,0E0,1.2631237E-4,1.5718793E-4,0E0,0E0,0E0,0E0,0E0,0E0,0E0,0E0,0E0,0E0,0E0,0E0,0E0,0E0,0E0,0E0,0E0,0E0,0E0,0E0,0E0,0E0],"parents":[2147483647,0,0,1,1,4,4,5,5,6,6,7,7,8,8,9,9,10,10,11,11,12,12,13,13,14,14,15,15,16,16,17,17,18,18,19,19,20,20,21,21,22,22,26,26,27,27,28,28,29,29,30,30,31,31,32,32,33,33,35,35,36,36,37,37,48,48,49,49,50,50,51,51,52,52,55,55,61,61,63,63,66,66,67,67,68,68,69,69,70,70,71,71,73,73,74,74],"right_children":[2,4,-1,-1,6,8,10,12,14,16,18,20,22,24,26,28,30,32,34,36,38,40,42,-1,-1,-1,44,46,48,50,52,54,56,58,-1,60,62,64,-1,-1,-1,-1,-1,-1,-1,-1,-1,-1,66,68,70,72,74,-1,-1,76,-1,-1,-1,-1,-1,78,-1,80,-1,-1,82,84,86,88,90,92,-1,94,96,-1,-1,-1,-1,-1,-1,-1,-1,-1,-1,-1,-1,-1,-1,-1,-1,-1,-1,-1,-1,-1,-1],"split_conditions":[1.4E1,2E0,-6.19249E-4,8.8126084E-4,6E0,5E0,1.2E1,2.9518154E-1,9.799361E5,7E0,3.2821563E-1,1.8644114E-1,3.2821563E-1,3.3086744E-1,2.9917338E-1,1.9346604E-1,2.5491065E-1,2.512381E-1,3.5437748E-1,3E0,5.633954E5,8E-1,4.198364E6,3.820341E-4,2.2362937E-4,7.664995E-5,3.5437748E-1,7.724553E3,2.5246918E-1,2.985309E5,1.1644444E6,2E-1,8.9501575E5,3.3086744E-1,-3.3786641E-6,3.1599326E3,7.724553E3,2.4986318E6,9.299975E-5,2.6629705E-4,9.298693E-5,3.0643606E-4,1.7628049E-4,2.6783135E-4,8.4791354E-5,9.284801E-5,1.65939E-4,-1.2721156E-4,6.706507E5,8E0,2.512381E-1,1.069095E6,3.3086744E-1,1.342177E-4,1.9903116E-4,6.967858E5,1.6612414E-4,2.4652122E-6,1.1535323E-4,-1.1959155E-5,-1.056077E-4,9.751039E2,9.534617E-5,1.9173731E-1,1.3108843E-4,1.5047297E-4,1.4819126E6,1.8644114E-1,2.0082025E4,1.9346604E-1,8E0,2.7329388E6,-2.3438089E-4,2.9917338E-1,1E0,1.2523052E-4,2.1539036E-5,1.1724734E-4,2.221473E-4,1.6988144E-4,2.2852313E-4,1.2210311E-5,1.05041516E-4,-1.556158E-4,-9.499132E-5,-1.0937208E-4,-3.5920773E-5,-1.9696581E-5,9.06491E-6,-3.5245088E-5,-6.041536E-5,-1.373713E-4,-9.1729125E-5,-1.1894575E-4,-5.9985014E-5,-1.7678233E-4,-1.0095736E-4],"split_indices":[9,9,0,0,9,9,9,4,7,9,4,4,4,4,4,4,4,4,4,9,7,2,6,0,0,0,4,7,4,7,7,2,7,4,0,7,7,6,0,0,0,0,0,0,0,0,0,0,7,9,4,7,4,0,0,7,0,0,0,0,0,7,0,4,0,0,7,4,6,4,9,6,0,4,2,0,0,0,0,0,0,0,0,0,0,0,0,0,0,0,0,0,0,0,0,0,0],"split_type":[0,0,0,0,0,0,0,0,0,0,0,0,0,0,0,0,0,0,0,0,0,0,0,0,0,0,0,0,0,0,0,0,0,0,0,0,0,0,0,0,0,0,0,0,0,0,0,0,0,0,0,0,0,0,0,0,0,0,0,0,0,0,0,0,0,0,0,0,0,0,0,0,0,0,0,0,0,0,0,0,0,0,0,0,0,0,0,0,0,0,0,0,0,0,0,0,0],"sum_hessian":[1.086E3,8.76E2,2.1E2,3.6E1,8.4E2,4.2E2,4.2E2,3.18E2,1.02E2,3.14E2,1.06E2,1.65E2,1.53E2,7E1,3.2E1,1.04E2,2.1E2,7.3E1,3.3E1,5.7E1,1.08E2,5.4E1,9.9E1,6.2E1,8E0,8E0,2.4E1,3.1E1,7.3E1,9.1E1,1.19E2,3.7E1,3.6E1,1.8E1,1.5E1,1.9E1,3.8E1,9.4E1,1.4E1,4.5E1,9E0,9E1,9E0,1.5E1,9E0,1.4E1,1.7E1,9E0,6.4E1,5E1,4.1E1,5.7E1,6.2E1,1.6E1,2.1E1,2.1E1,1.5E1,9E0,9E0,1.1E1,8E0,3E1,8E0,8.5E1,9E0,1.2E1,5.2E1,2.8E1,2.2E1,2.3E1,1.8E1,4.6E1,1.1E1,3E1,3.2E1,8E0,1.3E1,9E0,2.1E1,2.7E1,5.8E1,3.5E1,1.7E1,1.9E1,9E0,1.1E1,1.1E1,1.4E1,9E0,9E0,9E0,3.2E1,1.4E1,1E1,2E1,8E0,2.4E1],"tree_param":{"num_deleted":"0","num_feature":"11","num_nodes":"97","size_leaf_vector":"1"}},{"base_weights":[6.262035E-5,-5.9848507E-3,1.807238E-2,-1.3683819E-3,-1.3634409E-2,1.0619342E-2,3.3191707E-2,-5.3163716E-3,1.3204648E-2,-3.0147683E-2,-1.9724194E-3,1.9076861E-2,1.4799952E-3,2.6492463E-4,3.51533E-2,-2.4582748E-3,-5.428597E-4,2.8006496E-2,7.22918E-3,-4.2153187E-2,-6.5429034E-3,-4.3952897E-2,1.1028537E-2,2.8666373E-2,1.2845381E-2,-1.5498578E-2,7.888849E-3,3.9800122E-2,2.7273934E-2,-7.2979713E-3,1.3002294E-2,3.719874E-2,1.5006014E-4,-2.0279078E-4,2.0049917E-2,-2.9505216E-2,-5.1024478E-2,6.785263E-4,-1.3795176E-2,-3.633279E-4,-6.3746434E-4,3.3018382E-3,2.0571342E-2,2.0277763E-2,3.554623E-2,8.5087605E-3,2.6290969E-4,-2.5877202E-4,-5.4205208E-5,1.7575648E-3,2.3293647E-4,4.704324E-2,6.7681976E-5,2.0761697E-2,4.697754E-4,-2.6384345E-3,-2.0921294E-2,9.584518E-3,1.7225936E-2,5.254999E-4,3.0674462E-4,1.8635619E-4,-3.4681275E-3,3.3131827E-4,6.65084E-5,-5.9326773E-4,1.2606723E-4,-4.9095653E-4,-7.218213E-4,1.3244682E-4,-8.113375E-5,-1.1854019E-4,-1.9094157E-4,-2.5544735E-3,1.020516E-2,1.5919609E-4,2.1908693E-2,2.946784E-4,1.8217E-4,6.5417803E-4,2.0674228E-4,1.2053399E-2,1.6010465E-5,1.2194108E-2,-7.4476427E-3,3.667865E-2,6.897883E-4,1.8430587E-4,3.1238145E-4,-4.107461E-3,1.3667434E-2,-2.898202E-2,4.1869993E-4,1.7233359E-2,2.4128929E-3,1.9576753E-2,1.0212679E-4,1.6752224E-3,-8.453835E-3,3.785491E-4,-1.2281707E-4,-3.2074219E-3,2.2374703E-2,2.3072977E-2,1.6811925E-4,1.4883354E-2,5.34791E-5,7.129321E-5,2.2390949E-4,-2.0241205E-4,4.747564E-6,5.6749507E-4,2.1453881E-4,-2.2899688E-3,-1.3464139E-2,2.461837E-4,5.679715E-5,-5.380334E-4,-1.4586328E-2,-6.956391E-5,9.4102434E-5,1.35652E-4,2.3444976E-4,-7.929155E-5,6.3306345E-3,2.7972966E-4,1.747814E-4,8.355582E-5,-3.9477705E-5,-4.4395445E-5,-1.558933E-4,-2.560904E-3,7.52038E-5,-8.00678E-5,1.1442546E-5,1.7172255E-4,3.609451E-4,2.0550385E-4,3.1887132E-4,2.5099237E-4,1.1152469E-4,-5.584706E-5,1.0284641E-4,-4.856001E-4,-1.5249399E-5,-5.7327555E-4,1.3768808E-4,2.1429342E-4,-3.3213353E-5,5.042249E-5,-1.1690204E-4],"categories":[],"categories_nodes":[],"categories_segments":[],"categories_sizes":[],"default_left":[0,0,0,0,0,0,0,0,0,0,0,0,0,0,0,0,0,0,0,0,0,0,0,0,0,0,0,0,0,0,0,0,0,0,0,0,0,0,0,0,0,0,0,0,0,0,0,0,0,0,0,0,0,0,0,0,0,0,0,0,0,0,0,0,0,0,0,0,0,0,0,0,0,0,0,0,0,0,0,0,0,0,0,0,0,0,0,0,0,0,0,0,0,0,0,0,0,0,0,0,0,0,0,0,0,0,0,0,0,0,0,0,0,0,0,0,0,0,0,0,0,0,0,0,0,0,0,0,0,0,0,0,0,0,0,0,0,0,0,0,0,0,0,0,0,0,0,0,0,0,0],"id":15,"left_children":[1,3,5,7,9,11,13,15,17,19,21,23,25,-1,27,29,-1,31,33,35,37,39,41,43,45,47,49,51,53,55,57,59,-1,61,63,65,67,69,71,-1,-1,73,75,77,79,81,-1,-1,-1,83,-1,85,-1,87,-1,89,91,93,95,-1,-1,-1,97,-1,-1,-1,-1,-1,-1,-1,-1,-1,-1,99,101,-1,103,-1,-1,-1,-1,105,-1,107,109,111,-1,-1,-1,113,115,117,119,121,123,125,-1,127,129,131,-1,133,135,137,-1,139,-1,-1,-1,-1,-1,-1,-1,141,143,-1,-1,-1,145,-1,-1,-1,-1,-1,147,-1,-1,-1,-1,-1,-1,149,-1,-1,-1,-1,-1,-1,-1,-1,-1,-1,-1,-1,-1,-1,-1,-1,-1,-1,-1],"loss_changes":[1.1871496E-1,2.8797524E-2,3.0523188E-2,2.9412627E-2,5.9061863E-2,1.4271563E-2,1.2189075E-3,4.539364E-2,9.438366E-3,3.5714403E-2,9.9272065E-2,5.36843E-3,9.915452E-3,0E0,1.6605482E-3,2.822889E-2,0E0,3.980372E-3,7.531449E-3,7.919624E-3,2.3137182E-3,3.6672577E-3,1.0181155E-2,1.4145616E-3,2.133282E-3,1.5324005E-3,4.573805E-3,1.0883525E-2,1.5346259E-3,1.8163092E-2,1.1340901E-3,3.0743144E-4,0E0,2.6553108E-3,2.9565794E-3,2.9455513E-2,1.9185022E-3,1.8216332E-3,2.0845328E-5,0E0,0E0,3.1794533E-3,3.2480247E-4,3.8415194E-5,5.5853073E-3,1.0535344E-3,0E0,0E0,0E0,4.317921E-3,0E0,1.7551407E-3,0E0,2.2254698E-4,0E0,5.2061947E-3,1.2569293E-2,2.8108577E-3,6.390717E-4,0E0,0E0,0E0,1.1168213E-3,0E0,0E0,0E0,0E0,0E0,0E0,0E0,0E0,0E0,0E0,9.6343365E-4,5.9478646E-3,0E0,1.538638E-4,0E0,0E0,0E0,0E0,5.385736E-4,0E0,7.2799646E-4,1.7569105E-3,3.25243E-3,0E0,0E0,0E0,3.3362934E-3,9.863903E-4,1.1206958E-2,1.0003005E-3,1.0774657E-4,1.0259771E-3,2.1299627E-4,0E0,5.9218134E-4,4.201854E-4,5.656842E-4,0E0,2.6186978E-4,7.3800795E-4,4.1577965E-4,0E0,4.740134E-4,0E0,0E0,0E0,0E0,0E0,0E0,0E0,4.2442596E-3,1.038225E-2,0E0,0E0,0E0,2.529148E-2,0E0,0E0,0E0,0E0,0E0,2.1191016E-3,0E0,0E0,0E0,0E0,0E0,0E0,1.0939762E-3,0E0,0E0,0E0,0E0,0E0,0E0,0E0,0E0,0E0,0E0,0E0,0E0,0E0,0E0,0E0,0E0,0E0,0E0,0E0],"parents":[2147483647,0,0,1,1,2,2,3,3,4,4,5,5,6,6,7,7,8,8,9,9,10,10,11,11,12,12,14,14,15,15,17,17,18,18,19,19,20,20,21,21,22,22,23,23,24,24,25,25,26,26,27,27,28,28,29,29,30,30,31,31,33,33,34,34,35,35,