{"learner":{"attributes":{"scikit_learn":"{\"_estimator_type\": \"regressor\"}"},"feature_names":["T1","mu","beta","tmdi frequency ratio","tmdi damping ratio","tmdi_1 stiffness","tmdi_2 stiffness","tmdi_1 damping","tmdi_2 damping","No.story","tmdi configuration"],"feature_types":["float","float","float","float","float","float","float","float","float","float","int"],"gradient_booster":{"model":{"gbtree_model_param":{"num_parallel_tree":"1","num_trees":"400"},"iteration_indptr":[0,1,2,3,4,5,6,7,8,9,10,11,12,13,14,15,16,17,18,19,20,21,22,23,24,25,26,27,28,29,30,31,32,33,34,35,36,37,38,39,40,41,42,43,44,45,46,47,48,49,50,51,52,53,54,55,56,57,58,59,60,61,62,63,64,65,66,67,68,69,70,71,72,73,74,75,76,77,78,79,80,81,82,83,84,85,86,87,88,89,90,91,92,93,94,95,96,97,98,99,100,101,102,103,104,105,106,107,108,109,110,111,112,113,114,115,116,117,118,119,120,121,122,123,124,125,126,127,128,129,130,131,132,133,134,135,136,137,138,139,140,141,142,143,144,145,146,147,148,149,150,151,152,153,154,155,156,157,158,159,160,161,162,163,164,165,166,167,168,169,170,171,172,173,174,175,176,177,178,179,180,181,182,183,184,185,186,187,188,189,190,191,192,193,194,195,196,197,198,199,200,201,202,203,204,205,206,207,208,209,210,211,212,213,214,215,216,217,218,219,220,221,222,223,224,225,226,227,228,229,230,231,232,233,234,235,236,237,238,239,240,241,242,243,244,245,246,247,248,249,250,251,252,253,254,255,256,257,258,259,260,261,262,263,264,265,266,267,268,269,270,271,272,273,274,275,276,277,278,279,280,281,282,283,284,285,286,287,288,289,290,291,292,293,294,295,296,297,298,299,300,301,302,303,304,305,306,307,308,309,310,311,312,313,314,315,316,317,318,319,320,321,322,323,324,325,326,327,328,329,330,331,332,333,334,335,336,337,338,339,340,341,342,343,344,345,346,347,348,349,350,351,352,353,354,355,356,357,358,359,360,361,362,363,364,365,366,367,368,369,370,371,372,373,374,375,376,377,378,379,380,381,382,383,384,385,386,387,388,389,390,391,392,393,394,395,396,397,398,399,400],"tree_info":[0,0,0,0,0,0,0,0,0,0,0,0,0,0,0,0,0,0,0,0,0,0,0,0,0,0,0,0,0,0,0,0,0,0,0,0,0,0,0,0,0,0,0,0,0,0,0,0,0,0,0,0,0,0,0,0,0,0,0,0,0,0,0,0,0,0,0,0,0,0,0,0,0,0,0,0,0,0,0,0,0,0,0,0,0,0,0,0,0,0,0,0,0,0,0,0,0,0,0,0,0,0,0,0,0,0,0,0,0,0,0,0,0,0,0,0,0,0,0,0,0,0,0,0,0,0,0,0,0,0,0,0,0,0,0,0,0,0,0,0,0,0,0,0,0,0,0,0,0,0,0,0,0,0,0,0,0,0,0,0,0,0,0,0,0,0,0,0,0,0,0,0,0,0,0,0,0,0,0,0,0,0,0,0,0,0,0,0,0,0,0,0,0,0,0,0,0,0,0,0,0,0,0,0,0,0,0,0,0,0,0,0,0,0,0,0,0,0,0,0,0,0,0,0,0,0,0,0,0,0,0,0,0,0,0,0,0,0,0,0,0,0,0,0,0,0,0,0,0,0,0,0,0,0,0,0,0,0,0,0,0,0,0,0,0,0,0,0,0,0,0,0,0,0,0,0,0,0,0,0,0,0,0,0,0,0,0,0,0,0,0,0,0,0,0,0,0,0,0,0,0,0,0,0,0,0,0,0,0,0,0,0,0,0,0,0,0,0,0,0,0,0,0,0,0,0,0,0,0,0,0,0,0,0,0,0,0,0,0,0,0,0,0,0,0,0,0,0,0,0,0,0,0,0,0,0,0,0,0,0,0,0,0,0,0,0,0,0,0,0,0,0,0,0,0,0,0,0,0,0,0,0,0,0,0,0,0,0,0,0,0,0,0,0,0,0,0,0,0,0],"trees":[{"base_weights":[-3.404797E-5,-1.4125695E-2,2.2156347E-2,-1.5882056E-2,2.4883265E-2,1.5744504E-2,1.4341116E-3,-2.1281943E-2,3.3146633E-5,1.0433817E-2,4.5731998E-4,8.4645795E-3,3.6530185E-2,-2.2564217E-2,-7.1166884E-3,-6.694536E-3,1.2226381E-2,6.135749E-5,1.7377132E-4,4.8492877E-3,3.5922546E-2,8.42984E-2,1.3663422E-2,-3.0028697E-2,-1.9189589E-2,8.240993E-3,-2.2959134E-2,-2.7225437E-3,-1.590873E-2,1.54755665E-2,-1.8811727E-2,1.6844446E-3,1.7845321E-2,3.859236E-2,1.0749677E-5,1.2765228E-3,8.1517734E-4,2.1220793E-3,3.24528E-2,-2.6463546E-4,-5.275995E-4,-3.104523E-4,-6.467151E-5,4.0148392E-5,2.8131515E-4,-1.2703145E-4,-3.1992057E-4,2.131507E-4,-7.173436E-5,-6.1706145E-5,-2.62935E-4,7.236042E-5,2.4753064E-4,7.55076E-5,-4.916046E-4,-3.6411166E-5,1.501655E-4,1.3670065E-4,5.8879436E-4,5.506202E-4,2.4058216E-4,-2.9282914E-5,2.1013724E-4,2.1973194E-4,4.7981695E-4],"categories":[],"categories_nodes":[],"categories_segments":[],"categories_sizes":[],"default_left":[0,0,0,0,0,0,0,0,0,0,0,0,0,0,0,0,0,0,0,0,0,0,0,0,0,0,0,0,0,0,0,0,0,0,0,0,0,0,0,0,0,0,0,0,0,0,0,0,0,0,0,0,0,0,0,0,0,0,0,0,0,0,0,0,0],"id":0,"left_children":[1,3,5,7,9,11,-1,13,15,17,-1,19,21,23,25,27,29,-1,-1,31,33,35,37,39,41,43,45,47,49,51,53,55,57,59,-1,-1,-1,61,63,-1,-1,-1,-1,-1,-1,-1,-1,-1,-1,-1,-1,-1,-1,-1,-1,-1,-1,-1,-1,-1,-1,-1,-1,-1,-1],"loss_changes":[2.801788E-1,3.7940763E-2,1.8997774E-1,4.5119345E-2,2.9612062E-3,4.8869193E-2,0E0,6.9596022E-3,1.1074166E-2,1.0947033E-4,0E0,2.3848789E-2,9.060177E-2,8.466929E-3,8.461515E-3,3.1407753E-3,5.1318533E-3,0E0,0E0,8.812979E-3,2.5935732E-3,1.433894E-3,1.2508702E-2,1.000037E-2,1.4929056E-2,1.1522524E-3,3.0267984E-5,3.2109355E-3,1.0505589E-3,1.298923E-3,2.4441169E-3,7.4511236E-3,7.946964E-3,7.892251E-4,0E0,0E0,0E0,2.2309572E-3,6.958153E-4,0E0,0E0,0E0,0E0,0E0,0E0,0E0,0E0,0E0,0E0,0E0,0E0,0E0,0E0,0E0,0E0,0E0,0E0,0E0,0E0,0E0,0E0,0E0,0E0,0E0,0E0],"parents":[2147483647,0,0,1,1,2,2,3,3,4,4,5,5,7,7,8,8,9,9,11,11,12,12,13,13,14,14,15,15,16,16,19,19,20,20,21,21,22,22,23,23,24,24,25,25,26,26,27,27,28,28,29,29,30,30,31,31,32,32,33,33,37,37,38,38],"right_children":[2,4,6,8,10,12,-1,14,16,18,-1,20,22,24,26,28,30,-1,-1,32,34,36,38,40,42,44,46,48,50,52,54,56,58,60,-1,-1,-1,62,64,-1,-1,-1,-1,-1,-1,-1,-1,-1,-1,-1,-1,-1,-1,-1,-1,-1,-1,-1,-1,-1,-1,-1,-1,-1,-1],"split_conditions":[2.0877712E0,8.3869735E6,2.30287E6,1.1067619E5,6.666667E-1,4.4815227E4,1.4341116E-3,7.162753E6,2.9992552E6,8.365562E-1,4.5731998E-4,3.3315163E0,2.8108165E0,1.4023714E0,8.69618E5,1.9733926E0,7.6755E-1,6.135749E-5,1.7377132E-4,4.6354095E6,9.900774E-1,2.7844307E0,3.3151796E0,1.1111435E0,9.0909094E-1,8.378672E-1,6.1257726E-1,4E-3,7.11254E-1,6.6389686E-1,8.3524334E-1,9.0480053E-1,2.7844307E0,4.085441E6,1.0749677E-5,1.2765228E-3,8.1517734E-4,2.0655278E6,3.3233504E0,-2.6463546E-4,-5.275995E-4,-3.104523E-4,-6.467151E-5,4.0148392E-5,2.8131515E-4,-1.2703145E-4,-3.1992057E-4,2.131507E-4,-7.173436E-5,-6.1706145E-5,-2.62935E-4,7.236042E-5,2.4753064E-4,7.55076E-5,-4.916046E-4,-3.6411166E-5,1.501655E-4,1.3670065E-4,5.8879436E-4,5.506202E-4,2.4058216E-4,-2.9282914E-5,2.1013724E-4,2.1973194E-4,4.7981695E-4],"split_indices":[0,5,6,8,3,6,0,5,6,0,0,0,0,0,7,0,3,0,0,5,3,0,0,0,3,0,0,1,3,3,0,3,0,5,0,0,0,5,0,0,0,0,0,0,0,0,0,0,0,0,0,0,0,0,0,0,0,0,0,0,0,0,0,0,0],"split_type":[0,0,0,0,0,0,0,0,0,0,0,0,0,0,0,0,0,0,0,0,0,0,0,0,0,0,0,0,0,0,0,0,0,0,0,0,0,0,0,0,0,0,0,0,0,0,0,0,0,0,0,0,0,0,0,0,0,0,0,0,0,0,0,0,0],"sum_hessian":[8.94E2,5.47E2,3.47E2,5.24E2,2.3E1,3.24E2,2.3E1,3.91E2,1.33E2,1E1,1.3E1,2.41E2,8.3E1,3.58E2,3.3E1,8.6E1,4.7E1,4E0,6E0,2.14E2,2.7E1,2.6E1,5.7E1,1.09E2,2.49E2,1.7E1,1.6E1,6.1E1,2.5E1,4.3E1,4E0,1.73E2,4.1E1,2.5E1,2E0,1.5E1,1.1E1,3.6E1,2.1E1,5.5E1,5.4E1,1.92E2,5.7E1,1.3E1,4E0,2E0,1.4E1,7E0,5.4E1,7E0,1.8E1,1.1E1,3.2E1,2E0,2E0,1.19E2,5.4E1,3.3E1,8E0,2.1E1,4E0,2.8E1,8E0,5E0,1.6E1],"tree_param":{"num_deleted":"0","num_feature":"11","num_nodes":"65","size_leaf_vector":"1"}},{"base_weights":[1.2718146E-3,-3.4507263E-2,2.014617E-2,-4.2805493E-2,-4.7658946E-4,-2.0586706E-3,5.3462304E-2,-3.372085E-2,-7.374087E-2,-6.268315E-3,1.48824835E-2,-7.5932792E-3,8.566485E-3,9.0754755E-2,2.0813933E-2,-1.333276E-2,-4.1602183E-2,-4.694719E-2,-7.730262E-2,-4.173972E-3,-1.0178736E-2,8.344037E-5,2.521468E-4,-1.8072655E-2,-2.4060158E-3,4.801282E-2,-2.85897E-4,-4.7191448E-4,9.347349E-2,8.928052E-3,4.4090122E-2,-7.6655685E-3,-1.6110845E-2,-5.0028767E-2,-2.8369883E-2,-8.519145E-4,-2.6958546E-4,-6.094778E-4,-1.0835546E-3,-3.2450578E-3,-1.5610039E-4,-5.8998445E-5,-1.2600789E-2,-3.713907E-2,-5.518079E-3,2.979966E-3,-1.7454354E-2,6.528363E-2,2.0759488E-2,-6.6728736E-3,1.3939499E-2,1.3681605E-3,9.425178E-4,4.756256E-2,3.657744E-3,6.4474595E-4,2.9493822E-4,-5.3107276E-5,-1.6803302E-4,-1.5281134E-4,-2.730039E-4,-5.1597826E-4,-9.5175166E-4,-1.8839246E-4,-5.3326256E-4,-1.8730196E-5,-8.118681E-5,-1.8895906E-4,-8.7397326E-5,-5.1986723E-4,-1.8755588E-4,1.5240267E-4,-2.7788794E-4,-2.9962835E-5,2.2077937E-4,-5.1489763E-4,-1.9573189E-4,5.287439E-4,1.0113518E-3,3.0937738E-4,9.3352755E-5,-1.16709314E-4,7.048324E-5,3.228625E-5,2.4600181E-4,3.557826E-4,7.555518E-4,-1.116811E-4,1.04899635E-4],"categories":[],"categories_nodes":[],"categories_segments":[],"categories_sizes":[],"default_left":[0,0,0,0,0,0,0,0,0,0,0,0,0,0,0,0,0,0,0,0,0,0,0,0,0,0,0,0,0,0,0,0,0,0,0,0,0,0,0,0,0,0,0,0,0,0,0,0,0,0,0,0,0,0,0,0,0,0,0,0,0,0,0,0,0,0,0,0,0,0,0,0,0,0,0,0,0,0,0,0,0,0,0,0,0,0,0,0,0],"id":1,"left_children":[1,3,5,7,9,11,13,15,17,19,21,23,25,27,29,31,33,35,37,39,41,-1,-1,43,45,47,49,-1,51,53,55,57,59,61,63,-1,-1,-1,-1,65,-1,-1,67,69,71,73,75,77,79,81,83,-1,-1,85,87,-1,-1,-1,-1,-1,-1,-1,-1,-1,-1,-1,-1,-1,-1,-1,-1,-1,-1,-1,-1,-1,-1,-1,-1,-1,-1,-1,-1,-1,-1,-1,-1,-1,-1],"loss_changes":[5.9834194E-1,8.639225E-2,4.291821E-1,6.664845E-2,5.5195764E-3,2.0588368E-2,2.8057986E-1,3.0296892E-2,1.619637E-3,3.260537E-4,4.8208516E-4,1.2459152E-2,4.1917007E-2,4.0412307E-2,3.4188606E-2,7.424187E-4,1.396814E-2,2.8296616E-3,2.6557148E-3,1.8034305E-4,1.5227473E-4,0E0,0E0,1.7987242E-2,1.2614776E-2,8.999862E-3,9.087886E-3,0E0,1.5569806E-2,1.692975E-2,3.045261E-3,3.1541358E-4,5.011549E-4,1.7280549E-2,8.805193E-3,0E0,0E0,0E0,0E0,1.4411405E-4,0E0,0E0,4.725065E-6,8.495115E-4,1.2562803E-2,8.262839E-3,1.7957119E-3,5.763285E-4,1.8630503E-4,1.8006545E-3,1.5945956E-3,0E0,0E0,4.1810237E-4,3.9115264E-3,0E0,0E0,0E0,0E0,0E0,0E0,0E0,0E0,0E0,0E0,0E0,0E0,0E0,0E0,0E0,0E0,0E0,0E0,0E0,0E0,0E0,0E0,0E0,0E0,0E0,0E0,0E0,0E0,0E0,0E0,0E0,0E0,0E0,0E0],"parents":[2147483647,0,0,1,1,2,2,3,3,4,4,5,5,6,6,7,7,8,8,9,9,10,10,11,11,12,12,13,13,14,14,15,15,16,16,17,17,18,18,19,19,20,20,23,23,24,24,25,25,26,26,28,28,29,29,30,30,31,31,32,32,33,33,34,34,39,39,42,42,43,43,44,44,45,45,46,46,47,47,48,48,49,49,50,50,53,53,54,54],"right_children":[2,4,6,8,10,12,14,16,18,20,22,24,26,28,30,32,34,36,38,40,42,-1,-1,44,46,48,50,-1,52,54,56,58,60,62,64,-1,-1,-1,-1,66,-1,-1,68,70,72,74,76,78,80,82,84,-1,-1,86,88,-1,-1,-1,-1,-1,-1,-1,-1,-1,-1,-1,-1,-1,-1,-1,-1,-1,-1,-1,-1,-1,-1,-1,-1,-1,-1,-1,-1,-1,-1,-1,-1,-1,-1],"split_conditions":[1E0,3.1880064E0,2.0877712E0,2.0877712E0,3.3315163E0,2.9917338E-1,2.8108165E0,1.1111435E0,2E-1,1.2E-2,3.3396776E0,1.4023714E0,1.1111435E0,6.5977174E-1,3.3233504E0,6.1257726E-1,1.7848761E0,2.7778301E0,4E-3,9.975049E-1,7.6253927E-1,8.344037E-5,2.521468E-4,1.8999061E-1,1.9733926E0,2.0082025E4,3.01075E6,-4.7191448E-4,2.7844307E0,3.1880064E0,9.0480053E-1,8.314476E-1,7.0540706E5,1.6171806E0,1.9733926E0,-8.519145E-4,-2.6958546E-4,-6.094778E-4,-1.0835546E-3,1.93014E6,-1.5610039E-4,-5.8998445E-5,3.2264843E0,1.5078014E6,1.1111435E0,9.0909094E-1,7.6420426E-1,6.666667E-1,4.5592685E6,7.1428573E-1,6.6389686E-1,1.3681605E-3,9.425178E-4,4.487907E5,1.9586778E5,6.4474595E-4,2.9493822E-4,-5.3107276E-5,-1.6803302E-4,-1.5281134E-4,-2.730039E-4,-5.1597826E-4,-9.5175166E-4,-1.8839246E-4,-5.3326256E-4,-1.8730196E-5,-8.118681E-5,-1.8895906E-4,-8.7397326E-5,-5.1986723E-4,-1.8755588E-4,1.5240267E-4,-2.7788794E-4,-2.9962835E-5,2.2077937E-4,-5.1489763E-4,-1.9573189E-4,5.287439E-4,1.0113518E-3,3.0937738E-4,9.3352755E-5,-1.16709314E-4,7.048324E-5,3.228625E-5,2.4600181E-4,3.557826E-4,7.555518E-4,-1.116811E-4,1.04899635E-4],"split_indices":[10,0,0,0,0,4,0,0,2,1,0,0,0,3,0,0,0,0,1,3,3,0,0,4,0,6,6,0,0,0,3,3,7,0,0,0,0,0,0,7,0,0,0,6,0,3,3,3,6,3,3,0,0,7,7,0,0,0,0,0,0,0,0,0,0,0,0,0,0,0,0,0,0,0,0,0,0,0,0,0,0,0,0,0,0,0,0,0,0],"split_type":[0,0,0,0,0,0,0,0,0,0,0,0,0,0,0,0,0,0,0,0,0,0,0,0,0,0,0,0,0,0,0,0,0,0,0,0,0,0,0,0,0,0,0,0,0,0,0,0,0,0,0,0,0,0,0,0,0,0,0,0,0,0,0,0,0,0,0,0,0,0,0,0,0,0,0,0,0,0,0,0,0,0,0,0,0,0,0,0,0],"sum_hessian":[8.84E2,3.05E2,5.79E2,2.45E2,6E1,3.48E2,2.31E2,1.91E2,5.4E1,4.4E1,1.6E1,2.29E2,1.19E2,1.07E2,1.24E2,5.4E1,1.37E2,8E0,4.6E1,3E1,1.4E1,6E0,1E1,7.5E1,1.54E2,2.1E1,9.8E1,2E0,1.05E2,8.3E1,4.1E1,1.9E1,3.5E1,8.2E1,5.5E1,4E0,4E0,7E0,3.9E1,2.8E1,2E0,5E0,9E0,2.9E1,4.6E1,1.14E2,4E1,1.2E1,9E0,6.8E1,3E1,7.1E1,3.4E1,9E0,7.4E1,3.3E1,8E0,1.2E1,7E0,1.9E1,1.6E1,5.6E1,2.6E1,2.6E1,2.9E1,1.8E1,1E1,6E0,3E0,2.6E1,3E0,2.2E1,2.4E1,8.3E1,3.1E1,3E0,3.7E1,5E0,7E0,7E0,2E0,5.8E1,1E1,9E0,2.1E1,4E0,5E0,1.9E1,5.5E1],"tree_param":{"num_deleted":"0","num_feature":"11","num_nodes":"89","size_leaf_vector":"1"}},{"base_weights":[3.3085348E-4,-3.668469E-2,1.9372242E-2,-4.4774007E-2,-2.0547584E-4,-2.4286306E-3,5.1761843E-2,-3.6763456E-2,-7.355314E-2,-6.2381104E-3,1.8338008E-2,-4.196887E-3,7.7826553E-4,8.504177E-2,1.9694364E-2,-1.69138E-2,-4.3813933E-2,-4.3607946E-2,-7.64481E-2,-3.9300444E-3,-1.0284497E-2,1.121117E-2,2.957102E-4,-6.9174715E-3,1.2323316E-2,9.680807E-2,6.757409E-2,6.1459034E-3,4.5354623E-2,-1.075477E-2,-1.9286495E-2,-5.066568E-2,-3.3084024E-2,-7.59401E-4,-2.5339238E-4,-6.6710904E-4,-1.0793132E-3,-2.9258165E-3,-1.5471924E-4,-3.9911916E-5,-1.573083E-4,5.7120582E-5,1.7403095E-4,-1.6212383E-2,-3.5753688E-3,1.6623149E-2,-1.5850412E-2,1.8500899E-4,1.3157726E-3,1.0635877E-3,5.180128E-2,-4.1788747E-3,1.0829802E-2,6.5927586E-4,3.1836226E-4,-6.650409E-5,-2.030989E-4,-2.7110652E-4,-1.047941E-4,-5.2042794E-4,-9.3874853E-4,-1.2388056E-4,-5.169104E-4,-5.6914187E-6,-7.9778314E-5,-5.081247E-4,-5.0099698E-5,1.8477096E-5,-2.2246547E-4,9.288704E-5,2.670585E-4,1.563703E-4,-5.244957E-4,3.3837586E-4,7.1970007E-4,-1.18987315E-4,5.808354E-5,-1.4765056E-4,1.8164508E-4],"categories":[],"categories_nodes":[],"categories_segments":[],"categories_sizes":[],"default_left":[0,0,0,0,0,0,0,0,0,0,0,0,0,0,0,0,0,0,0,0,0,0,0,0,0,0,0,0,0,0,0,0,0,0,0,0,0,0,0,0,0,0,0,0,0,0,0,0,0,0,0,0,0,0,0,0,0,0,0,0,0,0,0,0,0,0,0,0,0,0,0,0,0,0,0,0,0,0,0],"id":2,"left_children":[1,3,5,7,9,11,13,15,17,19,21,23,-1,25,27,29,31,33,35,37,39,41,-1,43,45,47,49,51,53,55,57,59,61,-1,-1,-1,-1,63,-1,-1,-1,-1,-1,65,67,69,71,-1,-1,-1,73,75,77,-1,-1,-1,-1,-1,-1,-1,-1,-1,-1,-1,-1,-1,-1,-1,-1,-1,-1,-1,-1,-1,-1,-1,-1,-1,-1],"loss_changes":[6.287118E-1,8.940363E-2,4.1603136E-1,5.446905E-2,6.378894E-3,3.836622E-2,2.512523E-1,2.6689023E-2,1.260817E-3,3.6117248E-4,1.4368445E-4,1.55461915E-2,0E0,1.7299771E-2,4.2135414E-2,5.670935E-4,8.910447E-3,1.2434982E-3,1.9146204E-3,1.9095128E-4,1.3558485E-4,3.5524252E-5,0E0,9.137141E-3,6.1994568E-3,1.1583805E-2,5.759552E-3,3.9624344E-3,2.6865676E-3,3.6746217E-4,3.1971093E-4,1.6990662E-2,7.854834E-3,0E0,0E0,0E0,0E0,2.0543899E-4,0E0,0E0,0E0,0E0,0E0,2.127054E-2,1.4370003E-2,1.3074605E-3,5.0442056E-3,0E0,0E0,0E0,2.1407008E-4,1.1040273E-3,3.6651115E-3,0E0,0E0,0E0,0E0,0E0,0E0,0E0,0E0,0E0,0E0,0E0,0E0,0E0,0E0,0E0,0E0,0E0,0E0,0E0,0E0,0E0,0E0,0E0,0E0,0E0,0E0],"parents":[2147483647,0,0,1,1,2,2,3,3,4,4,5,5,6,6,7,7,8,8,9,9,10,10,11,11,13,13,14,14,15,15,16,16,17,17,18,18,19,19,20,20,21,21,23,23,24,24,25,25,26,26,27,27,28,28,29,29,30,30,31,31,32,32,37,37,43,43,44,44,45,45,46,46,50,50,51,51,52,52],"right_children":[2,4,6,8,10,12,14,16,18,20,22,24,-1,26,28,30,32,34,36,38,40,42,-1,44,46,48,50,52,54,56,58,60,62,-1,-1,-1,-1,64,-1,-1,-1,-1,-1,66,68,70,72,-1,-1,-1,74,76,78,-1,-1,-1,-1,-1,-1,-1,-1,-1,-1,-1,-1,-1,-1,-1,-1,-1,-1,-1,-1,-1,-1,-1,-1,-1,-1],"split_conditions":[1E0,3.1880064E0,2.0877712E0,2.0877712E0,3.3315163E0,8.3645025E6,3.1880064E0,1.1111435E0,2.2985298E5,1.2E-2,7.658745E-1,2.946779E6,7.7826553E-4,2.7844307E0,3.3233504E0,6.1257726E-1,1.7848761E0,2.110666E0,4E-3,9.975049E-1,7.0974493E-1,3.3396776E0,2.957102E-4,1.4023714E0,7.658745E-1,3.8691316E-2,7.692308E-1,1.7255859E6,9.0480053E-1,8.314476E-1,8.391764E-1,1.6171806E0,1.7960024E0,-7.59401E-4,-2.5339238E-4,-6.6710904E-4,-1.0793132E-3,3.590854E6,-1.5471924E-4,-3.9911916E-5,-1.573083E-4,5.7120582E-5,1.7403095E-4,1.8999061E-1,1.9733926E0,6.6389686E-1,8.365562E-1,1.8500899E-4,1.3157726E-3,1.0635877E-3,5.2205938E4,3.2264843E0,3.1957097E0,6.5927586E-4,3.1836226E-4,-6.650409E-5,-2.030989E-4,-2.7110652E-4,-1.047941E-4,-5.2042794E-4,-9.3874853E-4,-1.2388056E-4,-5.169104E-4,-5.6914187E-6,-7.9778314E-5,-5.081247E-4,-5.0099698E-5,1.8477096E-5,-2.2246547E-4,9.288704E-5,2.670585E-4,1.563703E-4,-5.244957E-4,3.3837586E-4,7.1970007E-4,-1.18987315E-4,5.808354E-5,-1.4765056E-4,1.8164508E-4],"split_indices":[10,0,0,0,0,5,0,0,5,1,3,6,0,0,0,0,0,0,1,3,3,0,0,0,3,4,3,5,3,3,0,0,0,0,0,0,0,5,0,0,0,0,0,4,0,3,0,0,0,0,5,0,0,0,0,0,0,0,0,0,0,0,0,0,0,0,0,0,0,0,0,0,0,0,0,0,0,0,0],"split_type":[0,0,0,0,0,0,0,0,0,0,0,0,0,0,0,0,0,0,0,0,0,0,0,0,0,0,0,0,0,0,0,0,0,0,0,0,0,0,0,0,0,0,0,0,0,0,0,0,0,0,0,0,0,0,0,0,0,0,0,0,0,0,0,0,0,0,0,0,0,0,0,0,0,0,0,0,0,0,0],"sum_hessian":[8.9E2,3.02E2,5.88E2,2.47E2,5.5E1,3.52E2,2.36E2,1.95E2,5.2E1,4.2E1,1.3E1,3.43E2,9E0,1.15E2,1.21E2,5.2E1,1.43E2,6E0,4.6E1,2.8E1,1.4E1,6E0,7E0,2.95E2,4.8E1,6.6E1,4.9E1,8E1,4.1E1,1.6E1,3.6E1,8.5E1,5.8E1,3E0,3E0,9E0,3.7E1,2.6E1,2E0,3E0,1.1E1,2E0,4E0,7.7E1,2.18E2,4.2E1,6E0,2E0,6.4E1,2.5E1,2.4E1,2.5E1,5.5E1,3.3E1,8E0,8E0,8E0,3.2E1,4E0,5.6E1,2.9E1,1.2E1,4.6E1,1.5E1,1.1E1,2.7E1,5E1,1.59E2,5.9E1,1.2E1,3E1,3E0,3E0,3E0,2.1E1,1.6E1,9E0,6E0,4.9E1],"tree_param":{"num_deleted":"0","num_feature":"11","num_nodes":"79","size_leaf_vector":"1"}},{"base_weights":[-1.0433891E-3,-3.7093602E-2,1.8931331E-2,-4.3698434E-2,-1.0110053E-3,-2.0891107E-3,4.9628217E-2,-3.488585E-2,-7.375386E-2,-5.584623E-3,2.095306E-2,-4.892471E-3,4.6563238E-2,8.3597526E-2,2.0540753E-2,-1.6326882E-2,-4.2397965E-2,-4.5367412E-2,-1.0324424E-3,-8.829201E-3,-3.7138206E-3,3.2018815E-4,1.453904E-4,-6.6424385E-3,1.867851E-2,5.4747812E-2,2.8986497E-5,-4.6937604E-4,8.6151704E-2,9.5192995E-3,4.3964382E-2,-8.8455165E-3,-2.8327818E-4,-4.8158314E-2,-3.2599483E-2,-8.4262167E-4,-3.0129805E-4,-3.7296882E-3,-1.1814465E-2,-4.785777E-3,5.5505745E-5,-2.0414544E-2,-2.1022554E-3,2.0904902E-2,6.482524E-3,6.284559E-2,1.9566144E-4,9.618233E-2,6.960372E-2,4.5267593E-2,4.931771E-3,6.456813E-4,2.9052974E-4,-5.8184243E-5,-2.1222816E-4,-4.7121802E-4,-9.301421E-4,-6.790005E-5,-4.8852415E-4,-6.143983E-5,-1.3096159E-5,-1.8623688E-4,-3.583125E-5,-7.381883E-5,4.0095732E-5,-5.123371E-4,-1.11075686E-4,4.005963E-5,-2.1906613E-4,1.1540327E-4,3.2706393E-4,-8.41075E-5,2.2749459E-4,4.850026E-4,9.3529274E-4,1.1400381E-3,1.4851271E-3,3.3500782E-4,9.5864676E-4,3.0178987E-4,6.857843E-4,-5.390414E-5,1.420624E-4],"categories":[],"categories_nodes":[],"categories_segments":[],"categories_sizes":[],"default_left":[0,0,0,0,0,0,0,0,0,0,0,0,0,0,0,0,0,0,0,0,0,0,0,0,0,0,0,0,0,0,0,0,0,0,0,0,0,0,0,0,0,0,0,0,0,0,0,0,0,0,0,0,0,0,0,0,0,0,0,0,0,0,0,0,0,0,0,0,0,0,0,0,0,0,0,0,0,0,0,0,0,0,0],"id":3,"left_children":[1,3,5,7,9,11,13,15,17,19,21,23,25,27,29,31,33,35,-1,37,39,-1,-1,41,43,45,-1,-1,47,49,51,53,-1,55,57,-1,-1,59,61,63,-1,65,67,69,71,73,-1,75,77,79,81,-1,-1,-1,-1,-1,-1,-1,-1,-1,-1,-1,-1,-1,-1,-1,-1,-1,-1,-1,-1,-1,-1,-1,-1,-1,-1,-1,-1,-1,-1,-1,-1],"loss_changes":[6.523863E-1,7.6933056E-2,3.762915E-1,6.973541E-2,5.2402318E-3,4.7555156E-2,2.3245811E-1,2.900362E-2,3.467232E-3,2.2821839E-4,2.1212734E-5,1.36948135E-2,6.7816786E-3,3.6167502E-2,3.288445E-2,2.1763593E-3,6.9529116E-3,2.6663188E-3,0E0,1.8428674E-4,2.654822E-4,0E0,0E0,1.9153148E-2,4.89003E-4,4.2566583E-3,0E0,0E0,1.106596E-2,1.4372424E-2,3.1772256E-3,7.906535E-4,0E0,2.3312703E-2,6.6394806E-3,0E0,0E0,1.2707998E-5,1.4409644E-4,1.7441314E-4,0E0,1.6328402E-2,1.716239E-2,6.531412E-4,7.918895E-4,3.2827258E-5,0E0,7.314682E-4,3.3105165E-3,2.6811846E-4,4.196737E-3,0E0,0E0,0E0,0E0,0E0,0E0,0E0,0E0,0E0,0E0,0E0,0E0,0E0,0E0,0E0,0E0,0E0,0E0,0E0,0E0,0E0,0E0,0E0,0E0,0E0,0E0,0E0,0E0,0E0,0E0,0E0,0E0],"parents":[2147483647,0,0,1,1,2,2,3,3,4,4,5,5,6,6,7,7,8,8,9,9,10,10,11,11,12,12,13,13,14,14,15,15,16,16,17,17,19,19,20,20,23,23,24,24,25,25,28,28,29,29,30,30,31,31,33,33,34,34,37,37,38,38,39,39,41,41,42,42,43,43,44,44,45,45,47,47,48,48,49,49,50,50],"right_children":[2,4,6,8,10,12,14,16,18,20,22,24,26,28,30,32,34,36,-1,38,40,-1,-1,42,44,46,-1,-1,48,50,52,54,-1,56,58,-1,-1,60,62,64,-1,66,68,70,72,74,-1,76,78,80,82,-1,-1,-1,-1,-1,-1,-1,-1,-1,-1,-1,-1,-1,-1,-1,-1,-1,-1,-1,-1,-1,-1,-1,-1,-1,-1,-1,-1,-1,-1,-1,-1],"split_conditions":[1E0,3.1880064E0,2.0877712E0,2.0877712E0,3.3396776E0,7.3229755E6,2.8108165E0,1.1111435E0,2.2985298E5,8.9501575E5,8E-1,3.5666232E6,1.1111435E0,6.5977174E-1,3.3233504E0,6.1315453E-1,1.7848761E0,2.110666E0,-1.0324424E-3,3.2111053E0,3.3315163E0,3.2018815E-4,1.453904E-4,1.4023714E0,7.377989E5,7.6420426E-1,2.8986497E-5,-4.6937604E-4,2.7844307E0,3.1880064E0,9.0480053E-1,8.314476E-1,-2.8327818E-4,1.6171806E0,1.7922965E0,-8.4262167E-4,-3.0129805E-4,4E-1,3.3233504E0,8.27695E-1,5.5505745E-5,1.8999061E-1,1.9733926E0,8.3524334E-1,1.1192313E0,6.666667E-1,1.9566144E-4,1.1798676E6,5.2205938E4,1.6662341E6,1.7255859E6,6.456813E-4,2.9052974E-4,-5.8184243E-5,-2.1222816E-4,-4.7121802E-4,-9.301421E-4,-6.790005E-5,-4.8852415E-4,-6.143983E-5,-1.3096159E-5,-1.8623688E-4,-3.583125E-5,-7.381883E-5,4.0095732E-5,-5.123371E-4,-1.11075686E-4,4.005963E-5,-2.1906613E-4,1.1540327E-4,3.2706393E-4,-8.41075E-5,2.2749459E-4,4.850026E-4,9.3529274E-4,1.1400381E-3,1.4851271E-3,3.3500782E-4,9.5864676E-4,3.0178987E-4,6.857843E-4,-5.390414E-5,1.420624E-4],"split_indices":[10,0,0,0,0,5,0,0,5,7,2,6,0,3,0,0,0,0,0,0,0,0,0,0,7,3,0,0,0,0,3,3,0,0,0,0,0,2,0,3,0,4,0,0,0,3,0,6,5,5,5,0,0,0,0,0,0,0,0,0,0,0,0,0,0,0,0,0,0,0,0,0,0,0,0,0,0,0,0,0,0,0,0],"split_type":[0,0,0,0,0,0,0,0,0,0,0,0,0,0,0,0,0,0,0,0,0,0,0,0,0,0,0,0,0,0,0,0,0,0,0,0,0,0,0,0,0,0,0,0,0,0,0,0,0,0,0,0,0,0,0,0,0,0,0,0,0,0,0,0,0,0,0,0,0,0,0,0,0,0,0,0,0,0,0,0,0,0,0],"sum_hessian":[9.04E2,3.22E2,5.82E2,2.72E2,5E1,3.46E2,2.36E2,2.12E2,6E1,4.2E1,8E0,3.28E2,1.8E1,1.08E2,1.28E2,6.2E1,1.5E2,9E0,5.1E1,1.4E1,2.8E1,5E0,3E0,3.06E2,2.2E1,1.5E1,3E0,2E0,1.06E2,8.8E1,4E1,2.6E1,3.6E1,9.2E1,5.8E1,4E0,5E0,6E0,8E0,2.5E1,3E0,7.5E1,2.31E2,1.8E1,4E0,1.2E1,3E0,6.3E1,4.3E1,9E0,7.9E1,3.2E1,8E0,1.7E1,9E0,6E1,3.2E1,8E0,5E1,4E0,2E0,6E0,2E0,2.3E1,2E0,2.9E1,4.6E1,1.71E2,6E1,5E0,1.3E1,2E0,2E0,4E0,8E0,4.2E1,2.1E1,3E0,4E1,3E0,6E0,3.1E1,4.8E1],"tree_param":{"num_deleted":"0","num_feature":"11","num_nodes":"83","size_leaf_vector":"1"}},{"base_weights":[-4.2918255E-4,-3.353326E-2,1.8086424E-2,-4.090448E-2,-7.314172E-4,-1.2659321E-3,4.912737E-2,-3.1794485E-2,-6.802237E-2,-5.390272E-3,1.4628493E-2,-2.6968725E-3,7.9714763E-4,8.122229E-2,1.4752291E-2,-1.5520589E-2,-3.9086923E-2,-3.957287E-2,-9.549876E-4,-2.6793692E-3,-1.0305755E-2,8.019932E-5,2.6957196E-4,-5.6873257E-3,1.4090026E-2,-4.6522307E-4,8.36551E-2,3.5574774E-3,4.0529124E-2,-8.019645E-3,-1.9166935E-2,-4.56125E-2,-2.6037186E-2,-6.5795146E-4,-2.6083406E-4,-4.1164174E-3,7.500738E-4,-6.82525E-5,-1.2889233E-2,-1.6120886E-2,-1.375538E-3,8.2745E-3,1.8417012E-2,9.493436E-2,6.7108236E-2,-4.9901647E-3,8.755864E-3,4.5458507E-2,2.662069E-4,-1.1261533E-5,-1.2695539E-4,-3.5956706E-4,-2.260656E-4,-4.4229694E-4,-9.0582034E-4,-1.0155418E-4,-4.4598637E-4,-2.2917686E-5,-6.260993E-5,3.242453E-5,-3.185658E-5,-1.8939514E-4,-6.514078E-5,-4.4909466E-4,-5.608219E-5,5.0291837E-5,-2.1837903E-4,-9.408803E-5,1.3262763E-4,1.009712E-4,2.942587E-4,1.1069733E-3,1.4777663E-3,1.0415984E-3,6.962441E-4,-1.4771918E-4,3.163838E-5,-6.4579755E-5,1.8003037E-4,4.09774E-4,6.702647E-4],"categories":[],"categories_nodes":[],"categories_segments":[],"categories_sizes":[],"default_left":[0,0,0,0,0,0,0,0,0,0,0,0,0,0,0,0,0,0,0,0,0,0,0,0,0,0,0,0,0,0,0,0,0,0,0,0,0,0,0,0,0,0,0,0,0,0,0,0,0,0,0,0,0,0,0,0,0,0,0,0,0,0,0,0,0,0,0,0,0,0,0,0,0,0,0,0,0,0,0,0,0],"id":4,"left_children":[1,3,5,7,9,11,13,15,17,19,21,23,-1,25,27,29,31,33,-1,35,37,-1,-1,39,41,-1,43,45,47,49,51,53,55,-1,-1,57,59,-1,61,63,65,67,69,71,73,75,77,79,-1,-1,-1,-1,-1,-1,-1,-1,-1,-1,-1,-1,-1,-1,-1,-1,-1,-1,-1,-1,-1,-1,-1,-1,-1,-1,-1,-1,-1,-1,-1,-1,-1],"loss_changes":[5.399955E-1,7.637563E-2,3.394664E-1,6.157458E-2,4.3008677E-3,3.079055E-2,2.3821044E-1,2.253525E-2,4.3186843E-3,5.853552E-4,5.6041917E-4,1.7248683E-2,0E0,3.461486E-2,3.0443905E-2,1.5420513E-3,1.0223433E-2,1.0182764E-3,0E0,1.5586411E-4,1.4712638E-4,0E0,0E0,1.306913E-2,1.1561206E-3,0E0,1.4159203E-2,3.376239E-3,2.3171827E-3,2.3585418E-4,2.3165159E-4,2.2202954E-2,6.2822215E-3,0E0,0E0,2.3460685E-5,5.92055E-5,0E0,4.0223124E-5,1.7771743E-2,1.6184546E-2,7.047001E-4,1.00845E-3,2.6299357E-3,3.8802177E-3,1.3396689E-3,3.1451453E-3,2.8008968E-4,0E0,0E0,0E0,0E0,0E0,0E0,0E0,0E0,0E0,0E0,0E0,0E0,0E0,0E0,0E0,0E0,0E0,0E0,0E0,0E0,0E0,0E0,0E0,0E0,0E0,0E0,0E0,0E0,0E0,0E0,0E0,0E0,0E0],"parents":[2147483647,0,0,1,1,2,2,3,3,4,4,5,5,6,6,7,7,8,8,9,9,10,10,11,11,13,13,14,14,15,15,16,16,17,17,19,19,20,20,23,23,24,24,26,26,27,27,28,28,29,29,30,30,31,31,32,32,35,35,36,36,38,38,39,39,40,40,41,41,42,42,43,43,44,44,45,45,46,46,47,47],"right_children":[2,4,6,8,10,12,14,16,18,20,22,24,-1,26,28,30,32,34,-1,36,38,-1,-1,40,42,-1,44,46,48,50,52,54,56,-1,-1,58,60,-1,62,64,66,68,70,72,74,76,78,80,-1,-1,-1,-1,-1,-1,-1,-1,-1,-1,-1,-1,-1,-1,-1,-1,-1,-1,-1,-1,-1,-1,-1,-1,-1,-1,-1,-1,-1,-1,-1,-1,-1],"split_conditions":[1E0,3.1880064E0,2.0877712E0,1.9898236E0,3.3315163E0,8.3645025E6,3.1880064E0,1.1111435E0,2.2985298E5,1.2E-2,3.3396776E0,2.946779E6,7.9714763E-4,6.5977174E-1,3.3233504E0,6.1257726E-1,1.7848761E0,2.7910297E0,-9.549876E-4,3.3151796E0,7.6253927E-1,8.019932E-5,2.6957196E-4,1.4023714E0,3.5666232E6,-4.6522307E-4,2.7844307E0,7.12655E5,9.0480053E-1,7.0674026E-1,1.3834708E5,1.6171806E0,1.7960024E0,-6.5795146E-4,-2.6083406E-4,3.1957097E0,3.5762015E6,-6.82525E-5,3.2264843E0,1.8999061E-1,1.9733926E0,1.1192313E0,6.6527975E-1,1.8719636E6,7.692308E-1,3.218797E0,4E-3,3.3315163E0,2.662069E-4,-1.1261533E-5,-1.2695539E-4,-3.5956706E-4,-2.260656E-4,-4.4229694E-4,-9.0582034E-4,-1.0155418E-4,-4.4598637E-4,-2.2917686E-5,-6.260993E-5,3.242453E-5,-3.185658E-5,-1.8939514E-4,-6.514078E-5,-4.4909466E-4,-5.608219E-5,5.0291837E-5,-2.1837903E-4,-9.408803E-5,1.3262763E-4,1.009712E-4,2.942587E-4,1.1069733E-3,1.4777663E-3,1.0415984E-3,6.962441E-4,-1.4771918E-4,3.163838E-5,-6.4579755E-5,1.8003037E-4,4.09774E-4,6.702647E-4],"split_indices":[10,0,0,0,0,5,0,0,5,1,0,6,0,3,0,0,0,0,0,0,3,0,0,0,6,0,0,7,3,3,7,0,0,0,0,0,5,0,0,4,0,0,3,6,3,0,1,0,0,0,0,0,0,0,0,0,0,0,0,0,0,0,0,0,0,0,0,0,0,0,0,0,0,0,0,0,0,0,0,0,0],"split_type":[0,0,0,0,0,0,0,0,0,0,0,0,0,0,0,0,0,0,0,0,0,0,0,0,0,0,0,0,0,0,0,0,0,0,0,0,0,0,0,0,0,0,0,0,0,0,0,0,0,0,0,0,0,0,0,0,0,0,0,0,0,0,0,0,0,0,0,0,0,0,0,0,0,0,0,0,0,0,0,0,0],"sum_hessian":[8.79E2,3.15E2,5.64E2,2.57E2,5.8E1,3.48E2,2.16E2,1.94E2,6.3E1,4.5E1,1.3E1,3.41E2,7E0,1.11E2,1.05E2,6.1E1,1.33E2,9E0,5.4E1,3E1,1.5E1,6E0,7E0,2.9E2,5.1E1,2E0,1.09E2,7.4E1,3.1E1,2.1E1,4E1,8.7E1,4.6E1,5E0,4E0,2.1E1,9E0,6E0,9E0,8.4E1,2.06E2,2.3E1,2.8E1,6.2E1,4.7E1,2.8E1,4.6E1,2.4E1,7E0,4E0,1.7E1,6E0,3.4E1,5.8E1,2.9E1,1.4E1,3.2E1,5E0,1.6E1,6E0,3E0,7E0,2E0,3.3E1,5.1E1,1.54E2,5.2E1,2E0,2.1E1,8E0,2E1,4E1,2.2E1,2.4E1,2.3E1,1.5E1,1.3E1,1.2E1,3.4E1,8E0,1.6E1],"tree_param":{"num_deleted":"0","num_feature":"11","num_nodes":"81","size_leaf_vector":"1"}},{"base_weights":[-4.3545626E-4,-3.5193805E-2,1.918313E-2,-4.1887518E-2,-1.3358237E-3,-2.4778368E-3,5.0124828E-2,-3.2707546E-2,-7.207201E-2,-5.7914555E-3,2.9961506E-4,-4.3983543E-3,6.2875494E-2,8.5087635E-2,1.8048186E-2,-1.5650867E-2,-4.03234E-2,-4.6596047E-2,-9.93755E-4,-7.1159066E-3,6.192027E-5,-6.7826123E-3,1.5857557E-2,4.7138977E-4,9.979197E-4,1.7341658E-2,8.798302E-2,8.365924E-3,4.07597E-2,-1.0328834E-2,-1.8903699E-2,-4.716112E-2,-2.8900018E-2,-8.266899E-4,-2.8642185E-4,-5.920611E-3,-1.791658E-4,-1.7573126E-2,-2.7843853E-3,6.226408E-3,1.9846207E-2,-2.0244229E-4,4.970542E-4,1.2968151E-3,9.3325385E-4,4.4000834E-2,3.9181793E-3,4.5595538E-2,2.6690675E-4,-7.504045E-5,-2.2613292E-4,-2.2648695E-4,-3.3699814E-4,-4.8082956E-4,-9.0483297E-4,-1.0370843E-4,-4.6208088E-4,-5.6924688E-5,-1.1162344E-4,-3.0816317E-4,1.8825884E-4,2.061897E-5,-2.1318298E-4,-6.4443484E-5,1.9689425E-4,2.7735787E-4,6.848292E-5,2.91856E-4,6.6744414E-4,-1.03700324E-4,1.0730146E-4,3.3805185E-4,6.577981E-4],"categories":[],"categories_nodes":[],"categories_segments":[],"categories_sizes":[],"default_left":[0,0,0,0,0,0,0,0,0,0,0,0,0,0,0,0,0,0,0,0,0,0,0,0,0,0,0,0,0,0,0,0,0,0,0,0,0,0,0,0,0,0,0,0,0,0,0,0,0,0,0,0,0,0,0,0,0,0,0,0,0,0,0,0,0,0,0,0,0,0,0,0,0],"id":5,"left_children":[1,3,5,7,9,11,13,15,17,19,-1,21,23,25,27,29,31,33,-1,35,-1,37,39,-1,-1,41,43,45,47,49,51,53,55,-1,-1,57,-1,59,61,63,65,-1,-1,-1,-1,67,69,71,-1,-1,-1,-1,-1,-1,-1,-1,-1,-1,-1,-1,-1,-1,-1,-1,-1,-1,-1,-1,-1,-1,-1,-1,-1],"loss_changes":[6.293958E-1,7.541373E-2,3.9555818E-1,7.467452E-2,6.097109E-3,4.3954805E-2,2.7098626E-1,2.7297646E-2,1.0882318E-3,6.979994E-4,0E0,1.647967E-2,6.98857E-4,2.1227717E-2,2.7806066E-2,9.819418E-4,1.0197297E-2,2.189016E-3,0E0,2.4820538E-4,0E0,1.3066515E-2,1.2593791E-3,0E0,0E0,4.5045633E-3,1.2208283E-2,1.4250638E-2,2.877377E-3,7.819433E-4,5.563628E-5,1.8436193E-2,6.965112E-3,0E0,0E0,1.1829403E-4,0E0,1.5035108E-2,1.2870722E-2,1.2169969E-3,2.7865265E-4,0E0,0E0,0E0,0E0,2.7864054E-4,4.0719043E-3,1.1338592E-3,0E0,0E0,0E0,0E0,0E0,0E0,0E0,0E0,0E0,0E0,0E0,0E0,0E0,0E0,0E0,0E0,0E0,0E0,0E0,0E0,0E0,0E0,0E0,0E0,0E0],"parents":[2147483647,0,0,1,1,2,2,3,3,4,4,5,5,6,6,7,7,8,8,9,9,11,11,12,12,13,13,14,14,15,15,16,16,17,17,19,19,21,21,22,22,25,25,26,26,27,27,28,28,29,29,30,30,31,31,32,32,35,35,37,37,38,38,39,39,40,40,45,45,46,46,47,47],"right_children":[2,4,6,8,10,12,14,16,18,20,-1,22,24,26,28,30,32,34,-1,36,-1,38,40,-1,-1,42,44,46,48,50,52,54,56,-1,-1,58,-1,60,62,64,66,-1,-1,-1,-1,68,70,72,-1,-1,-1,-1,-1,-1,-1,-1,-1,-1,-1,-1,-1,-1,-1,-1,-1,-1,-1,-1,-1,-1,-1,-1,-1],"split_conditions":[1E0,3.1880064E0,2.0877712E0,2.0877712E0,3.3396776E0,8.3645025E6,2.8108165E0,1.1111435E0,2.2985298E5,3.3315163E0,2.9961506E-4,3.122375E6,6.666667E-1,5.2205938E4,3.3233504E0,6.1315453E-1,1.7848761E0,2.110666E0,-9.93755E-4,9.900774E-1,6.192027E-5,1.4023714E0,6.6527975E-1,4.7138977E-4,9.979197E-4,9.975049E-1,2.7844307E0,3.1880064E0,9.0480053E-1,8.333333E-1,9.0909094E-1,1.6171806E0,1.7960024E0,-8.266899E-4,-2.8642185E-4,1.2E-2,-1.791658E-4,7.162753E6,1.9733926E0,1.6E-2,7.6755E-1,-2.0244229E-4,4.970542E-4,1.2968151E-3,9.3325385E-4,1.6662341E6,1.9586778E5,3.3315163E0,2.6690675E-4,-7.504045E-5,-2.2613292E-4,-2.2648695E-4,-3.3699814E-4,-4.8082956E-4,-9.0483297E-4,-1.0370843E-4,-4.6208088E-4,-5.6924688E-5,-1.1162344E-4,-3.0816317E-4,1.8825884E-4,2.061897E-5,-2.1318298E-4,-6.4443484E-5,1.9689425E-4,2.7735787E-4,6.848292E-5,2.91856E-4,6.6744414E-4,-1.03700324E-4,1.0730146E-4,3.3805185E-4,6.577981E-4],"split_indices":[10,0,0,0,0,5,0,0,5,0,0,6,3,5,0,0,0,0,0,3,0,0,3,0,0,3,0,0,3,3,3,0,0,0,0,1,0,5,0,1,3,0,0,0,0,5,7,0,0,0,0,0,0,0,0,0,0,0,0,0,0,0,0,0,0,0,0,0,0,0,0,0,0],"split_type":[0,0,0,0,0,0,0,0,0,0,0,0,0,0,0,0,0,0,0,0,0,0,0,0,0,0,0,0,0,0,0,0,0,0,0,0,0,0,0,0,0,0,0,0,0,0,0,0,0,0,0,0,0,0,0,0,0,0,0,0,0,0,0,0,0,0,0,0,0,0,0,0,0],"sum_hessian":[9.21E2,3.32E2,5.89E2,2.77E2,5.5E1,3.47E2,2.42E2,2.14E2,6.3E1,4.7E1,8E0,3.38E2,9E0,1.15E2,1.27E2,6.7E1,1.47E2,8E0,5.5E1,4.2E1,5E0,3.03E2,3.5E1,4E0,5E0,5E0,1.1E2,9E1,3.7E1,2.7E1,4E1,9E1,5.7E1,4E0,4E0,3.7E1,5E0,8.1E1,2.22E2,1.1E1,2.4E1,2E0,3E0,6.8E1,4.2E1,9E0,8.1E1,2.9E1,8E0,1.7E1,1E1,3.4E1,6E0,6.1E1,2.9E1,1.3E1,4.4E1,2.4E1,1.3E1,6.9E1,1.2E1,1.68E2,5.4E1,5E0,6E0,2.2E1,2E0,3E0,6E0,2.1E1,6E1,6E0,2.3E1],"tree_param":{"num_deleted":"0","num_feature":"11","num_nodes":"73","size_leaf_vector":"1"}},{"base_weights":[-3.0841977E-5,-3.39448E-2,1.7711505E-2,-4.1063372E-2,-8.410448E-4,-2.3318331E-3,4.9613047E-2,-3.3318076E-2,-6.9369994E-2,-5.284541E-3,1.9683141E-2,-4.578461E-3,8.362941E-4,8.060871E-2,1.7053457E-2,-1.5670111E-2,-3.9949797E-2,-4.5278504E-2,-9.641249E-4,-1.2844852E-2,-3.8293726E-3,2.888573E-4,1.0045759E-4,-7.1715415E-3,1.1019728E-2,-8.197874E-3,8.38828E-2,2.142404E-3,4.0583905E-2,-7.5417594E-3,-1.9640299E-2,-4.780832E-2,-2.9087123E-2,-8.1791286E-4,-2.6372468E-4,-7.520991E-5,-1.9353114E-4,-4.7314093E-3,7.261866E-5,-1.6666282E-2,-3.5068637E-3,-3.516062E-4,1.3134727E-2,-4.5931592E-4,2.7798692E-4,9.524761E-2,6.575324E-2,-1.0734485E-2,6.5585887E-3,2.420168E-2,4.849575E-2,-1.388475E-4,8.965287E-5,-4.0359338E-4,-2.2570803E-4,-4.8053876E-4,-8.853044E-4,-1.2729551E-4,-4.5735275E-4,-3.8615566E-5,-1.0994313E-4,-4.5694126E-4,-7.185086E-5,1.7392798E-5,-2.1412446E-4,9.823603E-5,2.5274133E-4,1.1300005E-3,1.4655924E-3,7.0766726E-4,1.0068414E-3,-2.14267E-4,-7.728875E-5,-1.2260638E-4,1.2237826E-4,2.1676763E-4,4.5910076E-4,2.631845E-4,6.6274795E-4],"categories":[],"categories_nodes":[],"categories_segments":[],"categories_sizes":[],"default_left":[0,0,0,0,0,0,0,0,0,0,0,0,0,0,0,0,0,0,0,0,0,0,0,0,0,0,0,0,0,0,0,0,0,0,0,0,0,0,0,0,0,0,0,0,0,0,0,0,0,0,0,0,0,0,0,0,0,0,0,0,0,0,0,0,0,0,0,0,0,0,0,0,0,0,0,0,0,0,0],"id":6,"left_children":[1,3,5,7,9,11,13,15,17,19,21,23,-1,25,27,29,31,33,-1,35,37,-1,-1,39,41,43,45,47,49,51,53,55,57,-1,-1,-1,-1,59,-1,61,63,-1,65,-1,-1,67,69,71,73,75,77,-1,-1,-1,-1,-1,-1,-1,-1,-1,-1,-1,-1,-1,-1,-1,-1,-1,-1,-1,-1,-1,-1,-1,-1,-1,-1,-1,-1],"loss_changes":[5.3432083E-1,7.1839124E-2,3.728937E-1,5.271879E-2,5.1199687E-3,5.299305E-2,2.2569668E-1,2.266422E-2,8.945763E-4,4.568823E-4,8.748262E-5,1.415471E-2,0E0,3.412521E-2,3.8858924E-2,1.659059E-3,1.0901898E-2,2.5142059E-3,0E0,4.6700006E-6,3.614897E-4,0E0,0E0,1.0345307E-2,4.315007E-3,4.573651E-3,1.6607463E-2,3.994207E-3,4.3997094E-3,9.057374E-4,5.32154E-4,1.5561253E-2,6.2703155E-3,0E0,0E0,0E0,0E0,2.1536835E-4,0E0,1.6404353E-2,1.3221547E-2,0E0,1.4850833E-3,0E0,0E0,7.214546E-4,1.7368495E-3,3.8423412E-4,2.2723642E-3,7.4318517E-4,1.6726553E-4,0E0,0E0,0E0,0E0,0E0,0E0,0E0,0E0,0E0,0E0,0E0,0E0,0E0,0E0,0E0,0E0,0E0,0E0,0E0,0E0,0E0,0E0,0E0,0E0,0E0,0E0,0E0,0E0],"parents":[2147483647,0,0,1,1,2,2,3,3,4,4,5,5,6,6,7,7,8,8,9,9,10,10,11,11,13,13,14,14,15,15,16,16,17,17,19,19,20,20,23,23,24,24,25,25,26,26,27,27,28,28,29,29,30,30,31,31,32,32,37,37,39,39,40,40,42,42,45,45,46,46,47,47,48,48,49,49,50,50],"right_children":[2,4,6,8,10,12,14,16,18,20,22,24,-1,26,28,30,32,34,-1,36,38,-1,-1,40,42,44,46,48,50,52,54,56,58,-1,-1,-1,-1,60,-1,62,64,-1,66,-1,-1,68,70,72,74,76,78,-1,-1,-1,-1,-1,-1,-1,-1,-1,-1,-1,-1,-1,-1,-1,-1,-1,-1,-1,-1,-1,-1,-1,-1,-1,-1,-1,-1],"split_conditions":[1E0,3.1880064E0,2.0877712E0,2.0877712E0,3.3396776E0,8.3645025E6,3.1880064E0,1.1111435E0,2E-1,6.108624E-2,3.3174664E-1,2.9214705E6,8.362941E-4,5.2205938E4,3.3151796E0,6.1257726E-1,1.7848761E0,2.110666E0,-9.641249E-4,3.218797E0,3.3315163E0,2.888573E-4,1.0045759E-4,1.4023714E0,2.9518154E-1,2.7844307E0,2.7844307E0,1.8999061E-1,3.3315163E0,1E0,1.3834708E5,1.6171806E0,1.7960024E0,-8.1791286E-4,-2.6372468E-4,-7.520991E-5,-1.9353114E-4,1.6E-2,7.261866E-5,1.8999061E-1,1.9733926E0,-3.516062E-4,3.5666232E6,-4.5931592E-4,2.7798692E-4,1.8719636E6,6E-1,5.466391E-2,3.1957097E0,8E-1,2E-1,-1.388475E-4,8.965287E-5,-4.0359338E-4,-2.2570803E-4,-4.8053876E-4,-8.853044E-4,-1.2729551E-4,-4.5735275E-4,-3.8615566E-5,-1.0994313E-4,-4.5694126E-4,-7.185086E-5,1.7392798E-5,-2.1412446E-4,9.823603E-5,2.5274133E-4,1.1300005E-3,1.4655924E-3,7.0766726E-4,1.0068414E-3,-2.14267E-4,-7.728875E-5,-1.2260638E-4,1.2237826E-4,2.1676763E-4,4.5910076E-4,2.631845E-4,6.6274795E-4],"split_indices":[10,0,0,0,0,5,0,0,2,4,4,6,0,5,0,0,0,0,0,0,0,0,0,0,4,0,0,4,0,2,7,0,0,0,0,0,0,1,0,4,0,0,6,0,0,6,2,4,0,2,2,0,0,0,0,0,0,0,0,0,0,0,0,0,0,0,0,0,0,0,0,0,0,0,0,0,0,0,0],"split_type":[0,0,0,0,0,0,0,0,0,0,0,0,0,0,0,0,0,0,0,0,0,0,0,0,0,0,0,0,0,0,0,0,0,0,0,0,0,0,0,0,0,0,0,0,0,0,0,0,0,0,0,0,0,0,0,0,0,0,0,0,0,0,0,0,0,0,0,0,0,0,0,0,0,0,0,0,0,0,0],"sum_hessian":[8.86E2,3.04E2,5.82E2,2.5E2,5.4E1,3.58E2,2.24E2,1.98E2,5.2E1,4.5E1,9E0,3.47E2,1.1E1,1.14E2,1.1E2,5.5E1,1.43E2,8E0,4.4E1,6E0,3.9E1,7E0,2E0,2.98E2,4.9E1,4E0,1.1E2,6.8E1,4.2E1,1.9E1,3.6E1,8.1E1,6.2E1,4E0,4E0,2E0,4E0,3.6E1,3E0,8.2E1,2.16E2,2E0,4.7E1,2E0,2E0,6.5E1,4.5E1,1.7E1,5.1E1,1.5E1,2.7E1,1.6E1,3E0,5E0,3.1E1,5.2E1,2.9E1,1.4E1,4.8E1,2.5E1,1.1E1,3.1E1,5.1E1,1.57E2,5.9E1,2.5E1,2.2E1,4.3E1,2.2E1,2.3E1,2.2E1,7E0,1E1,7E0,4.4E1,1E1,5E0,2E0,2.5E1],"tree_param":{"num_deleted":"0","num_feature":"11","num_nodes":"79","size_leaf_vector":"1"}},{"base_weights":[5.4508937E-4,-3.2485873E-2,1.8882029E-2,-4.0307794E-2,9.658692E-4,-2.0063326E-3,4.848223E-2,-3.2122415E-2,-6.969853E-2,-3.718956E-3,2.0795887E-2,-4.0296963E-3,7.8382174E-4,7.9193816E-2,1.8624922E-2,-1.5626503E-2,-3.817671E-2,-1.0481648E-3,-5.680531E-2,-5.840705E-3,3.663453E-3,8.8076005E-5,3.0476617E-4,-6.118178E-3,1.5015325E-2,-4.5525204E-4,8.144638E-2,5.4201474E-3,4.0610738E-2,-3.4918074E-4,-1.3604496E-2,-4.4199884E-2,-2.8914789E-2,-2.5222378E-4,-6.255296E-2,-3.7077174E-3,-8.241705E-3,-9.868079E-5,6.6268207E-3,-1.718482E-2,-2.4021054E-3,3.965929E-3,1.8993601E-2,1.2364681E-3,6.522835E-2,-3.3671856E-3,1.128769E-2,4.5355458E-2,2.838847E-4,-1.19121585E-4,-2.4748436E-4,-4.4812105E-4,-8.722659E-4,-8.4480926E-5,-4.6926405E-4,-4.1963364E-4,-8.9450815E-4,-3.2557746E-5,-1.4934677E-4,-4.007774E-5,-1.3295053E-4,2.4667965E-5,1.2602216E-4,-4.7658678E-4,-8.647287E-5,1.4208727E-5,-1.8548401E-4,-5.0117527E-5,1.65408E-4,2.65672E-4,6.83143E-5,6.4062624E-4,1.0093522E-3,-1.2888538E-4,8.828567E-5,-7.96324E-5,1.7901344E-4,3.969653E-4,6.4631534E-4],"categories":[],"categories_nodes":[],"categories_segments":[],"categories_sizes":[],"default_left":[0,0,0,0,0,0,0,0,0,0,0,0,0,0,0,0,0,0,0,0,0,0,0,0,0,0,0,0,0,0,0,0,0,0,0,0,0,0,0,0,0,0,0,0,0,0,0,0,0,0,0,0,0,0,0,0,0,0,0,0,0,0,0,0,0,0,0,0,0,0,0,0,0,0,0,0,0,0,0],"id":7,"left_children":[1,3,5,7,9,11,13,15,17,19,21,23,-1,25,27,29,31,-1,33,35,37,-1,-1,39,41,-1,43,45,47,-1,49,51,53,-1,55,57,59,-1,61,63,65,67,69,-1,71,73,75,77,-1,-1,-1,-1,-1,-1,-1,-1,-1,-1,-1,-1,-1,-1,-1,-1,-1,-1,-1,-1,-1,-1,-1,-1,-1,-1,-1,-1,-1,-1,-1],"loss_changes":[5.463371E-1,8.429247E-2,3.5871112E-1,6.0550988E-2,5.8371495E-3,4.237238E-2,2.185967E-1,1.9976899E-2,2.2143722E-3,8.202416E-4,2.1600584E-4,1.32574495E-2,0E0,3.2961667E-2,3.548897E-2,8.7346043E-4,7.089883E-3,0E0,4.6772733E-3,1.7429423E-4,4.439609E-4,0E0,0E0,1.2254929E-2,1.375271E-3,0E0,1.5974104E-2,4.059692E-3,3.2247305E-3,0E0,9.998456E-4,1.776968E-2,8.784246E-3,0E0,1.3181493E-3,1.9010765E-4,1.3668998E-4,0E0,1.1914357E-4,1.4750194E-2,9.0585565E-3,7.0497073E-4,2.3749098E-4,0E0,5.875081E-3,2.0987457E-3,1.8692925E-3,4.0274858E-4,0E0,0E0,0E0,0E0,0E0,0E0,0E0,0E0,0E0,0E0,0E0,0E0,0E0,0E0,0E0,0E0,0E0,0E0,0E0,0E0,0E0,0E0,0E0,0E0,0E0,0E0,0E0,0E0,0E0,0E0,0E0],"parents":[2147483647,0,0,1,1,2,2,3,3,4,4,5,5,6,6,7,7,8,8,9,9,10,10,11,11,13,13,14,14,15,15,16,16,18,18,19,19,20,20,23,23,24,24,26,26,27,27,28,28,30,30,31,31,32,32,34,34,35,35,36,36,38,38,39,39,40,40,41,41,42,42,44,44,45,45,46,46,47,47],"right_children":[2,4,6,8,10,12,14,16,18,20,22,24,-1,26,28,30,32,-1,34,36,38,-1,-1,40,42,-1,44,46,48,-1,50,52,54,-1,56,58,60,-1,62,64,66,68,70,-1,72,74,76,78,-1,-1,-1,-1,-1,-1,-1,-1,-1,-1,-1,-1,-1,-1,-1,-1,-1,-1,-1,-1,-1,-1,-1,-1,-1,-1,-1,-1,-1,-1,-1],"split_conditions":[1E0,3.1880064E0,2.0877712E0,2.0877712E0,3.3396776E0,8.3645025E6,3.1880064E0,1.1111435E0,2.7778301E0,3.3233504E0,7.082404E-1,3.1183355E6,7.8382174E-4,6.5977174E-1,3.3233504E0,2E-1,1.7848761E0,-1.0481648E-3,2E-1,1.2E-2,2E-1,8.8076005E-5,3.0476617E-4,1.4023714E0,6.6527975E-1,-4.5525204E-4,2.7844307E0,1.7255859E6,9.0480053E-1,-3.4918074E-4,7.0540706E5,1.6171806E0,1.7960024E0,-2.5222378E-4,2.7844307E0,9.975049E-1,7.0974493E-1,-9.868079E-5,3.3315163E0,1.8999061E-1,1.9733926E0,1.6E-2,7.6755E-1,1.2364681E-3,6E-1,3.2264843E0,3.1957097E0,3.3315163E0,2.838847E-4,-1.19121585E-4,-2.4748436E-4,-4.4812105E-4,-8.722659E-4,-8.4480926E-5,-4.6926405E-4,-4.1963364E-4,-8.9450815E-4,-3.2557746E-5,-1.4934677E-4,-4.007774E-5,-1.3295053E-4,2.4667965E-5,1.2602216E-4,-4.7658678E-4,-8.647287E-5,1.4208727E-5,-1.8548401E-4,-5.0117527E-5,1.65408E-4,2.65672E-4,6.83143E-5,6.4062624E-4,1.0093522E-3,-1.2888538E-4,8.828567E-5,-7.96324E-5,1.7901344E-4,3.969653E-4,6.4631534E-4],"split_indices":[10,0,0,0,0,5,0,0,0,0,3,6,0,3,0,2,0,0,2,1,2,0,0,0,3,0,0,5,3,0,7,0,0,0,0,3,3,0,0,4,0,1,3,0,2,0,0,0,0,0,0,0,0,0,0,0,0,0,0,0,0,0,0,0,0,0,0,0,0,0,0,0,0,0,0,0,0,0,0],"split_type":[0,0,0,0,0,0,0,0,0,0,0,0,0,0,0,0,0,0,0,0,0,0,0,0,0,0,0,0,0,0,0,0,0,0,0,0,0,0,0,0,0,0,0,0,0,0,0,0,0,0,0,0,0,0,0,0,0,0,0,0,0,0,0,0,0,0,0,0,0,0,0,0,0,0,0,0,0,0,0],"sum_hessian":[9E2,3.21E2,5.79E2,2.6E2,6.1E1,3.4E2,2.39E2,2.05E2,5.5E1,5E1,1.1E1,3.3E2,1E1,1.17E2,1.22E2,5.6E1,1.49E2,2.9E1,2.6E1,3.9E1,1.1E1,2E0,9E0,2.98E2,3.2E1,2E0,1.15E2,7.7E1,4.5E1,7E0,4.9E1,8.8E1,6.1E1,4E0,2.2E1,2.2E1,1.7E1,2E0,9E0,7.4E1,2.24E2,9E0,2.3E1,6.4E1,5.1E1,3.1E1,4.6E1,3.5E1,1E1,2.7E1,2.2E1,6.1E1,2.7E1,1.4E1,4.7E1,4E0,1.8E1,2E1,2E0,5E0,1.2E1,4E0,5E0,2.6E1,4.8E1,1.73E2,5.1E1,5E0,4E0,2.1E1,2E0,2.2E1,2.9E1,1.9E1,1.2E1,5E0,4.1E1,8E0,2.7E1],"tree_param":{"num_deleted":"0","num_feature":"11","num_nodes":"79","size_leaf_vector":"1"}},{"base_weights":[6.736358E-4,-3.3077292E-2,1.8061068E-2,-4.1006673E-2,-6.875298E-4,-1.7347033E-3,4.9004823E-2,-3.148394E-2,-6.74462E-2,-4.9611987E-3,2.5466856E-4,-3.7076208E-3,7.4476114E-4,7.8340165E-2,1.6023766E-2,-1.549804E-2,-3.810692E-2,-4.454174E-2,-9.279756E-4,-6.091373E-3,6.012402E-5,-6.5112333E-3,1.1832826E-2,-4.512241E-4,8.049583E-2,4.0823473E-3,4.1495886E-2,-3.568563E-4,-1.2987029E-2,-4.5200553E-2,-2.5342515E-2,-7.324859E-4,-2.3131777E-4,-1.1799623E-2,-5.1074494E-3,-1.486164E-2,-3.2184643E-3,-2.9577964E-4,1.4276872E-2,9.1588475E-2,6.422874E-2,-5.96017E-3,6.859688E-3,2.288992E-4,5.9671403E-4,-1.3994415E-4,-2.782865E-4,-4.5256817E-4,-8.625433E-4,-4.6353573E-5,-4.317025E-4,-6.5188775E-5,-1.8600495E-4,-4.6720295E-5,-1.01177204E-4,-4.4948614E-4,-4.1210966E-5,1.7749864E-5,-2.1470351E-4,2.3831199E-4,5.637635E-5,1.0945007E-3,1.4242752E-3,6.6582713E-4,1.0133765E-3,-1.0985749E-4,-3.0765394E-5,-1.13882066E-4,1.2025136E-4],"categories":[],"categories_nodes":[],"categories_segments":[],"categories_sizes":[],"default_left":[0,0,0,0,0,0,0,0,0,0,0,0,0,0,0,0,0,0,0,0,0,0,0,0,0,0,0,0,0,0,0,0,0,0,0,0,0,0,0,0,0,0,0,0,0,0,0,0,0,0,0,0,0,0,0,0,0,0,0,0,0,0,0,0,0,0,0,0,0],"id":8,"left_children":[1,3,5,7,9,11,13,15,17,19,-1,21,-1,23,25,27,29,31,-1,33,-1,35,37,-1,39,41,43,-1,45,47,49,-1,-1,51,53,55,57,-1,59,61,63,65,67,-1,-1,-1,-1,-1,-1,-1,-1,-1,-1,-1,-1,-1,-1,-1,-1,-1,-1,-1,-1,-1,-1,-1,-1,-1,-1],"loss_changes":[5.264078E-1,7.8305185E-2,3.6271787E-1,5.956179E-2,5.2769557E-3,4.1526023E-2,2.2223961E-1,1.8678516E-2,5.16057E-4,5.7467795E-4,0E0,1.5369901E-2,0E0,3.228122E-2,3.3289656E-2,1.223959E-3,1.0444388E-2,1.6369335E-3,0E0,1.9809231E-4,0E0,8.145964E-3,4.821269E-3,0E0,1.5770674E-2,2.1606383E-3,2.1664798E-3,0E0,6.950889E-4,1.5578017E-2,7.4232332E-3,0E0,0E0,2.272788E-5,1.368944E-4,1.8665055E-2,1.2715678E-2,0E0,1.8059053E-3,1.0460615E-3,5.0361454E-3,1.2430159E-4,2.1170743E-3,0E0,0E0,0E0,0E0,0E0,0E0,0E0,0E0,0E0,0E0,0E0,0E0,0E0,0E0,0E0,0E0,0E0,0E0,0E0,0E0,0E0,0E0,0E0,0E0,0E0,0E0],"parents":[2147483647,0,0,1,1,2,2,3,3,4,4,5,5,6,6,7,7,8,8,9,9,11,11,13,13,14,14,15,15,16,16,17,17,19,19,21,21,22,22,24,24,25,25,26,26,28,28,29,29,30,30,33,33,34,34,35,35,36,36,38,38,39,39,40,40,41,41,42,42],"right_children":[2,4,6,8,10,12,14,16,18,20,-1,22,-1,24,26,28,30,32,-1,34,-1,36,38,-1,40,42,44,-1,46,48,50,-1,-1,52,54,56,58,-1,60,62,64,66,68,-1,-1,-1,-1,-1,-1,-1,-1,-1,-1,-1,-1,-1,-1,-1,-1,-1,-1,-1,-1,-1,-1,-1,-1,-1,-1],"split_conditions":[1E0,3.1880064E0,2.0877712E0,1.9898236E0,3.3396776E0,8.3645025E6,3.1880064E0,1.1111435E0,2.2985298E5,3.3315163E0,2.5466856E-4,2.9992552E6,7.4476114E-4,2.7372472E-2,3.3233504E0,2E-1,1.7848761E0,2.110666E0,-9.279756E-4,2E-1,6.012402E-5,1.4023714E0,2.9618508E-1,-4.512241E-4,2.7844307E0,1.829154E5,1.8999061E-1,-3.568563E-4,8.763415E5,1.6171806E0,2.9216097E5,-7.324859E-4,-2.3131777E-4,3.2111053E0,1.2E-2,1.8999061E-1,1.9733926E0,-2.9577964E-4,3.5602042E-1,1.8719636E6,6E-1,3.218797E0,3.1957097E0,2.288992E-4,5.9671403E-4,-1.3994415E-4,-2.782865E-4,-4.5256817E-4,-8.625433E-4,-4.6353573E-5,-4.317025E-4,-6.5188775E-5,-1.8600495E-4,-4.6720295E-5,-1.01177204E-4,-4.4948614E-4,-4.1210966E-5,1.7749864E-5,-2.1470351E-4,2.3831199E-4,5.637635E-5,1.0945007E-3,1.4242752E-3,6.6582713E-4,1.0133765E-3,-1.0985749E-4,-3.0765394E-5,-1.13882066E-4,1.2025136E-4],"split_indices":[10,0,0,0,0,5,0,0,5,0,0,6,0,4,0,2,0,0,0,2,0,0,4,0,0,7,4,0,7,0,7,0,0,0,1,4,0,0,4,6,2,0,0,0,0,0,0,0,0,0,0,0,0,0,0,0,0,0,0,0,0,0,0,0,0,0,0,0,0],"split_type":[0,0,0,0,0,0,0,0,0,0,0,0,0,0,0,0,0,0,0,0,0,0,0,0,0,0,0,0,0,0,0,0,0,0,0,0,0,0,0,0,0,0,0,0,0,0,0,0,0,0,0,0,0,0,0,0,0,0,0,0,0,0,0,0,0,0,0,0,0],"sum_hessian":[8.95E2,3.04E2,5.91E2,2.44E2,6E1,3.61E2,2.3E2,1.81E2,6.3E1,5E1,1E1,3.5E2,1.1E1,1.21E2,1.09E2,5.4E1,1.27E2,8E0,5.5E1,4.5E1,5E0,2.97E2,5.3E1,2E0,1.19E2,7.5E1,3.4E1,8E0,4.6E1,8E1,4.7E1,5E0,3E0,5E0,4E1,8.3E1,2.14E2,3E0,5E1,6.8E1,5.1E1,1.6E1,5.9E1,5E0,2.9E1,3.7E1,9E0,5.3E1,2.7E1,1.2E1,3.5E1,2E0,3E0,2.6E1,1.4E1,3.1E1,5.2E1,1.59E2,5.5E1,3.6E1,1.4E1,4.7E1,2.1E1,2.6E1,2.5E1,9E0,7E0,7E0,5.2E1],"tree_param":{"num_deleted":"0","num_feature":"11","num_nodes":"69","size_leaf_vector":"1"}},{"base_weights":[-1.04235696E-4,-3.3887435E-2,1.8217057E-2,-4.067333E-2,-1.8975416E-3,-1.4138567E-3,4.8664175E-2,-3.219614E-2,-6.886386E-2,-5.5601425E-3,2.3685714E-4,-3.5509448E-3,5.9610974E-2,8.2026206E-2,1.978875E-2,-1.5890015E-2,-3.885932E-2,-4.3901714E-4,-7.15646E-2,-4.1268594E-3,-1.7737951E-4,-5.3740563E-3,1.7917728E-2,4.4127685E-4,9.108848E-4,-4.4723172E-4,8.460047E-2,9.719337E-3,3.969052E-2,-5.8591515E-3,-1.8539846E-2,-4.5112703E-2,-2.8450321E-2,-6.241182E-4,-9.849847E-4,-5.3362176E-3,1.15409464E-4,-1.5597835E-2,-1.4834354E-3,1.066434E-2,2.0410504E-2,4.385832E-4,8.6349614E-2,4.2657617E-2,4.6228925E-3,5.892617E-4,2.740345E-4,5.547898E-5,-1.5794479E-4,-2.892884E-4,-2.1190527E-4,-4.602282E-4,-8.340228E-4,-2.3930012E-4,-4.9806386E-4,-4.6079447E-5,-1.117058E-4,-4.2771094E-4,-7.7191304E-5,2.7566373E-5,-1.670034E-4,1.2938479E-5,1.764232E-4,1.5276604E-4,3.2704338E-4,1.0332104E-3,1.3146306E-3,3.092854E-4,6.6870986E-4,-1.1348544E-4,1.164546E-4],"categories":[],"categories_nodes":[],"categories_segments":[],"categories_sizes":[],"default_left":[0,0,0,0,0,0,0,0,0,0,0,0,0,0,0,0,0,0,0,0,0,0,0,0,0,0,0,0,0,0,0,0,0,0,0,0,0,0,0,0,0,0,0,0,0,0,0,0,0,0,0,0,0,0,0,0,0,0,0,0,0,0,0,0,0,0,0,0,0,0,0],"id":9,"left_children":[1,3,5,7,9,11,13,15,17,19,-1,21,23,25,27,29,31,-1,33,35,-1,37,39,-1,-1,-1,41,43,45,47,49,51,53,-1,-1,55,-1,57,59,61,63,-1,65,67,69,-1,-1,-1,-1,-1,-1,-1,-1,-1,-1,-1,-1,-1,-1,-1,-1,-1,-1,-1,-1,-1,-1,-1,-1,-1,-1],"loss_changes":[5.527224E-1,6.808597E-2,3.4613985E-1,5.967775E-2,4.148984E-3,4.6248317E-2,2.1705568E-1,2.122131E-2,3.3345819E-3,4.818343E-4,0E0,1.3482096E-2,5.724728E-4,3.413117E-2,2.426333E-2,1.4861785E-3,7.959515E-3,0E0,2.6226044E-5,6.9772085E-4,0E0,1.2546345E-2,2.70525E-4,0E0,0E0,0E0,6.4343214E-3,1.3735852E-2,2.7606413E-3,8.989676E-4,4.5916066E-5,1.3916865E-2,4.6204664E-3,0E0,0E0,1.9475387E-4,0E0,1.3964616E-2,9.116458E-3,2.1631329E-4,4.319707E-4,0E0,2.9782653E-3,4.7124736E-4,4.067979E-3,0E0,0E0,0E0,0E0,0E0,0E0,0E0,0E0,0E0,0E0,0E0,0E0,0E0,0E0,0E0,0E0,0E0,0E0,0E0,0E0,0E0,0E0,0E0,0E0,0E0,0E0],"parents":[2147483647,0,0,1,1,2,2,3,3,4,4,5,5,6,6,7,7,8,8,9,9,11,11,12,12,13,13,14,14,15,15,16,16,18,18,19,19,21,21,22,22,26,26,27,27,28,28,29,29,30,30,31,31,32,32,35,35,37,37,38,38,39,39,40,40,42,42,43,43,44,44],"right_children":[2,4,6,8,10,12,14,16,18,20,-1,22,24,26,28,30,32,-1,34,36,-1,38,40,-1,-1,-1,42,44,46,48,50,52,54,-1,-1,56,-1,58,60,62,64,-1,66,68,70,-1,-1,-1,-1,-1,-1,-1,-1,-1,-1,-1,-1,-1,-1,-1,-1,-1,-1,-1,-1,-1,-1,-1,-1,-1,-1],"split_conditions":[1E0,3.1880064E0,2.0877712E0,2.0877712E0,3.3396776E0,7.799442E6,2.8108165E0,1.1111435E0,1.9370922E5,9.900774E-1,2.3685714E-4,3.2683492E6,6.666667E-1,6.5977174E-1,3.3233504E0,6.119994E-1,1.7848761E0,-4.3901714E-4,4E-3,3.3315163E0,-1.7737951E-4,1.4023714E0,3.6614878E6,4.4127685E-4,9.108848E-4,-4.4723172E-4,5.2205938E4,3.1880064E0,9.0480053E-1,7.6755E-1,5.436551E6,1.6171806E0,1.9733926E0,-6.241182E-4,-9.849847E-4,1.2E-2,1.15409464E-4,1.8999061E-1,1.9733926E0,1.1131696E0,6.6527975E-1,4.385832E-4,1.5997982E6,1.6662341E6,1.8999061E-1,5.892617E-4,2.740345E-4,5.547898E-5,-1.5794479E-4,-2.892884E-4,-2.1190527E-4,-4.602282E-4,-8.340228E-4,-2.3930012E-4,-4.9806386E-4,-4.6079447E-5,-1.117058E-4,-4.2771094E-4,-7.7191304E-5,2.7566373E-5,-1.670034E-4,1.2938479E-5,1.764232E-4,1.5276604E-4,3.2704338E-4,1.0332104E-3,1.3146306E-3,3.092854E-4,6.6870986E-4,-1.1348544E-4,1.164546E-4],"split_indices":[10,0,0,0,0,5,0,0,5,3,0,6,3,3,0,0,0,0,1,0,0,0,6,0,0,0,5,0,3,3,5,0,0,0,0,1,0,4,0,0,3,0,6,5,4,0,0,0,0,0,0,0,0,0,0,0,0,0,0,0,0,0,0,0,0,0,0,0,0,0,0],"split_type":[0,0,0,0,0,0,0,0,0,0,0,0,0,0,0,0,0,0,0,0,0,0,0,0,0,0,0,0,0,0,0,0,0,0,0,0,0,0,0,0,0,0,0,0,0,0,0,0,0,0,0,0,0,0,0,0,0,0,0,0,0,0,0,0,0,0,0,0,0,0,0],"sum_hessian":[8.91E2,3.13E2,5.78E2,2.58E2,5.5E1,3.52E2,2.26E2,2E2,5.8E1,4.7E1,8E0,3.41E2,1.1E1,1.04E2,1.22E2,5.9E1,1.41E2,5E0,5.3E1,4.1E1,6E0,3.15E2,2.6E1,4E0,7E0,2E0,1.02E2,8.2E1,4E1,1.3E1,4.6E1,8.6E1,5.5E1,7E0,4.6E1,3.8E1,3E0,8.6E1,2.29E2,8E0,1.8E1,4E0,9.8E1,1E1,7.2E1,3.1E1,9E0,5E0,8E0,1.7E1,2.9E1,5.6E1,3E1,2.7E1,2.8E1,2.5E1,1.3E1,3.1E1,5.5E1,1.74E2,5.5E1,2E0,6E0,7E0,1.1E1,6.3E1,3.5E1,4E0,6E0,1.7E1,5.5E1],"tree_param":{"num_deleted":"0","num_feature":"11","num_nodes":"71","size_leaf_vector":"1"}},{"base_weights":[-1.1290691E-4,-3.1672437E-2,1.7378751E-2,-3.8068675E-2,6.5203634E-4,-2.0103168E-3,4.7095094E-2,-2.9493894E-2,-6.7386046E-2,-5.000145E-3,1.6057862E-2,-4.1262163E-3,5.934197E-2,7.902889E-2,1.5838947E-2,-1.4448551E-2,-3.600402E-2,-4.291566E-2,-9.325818E-4,-1.825206E-3,-6.103449E-3,-8.399504E-7,1.8542908E-2,-6.1811134E-3,1.5613746E-2,4.496329E-4,9.003072E-4,-4.432747E-4,8.131438E-2,3.5424342E-3,3.9145913E-2,-8.084559E-3,-1.7664533E-2,-7.0468173E-4,-3.1750903E-2,-7.842131E-4,-2.4097966E-4,-5.0152197E-5,-1.0565579E-3,-7.7986917E-3,-3.2866942E-3,3.245289E-4,9.983604E-3,-1.4872016E-2,-2.8523372E-3,5.66824E-3,2.0328851E-2,1.1972324E-3,6.639459E-2,-6.7200065E-3,9.00024E-3,5.811701E-4,2.7029423E-4,-5.458341E-5,-1.7562936E-4,-3.4979882E-4,-2.062714E-4,-1.6870018E-4,-5.0282635E-4,2.4151772E-5,-3.3832464E-5,-1.4038931E-4,-5.9949005E-5,-1.2783424E-4,-1.6685937E-5,4.865648E-5,1.5630125E-4,-2.679458E-4,2.2496258E-4,2.1425802E-5,-1.9439367E-4,1.8857908E-4,-6.955781E-5,1.7617858E-4,3.331227E-4,7.0148334E-4,9.7159715E-4,-1.5455837E-4,4.3945714E-5,-1.4547886E-4,1.5072469E-4],"categories":[],"categories_nodes":[],"categories_segments":[],"categories_sizes":[],"default_left":[0,0,0,0,0,0,0,0,0,0,0,0,0,0,0,0,0,0,0,0,0,0,0,0,0,0,0,0,0,0,0,0,0,0,0,0,0,0,0,0,0,0,0,0,0,0,0,0,0,0,0,0,0,0,0,0,0,0,0,0,0,0,0,0,0,0,0,0,0,0,0,0,0,0,0,0,0,0,0,0,0],"id":10,"left_children":[1,3,5,7,9,11,13,15,17,19,21,23,25,27,29,31,33,35,-1,37,39,-1,41,43,45,-1,-1,-1,47,49,51,53,55,-1,57,-1,-1,-1,59,61,63,-1,65,67,69,71,73,-1,75,77,79,-1,-1,-1,-1,-1,-1,-1,-1,-1,-1,-1,-1,-1,-1,-1,-1,-1,-1,-1,-1,-1,-1,-1,-1,-1,-1,-1,-1,-1,-1],"loss_changes":[5.0620854E-1,6.763378E-2,3.4003624E-1,6.664196E-2,4.8695006E-3,4.6718728E-2,2.3131198E-1,2.0342529E-2,1.2891293E-3,1.3247994E-4,6.0210074E-4,1.4172073E-2,2.9760972E-4,3.226596E-2,3.3966064E-2,1.2079794E-3,9.073928E-3,2.531115E-3,0E0,1.4028334E-5,1.1762045E-4,0E0,4.135156E-4,9.070552E-3,1.4322773E-3,0E0,0E0,0E0,9.010136E-3,4.485304E-3,2.684705E-3,4.3638854E-4,3.835205E-4,0E0,1.3656639E-2,0E0,0E0,0E0,4.7575617E-5,1.1640263E-4,1.5530131E-4,0E0,3.6140555E-5,1.5064739E-2,1.2088852E-2,1.1926253E-3,4.073102E-4,0E0,3.7448108E-4,1.422149E-3,2.5709718E-3,0E0,0E0,0E0,0E0,0E0,0E0,0E0,0E0,0E0,0E0,0E0,0E0,0E0,0E0,0E0,0E0,0E0,0E0,0E0,0E0,0E0,0E0,0E0,0E0,0E0,0E0,0E0,0E0,0E0,0E0],"parents":[2147483647,0,0,1,1,2,2,3,3,4,4,5,5,6,6,7,7,8,8,9,9,10,10,11,11,12,12,13,13,14,14,15,15,16,16,17,17,19,19,20,20,22,22,23,23,24,24,28,28,29,29,30,30,31,31,32,32,34,34,38,38,39,39,40,40,42,42,43,43,44,44,45,45,46,46,48,48,49,49,50,50],"right_children":[2,4,6,8,10,12,14,16,18,20,22,24,26,28,30,32,34,36,-1,38,40,-1,42,44,46,-1,-1,-1,48,50,52,54,56,-1,58,-1,-1,-1,60,62,64,-1,66,68,70,72,74,-1,76,78,80,-1,-1,-1,-1,-1,-1,-1,-1,-1,-1,-1,-1,-1,-1,-1,-1,-1,-1,-1,-1,-1,-1,-1,-1,-1,-1,-1,-1,-1,-1],"split_conditions":[1E0,3.1880064E0,2.0877712E0,2.0877712E0,3.3315163E0,8.3645025E6,3.1880064E0,1.1111435E0,2.2985298E5,3.2111053E0,2E-1,3.122375E6,6.666667E-1,6.5977174E-1,3.3233504E0,6.1257726E-1,1.4023714E0,2.110666E0,-9.325818E-4,6.666667E-1,3.3151796E0,-8.399504E-7,3.5673475E6,1.4023714E0,6.6527975E-1,4.496329E-4,9.003072E-4,-4.432747E-4,2.7844307E0,1.7255859E6,9.0480053E-1,8.314476E-1,1.3834708E5,-7.0468173E-4,1.6171806E0,-7.842131E-4,-2.4097966E-4,-5.0152197E-5,7.6755E-1,6E-1,2E-1,3.245289E-4,3.3396776E0,7.162753E6,1.9733926E0,6.625179E-1,3.6633718E6,1.1972324E-3,6E-1,3.2264843E0,3.1957097E0,5.811701E-4,2.7029423E-4,-5.458341E-5,-1.7562936E-4,-3.4979882E-4,-2.062714E-4,-1.6870018E-4,-5.0282635E-4,2.4151772E-5,-3.3832464E-5,-1.4038931E-4,-5.9949005E-5,-1.2783424E-4,-1.6685937E-5,4.865648E-5,1.5630125E-4,-2.679458E-4,2.2496258E-4,2.1425802E-5,-1.9439367E-4,1.8857908E-4,-6.955781E-5,1.7617858E-4,3.331227E-4,7.0148334E-4,9.7159715E-4,-1.5455837E-4,4.3945714E-5,-1.4547886E-4,1.5072469E-4],"split_indices":[10,0,0,0,0,5,0,0,5,0,2,6,3,3,0,0,0,0,0,3,0,0,5,0,3,0,0,0,0,5,3,3,7,0,0,0,0,0,3,2,2,0,0,5,0,3,5,0,2,0,0,0,0,0,0,0,0,0,0,0,0,0,0,0,0,0,0,0,0,0,0,0,0,0,0,0,0,0,0,0,0],"split_type":[0,0,0,0,0,0,0,0,0,0,0,0,0,0,0,0,0,0,0,0,0,0,0,0,0,0,0,0,0,0,0,0,0,0,0,0,0,0,0,0,0,0,0,0,0,0,0,0,0,0,0,0,0,0,0,0,0,0,0,0,0,0,0,0,0,0,0,0,0,0,0,0,0,0,0,0,0,0,0,0,0],"sum_hessian":[9.15E2,3.26E2,5.89E2,2.72E2,5.4E1,3.57E2,2.32E2,2.12E2,6E1,4E1,1.4E1,3.46E2,1.1E1,1.14E2,1.18E2,6.5E1,1.47E2,8E0,5.2E1,1.1E1,2.9E1,2E0,1.2E1,3.14E2,3.2E1,4E0,7E0,2E0,1.12E2,7.8E1,4E1,2.3E1,4.2E1,2.7E1,1.2E2,4E0,4E0,2E0,9E0,1.7E1,1.2E1,6E0,6E0,8.6E1,2.28E2,1.1E1,2.1E1,6.7E1,4.5E1,2.7E1,5.1E1,3.1E1,9E0,1.4E1,9E0,6E0,3.6E1,3E1,9E1,3E0,6E0,8E0,9E0,2E0,1E1,2E0,4E0,7.4E1,1.2E1,1.66E2,6.2E1,6E0,5E0,1E1,1.1E1,1.8E1,2.7E1,1.8E1,9E0,5E0,4.6E1],"tree_param":{"num_deleted":"0","num_feature":"11","num_nodes":"81","size_leaf_vector":"1"}},{"base_weights":[-7.459387E-4,-3.224441E-2,1.6496638E-2,-4.0142618E-2,2.5067455E-4,-2.4100048E-3,4.5497537E-2,-2.3222908E-2,-5.3608697E-2,-4.88334E-3,1.9977601E-2,-4.2159017E-3,5.868971E-2,7.649381E-2,1.62318E-2,-1.3970554E-2,-3.2391008E-2,-4.3053724E-2,-6.565829E-2,-3.5140985E-3,-1.1632595E-2,1.2995329E-4,2.9268902E-4,-7.269131E-3,4.2442856E-3,4.4485915E-4,9.274431E-4,8.787598E-2,5.8994833E-2,5.0823926E-3,3.927708E-2,-8.6743655E-3,-1.8002633E-2,-6.8747E-4,-1.2533576E-2,-8.2230574E-4,-3.0985245E-2,-9.938498E-4,-5.4378252E-2,-4.376821E-3,7.9517704E-5,-6.274341E-5,-1.744696E-4,-1.6158437E-2,-3.1718502E-3,-2.1824997E-3,1.5961038E-2,1.7072838E-4,1.195598E-3,4.4955973E-2,9.4332E-4,-9.808739E-3,8.118115E-3,4.3993734E-2,2.546889E-4,-6.5798115E-5,-1.8088197E-4,-2.6380888E-4,-1.4600442E-4,-2.1547316E-4,1.1260385E-4,-1.7942859E-4,-5.1816355E-4,-2.740425E-4,-7.944217E-4,-3.519735E-5,-9.388887E-5,-4.3067307E-4,-7.0330614E-5,1.3677232E-5,-1.8952953E-4,-5.093511E-4,5.8656733E-6,7.033047E-5,2.641353E-4,2.3153375E-4,6.192955E-4,-1.8873546E-4,-4.4653974E-5,-5.403318E-5,1.5544299E-4,3.4784252E-4,6.283697E-4],"categories":[],"categories_nodes":[],"categories_segments":[],"categories_sizes":[],"default_left":[0,0,0,0,0,0,0,0,0,0,0,0,0,0,0,0,0,0,0,0,0,0,0,0,0,0,0,0,0,0,0,0,0,0,0,0,0,0,0,0,0,0,0,0,0,0,0,0,0,0,0,0,0,0,0,0,0,0,0,0,0,0,0,0,0,0,0,0,0,0,0,0,0,0,0,0,0,0,0,0,0,0,0],"id":11,"left_children":[1,3,5,7,9,11,13,15,17,19,21,23,25,27,29,31,33,35,37,39,41,-1,-1,43,45,-1,-1,47,49,51,53,55,57,-1,59,-1,61,-1,63,65,-1,-1,-1,67,69,71,73,-1,-1,75,-1,77,79,81,-1,-1,-1,-1,-1,-1,-1,-1,-1,-1,-1,-1,-1,-1,-1,-1,-1,-1,-1,-1,-1,-1,-1,-1,-1,-1,-1,-1,-1],"loss_changes":[4.7901607E-1,8.0085814E-2,3.1264612E-1,5.594343E-2,6.3768146E-3,3.8424987E-2,2.0286235E-1,9.132873E-3,1.48516E-2,4.2118994E-4,5.9001613E-5,8.7358635E-3,4.7477335E-4,1.6525984E-2,2.9862499E-2,1.0824073E-3,2.0934772E-2,1.564984E-2,2.4858117E-3,3.7885987E-4,2.1462212E-5,0E0,0E0,8.981401E-3,6.81193E-3,0E0,0E0,9.461403E-3,4.6084374E-3,3.6960565E-3,2.7558468E-3,4.2964425E-4,2.014637E-4,0E0,2.3944248E-3,0E0,6.368462E-3,0E0,4.680164E-3,1.6734673E-4,0E0,0E0,0E0,1.3628056E-2,7.997949E-3,5.621868E-3,1.2392728E-3,0E0,0E0,3.1352043E-4,0E0,3.502292E-4,2.983306E-3,5.4836646E-4,0E0,0E0,0E0,0E0,0E0,0E0,0E0,0E0,0E0,0E0,0E0,0E0,0E0,0E0,0E0,0E0,0E0,0E0,0E0,0E0,0E0,0E0,0E0,0E0,0E0,0E0,0E0,0E0,0E0],"parents":[2147483647,0,0,1,1,2,2,3,3,4,4,5,5,6,6,7,7,8,8,9,9,10,10,11,11,12,12,13,13,14,14,15,15,16,16,17,17,18,18,19,19,20,20,23,23,24,24,27,27,28,28,29,29,30,30,31,31,32,32,34,34,36,36,38,38,39,39,43,43,44,44,45,45,46,46,49,49,51,51,52,52,53,53],"right_children":[2,4,6,8,10,12,14,16,18,20,22,24,26,28,30,32,34,36,38,40,42,-1,-1,44,46,-1,-1,48,50,52,54,56,58,-1,60,-1,62,-1,64,66,-1,-1,-1,68,70,72,74,-1,-1,76,-1,78,80,82,-1,-1,-1,-1,-1,-1,-1,-1,-1,-1,-1,-1,-1,-1,-1,-1,-1,-1,-1,-1,-1,-1,-1,-1,-1,-1,-1,-1,-1],"split_conditions":[1E0,3.1880064E0,2.0877712E0,1.6171806E0,3.3396776E0,7.799442E6,3.1880064E0,1.1111435E0,2.0877712E0,9.0909094E-1,7.082404E-1,3.721155E5,6.666667E-1,2.7844307E0,3.3233504E0,6.1315453E-1,1.4023714E0,1.7848761E0,2.7778301E0,3.3315163E0,3.2111053E0,1.2995329E-4,2.9268902E-4,1.4023714E0,3.1197775E6,4.4485915E-4,9.274431E-4,3.8691316E-2,6E-1,1.829154E5,9.0480053E-1,8.314476E-1,8.378672E-1,-6.8747E-4,9.900774E-1,-8.2230574E-4,6.706507E5,-9.938498E-4,2E-1,1.2E-2,7.9517704E-5,-6.274341E-5,-1.744696E-4,1.8999061E-1,1.9733926E0,1.1172135E0,6.6527975E-1,1.7072838E-4,1.195598E-3,5.2205938E4,9.4332E-4,3.218797E0,4E-3,3.3315163E0,2.546889E-4,-6.5798115E-5,-1.8088197E-4,-2.6380888E-4,-1.4600442E-4,-2.1547316E-4,1.1260385E-4,-1.7942859E-4,-5.1816355E-4,-2.740425E-4,-7.944217E-4,-3.519735E-5,-9.388887E-5,-4.3067307E-4,-7.0330614E-5,1.3677232E-5,-1.8952953E-4,-5.093511E-4,5.8656733E-6,7.033047E-5,2.641353E-4,2.3153375E-4,6.192955E-4,-1.8873546E-4,-4.4653974E-5,-5.403318E-5,1.5544299E-4,3.4784252E-4,6.283697E-4],"split_indices":[10,0,0,0,0,5,0,0,0,3,3,8,3,0,0,0,0,0,0,0,0,0,0,0,5,0,0,4,2,7,3,3,0,0,3,0,7,0,2,1,0,0,0,4,0,0,3,0,0,5,0,0,1,0,0,0,0,0,0,0,0,0,0,0,0,0,0,0,0,0,0,0,0,0,0,0,0,0,0,0,0,0,0],"split_type":[0,0,0,0,0,0,0,0,0,0,0,0,0,0,0,0,0,0,0,0,0,0,0,0,0,0,0,0,0,0,0,0,0,0,0,0,0,0,0,0,0,0,0,0,0,0,0,0,0,0,0,0,0,0,0,0,0,0,0,0,0,0,0,0,0,0,0,0,0,0,0,0,0,0,0,0,0,0,0,0,0,0,0],"sum_hessian":[8.8E2,3.11E2,5.69E2,2.5E2,6.1E1,3.45E2,2.24E2,1.12E2,1.38E2,4.9E1,1.2E1,3.36E2,9E0,1.08E2,1.16E2,5.7E1,5.5E1,7.6E1,6.2E1,4.2E1,7E0,3E0,9E0,2.47E2,8.9E1,4E0,5E0,6.3E1,4.5E1,7.9E1,3.7E1,2.6E1,3.1E1,2.7E1,2.8E1,2.8E1,4.8E1,3.1E1,3.1E1,3.9E1,3E0,2E0,5E0,7.7E1,1.7E2,5.8E1,3.1E1,2E0,6.1E1,2.3E1,2.2E1,1.3E1,6.6E1,2.9E1,8E0,1.6E1,1E1,2.3E1,8E0,2.4E1,4E0,1.6E1,3.2E1,5E0,2.6E1,2.5E1,1.4E1,3E1,4.7E1,1.24E2,4.6E1,3E0,5.5E1,9E0,2.2E1,2E0,2.1E1,7E0,6E0,1.5E1,5.1E1,6E0,2.3E1],"tree_param":{"num_deleted":"0","num_feature":"11","num_nodes":"83","size_leaf_vector":"1"}},{"base_weights":[-6.9671875E-4,-3.1697717E-2,1.6752547E-2,-3.957203E-2,4.118907E-5,-1.9926804E-3,4.5368057E-2,-3.023777E-2,-6.378413E-2,-5.161137E-3,1.4200788E-2,-4.609494E-3,4.1676898E-2,7.312841E-2,1.4948142E-2,-1.4947538E-2,-3.6469664E-2,-4.086048E-2,-6.562421E-2,-1.1390107E-2,-4.0270924E-3,5.5670952E-3,2.3959826E-4,-7.3444783E-3,1.2614094E-2,5.085729E-2,3.9642514E-3,-4.4086337E-4,7.521243E-2,3.1273977E-3,3.7574112E-2,-1.4331291E-3,-1.621944E-2,-4.4908207E-2,-2.0742664E-2,-7.547168E-4,-2.6386874E-4,-5.9652014E-4,-6.856634E-2,-6.218837E-5,-1.7431493E-4,-1.186721E-3,-5.5063367E-3,8.454146E-5,3.149175E-5,-1.9843673E-2,-3.4653393E-3,-4.9097547E-5,1.3838286E-2,1.0220539E-4,5.647237E-2,9.1393355E-5,-3.7079901E-6,1.1342813E-3,6.1474912E-2,-2.719135E-3,7.6466403E-3,2.2280289E-4,5.6479714E-4,-2.1567794E-4,1.3322898E-4,-1.9080869E-4,-2.8902641E-4,-4.687836E-4,-8.220716E-4,-1.5022249E-4,-4.3488035E-4,-6.043652E-4,-9.5662643E-4,-4.4477652E-5,5.6348083E-5,-9.7169934E-5,-3.28553E-5,-4.5951316E-4,-8.65844E-5,7.629085E-6,-1.8999484E-4,2.3023014E-4,8.136207E-5,8.631938E-4,4.539684E-4,6.359723E-4,9.601834E-4,-1.098036E-4,4.9100094E-5,-2.2363858E-5,1.5176542E-4],"categories":[],"categories_nodes":[],"categories_segments":[],"categories_sizes":[],"default_left":[0,0,0,0,0,0,0,0,0,0,0,0,0,0,0,0,0,0,0,0,0,0,0,0,0,0,0,0,0,0,0,0,0,0,0,0,0,0,0,0,0,0,0,0,0,0,0,0,0,0,0,0,0,0,0,0,0,0,0,0,0,0,0,0,0,0,0,0,0,0,0,0,0,0,0,0,0,0,0,0,0,0,0,0,0,0,0],"id":12,"left_children":[1,3,5,7,9,11,13,15,17,19,21,23,25,27,29,31,33,35,37,39,41,43,-1,45,47,49,51,-1,53,55,57,59,61,63,65,-1,-1,-1,67,-1,-1,69,71,-1,-1,73,75,-1,77,-1,79,-1,-1,-1,81,83,85,-1,-1,-1,-1,-1,-1,-1,-1,-1,-1,-1,-1,-1,-1,-1,-1,-1,-1,-1,-1,-1,-1,-1,-1,-1,-1,-1,-1,-1,-1],"loss_changes":[4.9116775E-1,8.1726134E-2,3.1174123E-1,5.728388E-2,4.9350406E-3,4.0416956E-2,1.931344E-1,1.7654702E-2,3.556013E-4,3.0026364E-4,4.982627E-4,1.5779022E-2,6.7227297E-3,2.90941E-2,2.9570084E-2,9.5652975E-4,1.6984731E-2,1.5557464E-3,8.7219477E-4,2.0321691E-5,1.7413445E-4,2.8409122E-6,0E0,1.3895235E-2,9.698598E-4,3.4422986E-3,6.392866E-5,0E0,1.137042E-2,1.9760127E-3,3.2216832E-3,1.183102E-3,2.193246E-4,1.2017846E-2,5.1818453E-3,0E0,0E0,0E0,1.169771E-3,0E0,0E0,2.0238379E-4,1.3592863E-4,0E0,0E0,1.3161335E-2,9.696676E-3,0E0,1.0568108E-3,0E0,4.46368E-4,0E0,0E0,0E0,4.4926703E-3,1.207183E-3,1.5042569E-3,0E0,0E0,0E0,0E0,0E0,0E0,0E0,0E0,0E0,0E0,0E0,0E0,0E0,0E0,0E0,0E0,0E0,0E0,0E0,0E0,0E0,0E0,0E0,0E0,0E0,0E0,0E0,0E0,0E0,0E0],"parents":[2147483647,0,0,1,1,2,2,3,3,4,4,5,5,6,6,7,7,8,8,9,9,10,10,11,11,12,12,13,13,14,14,15,15,16,16,17,17,18,18,19,19,20,20,21,21,23,23,24,24,25,25,26,26,28,28,29,29,30,30,31,31,32,32,33,33,34,34,38,38,41,41,42,42,45,45,46,46,48,48,50,50,54,54,55,55,56,56],"right_children":[2,4,6,8,10,12,14,16,18,20,22,24,26,28,30,32,34,36,38,40,42,44,-1,46,48,50,52,-1,54,56,58,60,62,64,66,-1,-1,-1,68,-1,-1,70,72,-1,-1,74,76,-1,78,-1,80,-1,-1,-1,82,84,86,-1,-1,-1,-1,-1,-1,-1,-1,-1,-1,-1,-1,-1,-1,-1,-1,-1,-1,-1,-1,-1,-1,-1,-1,-1,-1,-1,-1,-1,-1],"split_conditions":[1E0,3.1880064E0,2.0877712E0,1.9898236E0,3.3315163E0,7.162753E6,3.1880064E0,1.1111435E0,2.2985298E5,6.108624E-2,3.3396776E0,2.946779E6,1.1111435E0,2.7372472E-2,3.3233504E0,6.108421E-1,1.7848761E0,2.110666E0,2.0877712E0,3.2111053E0,2.536933E-1,8E-1,2.3959826E-4,1.4023714E0,2.9618508E-1,2.9818094E-1,1.1151929E0,-4.4086337E-4,2.7844307E0,7.0540706E5,1.8999061E-1,6E-1,8.763415E5,1.6171806E0,1.9733926E0,-7.547168E-4,-2.6386874E-4,-5.9652014E-4,4E-3,-6.218837E-5,-1.7431493E-4,3.3151796E0,3.3086744E-1,8.454146E-5,3.149175E-5,1.8999061E-1,1.9733926E0,-4.9097547E-5,3.551998E-1,1.0220539E-4,3.5437748E-1,9.1393355E-5,-3.7079901E-6,1.1342813E-3,6E-1,3.218797E0,4E-3,2.2280289E-4,5.6479714E-4,-2.1567794E-4,1.3322898E-4,-1.9080869E-4,-2.8902641E-4,-4.687836E-4,-8.220716E-4,-1.5022249E-4,-4.3488035E-4,-6.043652E-4,-9.5662643E-4,-4.4477652E-5,5.6348083E-5,-9.7169934E-5,-3.28553E-5,-4.5951316E-4,-8.65844E-5,7.629085E-6,-1.8999484E-4,2.3023014E-4,8.136207E-5,8.631938E-4,4.539684E-4,6.359723E-4,9.601834E-4,-1.098036E-4,4.9100094E-5,-2.2363858E-5,1.5176542E-4],"split_indices":[10,0,0,0,0,5,0,0,5,4,0,6,0,4,0,0,0,0,0,0,4,2,0,0,4,4,0,0,0,7,4,2,7,0,0,0,0,0,1,0,0,0,4,0,0,4,0,0,4,0,4,0,0,0,2,0,1,0,0,0,0,0,0,0,0,0,0,0,0,0,0,0,0,0,0,0,0,0,0,0,0,0,0,0,0,0,0],"split_type":[0,0,0,0,0,0,0,0,0,0,0,0,0,0,0,0,0,0,0,0,0,0,0,0,0,0,0,0,0,0,0,0,0,0,0,0,0,0,0,0,0,0,0,0,0,0,0,0,0,0,0,0,0,0,0,0,0,0,0,0,0,0,0,0,0,0,0,0,0,0,0,0,0,0,0,0,0,0,0,0,0,0,0,0,0,0,0],"sum_hessian":[9.06E2,3.26E2,5.8E2,2.61E2,6.5E1,3.51E2,2.29E2,1.9E2,7.1E1,4.8E1,1.7E1,3.32E2,1.9E1,1.19E2,1.1E2,5.6E1,1.34E2,7E0,6.4E1,6E0,4.2E1,6E0,1.1E1,2.87E2,4.5E1,1.5E1,4E0,2E0,1.17E2,7.3E1,3.7E1,5E0,5.1E1,8.6E1,4.8E1,3E0,4E0,1E1,5.4E1,2E0,4E0,1.5E1,2.7E1,4E0,2E0,6.7E1,2.2E2,3E0,4.2E1,2E0,1.3E1,2E0,2E0,6.4E1,5.3E1,3.2E1,4.1E1,8E0,2.9E1,2E0,3E0,4.1E1,1E1,5.7E1,2.9E1,2.8E1,2E1,9E0,4.5E1,1.1E1,4E0,1.6E1,1.1E1,3.1E1,3.6E1,1.61E2,5.9E1,2.8E1,1.4E1,8E0,5E0,2.6E1,2.7E1,1.7E1,1.5E1,1.2E1,2.9E1],"tree_param":{"num_deleted":"0","num_feature":"11","num_nodes":"87","size_leaf_vector":"1"}},{"base_weights":[1.548452E-3,-2.9332345E-2,1.8096639E-2,-3.6190886E-2,1.9102097E-4,-1.6900016E-3,4.728071E-2,-2.8090233E-2,-6.030414E-2,-3.598815E-3,1.9500082E-2,-3.6226949E-3,7.019033E-4,7.772533E-2,1.6177403E-2,-1.435819E-2,-3.4073934E-2,-3.970854E-2,-8.419502E-4,-2.188437E-3,-8.528515E-3,7.829508E-5,2.9413143E-4,-5.449338E-3,1.464275E-2,1.0781067E-2,7.996008E-2,4.4827573E-3,3.886989E-2,7.82149E-5,-1.590998E-2,-3.9950214E-2,-2.2471586E-2,-4.4691328E-2,-1.529398E-4,-7.3969696E-4,-4.650273E-3,-4.270728E-3,-1.6965793E-4,-1.4500795E-2,-2.3694115E-3,5.7018623E-3,1.7012931E-2,-5.5104363E-5,2.9357104E-4,1.1524756E-3,6.432846E-2,-2.9806078E-3,1.3035242E-2,5.547115E-4,2.534494E-4,-3.0206217E-4,-1.8221195E-4,-4.1820516E-4,-7.912044E-4,-3.833587E-5,-3.964734E-4,-2.3631717E-4,-6.613003E-4,-7.647127E-5,1.7335793E-5,-1.6478809E-4,-3.3182398E-5,-2.3661658E-5,-6.515304E-5,-2.7667932E-4,2.1238317E-4,1.8467745E-5,-1.7085052E-4,-1.2293352E-4,2.1942165E-4,1.4886048E-4,2.6201672E-4,1.0503111E-3,7.497253E-4,-1.149033E-4,5.2836665E-5,7.4672906E-5,2.726332E-4],"categories":[],"categories_nodes":[],"categories_segments":[],"categories_sizes":[],"default_left":[0,0,0,0,0,0,0,0,0,0,0,0,0,0,0,0,0,0,0,0,0,0,0,0,0,0,0,0,0,0,0,0,0,0,0,0,0,0,0,0,0,0,0,0,0,0,0,0,0,0,0,0,0,0,0,0,0,0,0,0,0,0,0,0,0,0,0,0,0,0,0,0,0,0,0,0,0,0,0],"id":13,"left_children":[1,3,5,7,9,11,13,15,17,19,21,23,-1,25,27,29,31,33,-1,35,37,-1,-1,39,41,43,45,47,49,-1,51,53,55,57,-1,59,61,63,-1,65,67,69,71,-1,-1,-1,73,75,77,-1,-1,-1,-1,-1,-1,-1,-1,-1,-1,-1,-1,-1,-1,-1,-1,-1,-1,-1,-1,-1,-1,-1,-1,-1,-1,-1,-1,-1,-1],"loss_changes":[4.5840582E-1,6.33854E-2,3.373134E-1,4.7920674E-2,4.4608675E-3,3.700525E-2,2.2221774E-1,1.5287101E-2,1.5508533E-3,3.359256E-4,2.3139175E-4,1.1356978E-2,0E0,1.6940713E-2,3.1140668E-2,1.9793455E-3,8.170009E-3,1.0297894E-3,0E0,1.427892E-4,1.4469924E-4,0E0,0E0,8.55201E-3,5.5993255E-4,9.385198E-4,6.779492E-3,5.0814487E-3,1.5171915E-3,0E0,5.2392576E-4,1.2559831E-2,6.727107E-3,3.55836E-4,0E0,2.8496745E-4,2.1942187E-4,2.3674074E-6,0E0,1.543498E-2,9.143725E-3,1.4498924E-3,1.5832577E-4,0E0,0E0,0E0,5.635619E-5,1.7340366E-3,1.9424078E-3,0E0,0E0,0E0,0E0,0E0,0E0,0E0,0E0,0E0,0E0,0E0,0E0,0E0,0E0,0E0,0E0,0E0,0E0,0E0,0E0,0E0,0E0,0E0,0E0,0E0,0E0,0E0,0E0,0E0,0E0],"parents":[2147483647,0,0,1,1,2,2,3,3,4,4,5,5,6,6,7,7,8,8,9,9,10,10,11,11,13,13,14,14,15,15,16,16,17,17,19,19,20,20,23,23,24,24,25,25,26,26,27,27,28,28,30,30,31,31,32,32,33,33,35,35,36,36,37,37,39,39,40,40,41,41,42,42,46,46,47,47,48,48],"right_children":[2,4,6,8,10,12,14,16,18,20,22,24,-1,26,28,30,32,34,-1,36,38,-1,-1,40,42,44,46,48,50,-1,52,54,56,58,-1,60,62,64,-1,66,68,70,72,-1,-1,-1,74,76,78,-1,-1,-1,-1,-1,-1,-1,-1,-1,-1,-1,-1,-1,-1,-1,-1,-1,-1,-1,-1,-1,-1,-1,-1,-1,-1,-1,-1,-1,-1],"split_conditions":[1E0,3.1880064E0,2.0877712E0,1.9898236E0,3.3396776E0,8.3645025E6,3.1880064E0,1.1111435E0,2E-1,1.6E-2,7.082404E-1,3.1183355E6,7.019033E-4,5.2205938E4,3.3233504E0,6.108421E-1,1.7848761E0,2.7976272E0,-8.419502E-4,4.0945925E6,8.258281E-1,7.829508E-5,2.9413143E-4,1.4023714E0,6.6527975E-1,9.975049E-1,2.7910297E0,3.218797E0,9.0480053E-1,7.82149E-5,1.3834708E5,1.6171806E0,1.7960024E0,2.0877712E0,-1.529398E-4,3.658308E5,4.105099E6,3.2264843E0,-1.6965793E-4,7.162753E6,1.9733926E0,1.6E-2,8E-3,-5.5104363E-5,2.9357104E-4,1.1524756E-3,7.0974493E-1,2.9518154E-1,2.051549E6,5.547115E-4,2.534494E-4,-3.0206217E-4,-1.8221195E-4,-4.1820516E-4,-7.912044E-4,-3.833587E-5,-3.964734E-4,-2.3631717E-4,-6.613003E-4,-7.647127E-5,1.7335793E-5,-1.6478809E-4,-3.3182398E-5,-2.3661658E-5,-6.515304E-5,-2.7667932E-4,2.1238317E-4,1.8467745E-5,-1.7085052E-4,-1.2293352E-4,2.1942165E-4,1.4886048E-4,2.6201672E-4,1.0503111E-3,7.497253E-4,-1.149033E-4,5.2836665E-5,7.4672906E-5,2.726332E-4],"split_indices":[10,0,0,0,0,5,0,0,2,1,3,6,0,5,0,0,0,0,0,5,3,0,0,0,3,3,0,0,3,0,7,0,0,0,0,7,5,0,0,5,0,1,1,0,0,0,3,4,5,0,0,0,0,0,0,0,0,0,0,0,0,0,0,0,0,0,0,0,0,0,0,0,0,0,0,0,0,0,0],"split_type":[0,0,0,0,0,0,0,0,0,0,0,0,0,0,0,0,0,0,0,0,0,0,0,0,0,0,0,0,0,0,0,0,0,0,0,0,0,0,0,0,0,0,0,0,0,0,0,0,0,0,0,0,0,0,0,0,0,0,0,0,0,0,0,0,0,0,0,0,0,0,0,0,0,0,0,0,0,0,0],"sum_hessian":[8.95E2,3.12E2,5.83E2,2.53E2,5.9E1,3.48E2,2.35E2,1.91E2,6.2E1,5E1,9E0,3.37E2,1.1E1,1.18E2,1.17E2,5.9E1,1.32E2,1E1,5.2E1,4E1,1E1,2E0,7E0,3.07E2,3E1,4E0,1.14E2,7.8E1,3.9E1,4E0,5.5E1,8.6E1,4.6E1,8E0,2E0,2.6E1,1.4E1,6E0,4E0,7.7E1,2.3E2,7E0,2.3E1,2E0,2E0,7.6E1,3.8E1,4.2E1,3.6E1,3.3E1,6E0,1.1E1,4.4E1,6.2E1,2.4E1,1.3E1,3.3E1,2E0,6E0,7E0,1.9E1,2E0,1.2E1,2E0,4E0,6.4E1,1.3E1,1.7E2,6E1,3E0,4E0,9E0,1.4E1,1E1,2.8E1,2.3E1,1.9E1,1.9E1,1.7E1],"tree_param":{"num_deleted":"0","num_feature":"11","num_nodes":"79","size_leaf_vector":"1"}},{"base_weights":[1.3362829E-3,-2.844958E-2,1.752418E-2,-3.5162974E-2,3.32731E-4,-1.0882893E-3,4.4572588E-2,-2.7066542E-2,-5.816394E-2,-3.8917894E-3,1.9504847E-2,-3.3116136E-3,5.5262633E-2,7.500445E-2,1.6971707E-2,-1.3157378E-2,-3.3592336E-2,-4.011039E-2,-6.1098732E-2,-2.3824573E-3,-1.7018E-4,2.9318055E-4,1.254954E-4,-4.94873E-3,1.5183122E-2,4.4118494E-4,8.609079E-4,-4.3647518E-4,7.728586E-2,8.460733E-3,3.5304327E-2,-4.0269075E-3,-1.5736539E-2,-4.107001E-2,-2.1497222E-2,-4.9346425E-2,-2.2973694E-4,-5.791651E-4,-8.5036305E-4,-3.7835152E-3,9.302497E-3,-2.6878994E-3,-1.4253048E-2,2.0557718E-2,9.512931E-3,6.937508E-2,1.2302027E-3,3.857033E-2,3.9914395E-3,5.306058E-4,2.6231166E-4,3.9326493E-5,-1.6508282E-4,-2.828928E-4,-1.8191559E-4,-4.0342505E-4,-7.976426E-4,-3.9512604E-5,-3.5190184E-4,-2.3422645E-4,-7.5608253E-4,-7.090405E-5,-1.099991E-5,1.744791E-4,3.128304E-5,-1.5151758E-4,2.141351E-5,-3.6009218E-4,-1.4692477E-4,1.09417415E-4,2.925943E-4,1.6592859E-4,-8.77737E-5,4.1259997E-4,9.4320293E-4,3.0668676E-4,6.31765E-4,-7.61536E-5,9.734995E-5],"categories":[],"categories_nodes":[],"categories_segments":[],"categories_sizes":[],"default_left":[0,0,0,0,0,0,0,0,0,0,0,0,0,0,0,0,0,0,0,0,0,0,0,0,0,0,0,0,0,0,0,0,0,0,0,0,0,0,0,0,0,0,0,0,0,0,0,0,0,0,0,0,0,0,0,0,0,0,0,0,0,0,0,0,0,0,0,0,0,0,0,0,0,0,0,0,0,0,0],"id":14,"left_children":[1,3,5,7,9,11,13,15,17,19,21,23,25,27,29,31,33,35,37,39,-1,-1,-1,41,43,-1,-1,-1,45,47,49,51,53,55,57,59,-1,-1,-1,61,63,65,67,69,71,73,-1,75,77,-1,-1,-1,-1,-1,-1,-1,-1,-1,-1,-1,-1,-1,-1,-1,-1,-1,-1,-1,-1,-1,-1,-1,-1,-1,-1,-1,-1,-1,-1],"loss_changes":[4.2721942E-1,6.0298562E-2,2.8902176E-1,4.554081E-2,4.9354886E-3,4.2905662E-2,1.9527441E-1,1.6713247E-2,9.932369E-4,6.434615E-4,7.698359E-5,1.003661E-2,5.9346855E-4,2.9864311E-2,1.9048832E-2,1.3966663E-3,1.0693848E-2,1.6727298E-3,9.49204E-6,7.5553317E-4,0E0,0E0,0E0,6.335442E-3,6.272611E-4,0E0,0E0,0E0,6.85668E-3,1.141895E-2,2.0440184E-3,9.188851E-4,2.5126245E-4,1.4015734E-2,4.661169E-3,9.279046E-4,0E0,0E0,0E0,1.7983693E-4,1.0251632E-4,9.217365E-3,2.1178694E-3,5.66151E-5,8.059166E-4,2.7229786E-3,0E0,4.362613E-4,2.5147176E-3,0E0,0E0,0E0,0E0,0E0,0E0,0E0,0E0,0E0,0E0,0E0,0E0,0E0,0E0,0E0,0E0,0E0,0E0,0E0,0E0,0E0,0E0,0E0,0E0,0E0,0E0,0E0,0E0,0E0,0E0],"parents":[2147483647,0,0,1,1,2,2,3,3,4,4,5,5,6,6,7,7,8,8,9,9,10,10,11,11,12,12,13,13,14,14,15,15,16,16,17,17,18,18,19,19,23,23,24,24,28,28,29,29,30,30,31,31,32,32,33,33,34,34,35,35,39,39,40,40,41,41,42,42,43,43,44,44,45,45,47,47,48,48],"right_children":[2,4,6,8,10,12,14,16,18,20,22,24,26,28,30,32,34,36,38,40,-1,-1,-1,42,44,-1,-1,-1,46,48,50,52,54,56,58,60,-1,-1,-1,62,64,66,68,70,72,74,-1,76,78,-1,-1,-1,-1,-1,-1,-1,-1,-1,-1,-1,-1,-1,-1,-1,-1,-1,-1,-1,-1,-1,-1,-1,-1,-1,-1,-1,-1,-1,-1],"split_conditions":[1E0,3.1880064E0,2.0877712E0,1.9898236E0,3.3396776E0,8.3645025E6,2.8108165E0,1.1111435E0,2E-1,9.900774E-1,8E-1,3.5666232E6,6.666667E-1,6.5977174E-1,3.3233504E0,6.119994E-1,1.7848761E0,2.7778301E0,2.0877712E0,3.3315163E0,-1.7018E-4,2.9318055E-4,1.254954E-4,1.9733926E0,3.8772965E6,4.4118494E-4,8.609079E-4,-4.3647518E-4,1.8719636E6,3.1880064E0,9.0480053E-1,8.314476E-1,7.082404E-1,1.6171806E0,1.7922965E0,2.0877712E0,-2.2973694E-4,-5.791651E-4,-8.5036305E-4,8.27695E-1,6E-1,1.4023714E0,1.8644114E-1,8.365562E-1,1.1131696E0,5.2205938E4,1.2302027E-3,2.0178612E6,1.9173731E-1,5.306058E-4,2.6231166E-4,3.9326493E-5,-1.6508282E-4,-2.828928E-4,-1.8191559E-4,-4.0342505E-4,-7.976426E-4,-3.9512604E-5,-3.5190184E-4,-2.3422645E-4,-7.5608253E-4,-7.090405E-5,-1.099991E-5,1.744791E-4,3.128304E-5,-1.5151758E-4,2.141351E-5,-3.6009218E-4,-1.4692477E-4,1.09417415E-4,2.925943E-4,1.6592859E-4,-8.77737E-5,4.1259997E-4,9.4320293E-4,3.0668676E-4,6.31765E-4,-7.61536E-5,9.734995E-5],"split_indices":[10,0,0,0,0,5,0,0,2,3,2,6,3,3,0,0,0,0,0,0,0,0,0,0,6,0,0,0,6,0,3,3,3,0,0,0,0,0,0,3,2,0,4,0,0,5,0,5,4,0,0,0,0,0,0,0,0,0,0,0,0,0,0,0,0,0,0,0,0,0,0,0,0,0,0,0,0,0,0],"split_type":[0,0,0,0,0,0,0,0,0,0,0,0,0,0,0,0,0,0,0,0,0,0,0,0,0,0,0,0,0,0,0,0,0,0,0,0,0,0,0,0,0,0,0,0,0,0,0,0,0,0,0,0,0,0,0,0,0,0,0,0,0,0,0,0,0,0,0,0,0,0,0,0,0,0,0,0,0,0,0],"sum_hessian":[8.84E2,3.11E2,5.73E2,2.52E2,5.9E1,3.4E2,2.33E2,1.88E2,6.4E1,4.9E1,1E1,3.28E2,1.2E1,1.1E2,1.23E2,6.1E1,1.27E2,1.1E1,5.3E1,4.3E1,6E0,7E0,3E0,3.02E2,2.6E1,5E0,7E0,2E0,1.08E2,8.5E1,3.8E1,1.4E1,4.7E1,7.7E1,5E1,7E0,4E0,1E1,4.3E1,3.9E1,4E0,2.44E2,5.8E1,1.2E1,1.4E1,7.5E1,3.3E1,1E1,7.5E1,2.8E1,1E1,8E0,6E0,1E1,3.7E1,5.1E1,2.6E1,1.1E1,3.9E1,2E0,5E0,2.5E1,1.4E1,2E0,2E0,8E1,1.64E2,1E1,4.8E1,2E0,1E1,1.2E1,2E0,4E0,7.1E1,5E0,5E0,1.9E1,5.6E1],"tree_param":{"num_deleted":"0","num_feature":"11","num_nodes":"79","size_leaf_vector":"1"}},{"base_weights":[-1.3385914E-4,-3.0539831E-2,1.5842387E-2,-3.7122987E-2,6.570366E-4,-2.0048833E-3,4.3391213E-2,-2.9785087E-2,-6.2218726E-2,-4.2281053E-3,1.5265531E-2,-3.537387E-3,5.798553E-2,7.106997E-2,1.5578161E-2,-1.3007048E-2,-3.688277E-2,-3.0972596E-2,-6.528743E-2,-3.0120064E-3,-1.1022697E-2,1.7890723E-2,-4.296654E-6,-5.1099737E-3,1.9111237E-2,2.918561E-4,8.643402E-4,8.333994E-2,5.5438895E-2,1.2686952E-3,3.3440594E-2,7.750953E-5,-1.4432133E-2,-2.3735868E-2,-4.1724287E-2,-4.8573787E-4,-1.4955389E-4,-4.4745956E-2,-9.184639E-4,-4.5433105E-3,2.2568638E-3,-5.9455862E-5,-1.7483826E-4,9.934318E-3,2.7375127E-4,-1.5277302E-2,-1.3916476E-3,7.7776387E-3,3.1298748E-4,9.836773E-4,1.2893634E-3,4.194552E-2,8.709328E-4,-1.0315085E-2,4.877946E-3,2.1006629E-2,4.0555365E-2,-1.675066E-4,-2.8771674E-4,-4.2742983E-4,-1.9294022E-4,-6.0708E-4,-4.5337755E-4,-7.265473E-4,-3.6216326E-4,-2.4466039E-5,-8.7878994E-5,-4.1168905E-6,7.356682E-5,1.7293527E-4,4.6802154E-5,-2.6081747E-4,2.2742184E-4,2.7308548E-5,-1.6092039E-4,-9.7044925E-5,2.4278837E-4,6.025627E-4,3.032949E-4,-1.9812366E-4,-6.726033E-5,-1.2039379E-4,9.692613E-5,1.5666077E-4,3.974612E-4,5.6588056E-4,2.0318263E-4],"categories":[],"categories_nodes":[],"categories_segments":[],"categories_sizes":[],"default_left":[0,0,0,0,0,0,0,0,0,0,0,0,0,0,0,0,0,0,0,0,0,0,0,0,0,0,0,0,0,0,0,0,0,0,0,0,0,0,0,0,0,0,0,0,0,0,0,0,0,0,0,0,0,0,0,0,0,0,0,0,0,0,0,0,0,0,0,0,0,0,0,0,0,0,0,0,0,0,0,0,0,0,0,0,0,0,0],"id":15,"left_children":[1,3,5,7,9,11,13,15,17,19,21,23,25,27,29,31,33,35,37,39,41,43,-1,45,47,-1,-1,49,51,53,55,-1,57,59,61,-1,-1,63,-1,65,67,-1,-1,69,-1,71,73,75,-1,-1,-1,77,-1,79,81,83,85,-1,-1,-1,-1,-1,-1,-1,-1,-1,-1,-1,-1,-1,-1,-1,-1,-1,-1,-1,-1,-1,-1,-1,-1,-1,-1,-1,-1,-1,-1],"loss_changes":[4.3719402E-1,6.3690275E-2,2.9017308E-1,4.528922E-2,3.9895955E-3,3.320998E-2,1.774936E-1,2.3337305E-2,3.4433454E-3,3.138411E-4,5.787406E-4,1.2599196E-2,8.815229E-4,1.7627656E-2,2.9862996E-2,1.7226953E-3,7.920772E-3,3.637639E-4,1.0086298E-3,3.0877866E-4,2.5434303E-5,5.6347577E-5,0E0,1.241673E-2,9.823944E-4,0E0,0E0,8.226335E-4,4.6691597E-3,2.8096952E-3,3.7482418E-3,0E0,4.7429092E-4,2.648348E-3,1.5071183E-3,0E0,0E0,4.2619742E-4,0E0,1.5051657E-4,7.764714E-5,0E0,0E0,5.3250173E-5,0E0,1.2816757E-2,8.984806E-3,1.4033148E-3,0E0,0E0,0E0,6.787069E-4,0E0,3.1165674E-4,1.7917777E-3,1.3744989E-3,1.0305233E-3,0E0,0E0,0E0,0E0,0E0,0E0,0E0,0E0,0E0,0E0,0E0,0E0,0E0,0E0,0E0,0E0,0E0,0E0,0E0,0E0,0E0,0E0,0E0,0E0,0E0,0E0,0E0,0E0,0E0,0E0],"parents":[2147483647,0,0,1,1,2,2,3,3,4,4,5,5,6,6,7,7,8,8,9,9,10,10,11,11,12,12,13,13,14,14,15,15,16,16,17,17,18,18,19,19,20,20,21,21,23,23,24,24,27,27,28,28,29,29,30,30,32,32,33,33,34,34,37,37,39,39,40,40,43,43,45,45,46,46,47,47,51,51,53,53,54,54,55,55,56,56],"right_children":[2,4,6,8,10,12,14,16,18,20,22,24,26,28,30,32,34,36,38,40,42,44,-1,46,48,-1,-1,50,52,54,56,-1,58,60,62,-1,-1,64,-1,66,68,-1,-1,70,-1,72,74,76,-1,-1,-1,78,-1,80,82,84,86,-1,-1,-1,-1,-1,-1,-1,-1,-1,-1,-1,-1,-1,-1,-1,-1,-1,-1,-1,-1,-1,-1,-1,-1,-1,-1,-1,-1,-1,-1],"split_conditions":[1E0,3.1880064E0,2.0877712E0,2.0877712E0,3.3315163E0,7.799442E6,3.1880064E0,1.1111435E0,2.2985298E5,9.900774E-1,9.900774E-1,3.5666232E6,6.666667E-1,2.7844307E0,3.3151796E0,6.108421E-1,2.6228475E6,2.7976272E0,4E-3,3.3151796E0,3.2111053E0,3.3396776E0,-4.296654E-6,1.4023714E0,6.6527975E-1,2.918561E-4,8.643402E-4,1.8719636E6,6.967858E5,8.761726E5,3.3315163E0,7.750953E-5,9.0909094E-1,1.7848761E0,1.7848761E0,-4.8573787E-4,-1.4955389E-4,2.0923555E0,-9.184639E-4,3.2111053E0,8.314476E-1,-5.9455862E-5,-1.7483826E-4,6E-1,2.7375127E-4,7.162753E6,1.9733926E0,1.6E-2,3.1298748E-4,9.836773E-4,1.2893634E-3,2.8108165E0,8.709328E-4,3.2999602E3,3.1957097E0,9.0932056E5,9.900774E-1,-1.675066E-4,-2.8771674E-4,-4.2742983E-4,-1.9294022E-4,-6.0708E-4,-4.5337755E-4,-7.265473E-4,-3.6216326E-4,-2.4466039E-5,-8.7878994E-5,-4.1168905E-6,7.356682E-5,1.7293527E-4,4.6802154E-5,-2.6081747E-4,2.2742184E-4,2.7308548E-5,-1.6092039E-4,-9.7044925E-5,2.4278837E-4,6.025627E-4,3.032949E-4,-1.9812366E-4,-6.726033E-5,-1.2039379E-4,9.692613E-5,1.5666077E-4,3.974612E-4,5.6588056E-4,2.0318263E-4],"split_indices":[10,0,0,0,0,5,0,0,5,3,3,6,3,0,0,0,5,0,1,0,0,0,0,0,3,0,0,6,7,5,0,0,3,0,0,0,0,0,0,0,3,0,0,2,0,5,0,1,0,0,0,0,0,7,0,7,3,0,0,0,0,0,0,0,0,0,0,0,0,0,0,0,0,0,0,0,0,0,0,0,0,0,0,0,0,0,0],"split_type":[0,0,0,0,0,0,0,0,0,0,0,0,0,0,0,0,0,0,0,0,0,0,0,0,0,0,0,0,0,0,0,0,0,0,0,0,0,0,0,0,0,0,0,0,0,0,0,0,0,0,0,0,0,0,0,0,0,0,0,0,0,0,0,0,0,0,0,0,0,0,0,0,0,0,0,0,0,0,0,0,0,0,0,0,0,0,0],"sum_hessian":[8.98E2,3.09E2,5.89E2,2.55E2,5.4E1,3.58E2,2.31E2,1.99E2,5.6E1,4.1E1,1.3E1,3.5E2,8E0,1.15E2,1.16E2,6E1,1.39E2,6E0,5E1,3.6E1,5E0,1.1E1,2E0,3.28E2,2.2E1,2E0,6E0,6.2E1,5.3E1,6.5E1,5.1E1,4E0,5.6E1,3.9E1,1E2,4E0,2E0,1E1,4E1,2.8E1,8E0,2E0,3E0,4E0,7E0,8.7E1,2.41E2,7E0,1.5E1,4.1E1,2.1E1,2.5E1,2.8E1,1.5E1,5E1,2E1,3.1E1,4.7E1,9E0,1.9E1,2E1,6.2E1,3.8E1,5E0,5E0,1.3E1,1.5E1,5E0,3E0,2E0,2E0,7.7E1,1E1,1.83E2,5.8E1,3E0,4E0,2E1,5E0,7E0,8E0,7E0,4.3E1,1.1E1,9E0,2.8E1,3E0],"tree_param":{"num_deleted":"0","num_feature":"11","num_nodes":"87","size_leaf_vector":"1"}},{"base_weights":[-2.409644E-4,-2.9570773E-2,1.5631456E-2,-3.6084834E-2,-7.584506E-4,-1.8258357E-3,4.059944E-2,-2.7949743E-2,-6.1651304E-2,-5.7701124E-3,1.8933764E-2,-3.4199248E-3,5.6649845E-2,6.7702204E-2,1.4061767E-2,-1.1363339E-2,-3.4311634E-2,-9.4489317E-4,-5.0424173E-2,-9.662818E-3,-3.0207501E-3,1.2152132E-4,2.8102758E-4,-4.828719E-3,1.8587383E-2,2.4539974E-4,8.6145895E-4,-4.4131663E-4,6.9765046E-2,3.3925949E-3,3.6133826E-2,7.668654E-5,-1.2821083E-2,-6.523682E-4,-2.9951274E-2,-5.5626724E-2,-2.5847103E-4,-5.6252684E-5,-1.1297266E-2,-4.1174395E-3,6.453782E-5,-1.4626005E-2,-1.2409844E-3,2.0905245E-2,-2.0113985E-5,1.096634E-3,5.283547E-2,-2.8291657E-3,9.996173E-3,4.0643092E-2,2.520592E-4,-1.51198E-4,-2.5314212E-4,-1.5260946E-4,-4.7147713E-4,-2.7934206E-4,-8.089848E-4,-5.299255E-5,-1.61671E-4,-6.7572895E-5,-1.7108172E-5,-4.83162E-4,-3.816811E-5,3.651987E-5,-1.6544884E-4,1.4166879E-4,3.0611534E-4,8.3762046E-4,5.543557E-4,-1.4101458E-4,2.898984E-5,5.3681E-5,2.2621504E-4,2.9372392E-4,5.6588923E-4],"categories":[],"categories_nodes":[],"categories_segments":[],"categories_sizes":[],"default_left":[0,0,0,0,0,0,0,0,0,0,0,0,0,0,0,0,0,0,0,0,0,0,0,0,0,0,0,0,0,0,0,0,0,0,0,0,0,0,0,0,0,0,0,0,0,0,0,0,0,0,0,0,0,0,0,0,0,0,0,0,0,0,0,0,0,0,0,0,0,0,0,0,0,0,0],"id":16,"left_children":[1,3,5,7,9,11,13,15,17,19,21,23,25,27,29,31,33,-1,35,37,39,-1,-1,41,43,-1,-1,-1,45,47,49,-1,51,-1,53,55,-1,-1,57,59,-1,61,63,65,-1,-1,67,69,71,73,-1,-1,-1,-1,-1,-1,-1,-1,-1,-1,-1,-1,-1,-1,-1,-1,-1,-1,-1,-1,-1,-1,-1,-1,-1],"loss_changes":[4.0966752E-1,5.7967395E-2,2.4895781E-1,5.068925E-2,5.8333115E-3,3.1607345E-2,1.680704E-1,1.9975618E-2,2.8405786E-3,4.7382654E-4,6.9107395E-5,1.0289992E-2,1.6368311E-3,2.6477516E-2,2.8136283E-2,1.4484334E-3,7.524684E-3,0E0,3.9079487E-3,1.2056052E-4,2.7075494E-4,0E0,0E0,1.0878367E-2,9.636027E-4,0E0,0E0,0E0,2.0465553E-2,3.397323E-3,2.242554E-3,0E0,2.3819972E-4,0E0,1.0906234E-2,3.5090223E-3,0E0,0E0,4.1820225E-5,6.507401E-5,0E0,2.1136524E-2,1.0253481E-2,1.5163701E-4,0E0,0E0,3.2779872E-3,1.7039502E-3,1.6091135E-3,1.6507506E-4,0E0,0E0,0E0,0E0,0E0,0E0,0E0,0E0,0E0,0E0,0E0,0E0,0E0,0E0,0E0,0E0,0E0,0E0,0E0,0E0,0E0,0E0,0E0,0E0,0E0],"parents":[2147483647,0,0,1,1,2,2,3,3,4,4,5,5,6,6,7,7,8,8,9,9,10,10,11,11,12,12,13,13,14,14,15,15,16,16,18,18,19,19,20,20,23,23,24,24,28,28,29,29,30,30,32,32,34,34,35,35,38,38,39,39,41,41,42,42,43,43,46,46,47,47,48,48,49,49],"right_children":[2,4,6,8,10,12,14,16,18,20,22,24,26,28,30,32,34,-1,36,38,40,-1,-1,42,44,-1,-1,-1,46,48,50,-1,52,-1,54,56,-1,-1,58,60,-1,62,64,66,-1,-1,68,70,72,74,-1,-1,-1,-1,-1,-1,-1,-1,-1,-1,-1,-1,-1,-1,-1,-1,-1,-1,-1,-1,-1,-1,-1,-1,-1],"split_conditions":[1E0,3.1880064E0,2.0877712E0,2.0877712E0,3.3396776E0,7.799442E6,3.1880064E0,1.1111435E0,2.7778301E0,9.057396E5,7.082404E-1,3.5666232E6,6.666667E-1,6.5977174E-1,3.3233504E0,6.108421E-1,1.4023714E0,-9.4489317E-4,9.0909094E-1,3.2111053E0,3.3315163E0,1.2152132E-4,2.8102758E-4,1.4023714E0,7.377989E5,2.4539974E-4,8.6145895E-4,-4.4131663E-4,2.7844307E0,3.218797E0,9.0480053E-1,7.668654E-5,9.0909094E-1,-6.523682E-4,1.6171806E0,2.7844307E0,-2.5847103E-4,-5.6252684E-5,4E-3,7.658745E-1,6.453782E-5,1.8999061E-1,1.9733926E0,8.3524334E-1,-2.0113985E-5,1.096634E-3,7.692308E-1,1.6864008E6,2.0655278E6,3.3315163E0,2.520592E-4,-1.51198E-4,-2.5314212E-4,-1.5260946E-4,-4.7147713E-4,-2.7934206E-4,-8.089848E-4,-5.299255E-5,-1.61671E-4,-6.7572895E-5,-1.7108172E-5,-4.83162E-4,-3.816811E-5,3.651987E-5,-1.6544884E-4,1.4166879E-4,3.0611534E-4,8.3762046E-4,5.543557E-4,-1.4101458E-4,2.898984E-5,5.3681E-5,2.2621504E-4,2.9372392E-4,5.6588923E-4],"split_indices":[10,0,0,0,0,5,0,0,0,7,3,6,3,3,0,0,0,0,3,0,0,0,0,0,7,0,0,0,0,0,3,0,3,0,0,0,0,0,1,3,0,4,0,0,0,0,3,5,5,0,0,0,0,0,0,0,0,0,0,0,0,0,0,0,0,0,0,0,0,0,0,0,0,0,0],"split_type":[0,0,0,0,0,0,0,0,0,0,0,0,0,0,0,0,0,0,0,0,0,0,0,0,0,0,0,0,0,0,0,0,0,0,0,0,0,0,0,0,0,0,0,0,0,0,0,0,0,0,0,0,0,0,0,0,0,0,0,0,0,0,0,0,0,0,0,0,0,0,0,0,0,0,0],"sum_hessian":[8.78E2,3.08E2,5.7E2,2.51E2,5.7E1,3.36E2,2.34E2,1.92E2,5.9E1,4.6E1,1.1E1,3.28E2,8E0,1.15E2,1.19E2,5.4E1,1.38E2,2.9E1,3E1,1.8E1,2.8E1,3E0,8E0,3.09E2,1.9E1,2E0,6E0,2E0,1.13E2,8.1E1,3.8E1,4E0,5E1,2.9E1,1.09E2,2.5E1,5E0,5E0,1.3E1,2.5E1,3E0,8.2E1,2.27E2,1.7E1,2E0,6.2E1,5.1E1,4.2E1,3.9E1,2.9E1,9E0,4.3E1,7E0,2.6E1,8.3E1,4E0,2.1E1,2E0,1.1E1,1.8E1,7E0,2.8E1,5.4E1,1.68E2,5.9E1,4E0,1.3E1,2.4E1,2.7E1,1.6E1,2.6E1,2.2E1,1.7E1,4E0,2.5E1],"tree_param":{"num_deleted":"0","num_feature":"11","num_nodes":"75","size_leaf_vector":"1"}},{"base_weights":[-7.470646E-5,-2.9904421E-2,1.5844908E-2,-3.6517244E-2,1.2987516E-3,-1.699285E-3,4.24737E-2,-2.8293416E-2,-6.1660886E-2,-3.8956965E-3,2.6857137E-4,-3.405363E-3,5.118852E-2,7.31668E-2,1.6559025E-2,-1.3785218E-2,-3.3934895E-2,-9.304104E-4,-4.963307E-2,-5.181118E-3,5.1088235E-3,-5.9820917E-3,1.2394362E-2,4.303638E-4,8.151002E-4,-1.4411894E-4,7.490381E-2,7.530693E-3,3.807229E-2,-1.063537E-2,-2.0385727E-2,-6.4367254E-4,-2.999046E-2,-5.3461187E-2,-2.7293814E-4,-3.7343637E-3,-9.588702E-3,3.0021074E-5,7.918616E-5,-6.8398095E-3,1.6628476E-2,1.3632208E-2,-1.4223508E-4,8.364919E-2,8.06313E-4,3.7658364E-2,4.1321595E-3,3.080289E-4,5.5767206E-4,-2.2374514E-4,-7.0367125E-5,-2.8961108E-4,-8.5046595E-5,-1.6825962E-4,-4.7626483E-4,-3.5511478E-4,-7.803475E-4,-3.866603E-5,-1.3835134E-4,-3.5017467E-5,-1.6753847E-4,-2.358446E-4,-4.9849816E-5,3.8979776E-4,-6.021341E-5,3.4761946E-5,2.31481E-4,9.861544E-4,1.2851156E-3,2.2729633E-4,5.981387E-4,-3.6778805E-5,1.4297091E-4],"categories":[],"categories_nodes":[],"categories_segments":[],"categories_sizes":[],"default_left":[0,0,0,0,0,0,0,0,0,0,0,0,0,0,0,0,0,0,0,0,0,0,0,0,0,0,0,0,0,0,0,0,0,0,0,0,0,0,0,0,0,0,0,0,0,0,0,0,0,0,0,0,0,0,0,0,0,0,0,0,0,0,0,0,0,0,0,0,0,0,0,0,0],"id":17,"left_children":[1,3,5,7,9,11,13,15,17,19,-1,21,23,25,27,29,31,-1,33,35,37,39,41,-1,-1,-1,43,45,47,49,51,-1,53,55,-1,57,59,-1,-1,61,63,65,-1,67,-1,69,71,-1,-1,-1,-1,-1,-1,-1,-1,-1,-1,-1,-1,-1,-1,-1,-1,-1,-1,-1,-1,-1,-1,-1,-1,-1,-1],"loss_changes":[4.2169023E-1,6.38068E-2,2.705698E-1,5.098355E-2,5.489345E-3,3.175507E-2,1.8173084E-1,1.5410647E-2,2.8184056E-3,5.357519E-4,0E0,1.3916088E-2,1.19326636E-4,1.6138554E-2,2.4186134E-2,9.474624E-4,6.531507E-3,0E0,2.1274313E-3,2.1288311E-4,1.1552911E-6,5.7960274E-3,1.5193247E-3,0E0,0E0,0E0,7.662177E-3,9.059479E-3,1.1958741E-3,1.2383256E-3,2.0148233E-4,0E0,1.09772235E-2,1.9901693E-3,0E0,1.398804E-4,1.5655311E-4,0E0,0E0,9.472431E-3,3.1000415E-3,1.8843664E-3,0E0,3.182292E-4,0E0,5.976027E-4,3.7890286E-3,0E0,0E0,0E0,0E0,0E0,0E0,0E0,0E0,0E0,0E0,0E0,0E0,0E0,0E0,0E0,0E0,0E0,0E0,0E0,0E0,0E0,0E0,0E0,0E0,0E0,0E0],"parents":[2147483647,0,0,1,1,2,2,3,3,4,4,5,5,6,6,7,7,8,8,9,9,11,11,12,12,13,13,14,14,15,15,16,16,18,18,19,19,20,20,21,21,22,22,26,26,27,27,28,28,29,29,30,30,32,32,33,33,35,35,36,36,39,39,40,40,41,41,43,43,45,45,46,46],"right_children":[2,4,6,8,10,12,14,16,18,20,-1,22,24,26,28,30,32,-1,34,36,38,40,42,-1,-1,-1,44,46,48,50,52,-1,54,56,-1,58,60,-1,-1,62,64,66,-1,68,-1,70,72,-1,-1,-1,-1,-1,-1,-1,-1,-1,-1,-1,-1,-1,-1,-1,-1,-1,-1,-1,-1,-1,-1,-1,-1,-1,-1],"split_conditions":[1E0,3.1880064E0,2.0877712E0,2.0877712E0,3.3396776E0,8.3645025E6,2.8108165E0,1.1111435E0,2.7778301E0,3.3315163E0,2.6857137E-4,3.01075E6,6.666667E-1,2.6676957E4,3.3233504E0,7.702381E6,1.4023714E0,-9.304104E-4,9.8762065E-1,1.6E-2,7.11254E-1,7.3229755E6,7.6755E-1,4.303638E-4,8.151002E-4,-1.4411894E-4,2.7844307E0,3.1880064E0,3.3315163E0,5.2441965E6,8.391764E-1,-6.4367254E-4,1.6171806E0,2.7844307E0,-2.7293814E-4,9.975049E-1,7.6253927E-1,3.0021074E-5,7.918616E-5,1.4023714E0,1.1131696E0,6.6389686E-1,-1.4223508E-4,1.8719636E6,8.06313E-4,1.6662341E6,3.218797E0,3.080289E-4,5.5767206E-4,-2.2374514E-4,-7.0367125E-5,-2.8961108E-4,-8.5046595E-5,-1.6825962E-4,-4.7626483E-4,-3.5511478E-4,-7.803475E-4,-3.866603E-5,-1.3835134E-4,-3.5017467E-5,-1.6753847E-4,-2.358446E-4,-4.9849816E-5,3.8979776E-4,-6.021341E-5,3.4761946E-5,2.31481E-4,9.861544E-4,1.2851156E-3,2.2729633E-4,5.981387E-4,-3.6778805E-5,1.4297091E-4],"split_indices":[10,0,0,0,0,5,0,0,0,0,0,6,3,5,0,5,0,0,3,1,3,5,3,0,0,0,0,0,0,5,0,0,0,0,0,3,3,0,0,0,0,3,0,6,0,5,0,0,0,0,0,0,0,0,0,0,0,0,0,0,0,0,0,0,0,0,0,0,0,0,0,0,0],"split_type":[0,0,0,0,0,0,0,0,0,0,0,0,0,0,0,0,0,0,0,0,0,0,0,0,0,0,0,0,0,0,0,0,0,0,0,0,0,0,0,0,0,0,0,0,0,0,0,0,0,0,0,0,0,0,0,0,0,0,0,0,0,0,0,0,0,0,0,0,0,0,0,0,0],"sum_hessian":[8.86E2,3.08E2,5.78E2,2.54E2,5.4E1,3.49E2,2.29E2,1.93E2,6.1E1,4.3E1,1.1E1,3.39E2,1E1,1.04E2,1.25E2,5.5E1,1.38E2,3.3E1,2.8E1,3.8E1,5E0,2.92E2,4.7E1,5E0,5E0,2E0,1.02E2,8.9E1,3.6E1,3.9E1,1.6E1,2.7E1,1.11E2,2.4E1,4E0,3E1,8E0,2E0,3E0,2.82E2,1E1,4.5E1,2E0,6E1,4.2E1,8E0,8.1E1,9E0,2.7E1,1.7E1,2.2E1,1.4E1,2E0,2.9E1,8.2E1,5E0,1.9E1,2.8E1,2E0,3E0,5E0,6.1E1,2.21E2,6E0,4E0,1.2E1,3.3E1,3.9E1,2.1E1,3E0,5E0,4E1,4.1E1],"tree_param":{"num_deleted":"0","num_feature":"11","num_nodes":"73","size_leaf_vector":"1"}},{"base_weights":[-7.100197E-4,-2.929302E-2,1.4948432E-2,-3.5895843E-2,-5.613795E-4,-2.1746808E-3,4.146149E-2,-2.8490212E-2,-6.022987E-2,-5.381143E-3,1.3330527E-2,-3.8628448E-3,3.657298E-2,7.113549E-2,1.5966242E-2,-1.2576441E-2,-3.435879E-2,-3.4405615E-2,-8.432814E-4,-3.2665033E-3,-8.796322E-3,1.53370155E-2,-6.325139E-6,-1.8805616E-3,-1.2474977E-2,4.604735E-2,-1.318324E-5,-3.164664E-3,7.484505E-2,7.425356E-3,3.3929992E-2,-4.95682E-3,-1.6671874E-2,-4.019846E-2,-2.470484E-2,-6.4848416E-4,-2.5259395E-4,-1.7288143E-3,-6.169E-3,-1.6587913E-3,-1.08648855E-2,2.740574E-4,8.77085E-3,-4.7864662E-3,6.5807533E-3,-2.2126378E-2,-1.0277933E-2,7.3205E-4,1.8622773E-4,-4.361369E-4,2.6410332E-4,1.0860985E-3,8.1792456E-4,3.7132308E-2,3.4708772E-3,3.638971E-2,1.8482607E-4,7.7608565E-5,-1.0408865E-4,-1.8890554E-4,-3.1088447E-4,-4.195221E-4,-7.474429E-4,-1.0604398E-4,-4.0984774E-4,-9.081516E-5,1.0259077E-5,-1.07054104E-4,-1.7333718E-5,7.055795E-6,-4.3746637E-5,-1.6953182E-4,-6.9742964E-5,4.61624E-5,1.4931259E-4,-2.057941E-4,1.2749095E-5,7.1005716E-6,2.0606066E-4,-4.0907544E-4,-1.6925065E-4,-6.7821486E-5,-1.6607998E-4,2.9047558E-4,6.3702575E-4,-1.09147666E-4,8.856386E-5,3.217702E-4,5.187804E-4],"categories":[],"categories_nodes":[],"categories_segments":[],"categories_sizes":[],"default_left":[0,0,0,0,0,0,0,0,0,0,0,0,0,0,0,0,0,0,0,0,0,0,0,0,0,0,0,0,0,0,0,0,0,0,0,0,0,0,0,0,0,0,0,0,0,0,0,0,0,0,0,0,0,0,0,0,0,0,0,0,0,0,0,0,0,0,0,0,0,0,0,0,0,0,0,0,0,0,0,0,0,0,0,0,0,0,0,0,0],"id":18,"left_children":[1,3,5,7,9,11,13,15,17,19,21,23,25,27,29,31,33,35,-1,37,39,41,-1,43,45,47,-1,49,51,53,55,57,59,61,63,-1,-1,65,67,69,71,-1,73,75,77,79,81,-1,-1,-1,-1,-1,-1,83,85,87,-1,-1,-1,-1,-1,-1,-1,-1,-1,-1,-1,-1,-1,-1,-1,-1,-1,-1,-1,-1,-1,-1,-1,-1,-1,-1,-1,-1,-1,-1,-1,-1,-1],"loss_changes":[4.0593225E-1,6.0876727E-2,2.6612598E-1,4.5318574E-2,4.156031E-3,2.3493508E-2,1.7286986E-1,1.84329E-2,2.9445738E-3,3.0347297E-4,4.5057107E-4,5.8321287E-3,5.384499E-3,2.9452682E-2,1.8926349E-2,1.6648769E-3,7.294163E-3,1.0702601E-3,0E0,1.2322908E-4,2.329729E-4,3.07302E-4,0E0,6.916075E-3,1.1296785E-3,2.7268585E-3,0E0,4.7638826E-3,4.2887926E-3,9.974013E-3,1.4613234E-3,7.007467E-4,2.592504E-4,1.0679439E-2,5.7416037E-3,0E0,0E0,2.739771E-4,8.1738894E-5,1.9686917E-5,7.211091E-5,0E0,6.586313E-5,1.2891306E-2,3.8857746E-3,5.0366763E-4,5.600541E-4,0E0,0E0,0E0,0E0,0E0,0E0,6.0616713E-4,2.9387309E-3,2.0003319E-4,0E0,0E0,0E0,0E0,0E0,0E0,0E0,0E0,0E0,0E0,0E0,0E0,0E0,0E0,0E0,0E0,0E0,0E0,0E0,0E0,0E0,0E0,0E0,0E0,0E0,0E0,0E0,0E0,0E0,0E0,0E0,0E0,0E0],"parents":[2147483647,0,0,1,1,2,2,3,3,4,4,5,5,6,6,7,7,8,8,9,9,10,10,11,11,12,12,13,13,14,14,15,15,16,16,17,17,19,19,20,20,21,21,23,23,24,24,25,25,27,27,28,28,29,29,30,30,31,31,32,32,33,33,34,34,37,37,38,38,39,39,40,40,42,42,43,43,44,44,45,45,46,46,53,53,54,54,55,55],"right_children":[2,4,6,8,10,12,14,16,18,20,22,24,26,28,30,32,34,36,-1,38,40,42,-1,44,46,48,-1,50,52,54,56,58,60,62,64,-1,-1,66,68,70,72,-1,74,76,78,80,82,-1,-1,-1,-1,-1,-1,84,86,88,-1,-1,-1,-1,-1,-1,-1,-1,-1,-1,-1,-1,-1,-1,-1,-1,-1,-1,-1,-1,-1,-1,-1,-1,-1,-1,-1,-1,-1,-1,-1,-1,-1],"split_conditions":[1E0,3.1880064E0,2.0877712E0,2.0877712E0,3.3315163E0,7.3229755E6,2.8108165E0,1.1111435E0,2E-1,1.2E-2,9.900774E-1,1.9733926E0,1.1111435E0,5.2205938E4,3.3233504E0,6.1315453E-1,1.7848761E0,2.110666E0,-8.432814E-4,1.93014E6,7.0974493E-1,3.5673475E6,-6.325139E-6,3.3373072E5,1.8644114E-1,7.6420426E-1,-1.318324E-5,2.7844307E0,2.7844307E0,3.1880064E0,9.900774E-1,6.108421E-1,9.0909094E-1,1.6171806E0,3.0007966E5,-6.4848416E-4,-2.5259395E-4,3.658308E5,2.4567705E6,3.2264843E0,3.2264843E0,2.740574E-4,3.3396776E0,1.4023714E0,3.275406E6,9.900774E-1,1.9816141E0,7.3205E-4,1.8622773E-4,-4.361369E-4,2.6410332E-4,1.0860985E-3,8.1792456E-4,4.487907E5,1.9586778E5,3.3315163E0,1.8482607E-4,7.7608565E-5,-1.0408865E-4,-1.8890554E-4,-3.1088447E-4,-4.195221E-4,-7.474429E-4,-1.0604398E-4,-4.0984774E-4,-9.081516E-5,1.0259077E-5,-1.07054104E-4,-1.7333718E-5,7.055795E-6,-4.3746637E-5,-1.6953182E-4,-6.9742964E-5,4.61624E-5,1.4931259E-4,-2.057941E-4,1.2749095E-5,7.1005716E-6,2.0606066E-4,-4.0907544E-4,-1.6925065E-4,-6.7821486E-5,-1.6607998E-4,2.9047558E-4,6.3702575E-4,-1.09147666E-4,8.856386E-5,3.217702E-4,5.187804E-4],"split_indices":[10,0,0,0,0,5,0,0,2,1,3,0,0,5,0,0,0,0,0,7,3,5,0,8,4,3,0,0,0,0,3,0,3,0,7,0,0,7,7,0,0,0,0,0,5,3,0,0,0,0,0,0,0,7,7,0,0,0,0,0,0,0,0,0,0,0,0,0,0,0,0,0,0,0,0,0,0,0,0,0,0,0,0,0,0,0,0,0,0],"split_type":[0,0,0,0,0,0,0,0,0,0,0,0,0,0,0,0,0,0,0,0,0,0,0,0,0,0,0,0,0,0,0,0,0,0,0,0,0,0,0,0,0,0,0,0,0,0,0,0,0,0,0,0,0,0,0,0,0,0,0,0,0,0,0,0,0,0,0,0,0,0,0,0,0,0,0,0,0,0,0,0,0,0,0,0,0,0,0,0,0],"sum_hessian":[9.05E2,3.2E2,5.85E2,2.6E2,6E1,3.56E2,2.29E2,2.01E2,5.9E1,4.5E1,1.5E1,3.42E2,1.4E1,1.05E2,1.24E2,5.5E1,1.46E2,8E0,5.1E1,2.9E1,1.6E1,1.3E1,2E0,2.79E2,6.3E1,1.1E1,3E0,5E0,1E2,8.5E1,3.9E1,2E1,3.5E1,8.9E1,5.7E1,3E0,5E0,2E1,9E0,4E0,1.2E1,6E0,7E0,2.08E2,7.1E1,1E1,5.3E1,8E0,3E0,2E0,3E0,6.2E1,3.8E1,9E0,7.6E1,3.4E1,5E0,4E0,1.6E1,2.8E1,7E0,6E1,2.9E1,1.6E1,4.1E1,6E0,1.4E1,6E0,3E0,2E0,2E0,8E0,4E0,3E0,4E0,7.2E1,1.36E2,4.3E1,2.8E1,4E0,6E0,1.7E1,3.6E1,5E0,4E0,1.6E1,6E1,8E0,2.6E1],"tree_param":{"num_deleted":"0","num_feature":"11","num_nodes":"89","size_leaf_vector":"1"}},{"base_weights":[4.231179E-5,-2.8217914E-2,1.5386279E-2,-3.45312E-2,-1.3239706E-4,-1.5406515E-3,3.917428E-2,-2.8382773E-2,-5.83426E-2,-5.473087E-3,5.5811815E-3,-3.1459413E-3,6.224829E-4,6.651585E-2,1.3892424E-2,-1.270955E-2,-3.4253865E-2,-3.2931365E-2,-8.08776E-4,-2.2031486E-3,-8.036381E-3,-3.1971303E-3,1.8283552E-2,-4.7541996E-3,1.3766063E-2,-4.3227823E-4,6.8539955E-2,1.9818775E-3,2.6347322E-2,-3.354807E-4,-1.0488751E-2,-4.04915E-2,-2.4489265E-2,-5.023381E-4,-1.8254333E-4,-9.4841124E-4,-3.927186E-3,-2.3888897E-3,-1.0190427E-2,-5.5957265E-4,-1.3195588E-4,2.7190824E-4,1.1615215E-4,-1.3528462E-2,-1.4373761E-3,6.3124658E-3,1.680456E-2,7.957023E-2,5.6518134E-2,-1.0124304E-2,5.435932E-3,9.460325E-3,3.4163505E-2,-9.9244346E-5,-2.4836147E-4,-4.092944E-4,-7.679512E-4,-1.8974219E-4,-4.584562E-4,2.6994168E-5,-3.3406322E-5,-2.2157235E-5,-6.156104E-5,-6.0008402E-5,-2.549614E-6,-1.5973547E-4,-6.900255E-5,7.279249E-5,-7.6689495E-5,-2.408346E-4,2.031768E-4,3.0943127E-5,-1.635336E-4,-5.715407E-5,2.3613557E-4,7.464471E-5,2.6750247E-4,9.225475E-4,1.2743782E-3,5.450686E-4,9.2324644E-4,-2.1841118E-4,-7.049904E-5,-1.1611905E-4,1.0901094E-4,-2.9370622E-5,2.231481E-4,5.0230545E-4,2.1825892E-4],"categories":[],"categories_nodes":[],"categories_segments":[],"categories_sizes":[],"default_left":[0,0,0,0,0,0,0,0,0,0,0,0,0,0,0,0,0,0,0,0,0,0,0,0,0,0,0,0,0,0,0,0,0,0,0,0,0,0,0,0,0,0,0,0,0,0,0,0,0,0,0,0,0,0,0,0,0,0,0,0,0,0,0,0,0,0,0,0,0,0,0,0,0,0,0,0,0,0,0,0,0,0,0,0,0,0,0,0,0],"id":19,"left_children":[1,3,5,7,9,11,13,15,17,19,21,23,-1,25,27,29,31,33,-1,35,37,39,41,43,45,-1,47,49,51,-1,53,55,57,-1,-1,59,61,63,65,67,-1,-1,-1,69,71,73,75,77,79,81,83,85,87,-1,-1,-1,-1,-1,-1,-1,-1,-1,-1,-1,-1,-1,-1,-1,-1,-1,-1,-1,-1,-1,-1,-1,-1,-1,-1,-1,-1,-1,-1,-1,-1,-1,-1,-1,-1],"loss_changes":[3.8939485E-1,5.6025982E-2,2.3440725E-1,3.6115944E-2,1.8308989E-3,2.6666366E-2,1.6635731E-1,1.8612564E-2,1.4268756E-3,2.4213095E-4,3.2921103E-3,9.068274E-3,0E0,2.5497973E-2,1.878755E-2,1.3538133E-3,8.144602E-3,1.3978733E-4,0E0,2.8723618E-5,1.8246041E-4,3.1469695E-4,7.2856434E-5,8.798666E-3,5.5070594E-4,0E0,1.061976E-2,2.8148522E-3,7.8602955E-3,0E0,1.1230092E-3,1.330623E-2,5.7577863E-3,0E0,0E0,5.1906718E-5,1.8925784E-6,2.7242237E-5,4.79609E-5,4.7333876E-4,0E0,0E0,0E0,1.1332154E-2,9.09512E-3,1.2957244E-3,6.36084E-4,2.7566254E-3,8.833453E-3,3.6971027E-4,2.1210732E-3,1.8399484E-3,2.1198504E-3,0E0,0E0,0E0,0E0,0E0,0E0,0E0,0E0,0E0,0E0,0E0,0E0,0E0,0E0,0E0,0E0,0E0,0E0,0E0,0E0,0E0,0E0,0E0,0E0,0E0,0E0,0E0,0E0,0E0,0E0,0E0,0E0,0E0,0E0,0E0,0E0],"parents":[2147483647,0,0,1,1,2,2,3,3,4,4,5,5,6,6,7,7,8,8,9,9,10,10,11,11,13,13,14,14,15,15,16,16,17,17,19,19,20,20,21,21,22,22,23,23,24,24,26,26,27,27,28,28,30,30,31,31,32,32,35,35,36,36,37,37,38,38,39,39,43,43,44,44,45,45,46,46,47,47,48,48,49,49,50,50,51,51,52,52],"right_children":[2,4,6,8,10,12,14,16,18,20,22,24,-1,26,28,30,32,34,-1,36,38,40,42,44,46,-1,48,50,52,-1,54,56,58,-1,-1,60,62,64,66,68,-1,-1,-1,70,72,74,76,78,80,82,84,86,88,-1,-1,-1,-1,-1,-1,-1,-1,-1,-1,-1,-1,-1,-1,-1,-1,-1,-1,-1,-1,-1,-1,-1,-1,-1,-1,-1,-1,-1,-1,-1,-1,-1,-1,-1,-1],"split_conditions":[1E0,1.4E1,8E0,8E0,1.5E1,7.799442E6,1.4E1,3E0,1.9370922E5,1.2E-2,1.6E-2,3.2683492E6,6.224829E-4,6.5977174E-1,1.5E1,2E-1,6E0,5.380135E3,-8.08776E-4,8.333333E-1,7.0974493E-1,9.069419E-1,8E-1,4E0,6.6527975E-1,-4.3227823E-4,1.2E1,1.9586778E5,8E-3,-3.354807E-4,8.763415E5,5E0,7E0,-5.023381E-4,-1.8254333E-4,3.590854E6,4E-3,6.625179E-1,2E-2,3.5762015E6,-1.3195588E-4,2.7190824E-4,1.1615215E-4,7.162753E6,7E0,1.6E-2,4E-3,1.8719636E6,6E-1,3.2999602E3,4E-3,4E-3,9.0480053E-1,-9.9244346E-5,-2.4836147E-4,-4.092944E-4,-7.679512E-4,-1.8974219E-4,-4.584562E-4,2.6994168E-5,-3.3406322E-5,-2.2157235E-5,-6.156104E-5,-6.0008402E-5,-2.549614E-6,-1.5973547E-4,-6.900255E-5,7.279249E-5,-7.6689495E-5,-2.408346E-4,2.031768E-4,3.0943127E-5,-1.635336E-4,-5.715407E-5,2.3613557E-4,7.464471E-5,2.6750247E-4,9.225475E-4,1.2743782E-3,5.450686E-4,9.2324644E-4,-2.1841118E-4,-7.049904E-5,-1.1611905E-4,1.0901094E-4,-2.9370622E-5,2.231481E-4,5.0230545E-4,2.1825892E-4],"split_indices":[10,9,9,9,9,5,9,9,5,1,1,6,0,3,9,2,9,7,0,3,3,3,2,9,3,0,9,7,1,0,7,9,9,0,0,5,1,3,1,5,0,0,0,5,9,1,1,6,2,7,1,1,3,0,0,0,0,0,0,0,0,0,0,0,0,0,0,0,0,0,0,0,0,0,0,0,0,0,0,0,0,0,0,0,0,0,0,0,0],"split_type":[0,0,0,0,0,0,0,0,0,0,0,0,0,0,0,0,0,0,0,0,0,0,0,0,0,0,0,0,0,0,0,0,0,0,0,0,0,0,0,0,0,0,0,0,0,0,0,0,0,0,0,0,0,0,0,0,0,0,0,0,0,0,0,0,0,0,0,0,0,0,0,0,0,0,0,0,0,0,0,0,0,0,0,0,0,0,0,0,0],"sum_hessian":[8.96E2,3.15E2,5.81E2,2.57E2,5.8E1,3.4E2,2.41E2,2.06E2,5.1E1,3E1,2.8E1,3.3E2,1E1,1.15E2,1.26E2,5.7E1,1.49E2,6E0,4.5E1,1.4E1,1.6E1,1.7E1,1.1E1,3.02E2,2.8E1,2E0,1.13E2,6.5E1,6.1E1,7E0,5E1,8.9E1,6E1,4E0,2E0,9E0,5E0,5E0,1.1E1,1.3E1,4E0,8E0,3E0,8.2E1,2.2E2,9E0,1.9E1,5.6E1,5.7E1,1.4E1,5.1E1,2E1,4.1E1,3.8E1,1.2E1,5.9E1,3E1,3.1E1,2.9E1,3E0,6E0,2E0,3E0,2E0,3E0,7E0,4E0,6E0,7E0,7.1E1,1.1E1,1.64E2,5.6E1,5E0,4E0,5E0,1.4E1,3.8E1,1.8E1,2.8E1,2.9E1,5E0,9E0,8E0,4.3E1,8E0,1.2E1,3.3E1,8E0],"tree_param":{"num_deleted":"0","num_feature":"11","num_nodes":"89","size_leaf_vector":"1"}},{"base_weights":[-6.0072466E-4,-1.1996532E-2,1.7276734E-2,-1.3341125E-2,1.7311405E-2,9.55011E-3,6.1415292E-2,-1.7517157E-2,-1.4038003E-3,5.120009E-3,2.6524646E-2,5.2714157E-3,2.6234811E-2,8.5221015E-2,1.7874802E-2,-1.4414704E-2,-2.2809593E-2,1.4939902E-3,-1.3048319E-2,-9.795515E-5,8.358285E-3,1.5169144E-2,5.19405E-4,1.9230744E-3,2.9092146E-2,5.3972322E-2,9.629874E-3,1.2247491E-3,7.8353856E-4,7.4317674E-3,3.659547E-4,-1.6884413E-2,3.1693494E-3,-3.2217093E-2,-2.0075314E-2,-5.2602415E-4,1.0368626E-2,-3.3377856E-3,-1.7472371E-2,4.007408E-5,1.355666E-4,2.536134E-4,7.2540846E-5,-6.6513225E-4,1.144638E-2,4.144101E-4,-6.8883583E-6,8.6357765E-4,4.042983E-2,-3.3974764E-3,2.574094E-2,-5.7341545E-5,1.0523498E-2,-3.7413154E-4,-1.3178932E-4,-5.935666E-6,3.024349E-4,-3.372939E-4,-6.888871E-4,-1.495944E-4,-2.894496E-4,-2.0939957E-4,2.2726268E-5,6.510073E-5,2.472903E-4,1.571031E-5,-7.225894E-5,-1.6705068E-4,-3.1915994E-4,-2.9851377E-4,-1.8357882E-6,2.2577483E-4,-1.5796737E-5,5.737968E-4,2.2117606E-4,-1.1289649E-4,1.6584709E-4,1.801295E-4,4.0735246E-4,6.2684296E-5,1.8870676E-4],"categories":[],"categories_nodes":[],"categories_segments":[],"categories_sizes":[],"default_left":[0,0,0,0,0,0,0,0,0,0,0,0,0,0,0,0,0,0,0,0,0,0,0,0,0,0,0,0,0,0,0,0,0,0,0,0,0,0,0,0,0,0,0,0,0,0,0,0,0,0,0,0,0,0,0,0,0,0,0,0,0,0,0,0,0,0,0,0,0,0,0,0,0,0,0,0,0,0,0,0,0],"id":20,"left_children":[1,3,5,7,9,11,13,15,17,19,21,23,25,27,29,31,33,35,37,-1,39,41,-1,43,45,47,49,-1,-1,51,-1,53,55,57,59,61,63,65,67,-1,-1,-1,-1,69,71,-1,-1,-1,73,75,77,-1,79,-1,-1,-1,-1,-1,-1,-1,-1,-1,-1,-1,-1,-1,-1,-1,-1,-1,-1,-1,-1,-1,-1,-1,-1,-1,-1,-1,-1],"loss_changes":[1.8682219E-1,2.2299014E-2,1.21165484E-1,2.6695348E-2,2.6722495E-3,2.1635273E-2,5.34119E-2,6.1897635E-3,4.7435667E-3,5.474689E-4,1.4114184E-3,1.940548E-2,2.8036188E-2,8.394569E-4,1.8209908E-3,1.10406615E-2,3.083028E-3,2.0311924E-3,1.1445582E-3,0E0,6.827619E-5,2.396754E-4,0E0,5.306994E-3,1.9115768E-3,8.260384E-4,8.482835E-3,0E0,0E0,4.4515822E-4,0E0,1.7174944E-2,2.280735E-3,2.8327554E-3,1.5103407E-3,3.2021578E-3,8.56797E-4,1.01710844E-4,3.076871E-4,0E0,0E0,0E0,0E0,1.9517256E-3,3.2555368E-3,0E0,0E0,0E0,1.4623813E-4,1.9740635E-3,6.6824816E-4,0E0,1.2575509E-4,0E0,0E0,0E0,0E0,0E0,0E0,0E0,0E0,0E0,0E0,0E0,0E0,0E0,0E0,0E0,0E0,0E0,0E0,0E0,0E0,0E0,0E0,0E0,0E0,0E0,0E0,0E0,0E0],"parents":[2147483647,0,0,1,1,2,2,3,3,4,4,5,5,6,6,7,7,8,8,9,9,10,10,11,11,12,12,13,13,14,14,15,15,16,16,17,17,18,18,20,20,21,21,23,23,24,24,25,25,26,26,29,29,31,31,32,32,33,33,34,34,35,35,36,36,37,37,38,38,43,43,44,44,48,48,49,49,50,50,52,52],"right_children":[2,4,6,8,10,12,14,16,18,20,22,24,26,28,30,32,34,36,38,-1,40,42,-1,44,46,48,50,-1,-1,52,-1,54,56,58,60,62,64,66,68,-1,-1,-1,-1,70,72,-1,-1,-1,74,76,78,-1,80,-1,-1,-1,-1,-1,-1,-1,-1,-1,-1,-1,-1,-1,-1,-1,-1,-1,-1,-1,-1,-1,-1,-1,-1,-1,-1,-1,-1],"split_conditions":[2.0877712E0,8.3645025E6,1.818132E6,1.1067619E5,6.666667E-1,2.2583758E4,2.8108165E0,7.7230925E5,1.9733926E0,8E-3,8.405997E6,3.3315163E0,2.8108165E0,2.7844307E0,3.3151796E0,5.436551E6,1.017195E6,3.5666232E6,7.11254E-1,-9.795515E-5,8.365562E-1,8.378672E-1,5.19405E-4,4.6354095E6,9.900774E-1,2.7844307E0,3.3151796E0,1.2247491E-3,7.8353856E-4,2.051549E6,3.659547E-4,1.4023714E0,8.2956815E-1,1.623699E0,4E-3,1.1192313E0,1.6E-2,1.9857203E0,1.9898236E0,4.007408E-5,1.355666E-4,2.536134E-4,7.2540846E-5,6.5977174E-1,1.6E-2,4.144101E-4,-6.8883583E-6,8.6357765E-4,9.9501944E-1,2E-2,3.3315163E0,-5.7341545E-5,8E-3,-3.7413154E-4,-1.3178932E-4,-5.935666E-6,3.024349E-4,-3.372939E-4,-6.888871E-4,-1.495944E-4,-2.894496E-4,-2.0939957E-4,2.2726268E-5,6.510073E-5,2.472903E-4,1.571031E-5,-7.225894E-5,-1.6705068E-4,-3.1915994E-4,-2.9851377E-4,-1.8357882E-6,2.2577483E-4,-1.5796737E-5,5.737968E-4,2.2117606E-4,-1.1289649E-4,1.6584709E-4,1.801295E-4,4.0735246E-4,6.2684296E-5,1.8870676E-4],"split_indices":[0,5,6,8,3,6,0,7,0,1,5,0,0,0,0,5,7,6,3,0,0,0,0,5,3,0,0,0,0,5,0,0,3,0,1,0,1,0,0,0,0,0,0,3,1,0,0,0,3,1,0,0,1,0,0,0,0,0,0,0,0,0,0,0,0,0,0,0,0,0,0,0,0,0,0,0,0,0,0,0,0],"split_type":[0,0,0,0,0,0,0,0,0,0,0,0,0,0,0,0,0,0,0,0,0,0,0,0,0,0,0,0,0,0,0,0,0,0,0,0,0,0,0,0,0,0,0,0,0,0,0,0,0,0,0,0,0,0,0,0,0,0,0,0,0,0,0,0,0,0,0,0,0,0,0,0,0,0,0,0,0,0,0,0,0],"sum_hessian":[9.15E2,5.59E2,3.56E2,5.35E2,2.4E1,3.04E2,5.2E1,3.96E2,1.39E2,1.1E1,1.3E1,2.43E2,6.1E1,3.3E1,1.9E1,2.52E2,1.44E2,1.12E2,2.7E1,2E0,9E0,8E0,5E0,2.14E2,2.9E1,2.2E1,3.9E1,2.4E1,9E0,1E1,9E0,2.21E2,3.1E1,3E1,1.14E2,9.2E1,2E1,9E0,1.8E1,3E0,6E0,5E0,3E0,1.69E2,4.5E1,2.7E1,2E0,1E1,1.2E1,2.2E1,1.7E1,2E0,8E0,8.3E1,1.38E2,2.7E1,4E0,