{"learner":{"attributes":{"scikit_learn":"{\"_estimator_type\": \"regressor\"}"},"feature_names":["T1","mu","beta","tmdi frequency ratio","tmdi damping ratio","tmdi_1 stiffness","tmdi_2 stiffness","tmdi_1 damping","tmdi_2 damping","No.story","tmdi configuration"],"feature_types":["float","float","float","float","float","float","float","float","float","float","int"],"gradient_booster":{"model":{"gbtree_model_param":{"num_parallel_tree":"1","num_trees":"700"},"iteration_indptr":[0,1,2,3,4,5,6,7,8,9,10,11,12,13,14,15,16,17,18,19,20,21,22,23,24,25,26,27,28,29,30,31,32,33,34,35,36,37,38,39,40,41,42,43,44,45,46,47,48,49,50,51,52,53,54,55,56,57,58,59,60,61,62,63,64,65,66,67,68,69,70,71,72,73,74,75,76,77,78,79,80,81,82,83,84,85,86,87,88,89,90,91,92,93,94,95,96,97,98,99,100,101,102,103,104,105,106,107,108,109,110,111,112,113,114,115,116,117,118,119,120,121,122,123,124,125,126,127,128,129,130,131,132,133,134,135,136,137,138,139,140,141,142,143,144,145,146,147,148,149,150,151,152,153,154,155,156,157,158,159,160,161,162,163,164,165,166,167,168,169,170,171,172,173,174,175,176,177,178,179,180,181,182,183,184,185,186,187,188,189,190,191,192,193,194,195,196,197,198,199,200,201,202,203,204,205,206,207,208,209,210,211,212,213,214,215,216,217,218,219,220,221,222,223,224,225,226,227,228,229,230,231,232,233,234,235,236,237,238,239,240,241,242,243,244,245,246,247,248,249,250,251,252,253,254,255,256,257,258,259,260,261,262,263,264,265,266,267,268,269,270,271,272,273,274,275,276,277,278,279,280,281,282,283,284,285,286,287,288,289,290,291,292,293,294,295,296,297,298,299,300,301,302,303,304,305,306,307,308,309,310,311,312,313,314,315,316,317,318,319,320,321,322,323,324,325,326,327,328,329,330,331,332,333,334,335,336,337,338,339,340,341,342,343,344,345,346,347,348,349,350,351,352,353,354,355,356,357,358,359,360,361,362,363,364,365,366,367,368,369,370,371,372,373,374,375,376,377,378,379,380,381,382,383,384,385,386,387,388,389,390,391,392,393,394,395,396,397,398,399,400,401,402,403,404,405,406,407,408,409,410,411,412,413,414,415,416,417,418,419,420,421,422,423,424,425,426,427,428,429,430,431,432,433,434,435,436,437,438,439,440,441,442,443,444,445,446,447,448,449,450,451,452,453,454,455,456,457,458,459,460,461,462,463,464,465,466,467,468,469,470,471,472,473,474,475,476,477,478,479,480,481,482,483,484,485,486,487,488,489,490,491,492,493,494,495,496,497,498,499,500,501,502,503,504,505,506,507,508,509,510,511,512,513,514,515,516,517,518,519,520,521,522,523,524,525,526,527,528,529,530,531,532,533,534,535,536,537,538,539,540,541,542,543,544,545,546,547,548,549,550,551,552,553,554,555,556,557,558,559,560,561,562,563,564,565,566,567,568,569,570,571,572,573,574,575,576,577,578,579,580,581,582,583,584,585,586,587,588,589,590,591,592,593,594,595,596,597,598,599,600,601,602,603,604,605,606,607,608,609,610,611,612,613,614,615,616,617,618,619,620,621,622,623,624,625,626,627,628,629,630,631,632,633,634,635,636,637,638,639,640,641,642,643,644,645,646,647,648,649,650,651,652,653,654,655,656,657,658,659,660,661,662,663,664,665,666,667,668,669,670,671,672,673,674,675,676,677,678,679,680,681,682,683,684,685,686,687,688,689,690,691,692,693,694,695,696,697,698,699,700],"tree_info":[0,0,0,0,0,0,0,0,0,0,0,0,0,0,0,0,0,0,0,0,0,0,0,0,0,0,0,0,0,0,0,0,0,0,0,0,0,0,0,0,0,0,0,0,0,0,0,0,0,0,0,0,0,0,0,0,0,0,0,0,0,0,0,0,0,0,0,0,0,0,0,0,0,0,0,0,0,0,0,0,0,0,0,0,0,0,0,0,0,0,0,0,0,0,0,0,0,0,0,0,0,0,0,0,0,0,0,0,0,0,0,0,0,0,0,0,0,0,0,0,0,0,0,0,0,0,0,0,0,0,0,0,0,0,0,0,0,0,0,0,0,0,0,0,0,0,0,0,0,0,0,0,0,0,0,0,0,0,0,0,0,0,0,0,0,0,0,0,0,0,0,0,0,0,0,0,0,0,0,0,0,0,0,0,0,0,0,0,0,0,0,0,0,0,0,0,0,0,0,0,0,0,0,0,0,0,0,0,0,0,0,0,0,0,0,0,0,0,0,0,0,0,0,0,0,0,0,0,0,0,0,0,0,0,0,0,0,0,0,0,0,0,0,0,0,0,0,0,0,0,0,0,0,0,0,0,0,0,0,0,0,0,0,0,0,0,0,0,0,0,0,0,0,0,0,0,0,0,0,0,0,0,0,0,0,0,0,0,0,0,0,0,0,0,0,0,0,0,0,0,0,0,0,0,0,0,0,0,0,0,0,0,0,0,0,0,0,0,0,0,0,0,0,0,0,0,0,0,0,0,0,0,0,0,0,0,0,0,0,0,0,0,0,0,0,0,0,0,0,0,0,0,0,0,0,0,0,0,0,0,0,0,0,0,0,0,0,0,0,0,0,0,0,0,0,0,0,0,0,0,0,0,0,0,0,0,0,0,0,0,0,0,0,0,0,0,0,0,0,0,0,0,0,0,0,0,0,0,0,0,0,0,0,0,0,0,0,0,0,0,0,0,0,0,0,0,0,0,0,0,0,0,0,0,0,0,0,0,0,0,0,0,0,0,0,0,0,0,0,0,0,0,0,0,0,0,0,0,0,0,0,0,0,0,0,0,0,0,0,0,0,0,0,0,0,0,0,0,0,0,0,0,0,0,0,0,0,0,0,0,0,0,0,0,0,0,0,0,0,0,0,0,0,0,0,0,0,0,0,0,0,0,0,0,0,0,0,0,0,0,0,0,0,0,0,0,0,0,0,0,0,0,0,0,0,0,0,0,0,0,0,0,0,0,0,0,0,0,0,0,0,0,0,0,0,0,0,0,0,0,0,0,0,0,0,0,0,0,0,0,0,0,0,0,0,0,0,0,0,0,0,0,0,0,0,0,0,0,0,0,0,0,0,0,0,0,0,0,0,0,0,0,0,0,0,0,0,0,0,0,0,0,0,0,0,0,0,0,0,0,0,0,0,0,0,0,0,0,0,0,0,0,0,0,0,0,0,0,0,0,0,0,0,0,0,0,0,0,0,0,0,0,0,0,0,0,0,0,0,0,0,0,0,0,0,0,0,0,0,0,0,0,0,0,0,0,0,0,0,0,0,0,0,0,0,0,0,0,0,0,0,0,0,0,0,0,0,0,0,0],"trees":[{"base_weights":[1.0709049E-5,4.873888E-3,-5.1828194E-3,-5.850768E-3,1.3196273E-2,-1.7277414E-2,-2.1184222E-3,5.777347E-3,-2.1482557E-2,2.2828342E-2,5.5352785E-3,-2.164004E-2,-7.274125E-3,4.970536E-3,-9.164154E-3,-2.4829738E-2,1.247232E-2,-2.8679036E-2,2.2485913E-4,1.37052955E-2,2.388645E-2,2.905891E-3,1.6270304E-2,-1.800943E-2,-3.0322524E-4,-4.5138192E-3,-1.2314606E-4,2.1107858E-2,1.984413E-3,-1.9637993E-2,1.3953325E-3,9.5321375E-6,-3.9267304E-4,2.0545058E-2,4.849444E-3,-4.1174528E-4,-2.454534E-2,1.7718527E-4,1.0280917E-4,2.8172769E-2,2.0752208E-2,-1.3239501E-3,1.049626E-2,2.2968494E-4,1.0400448E-2,-2.562406E-4,-1.7088054E-4,-7.203029E-5,-1.9061716E-5,1.0381842E-4,2.639764E-4,3.5001818E-4,6.1116074E-3,-2.2256672E-2,-1.5230886E-4,-3.4847397E-3,1.0722084E-2,4.1003757E-5,2.320302E-2,8.282694E-3,6.570323E-4,-6.40742E-5,-2.7011633E-2,3.4439107E-4,2.1589767E-2,2.6213616E-2,1.7252419E-4,4.8275982E-4,-1.364755E-4,1.2003989E-2,2.118673E-5,-3.4842258E-6,2.2884758E-4,3.213E-3,-5.943113E-3,9.076175E-3,2.107952E-3,-2.7976348E-4,-2.0151355E-4,-8.18766E-4,-1.4474784E-4,1.4389E-2,3.0776573E-5,1.5968185E-4,2.944567E-4,2.6592974E-5,1.2731069E-4,3.7296228E-5,-4.5686065E-5,-1.81892E-4,-3.3721834E-4,2.896764E-4,1.7666072E-4,3.1274577E-4,2.1224804E-4,-1.1910689E-4,2.218113E-5,1.8341657E-4,1.06411775E-4,1.02496146E-4,-2.5813733E-6,1.9425537E-5,-8.5159554E-5,1.2027327E-4,6.1703424E-5,4.3473516E-5,-1.4191818E-5,-4.8971546E-5,3.1565854E-5,8.8570545E-5,1.8781073E-4],"categories":[],"categories_nodes":[],"categories_segments":[],"categories_sizes":[],"default_left":[0,0,0,0,0,0,0,0,0,0,0,0,0,0,0,0,0,0,0,0,0,0,0,0,0,0,0,0,0,0,0,0,0,0,0,0,0,0,0,0,0,0,0,0,0,0,0,0,0,0,0,0,0,0,0,0,0,0,0,0,0,0,0,0,0,0,0,0,0,0,0,0,0,0,0,0,0,0,0,0,0,0,0,0,0,0,0,0,0,0,0,0,0,0,0,0,0,0,0,0,0,0,0,0,0,0,0,0,0,0,0],"id":0,"left_children":[1,3,5,7,9,11,13,15,17,19,21,23,25,27,29,31,33,35,-1,37,39,41,43,45,-1,47,-1,49,51,53,55,-1,-1,57,59,-1,61,-1,-1,63,65,67,69,-1,71,-1,-1,-1,-1,-1,-1,73,75,77,-1,79,81,-1,83,85,87,-1,89,-1,91,93,-1,95,-1,97,-1,-1,-1,99,101,103,105,-1,-1,107,-1,109,-1,-1,-1,-1,-1,-1,-1,-1,-1,-1,-1,-1,-1,-1,-1,-1,-1,-1,-1,-1,-1,-1,-1,-1,-1,-1,-1,-1,-1],"loss_changes":[2.768174E-2,5.059538E-2,1.9606598E-2,4.5202635E-2,2.3413043E-2,4.512135E-3,2.1223033E-2,2.9612333E-2,3.2842927E-2,1.0337308E-3,5.0052726E-3,1.2133718E-3,3.344944E-4,1.0173975E-2,2.3584854E-2,7.7036303E-3,7.1617886E-3,2.5978535E-3,0E0,3.539934E-5,1.0946542E-3,4.669274E-3,7.9936255E-4,2.5359914E-4,0E0,1.1816042E-4,0E0,1.0186443E-3,1.2120444E-3,1.2433007E-3,4.907492E-3,0E0,0E0,2.450319E-3,8.8696124E-4,0E0,2.8710403E-3,0E0,0E0,5.201958E-4,1.5745685E-3,1.9242158E-3,6.458326E-4,0E0,2.0832568E-3,0E0,0E0,0E0,0E0,0E0,0E0,2.361321E-3,5.8619236E-4,4.4715032E-4,0E0,1.8626495E-3,1.0277117E-3,0E0,1.2611859E-3,6.617771E-4,4.0967984E-4,0E0,1.9394383E-3,0E0,1.3574306E-4,3.7986785E-5,0E0,1.5006509E-3,0E0,3.0518277E-4,0E0,0E0,0E0,1.9480533E-3,6.267276E-4,1.3639685E-4,1.5563966E-4,0E0,0E0,8.033374E-4,0E0,3.1901896E-4,0E0,0E0,0E0,0E0,0E0,0E0,0E0,0E0,0E0,0E0,0E0,0E0,0E0,0E0,0E0,0E0,0E0,0E0,0E0,0E0,0E0,0E0,0E0,0E0,0E0,0E0,0E0,0E0,0E0],"parents":[2147483647,0,0,1,1,2,2,3,3,4,4,5,5,6,6,7,7,8,8,9,9,10,10,11,11,12,12,13,13,14,14,15,15,16,16,17,17,19,19,20,20,21,21,22,22,23,23,25,25,27,27,28,28,29,29,30,30,33,33,34,34,36,36,39,39,40,40,41,41,42,42,44,44,51,51,52,52,53,53,55,55,56,56,58,58,59,59,60,60,62,62,64,64,65,65,67,67,69,69,73,73,74,74,75,75,76,76,79,79,81,81],"right_children":[2,4,6,8,10,12,14,16,18,20,22,24,26,28,30,32,34,36,-1,38,40,42,44,46,-1,48,-1,50,52,54,56,-1,-1,58,60,-1,62,-1,-1,64,66,68,70,-1,72,-1,-1,-1,-1,-1,-1,74,76,78,-1,80,82,-1,84,86,88,-1,90,-1,92,94,-1,96,-1,98,-1,-1,-1,100,102,104,106,-1,-1,108,-1,110,-1,-1,-1,-1,-1,-1,-1,-1,-1,-1,-1,-1,-1,-1,-1,-1,-1,-1,-1,-1,-1,-1,-1,-1,-1,-1,-1,-1,-1],"split_conditions":[1.9733926E0,1.4023714E0,2.0877712E0,1.1111435E0,1.623699E0,5.295686E4,3.1880064E0,1.7523452E6,4.2954403E5,1.4050951E0,3.3373072E5,1.9898236E0,1.9898236E0,4E-3,3.3070045E0,8.3392864E-1,7.6420426E-1,1.8999061E-1,2.2485913E-4,5.503612E5,7.6420426E-1,9.0054077E-1,6.8817106E5,1.8644114E-1,-3.0322524E-4,7.692308E-1,-1.2314606E-4,4E-1,1.2597565E6,3.218797E0,3.3396776E0,9.5321375E-6,-3.9267304E-4,6.1257726E-1,1.2E-2,-4.1174528E-4,2.5053345E6,1.7718527E-4,1.0280917E-4,1.2674401E6,8E-3,8.314476E-1,2.694852E5,2.2968494E-4,3.0340182E6,-2.562406E-4,-1.7088054E-4,-7.203029E-5,-1.9061716E-5,1.0381842E-4,2.639764E-4,2.5671568E6,5.042879E6,8.5905206E5,-1.5230886E-4,1.9947669E6,8E-1,4.1003757E-5,6.666667E-1,3.0777144E5,5.357742E6,-6.40742E-5,7.11254E-1,3.4439107E-4,6.6527975E-1,1.6204413E0,1.7252419E-4,1.6269536E0,-1.364755E-4,2.6882244E3,2.118673E-5,-3.4842258E-6,2.2884758E-4,2.110666E0,8E-3,2.8042228E0,1.6E-2,-2.7976348E-4,-2.0151355E-4,3.3233504E0,-1.4474784E-4,1.4157261E6,3.0776573E-5,1.5968185E-4,2.944567E-4,2.6592974E-5,1.2731069E-4,3.7296228E-5,-4.5686065E-5,-1.81892E-4,-3.3721834E-4,2.896764E-4,1.7666072E-4,3.1274577E-4,2.1224804E-4,-1.1910689E-4,2.218113E-5,1.8341657E-4,1.06411775E-4,1.02496146E-4,-2.5813733E-6,1.9425537E-5,-8.5159554E-5,1.2027327E-4,6.1703424E-5,4.3473516E-5,-1.4191818E-5,-4.8971546E-5,3.1565854E-5,8.8570545E-5,1.8781073E-4],"split_indices":[0,0,0,0,0,6,0,5,8,0,8,0,0,1,0,0,3,4,0,7,3,3,7,4,0,3,0,2,7,0,0,0,0,0,1,0,5,0,0,7,1,3,7,0,6,0,0,0,0,0,0,5,5,7,0,7,2,0,3,7,5,0,3,0,3,0,0,0,0,7,0,0,0,0,1,0,1,0,0,0,0,5,0,0,0,0,0,0,0,0,0,0,0,0,0,0,0,0,0,0,0,0,0,0,0,0,0,0,0,0,0],"split_type":[0,0,0,0,0,0,0,0,0,0,0,0,0,0,0,0,0,0,0,0,0,0,0,0,0,0,0,0,0,0,0,0,0,0,0,0,0,0,0,0,0,0,0,0,0,0,0,0,0,0,0,0,0,0,0,0,0,0,0,0,0,0,0,0,0,0,0,0,0,0,0,0,0,0,0,0,0,0,0,0,0,0,0,0,0,0,0,0,0,0,0,0,0,0,0,0,0,0,0,0,0,0,0,0,0,0,0,0,0,0,0],"sum_hessian":[1.094E3,5.65E2,5.29E2,2.47E2,3.18E2,1.06E2,4.23E2,1.42E2,1.05E2,1.4E2,1.78E2,7.3E1,3.3E1,2.11E2,2.12E2,2.5E1,1.17E2,9E1,1.5E1,1.6E1,1.24E2,1.44E2,3.4E1,4.9E1,2.4E1,2.1E1,1.2E1,3.2E1,1.79E2,1.06E2,1.06E2,8E0,1.7E1,5.6E1,6.1E1,2.5E1,6.5E1,8E0,8E0,4.9E1,7.5E1,9.3E1,5.1E1,1.7E1,1.7E1,1.1E1,3.8E1,1.1E1,1E1,8E0,2.4E1,1.29E2,5E1,7E1,3.6E1,7E1,3.6E1,8E0,4.8E1,3.3E1,2.8E1,8E0,5.7E1,2.9E1,2E1,3.3E1,4.2E1,8.1E1,1.2E1,4.3E1,8E0,9E0,8E0,8.9E1,4E1,2.8E1,2.2E1,3.2E1,3.8E1,5.6E1,1.4E1,2.4E1,1.2E1,1.7E1,3.1E1,1.3E1,2E1,1.8E1,1E1,1.8E1,3.9E1,8E0,1.2E1,2.1E1,1.2E1,9E0,7.2E1,1.1E1,3.2E1,3.1E1,5.8E1,8E0,3.2E1,1.6E1,1.2E1,1.4E1,8E0,2.8E1,2.8E1,9E0,1.5E1],"tree_param":{"num_deleted":"0","num_feature":"11","num_nodes":"111","size_leaf_vector":"1"}},{"base_weights":[5.1094394E-5,4.770581E-3,-4.980153E-3,-5.8471225E-3,1.3095621E-2,-1.7099367E-2,-1.9100207E-3,5.7166656E-3,-2.1246884E-2,2.2594118E-2,5.4550353E-3,-3.0521952E-2,-1.0150584E-2,4.935858E-3,-8.779181E-3,-2.6333032E-2,1.1761512E-2,-2.8290054E-2,2.2257914E-4,1.3573535E-2,2.3640165E-2,2.809683E-3,1.610733E-2,-2.488324E-2,-4.1731333E-4,-1.9217897E-4,-8.780268E-3,2.0890694E-2,1.999695E-3,-1.8952992E-2,1.3815945E-3,-1.2315146E-4,-3.9968977E-4,-3.6885983E-3,2.701881E-2,-4.5026498E-4,-1.9368073E-2,1.7548192E-4,1.01820675E-4,3.5276584E-4,2.2023367E-2,-1.5046555E-3,1.03887115E-2,2.2733874E-4,1.0300479E-2,-1.8775491E-4,-3.2354248E-4,-3.2913443E-3,-1.12567125E-2,5.595386E-5,2.9742494E-4,4.0773195E-4,6.049645E-3,-1.1857904E-2,-2.2283558E-2,-3.4493338E-3,1.0614414E-2,6.2999083E-3,-1.3558118E-2,1.50327515E-2,7.158257E-4,-2.4216788E-2,-2.9697962E-5,2.6824076E-2,1.8613607E-2,2.996467E-4,-1.3511306E-4,1.5569958E-3,1.4633916E-2,-3.4502839E-6,2.266474E-4,-5.3247702E-5,-1.47124765E-5,-1.3515346E-2,-6.640379E-5,9.5819785E-5,-6.7929045E-4,1.8358614E-3,8.708994E-3,-6.0651517E-3,-1.8085659E-4,-2.6669342E-4,-1.6928278E-2,-8.102164E-4,-1.4328664E-4,1.4244425E-2,3.0469217E-5,-8.867672E-6,1.05229505E-4,-7.193524E-5,-1.9003672E-4,7.98135E-6,2.6360963E-4,-4.064851E-4,-2.1313412E-4,3.2819944E-4,2.1257784E-4,2.4592862E-4,1.707016E-4,-1.1794736E-4,2.026401E-5,-1.6776497E-5,4.5410845E-5,1.8985046E-4,9.7353644E-5,-9.829698E-5,-1.8431364E-4,-4.0653016E-5,3.3638622E-5,7.8672914E-5,-4.0765768E-5,4.062364E-5,1.4187695E-4,-4.3984295E-5,-8.232627E-5,-1.3916686E-4,-2.3506091E-4,-4.8460213E-5,3.123627E-5,9.200618E-5,1.7785469E-4],"categories":[],"categories_nodes":[],"categories_segments":[],"categories_sizes":[],"default_left":[0,0,0,0,0,0,0,0,0,0,0,0,0,0,0,0,0,0,0,0,0,0,0,0,0,0,0,0,0,0,0,0,0,0,0,0,0,0,0,0,0,0,0,0,0,0,0,0,0,0,0,0,0,0,0,0,0,0,0,0,0,0,0,0,0,0,0,0,0,0,0,0,0,0,0,0,0,0,0,0,0,0,0,0,0,0,0,0,0,0,0,0,0,0,0,0,0,0,0,0,0,0,0,0,0,0,0,0,0,0,0,0,0,0,0,0,0,0,0,0,0],"id":1,"left_children":[1,3,5,7,9,11,13,15,17,19,21,23,25,27,29,31,33,35,-1,37,39,41,43,45,-1,-1,47,49,51,53,55,-1,-1,57,59,-1,61,-1,-1,-1,63,65,67,-1,69,-1,-1,71,73,-1,-1,75,77,79,81,83,85,87,89,91,-1,93,-1,95,97,99,-1,101,103,-1,-1,-1,-1,105,-1,-1,107,109,111,113,-1,-1,115,117,-1,119,-1,-1,-1,-1,-1,-1,-1,-1,-1,-1,-1,-1,-1,-1,-1,-1,-1,-1,-1,-1,-1,-1,-1,-1,-1,-1,-1,-1,-1,-1,-1,-1,-1,-1,-1],"loss_changes":[2.6000686E-2,5.0018508E-2,1.968736E-2,4.4463273E-2,2.288273E-2,9.670146E-3,1.998212E-2,2.8013894E-2,3.2103177E-2,1.0095909E-3,4.9424395E-3,6.764531E-4,5.955938E-4,9.936424E-3,2.1941433E-2,3.2306332E-3,2.8622618E-2,1.0143988E-2,0E0,3.4723198E-5,1.0957122E-3,4.691516E-3,7.818043E-4,3.8913917E-4,0E0,0E0,8.1931055E-4,3.285464E-3,1.1645076E-3,2.240613E-3,4.809143E-3,0E0,0E0,6.0989023E-3,2.7640648E-2,0E0,4.527509E-3,0E0,0E0,0E0,1.2849607E-3,1.8276478E-3,1.9268221E-3,0E0,2.0433827E-3,0E0,0E0,5.9477767E-5,4.1400455E-4,0E0,0E0,1.2095242E-3,5.5551354E-4,9.128661E-4,4.854016E-4,1.8253187E-3,1.0071285E-3,7.648973E-4,7.4226223E-4,6.3907458E-3,0E0,1.912225E-3,0E0,4.889667E-4,4.234109E-4,1.4312807E-3,0E0,1.5430046E-4,4.175352E-4,0E0,0E0,0E0,0E0,2.9779458E-4,0E0,0E0,1.3769992E-3,6.675063E-4,6.2765507E-4,2.4679059E-5,0E0,0E0,2.0820508E-4,7.866493E-4,0E0,1.7564464E-4,0E0,0E0,0E0,0E0,0E0,0E0,0E0,0E0,0E0,0E0,0E0,0E0,0E0,0E0,0E0,0E0,0E0,0E0,0E0,0E0,0E0,0E0,0E0,0E0,0E0,0E0,0E0,0E0,0E0,0E0,0E0,0E0,0E0,0E0,0E0],"parents":[2147483647,0,0,1,1,2,2,3,3,4,4,5,5,6,6,7,7,8,8,9,9,10,10,11,11,12,12,13,13,14,14,15,15,16,16,17,17,19,19,20,20,21,21,22,22,23,23,26,26,27,27,28,28,29,29,30,30,33,33,34,34,36,36,40,40,41,41,42,42,44,44,47,47,48,48,51,51,52,52,53,53,54,54,55,55,56,56,57,57,58,58,59,59,61,61,63,63,64,64,65,65,67,67,68,68,73,73,76,76,77,77,78,78,79,79,82,82,83,83,85,85],"right_children":[2,4,6,8,10,12,14,16,18,20,22,24,26,28,30,32,34,36,-1,38,40,42,44,46,-1,-1,48,50,52,54,56,-1,-1,58,60,-1,62,-1,-1,-1,64,66,68,-1,70,-1,-1,72,74,-1,-1,76,78,80,82,84,86,88,90,92,-1,94,-1,96,98,100,-1,102,104,-1,-1,-1,-1,106,-1,-1,108,110,112,114,-1,-1,116,118,-1,120,-1,-1,-1,-1,-1,-1,-1,-1,-1,-1,-1,-1,-1,-1,-1,-1,-1,-1,-1,-1,-1,-1,-1,-1,-1,-1,-1,-1,-1,-1,-1,-1,-1,-1,-1],"split_conditions":[1.9733926E0,1.4023714E0,2.0877712E0,1.1111435E0,1.623699E0,1E0,3.1880064E0,2E-1,4.2954403E5,1.4050951E0,3.3373072E5,1.9898236E0,6.108624E-2,4E-3,3.3070045E0,8.3524334E-1,1E0,1E0,2.2257914E-4,5.503612E5,4E-3,9.0054077E-1,6.8817106E5,7.692308E-1,-4.1731333E-4,-1.9217897E-4,1.9816141E0,1E0,1.2597565E6,1E0,3.3396776E0,-1.2315146E-4,-3.9968977E-4,8.326121E-1,7.719411E5,-4.5026498E-4,2.9917338E-1,1.7548192E-4,1.01820675E-4,3.5276584E-4,7.6420426E-1,8.314476E-1,1E0,2.2733874E-4,3.0340182E6,-1.8775491E-4,-3.2354248E-4,7.692308E-1,8.27695E-1,5.595386E-5,2.9742494E-4,2.0969372E0,2.7778301E0,7.692308E-1,3.218797E0,1.9947669E6,8E-1,6.1142105E-1,6E-1,3.728355E5,7.158257E-4,8.2396734E-1,-2.9697962E-5,1.2674401E6,8E-3,1.6269536E0,-1.3511306E-4,8.875497E3,8.1398266E4,-3.4502839E-6,2.266474E-4,-5.3247702E-5,-1.47124765E-5,7.11254E-1,-6.640379E-5,9.5819785E-5,5.1829035E4,1E0,1E0,7.11254E-1,-1.8085659E-4,-2.6669342E-4,9.847712E5,3.3233504E0,-1.4328664E-4,2.0836412E5,3.0469217E-5,-8.867672E-6,1.05229505E-4,-7.193524E-5,-1.9003672E-4,7.98135E-6,2.6360963E-4,-4.064851E-4,-2.1313412E-4,3.2819944E-4,2.1257784E-4,2.4592862E-4,1.707016E-4,-1.1794736E-4,2.026401E-5,-1.6776497E-5,4.5410845E-5,1.8985046E-4,9.7353644E-5,-9.829698E-5,-1.8431364E-4,-4.0653016E-5,3.3638622E-5,7.8672914E-5,-4.0765768E-5,4.062364E-5,1.4187695E-4,-4.3984295E-5,-8.232627E-5,-1.3916686E-4,-2.3506091E-4,-4.8460213E-5,3.123627E-5,9.200618E-5,1.7785469E-4],"split_indices":[0,0,0,0,0,10,0,2,8,0,8,0,4,1,0,0,10,10,0,7,1,3,7,3,0,0,0,10,7,10,0,0,0,0,7,0,4,0,0,0,3,3,10,0,6,0,0,3,3,0,0,0,0,3,0,7,2,0,2,7,0,3,0,7,1,0,0,7,6,0,0,0,0,3,0,0,6,10,10,3,0,0,7,0,0,7,0,0,0,0,0,0,0,0,0,0,0,0,0,0,0,0,0,0,0,0,0,0,0,0,0,0,0,0,0,0,0,0,0,0,0],"split_type":[0,0,0,0,0,0,0,0,0,0,0,0,0,0,0,0,0,0,0,0,0,0,0,0,0,0,0,0,0,0,0,0,0,0,0,0,0,0,0,0,0,0,0,0,0,0,0,0,0,0,0,0,0,0,0,0,0,0,0,0,0,0,0,0,0,0,0,0,0,0,0,0,0,0,0,0,0,0,0,0,0,0,0,0,0,0,0,0,0,0,0,0,0,0,0,0,0,0,0,0,0,0,0,0,0,0,0,0,0,0,0,0,0,0,0,0,0,0,0,0,0],"sum_hessian":[1.093E3,5.64E2,5.29E2,2.48E2,3.16E2,1.06E2,4.23E2,1.42E2,1.06E2,1.4E2,1.76E2,3.5E1,7.1E1,2.12E2,2.11E2,2.2E1,1.2E2,9.1E1,1.5E1,1.6E1,1.24E2,1.42E2,3.4E1,2.3E1,1.2E1,9E0,6.2E1,3.2E1,1.8E2,1.05E2,1.06E2,1E1,1.2E1,6E1,6E1,3.5E1,5.6E1,8E0,8E0,1.6E1,1.08E2,9.1E1,5.1E1,1.7E1,1.7E1,1.1E1,1.2E1,2E1,4.2E1,1E1,2.2E1,1.3E2,5E1,3.5E1,7E1,7E1,3.6E1,3E1,3E1,4.7E1,1.3E1,4.3E1,1.3E1,4.2E1,6.6E1,7.9E1,1.2E1,1.7E1,3.4E1,9E0,8E0,1E1,1E1,2.8E1,1.4E1,1.4E1,1.16E2,2E1,3E1,1.7E1,1.8E1,4.6E1,2.4E1,5.6E1,1.4E1,2.4E1,1.2E1,1E1,2E1,1.2E1,1.8E1,1.9E1,2.8E1,9E0,3.4E1,2.6E1,1.6E1,2.4E1,4.2E1,9E0,7E1,8E0,9E0,2.1E1,1.3E1,1.4E1,1.4E1,6.4E1,5.2E1,1E1,1E1,1.5E1,1.5E1,9E0,8E0,1.5E1,9E0,2.8E1,2.8E1,8E0,1.6E1],"tree_param":{"num_deleted":"0","num_feature":"11","num_nodes":"121","size_leaf_vector":"1"}},{"base_weights":[-1.2358775E-5,4.6774754E-3,-5.0213267E-3,-5.86827E-3,1.2887122E-2,-1.6928798E-2,-1.9974008E-3,5.5941874E-3,-2.1025285E-2,2.2361001E-2,5.310133E-3,-3.021763E-2,-1.0049258E-2,4.91491E-3,-8.900289E-3,-2.5901465E-2,1.2219586E-2,-2.7996032E-2,2.203221E-4,1.3443035E-2,2.3394955E-2,9.885157E-3,-2.906396E-4,-2.463542E-2,-4.131469E-4,-1.7521481E-4,-8.419423E-3,2.0675458E-2,1.998171E-3,-1.9181445E-2,1.36796E-3,-1.3365697E-4,-3.8569127E-4,-3.6514117E-3,2.8700816E-2,-4.4553043E-4,-1.9169983E-2,1.737949E-4,1.0084165E-4,3.491748E-4,2.1793947E-2,4.0097386E-4,1.2161088E-2,-4.8971185E-3,2.8176142E-3,-1.8589344E-4,-3.2031242E-4,-1.8760279E-3,-1.1246377E-2,5.5403845E-5,2.9434793E-4,4.173506E-4,5.988533E-3,-1.1738179E-2,-2.2685334E-2,-3.4142863E-3,1.0507731E-2,6.2348815E-3,-1.3419918E-2,1.6608393E-2,7.0863654E-4,-2.396894E-2,-2.939985E-5,2.6546523E-2,1.8418502E-2,-1.7674902E-5,2.3953206E-5,1.8097645E-2,9.241544E-3,3.2804697E-3,-1.2786641E-2,4.837682E-3,-1.2694352E-3,-5.272406E-5,2.1604901E-5,-1.3378911E-2,-6.082834E-5,3.2793463E-3,-5.8752582E-3,8.896178E-3,2.062002E-3,-6.006574E-3,-1.7900331E-4,-2.742251E-4,-1.6760154E-2,-8.0175465E-4,-1.4184018E-4,3.016513E-5,1.4101155E-2,-8.780349E-6,1.0414554E-4,-1.8808938E-4,-7.1216986E-5,3.0503636E-5,2.608569E-4,-4.0252844E-4,-2.1089465E-4,3.2478108E-4,2.104139E-4,2.433751E-4,1.6889823E-4,1.2884256E-4,2.5747257E-4,-2.6323855E-8,1.3409392E-4,-1.9116349E-5,8.613521E-5,-1.9065534E-4,-7.057129E-5,8.055166E-5,2.6977777E-6,-5.7413155E-5,3.1479034E-5,-9.7304786E-5,-1.8245293E-4,1.0086784E-4,-2.3531193E-6,1.0593734E-5,-1.0672483E-4,3.2262455E-5,1.5375973E-4,8.469532E-5,-4.1949832E-5,-3.8556467E-5,-8.709006E-5,-1.3775565E-4,-2.3277289E-4,-4.795417E-5,3.0910116E-5,8.671997E-5,1.841029E-4],"categories":[],"categories_nodes":[],"categories_segments":[],"categories_sizes":[],"default_left":[0,0,0,0,0,0,0,0,0,0,0,0,0,0,0,0,0,0,0,0,0,0,0,0,0,0,0,0,0,0,0,0,0,0,0,0,0,0,0,0,0,0,0,0,0,0,0,0,0,0,0,0,0,0,0,0,0,0,0,0,0,0,0,0,0,0,0,0,0,0,0,0,0,0,0,0,0,0,0,0,0,0,0,0,0,0,0,0,0,0,0,0,0,0,0,0,0,0,0,0,0,0,0,0,0,0,0,0,0,0,0,0,0,0,0,0,0,0,0,0,0,0,0,0,0,0,0,0,0,0,0],"id":2,"left_children":[1,3,5,7,9,11,13,15,17,19,21,23,25,27,29,31,33,35,-1,37,39,41,43,45,-1,-1,47,49,51,53,55,-1,-1,57,59,-1,61,-1,-1,-1,63,65,67,69,71,-1,-1,73,75,-1,-1,77,79,81,83,85,87,89,91,93,-1,95,-1,97,99,-1,-1,101,103,105,107,109,111,-1,-1,113,-1,115,117,119,121,123,-1,-1,125,127,-1,-1,129,-1,-1,-1,-1,-1,-1,-1,-1,-1,-1,-1,-1,-1,-1,-1,-1,-1,-1,-1,-1,-1,-1,-1,-1,-1,-1,-1,-1,-1,-1,-1,-1,-1,-1,-1,-1,-1,-1,-1,-1,-1,-1],"loss_changes":[2.5699401E-2,4.899154E-2,1.9014053E-2,4.3204308E-2,2.2708405E-2,9.478388E-3,2.0227151E-2,2.9947829E-2,3.1446226E-2,9.856299E-4,4.5638876E-3,6.628521E-4,5.853879E-4,9.704202E-3,2.240697E-2,2.8636158E-3,3.0970478E-2,9.926178E-3,0E0,3.405963E-5,1.0753423E-3,2.1104878E-3,1.1735648E-3,3.8119406E-4,0E0,0E0,1.0702764E-3,3.216925E-3,1.132949E-3,2.4982318E-3,4.7127004E-3,0E0,0E0,5.974705E-3,2.4734832E-2,0E0,4.4350643E-3,0E0,0E0,0E0,1.2596399E-3,7.744256E-5,1.2019798E-3,2.1710158E-3,4.1069082E-4,0E0,0E0,2.3043908E-4,4.1633565E-4,0E0,0E0,2.3604915E-3,5.639207E-4,8.9351647E-4,6.978847E-4,1.7887361E-3,9.869267E-4,7.4927777E-4,7.2681764E-4,4.591639E-3,0E0,1.8799473E-3,0E0,4.7771446E-4,4.153531E-4,0E0,0E0,5.989997E-4,1.6048746E-3,4.159843E-4,4.0030526E-4,3.9332523E-4,3.0244797E-4,0E0,0E0,2.918099E-4,0E0,1.9050627E-3,1.1316855E-3,8.699186E-4,8.185831E-4,6.120157E-5,0E0,0E0,2.048458E-4,7.7030656E-4,0E0,0E0,3.076936E-4,0E0,0E0,0E0,0E0,0E0,0E0,0E0,0E0,0E0,0E0,0E0,0E0,0E0,0E0,0E0,0E0,0E0,0E0,0E0,0E0,0E0,0E0,0E0,0E0,0E0,0E0,0E0,0E0,0E0,0E0,0E0,0E0,0E0,0E0,0E0,0E0,0E0,0E0,0E0,0E0,0E0,0E0],"parents":[2147483647,0,0,1,1,2,2,3,3,4,4,5,5,6,6,7,7,8,8,9,9,10,10,11,11,12,12,13,13,14,14,15,15,16,16,17,17,19,19,20,20,21,21,22,22,23,23,26,26,27,27,28,28,29,29,30,30,33,33,34,34,36,36,40,40,41,41,42,42,43,43,44,44,47,47,48,48,51,51,52,52,53,53,54,54,55,55,56,56,57,57,58,58,59,59,61,61,63,63,64,64,67,67,68,68,69,69,70,70,71,71,72,72,75,75,77,77,78,78,79,79,80,80,81,81,84,84,85,85,88,88],"right_children":[2,4,6,8,10,12,14,16,18,20,22,24,26,28,30,32,34,36,-1,38,40,42,44,46,-1,-1,48,50,52,54,56,-1,-1,58,60,-1,62,-1,-1,-1,64,66,68,70,72,-1,-1,74,76,-1,-1,78,80,82,84,86,88,90,92,94,-1,96,-1,98,100,-1,-1,102,104,106,108,110,112,-1,-1,114,-1,116,118,120,122,124,-1,-1,126,128,-1,-1,130,-1,-1,-1,-1,-1,-1,-1,-1,-1,-1,-1,-1,-1,-1,-1,-1,-1,-1,-1,-1,-1,-1,-1,-1,-1,-1,-1,-1,-1,-1,-1,-1,-1,-1,-1,-1,-1,-1,-1,-1,-1,-1],"split_conditions":[1.9733926E0,1.4023714E0,2.0877712E0,1.1111435E0,1.623699E0,1E0,3.1880064E0,1.7523452E6,4.2954403E5,1.4050951E0,3.0885885E6,1.9898236E0,1.8644114E-1,4E-3,3.3070045E0,8.3524334E-1,1E0,1E0,2.203221E-4,5.503612E5,4E-3,1E0,1.2E-2,7.692308E-1,-4.131469E-4,-1.7521481E-4,1.9816141E0,1E0,1.2597565E6,1E0,3.3396776E0,-1.3365697E-4,-3.8569127E-4,8.326121E-1,7.350133E6,-4.4553043E-4,2.9917338E-1,1.737949E-4,1.0084165E-4,3.491748E-4,7.6420426E-1,1.7885878E0,1.6334534E0,1E0,1.7997053E0,-1.8589344E-4,-3.2031242E-4,7.692308E-1,8.27695E-1,5.5403845E-5,2.9434793E-4,2.5671568E6,5.042879E6,7.692308E-1,3.218797E0,1.9947669E6,7.0974493E-1,6.1142105E-1,8.2396734E-1,3.728355E5,7.0863654E-4,8.2396734E-1,-2.939985E-5,1.2674401E6,8E-3,-1.7674902E-5,2.3953206E-5,2.383774E6,1.7885878E0,8E-3,1.7885878E0,7.6420426E-1,1.8034052E0,-5.272406E-5,2.1604901E-5,7.11254E-1,-6.082834E-5,2.110666E0,1E0,1E0,1E0,4.114578E6,-1.7900331E-4,-2.742251E-4,9.847712E5,3.3233504E0,-1.4184018E-4,3.016513E-5,1.4157261E6,-8.780349E-6,1.0414554E-4,-1.8808938E-4,-7.1216986E-5,3.0503636E-5,2.608569E-4,-4.0252844E-4,-2.1089465E-4,3.2478108E-4,2.104139E-4,2.433751E-4,1.6889823E-4,1.2884256E-4,2.5747257E-4,-2.6323855E-8,1.3409392E-4,-1.9116349E-5,8.613521E-5,-1.9065534E-4,-7.057129E-5,8.055166E-5,2.6977777E-6,-5.7413155E-5,3.1479034E-5,-9.7304786E-5,-1.8245293E-4,1.0086784E-4,-2.3531193E-6,1.0593734E-5,-1.0672483E-4,3.2262455E-5,1.5375973E-4,8.469532E-5,-4.1949832E-5,-3.8556467E-5,-8.709006E-5,-1.3775565E-4,-2.3277289E-4,-4.795417E-5,3.0910116E-5,8.671997E-5,1.841029E-4],"split_indices":[0,0,0,0,0,10,0,5,8,0,5,0,4,1,0,0,10,10,0,7,1,10,1,3,0,0,0,10,7,10,0,0,0,0,5,0,4,0,0,0,3,0,0,10,0,0,0,3,3,0,0,5,5,3,0,7,3,0,3,7,0,3,0,7,1,0,0,5,0,1,0,3,0,0,0,3,0,0,10,10,10,5,0,0,7,0,0,0,5,0,0,0,0,0,0,0,0,0,0,0,0,0,0,0,0,0,0,0,0,0,0,0,0,0,0,0,0,0,0,0,0,0,0,0,0,0,0,0,0,0,0],"split_type":[0,0,0,0,0,0,0,0,0,0,0,0,0,0,0,0,0,0,0,0,0,0,0,0,0,0,0,0,0,0,0,0,0,0,0,0,0,0,0,0,0,0,0,0,0,0,0,0,0,0,0,0,0,0,0,0,0,0,0,0,0,0,0,0,0,0,0,0,0,0,0,0,0,0,0,0,0,0,0,0,0,0,0,0,0,0,0,0,0,0,0,0,0,0,0,0,0,0,0,0,0,0,0,0,0,0,0,0,0,0,0,0,0,0,0,0,0,0,0,0,0,0,0,0,0,0,0,0,0,0,0],"sum_hessian":[1.092E3,5.64E2,5.28E2,2.47E2,3.17E2,1.06E2,4.22E2,1.41E2,1.06E2,1.4E2,1.77E2,3.5E1,7.1E1,2.11E2,2.11E2,2.4E1,1.17E2,9.1E1,1.5E1,1.6E1,1.24E2,9.7E1,8E1,2.3E1,1.2E1,1.3E1,5.8E1,3.2E1,1.79E2,1.05E2,1.06E2,1.1E1,1.3E1,6E1,5.7E1,3.5E1,5.6E1,8E0,8E0,1.6E1,1.08E2,1.9E1,7.8E1,3.2E1,4.8E1,1.1E1,1.2E1,1.8E1,4E1,1E1,2.2E1,1.29E2,5E1,3.5E1,7E1,7E1,3.6E1,3E1,3E1,4.4E1,1.3E1,4.3E1,1.3E1,4.2E1,6.6E1,9E0,1E1,2.4E1,5.4E1,1.6E1,1.6E1,3.2E1,1.6E1,1E1,8E0,2.8E1,1.2E1,8.9E1,4E1,2.8E1,2.2E1,1.7E1,1.8E1,4.6E1,2.4E1,5.6E1,1.4E1,1.2E1,2.4E1,1E1,2E1,1.8E1,1.2E1,1.6E1,2.8E1,9E0,3.4E1,2.6E1,1.6E1,2.4E1,4.2E1,1.3E1,1.1E1,1.4E1,4E1,8E0,8E0,8E0,8E0,2E1,1.2E1,8E0,8E0,1.4E1,1.4E1,3.2E1,5.7E1,1.5E1,2.5E1,1.4E1,1.4E1,1.1E1,1.1E1,9E0,8E0,1.5E1,9E0,2.8E1,2.8E1,9E0,1.5E1],"tree_param":{"num_deleted":"0","num_feature":"11","num_nodes":"131","size_leaf_vector":"1"}},{"base_weights":[-7.613044E-6,-1.7139498E-3,1.3671348E-2,-1.0047183E-2,5.184611E-4,1.9409139E-2,3.549542E-3,3.1075596E-3,-2.7924968E-2,2.0950729E-2,-3.123108E-3,4.6629854E-3,2.320054E-2,-4.4534978E-4,2.1175617E-4,-2.4090473E-2,1.059736E-2,-4.408454E-4,-1.8502314E-2,1.3990246E-4,2.1836823E-2,4.021181E-3,-5.344922E-3,1.7180368E-4,-7.65405E-5,1.4006071E-4,2.650224E-4,1.3396748E-4,-4.4122576E-3,1.1751793E-5,-3.8223356E-4,-3.6146094E-3,3.578362E-2,-3.58131E-4,-1.1089273E-2,2.589708E-2,1.96421E-2,8.608073E-3,-1.2491383E-3,-1.8037328E-2,-2.3396527E-3,-8.1744965E-4,-9.489429E-5,6.1705178E-3,-1.3283136E-2,6.9784716E-4,1.24408845E-2,-1.5281627E-2,-1.5478294E-5,3.284892E-4,1.989928E-2,1.4367439E-2,2.1717103E-2,1.509916E-3,1.1303868E-2,2.9072491E-3,-4.564056E-3,-2.9916337E-2,-1.0609303E-2,4.730869E-3,-8.795914E-3,-9.4795E-5,7.809479E-5,-8.693905E-6,1.03072634E-4,-7.050587E-5,-1.8616221E-4,-2.8742106E-6,2.4726175E-4,-2.0952732E-4,-6.334136E-5,2.8282488E-4,1.2371053E-4,1.9029145E-4,9.099794E-5,2.0615045E-4,3.3969202E-4,-9.259618E-6,6.0010334E-5,1.0005658E-4,2.1206588E-4,8.3427294E-5,-2.2389075E-5,-8.7080065E-5,-2.174163E-5,-2.637955E-4,-4.0902212E-4,-1.886029E-4,-9.801553E-5,2.250611E-4,3.6309728E-5,-2.0610278E-4,1.46498005E-5],"categories":[],"categories_nodes":[],"categories_segments":[],"categories_sizes":[],"default_left":[0,0,0,0,0,0,0,0,0,0,0,0,0,0,0,0,0,0,0,0,0,0,0,0,0,0,0,0,0,0,0,0,0,0,0,0,0,0,0,0,0,0,0,0,0,0,0,0,0,0,0,0,0,0,0,0,0,0,0,0,0,0,0,0,0,0,0,0,0,0,0,0,0,0,0,0,0,0,0,0,0,0,0,0,0,0,0,0,0,0,0,0,0],"id":3,"left_children":[1,3,5,7,9,11,13,15,17,19,21,23,25,27,-1,29,31,-1,33,-1,35,37,39,-1,-1,-1,-1,-1,41,-1,-1,43,45,-1,47,49,51,53,55,57,59,61,-1,63,65,-1,67,69,-1,-1,71,73,75,77,79,81,83,85,87,89,91,-1,-1,-1,-1,-1,-1,-1,-1,-1,-1,-1,-1,-1,-1,-1,-1,-1,-1,-1,-1,-1,-1,-1,-1,-1,-1,-1,-1,-1,-1,-1,-1],"loss_changes":[2.5465028E-2,1.8050315E-2,6.9584027E-3,4.8298202E-2,5.706006E-2,4.196774E-3,2.890264E-3,2.449653E-2,9.76745E-3,5.414374E-4,1.0355001E-2,2.351992E-3,4.974194E-4,1.9380384E-3,0E0,7.4027767E-3,3.37763E-2,0E0,5.264582E-3,0E0,4.091747E-4,3.757783E-3,1.8915419E-2,0E0,0E0,0E0,0E0,0E0,4.4751161E-4,0E0,0E0,5.853038E-3,2.2005353E-2,0E0,1.4357883E-3,2.8124265E-4,4.650727E-4,1.5711514E-3,1.0190689E-3,8.065179E-3,1.8438213E-2,1.1492212E-3,0E0,7.33976E-4,7.116981E-4,0E0,2.654262E-3,8.504833E-4,0E0,0E0,5.999347E-4,2.938197E-4,6.6287257E-4,2.3407837E-4,8.413298E-4,8.0540497E-4,3.4895568E-4,6.495267E-4,4.7578616E-4,4.19289E-3,2.1999978E-2,0E0,0E0,0E0,0E0,0E0,0E0,0E0,0E0,0E0,0E0,0E0,0E0,0E0,0E0,0E0,0E0,0E0,0E0,0E0,0E0,0E0,0E0,0E0,0E0,0E0,0E0,0E0,0E0,0E0,0E0,0E0,0E0],"parents":[2147483647,0,0,1,1,2,2,3,3,4,4,5,5,6,6,7,7,8,8,9,9,10,10,11,11,12,12,13,13,15,15,16,16,18,18,20,20,21,21,22,22,28,28,31,31,32,32,34,34,35,35,36,36,37,37,38,38,39,39,40,40,41,41,43,43,44,44,46,46,47,47,50,50,51,51,52,52,53,53,54,54,55,55,56,56,57,57,58,58,59,59,60,60],"right_children":[2,4,6,8,10,12,14,16,18,20,22,24,26,28,-1,30,32,-1,34,-1,36,38,40,-1,-1,-1,-1,-1,42,-1,-1,44,46,-1,48,50,52,54,56,58,60,62,-1,64,66,-1,68,70,-1,-1,72,74,76,78,80,82,84,86,88,90,92,-1,-1,-1,-1,-1,-1,-1,-1,-1,-1,-1,-1,-1,-1,-1,-1,-1,-1,-1,-1,-1,-1,-1,-1,-1,-1,-1,-1,-1,-1,-1,-1],"split_conditions":[2.4729122E6,1.4023714E0,1.6334534E0,1.1111435E0,1.623699E0,4.2954403E5,2.986369E6,1.7523452E6,1E0,1.4050951E0,1.9733926E0,8.378672E-1,8.378672E-1,2.666376E6,2.1175617E-4,8.3392864E-1,1E0,-4.408454E-4,1.8999061E-1,1.3990246E-4,7.6420426E-1,6.51146E5,2.0877712E0,1.7180368E-4,-7.65405E-5,1.4006071E-4,2.650224E-4,1.3396748E-4,2.8067605E6,1.1751793E-5,-3.8223356E-4,8.326121E-1,7.6420426E-1,-3.58131E-4,7.1332465E6,3.3174664E-1,8.314476E-1,1E0,7.11254E-1,1E0,3.1880064E0,2.7329388E6,-9.489429E-5,6.1142105E-1,6E-1,6.9784716E-4,4E-1,8.333333E-1,-1.5478294E-5,3.284892E-4,6.6527975E-1,8.258281E-1,2.816977E5,2.7669416E5,3.3373072E5,1E0,1.7885878E0,1.9898236E0,6.108624E-2,2.0923555E0,3.3070045E0,-9.4795E-5,7.809479E-5,-8.693905E-6,1.03072634E-4,-7.050587E-5,-1.8616221E-4,-2.8742106E-6,2.4726175E-4,-2.0952732E-4,-6.334136E-5,2.8282488E-4,1.2371053E-4,1.9029145E-4,9.099794E-5,2.0615045E-4,3.3969202E-4,-9.259618E-6,6.0010334E-5,1.0005658E-4,2.1206588E-4,8.3427294E-5,-2.2389075E-5,-8.7080065E-5,-2.174163E-5,-2.637955E-4,-4.0902212E-4,-1.886029E-4,-9.801553E-5,2.250611E-4,3.6309728E-5,-2.0610278E-4,1.46498005E-5],"split_indices":[6,0,0,0,0,7,5,5,10,0,0,0,0,6,0,0,10,0,4,0,3,7,0,0,0,0,0,0,6,0,0,0,3,0,5,4,3,10,3,10,0,6,0,0,2,0,2,3,0,0,3,3,7,7,8,10,0,0,4,0,0,0,0,0,0,0,0,0,0,0,0,0,0,0,0,0,0,0,0,0,0,0,0,0,0,0,0,0,0,0,0,0,0],"split_type":[0,0,0,0,0,0,0,0,0,0,0,0,0,0,0,0,0,0,0,0,0,0,0,0,0,0,0,0,0,0,0,0,0,0,0,0,0,0,0,0,0,0,0,0,0,0,0,0,0,0,0,0,0,0,0,0,0,0,0,0,0,0,0,0,0,0,0,0,0,0,0,0,0,0,0,0,0,0,0,0,0,0,0,0,0,0,0,0,0,0,0,0,0],"sum_hessian":[1.089E3,9.69E2,1.2E2,2.04E2,7.65E2,7.6E1,4.4E1,1.18E2,8.6E1,1.15E2,6.5E2,1.6E1,6E1,3.6E1,8E0,2.5E1,9.3E1,3.5E1,5.1E1,1.3E1,1.02E2,1.54E2,4.96E2,8E0,8E0,8E0,5.2E1,8E0,2.8E1,8E0,1.7E1,6E1,3.3E1,1.6E1,3.5E1,3.2E1,7E1,8.2E1,7.2E1,9.4E1,4.02E2,1.6E1,1.2E1,3E1,3E1,1.4E1,1.9E1,2.4E1,1.1E1,1.6E1,1.6E1,2.2E1,4.8E1,2.3E1,5.9E1,3.2E1,4E1,3.5E1,5.9E1,1.92E2,2.1E2,8E0,8E0,1E1,2E1,1.2E1,1.8E1,9E0,1E1,1.6E1,8E0,8E0,8E0,1.3E1,9E0,4E1,8E0,1.5E1,8E0,4.9E1,1E1,1.6E1,1.6E1,1.6E1,2.4E1,2.3E1,1.2E1,9E0,5E1,1.4E1,1.78E2,1.04E2,1.06E2],"tree_param":{"num_deleted":"0","num_feature":"11","num_nodes":"93","size_leaf_vector":"1"}},{"base_weights":[2.5991307E-5,4.715806E-3,-4.9464973E-3,-5.523882E-3,1.2737093E-2,-1.6586658E-2,-2.004277E-3,5.5521685E-3,-2.041399E-2,2.2053795E-2,5.3901337E-3,-2.9611446E-2,-9.843894E-3,4.787636E-3,-8.78678E-3,-2.3844156E-2,1.1982272E-2,-2.728057E-2,2.1540068E-4,1.4016432E-4,2.304942E-2,1.0026221E-2,-2.8550476E-4,-2.4137236E-2,-4.0493842E-4,-1.8676715E-4,-8.509188E-3,2.0337608E-2,1.9261073E-3,-1.883141E-2,1.3399684E-3,1.1638905E-5,-3.78329E-4,-3.5781732E-3,2.8140979E-2,-4.3616357E-4,-1.8791059E-2,3.4304638E-4,2.1471588E-2,3.918931E-4,1.2338378E-2,-4.8279907E-3,2.7795471E-3,-1.8143476E-4,-3.1448065E-4,-3.1326655E-3,-1.09370435E-2,5.3574167E-5,2.8998015E-4,3.6717302E-4,5.892662E-3,-1.1419303E-2,-2.2275915E-2,-3.3940536E-3,1.0387957E-2,6.106818E-3,-1.314774E-2,1.6293144E-2,6.9451093E-4,-2.3500135E-2,-2.8649529E-5,2.6008733E-2,1.8190242E-2,-1.741265E-5,2.3536224E-5,1.7761927E-2,9.648794E-3,3.259061E-3,-1.2631043E-2,4.776996E-3,-1.261357E-3,-5.1254396E-5,-1.3429357E-5,-1.3157981E-2,-6.396506E-5,3.1534305E-3,-5.825915E-3,8.771324E-3,2.0068418E-3,-5.753926E-3,-1.7505734E-4,-2.6903374E-4,-1.6395835E-2,-8.077862E-4,-1.4055648E-4,2.9717634E-5,1.3945404E-2,-8.608341E-6,1.0201078E-4,-1.8425459E-4,-6.980189E-5,2.9760204E-5,2.560019E-4,-3.9684123E-4,-2.0614527E-4,3.1833304E-4,2.0594239E-4,2.3839544E-4,1.6726108E-4,1.2654386E-4,2.5258976E-4,1.6197795E-5,1.3701375E-4,-1.8740795E-5,8.532228E-5,-1.8836567E-4,-6.968215E-5,7.9649806E-5,2.4884848E-6,-5.690344E-5,3.1134354E-5,-9.5514E-5,-1.79624E-4,9.9429104E-5,-3.0078634E-6,1.0118393E-5,-1.0559074E-4,3.1570213E-5,1.5184125E-4,8.3495695E-5,-4.1893694E-5,-3.6174748E-5,-8.42713E-5,-1.3426901E-4,-2.2850059E-4,-4.760654E-5,3.0434265E-5,8.5733045E-5,1.820876E-4],"categories":[],"categories_nodes":[],"categories_segments":[],"categories_sizes":[],"default_left":[0,0,0,0,0,0,0,0,0,0,0,0,0,0,0,0,0,0,0,0,0,0,0,0,0,0,0,0,0,0,0,0,0,0,0,0,0,0,0,0,0,0,0,0,0,0,0,0,0,0,0,0,0,0,0,0,0,0,0,0,0,0,0,0,0,0,0,0,0,0,0,0,0,0,0,0,0,0,0,0,0,0,0,0,0,0,0,0,0,0,0,0,0,0,0,0,0,0,0,0,0,0,0,0,0,0,0,0,0,0,0,0,0,0,0,0,0,0,0,0,0,0,0,0,0,0,0,0,0],"id":4,"left_children":[1,3,5,7,9,11,13,15,17,19,21,23,25,27,29,31,33,35,-1,-1,37,39,41,43,-1,-1,45,47,49,51,53,-1,-1,55,57,-1,59,-1,61,63,65,67,69,-1,-1,71,73,-1,-1,75,77,79,81,83,85,87,89,91,-1,93,-1,95,97,-1,-1,99,101,103,105,107,109,-1,-1,111,-1,113,115,117,119,121,-1,-1,123,125,-1,-1,127,-1,-1,-1,-1,-1,-1,-1,-1,-1,-1,-1,-1,-1,-1,-1,-1,-1,-1,-1,-1,-1,-1,-1,-1,-1,-1,-1,-1,-1,-1,-1,-1,-1,-1,-1,-1,-1,-1,-1,-1,-1,-1],"loss_changes":[2.5512142E-2,4.6312626E-2,1.81524E-2,4.101439E-2,2.1511149E-2,9.105576E-3,1.9620191E-2,2.7315773E-2,2.9897466E-2,9.5989555E-4,4.686533E-3,6.390661E-4,5.665249E-4,9.438621E-3,2.1691473E-2,7.2526075E-3,2.9770223E-2,9.321094E-3,0E0,0E0,1.0148883E-3,2.17822E-3,1.141179E-3,3.849296E-4,0E0,0E0,7.8810286E-4,3.1536277E-3,1.1170675E-3,2.4774447E-3,4.6184286E-3,0E0,0E0,5.7338416E-3,2.3741689E-2,0E0,4.270591E-3,0E0,1.1347905E-3,7.493787E-5,9.809984E-4,2.1235868E-3,4.01529E-4,0E0,0E0,5.7901038E-5,4.0187594E-4,0E0,0E0,2.2788472E-3,5.528815E-4,8.7894965E-4,6.9226325E-4,1.7525859E-3,9.6734427E-4,7.189873E-4,6.968891E-4,4.429791E-3,0E0,1.8778648E-3,0E0,4.6536885E-4,3.519524E-4,0E0,0E0,5.7422277E-4,1.334602E-3,4.0654695E-4,3.9117667E-4,3.865225E-4,2.9665206E-4,0E0,0E0,2.8621173E-4,0E0,1.8885406E-3,1.1004937E-3,8.5304375E-4,8.0256484E-4,6.230635E-5,0E0,0E0,2.0863814E-4,7.542812E-4,0E0,0E0,3.014123E-4,0E0,0E0,0E0,0E0,0E0,0E0,0E0,0E0,0E0,0E0,0E0,0E0,0E0,0E0,0E0,0E0,0E0,0E0,0E0,0E0,0E0,0E0,0E0,0E0,0E0,0E0,0E0,0E0,0E0,0E0,0E0,0E0,0E0,0E0,0E0,0E0,0E0,0E0,0E0,0E0,0E0,0E0],"parents":[2147483647,0,0,1,1,2,2,3,3,4,4,5,5,6,6,7,7,8,8,9,9,10,10,11,11,12,12,13,13,14,14,15,15,16,16,17,17,20,20,21,21,22,22,23,23,26,26,27,27,28,28,29,29,30,30,33,33,34,34,36,36,38,38,39,39,40,40,41,41,42,42,45,45,46,46,49,49,50,50,51,51,52,52,53,53,54,54,55,55,56,56,57,57,59,59,61,61,62,62,65,65,66,66,67,67,68,68,69,69,70,70,73,73,75,75,76,76,77,77,78,78,79,79,82,82,83,83,86,86],"right_children":[2,4,6,8,10,12,14,16,18,20,22,24,26,28,30,32,34,36,-1,-1,38,40,42,44,-1,-1,46,48,50,52,54,-1,-1,56,58,-1,60,-1,62,64,66,68,70,-1,-1,72,74,-1,-1,76,78,80,82,84,86,88,90,92,-1,94,-1,96,98,-1,-1,100,102,104,106,108,110,-1,-1,112,-1,114,116,118,120,122,-1,-1,124,126,-1,-1,128,-1,-1,-1,-1,-1,-1,-1,-1,-1,-1,-1,-1,-1,-1,-1,-1,-1,-1,-1,-1,-1,-1,-1,-1,-1,-1,-1,-1,-1,-1,-1,-1,-1,-1,-1,-1,-1,-1,-1,-1,-1,-1],"split_conditions":[1.9733926E0,1.4023714E0,2.0877712E0,1.1111435E0,1.623699E0,1E0,3.1880064E0,1.7523452E6,4.2954403E5,1.4050951E0,3.0885885E6,1.9898236E0,6.108624E-2,4E-3,3.3070045E0,8.3392864E-1,1E0,1E0,2.1540068E-4,1.4016432E-4,4E-3,1E0,1.2E-2,7.692308E-1,-4.0493842E-4,-1.8676715E-4,1.9816141E0,1E0,1.2597565E6,1E0,3.3396776E0,1.1638905E-5,-3.78329E-4,8.326121E-1,7.350133E6,-4.3616357E-4,2.9917338E-1,3.4304638E-4,7.6420426E-1,1.7885878E0,1.6334534E0,1E0,1.7997053E0,-1.8143476E-4,-3.1448065E-4,7.692308E-1,8.27695E-1,5.3574167E-5,2.8998015E-4,2.5671568E6,5.042879E6,7.692308E-1,3.218797E0,1.9947669E6,7.0974493E-1,6.1142105E-1,8.2396734E-1,3.728355E5,6.9451093E-4,8.2396734E-1,-2.8649529E-5,1.2674401E6,8E-3,-1.741265E-5,2.3536224E-5,2.383774E6,1.7885878E0,8E-3,1.7885878E0,7.6420426E-1,1.8034052E0,-5.1254396E-5,-1.3429357E-5,7.11254E-1,-6.396506E-5,2.110666E0,1E0,1E0,1E0,4.114578E6,-1.7505734E-4,-2.6903374E-4,9.847712E5,3.3233504E0,-1.4055648E-4,2.9717634E-5,1.4157261E6,-8.608341E-6,1.0201078E-4,-1.8425459E-4,-6.980189E-5,2.9760204E-5,2.560019E-4,-3.9684123E-4,-2.0614527E-4,3.1833304E-4,2.0594239E-4,2.3839544E-4,1.6726108E-4,1.2654386E-4,2.5258976E-4,1.6197795E-5,1.3701375E-4,-1.8740795E-5,8.532228E-5,-1.8836567E-4,-6.968215E-5,7.9649806E-5,2.4884848E-6,-5.690344E-5,3.1134354E-5,-9.5514E-5,-1.79624E-4,9.9429104E-5,-3.0078634E-6,1.0118393E-5,-1.0559074E-4,3.1570213E-5,1.5184125E-4,8.3495695E-5,-4.1893694E-5,-3.6174748E-5,-8.42713E-5,-1.3426901E-4,-2.2850059E-4,-4.760654E-5,3.0434265E-5,8.5733045E-5,1.820876E-4],"split_indices":[0,0,0,0,0,10,0,5,8,0,5,0,4,1,0,0,10,10,0,0,1,10,1,3,0,0,0,10,7,10,0,0,0,0,5,0,4,0,3,0,0,10,0,0,0,3,3,0,0,5,5,3,0,7,3,0,3,7,0,3,0,7,1,0,0,5,0,1,0,3,0,0,0,3,0,0,10,10,10,5,0,0,7,0,0,0,5,0,0,0,0,0,0,0,0,0,0,0,0,0,0,0,0,0,0,0,0,0,0,0,0,0,0,0,0,0,0,0,0,0,0,0,0,0,0,0,0,0,0],"split_type":[0,0,0,0,0,0,0,0,0,0,0,0,0,0,0,0,0,0,0,0,0,0,0,0,0,0,0,0,0,0,0,0,0,0,0,0,0,0,0,0,0,0,0,0,0,0,0,0,0,0,0,0,0,0,0,0,0,0,0,0,0,0,0,0,0,0,0,0,0,0,0,0,0,0,0,0,0,0,0,0,0,0,0,0,0,0,0,0,0,0,0,0,0,0,0,0,0,0,0,0,0,0,0,0,0,0,0,0,0,0,0,0,0,0,0,0,0,0,0,0,0,0,0,0,0,0,0,0,0],"sum_hessian":[1.092E3,5.62E2,5.3E2,2.47E2,3.15E2,1.06E2,4.24E2,1.42E2,1.05E2,1.38E2,1.77E2,3.5E1,7.1E1,2.12E2,2.12E2,2.5E1,1.17E2,9E1,1.5E1,1.5E1,1.23E2,9.7E1,8E1,2.3E1,1.2E1,9E0,6.2E1,3.2E1,1.8E2,1.06E2,1.06E2,8E0,1.7E1,6E1,5.7E1,3.4E1,5.6E1,1.6E1,1.07E2,1.9E1,7.8E1,3.2E1,4.8E1,1.1E1,1.2E1,2E1,4.2E1,1E1,2.2E1,1.3E2,5E1,3.5E1,7.1E1,7E1,3.6E1,3E1,3E1,4.4E1,1.3E1,4.3E1,1.3E1,4.2E1,6.5E1,9E0,1E1,2.4E1,5.4E1,1.6E1,1.6E1,3.2E1,1.6E1,1E1,1E1,2.8E1,1.4E1,9E1,4E1,2.8E1,2.2E1,1.7E1,1.8E1,4.7E1,2.4E1,5.6E1,1.4E1,1.2E1,2.4E1,1E1,2E1,1.8E1,1.2E1,1.6E1,2.8E1,9E0,3.4E1,2.6E1,1.6E1,2.4E1,4.1E1,1.3E1,1.1E1,1.5E1,3.9E1,8E0,8E0,8E0,8E0,2E1,1.2E1,8E0,8E0,1.4E1,1.4E1,3.2E1,5.8E1,1.5E1,2.5E1,1.4E1,1.4E1,1.1E1,1.1E1,9E0,8E0,1.5E1,9E0,2.8E1,2.8E1,9E0,1.5E1],"tree_param":{"num_deleted":"0","num_feature":"11","num_nodes":"129","size_leaf_vector":"1"}},{"base_weights":[-3.3120377E-5,-1.7002084E-3,1.3262861E-2,-9.993027E-3,5.127019E-4,1.9005891E-2,3.3612088E-3,2.6954224E-3,-2.6893528E-2,2.0469151E-2,-3.063741E-3,4.6127527E-3,2.270552E-2,-4.971145E-4,2.0850981E-4,-2.3600366E-2,1.001795E-2,-4.3162363E-4,-1.7546667E-2,1.3708985E-4,2.1321533E-2,-3.5014775E-4,-8.746481E-3,1.6905005E-4,-7.481312E-5,1.362529E-4,2.5950687E-4,1.3244449E-4,-4.303352E-3,1.1526877E-5,-3.7446432E-4,-3.5421038E-3,3.477993E-2,-2.2331532E-2,-2.8361892E-5,3.2030776E-4,1.98113E-2,-4.29257E-3,4.6858178E-3,-1.8783096E-2,1.3726497E-3,3.3141176E-5,-7.606776E-3,6.043781E-3,-1.3013727E-2,6.841079E-4,1.0471942E-2,-2.5511503E-2,-9.240594E-5,1.7088465E-2,2.3679595E-2,3.9385254E-3,-1.7677067E-2,1.913404E-2,2.0464654E-3,-1.1303999E-2,-2.2310765E-2,-3.3570563E-3,1.0283643E-2,-4.969667E-5,-1.1313644E-4,-8.523655E-6,1.0095997E-4,-6.910506E-5,-1.823665E-4,-3.1361703E-6,2.1833276E-4,-2.2314348E-4,-3.6972912E-4,9.583356E-5,2.1156855E-4,1.6787079E-4,2.8469277E-4,9.130703E-5,-1.336724E-5,-3.1707526E-4,-1.1247207E-4,5.3047297E-5,2.81246E-4,3.935869E-6,6.309167E-5,-6.163194E-5,-1.732636E-4,-2.6618468E-4,-1.8149575E-4,-8.117109E-6,-1.391377E-4,1.4931377E-4,2.942099E-5],"categories":[],"categories_nodes":[],"categories_segments":[],"categories_sizes":[],"default_left":[0,0,0,0,0,0,0,0,0,0,0,0,0,0,0,0,0,0,0,0,0,0,0,0,0,0,0,0,0,0,0,0,0,0,0,0,0,0,0,0,0,0,0,0,0,0,0,0,0,0,0,0,0,0,0,0,0,0,0,0,0,0,0,0,0,0,0,0,0,0,0,0,0,0,0,0,0,0,0,0,0,0,0,0,0,0,0,0,0],"id":5,"left_children":[1,3,5,7,9,11,13,15,17,19,21,23,25,27,-1,29,31,-1,33,-1,35,37,39,-1,-1,-1,-1,-1,41,-1,-1,43,45,47,-1,-1,49,51,53,55,57,-1,59,61,63,-1,65,67,-1,69,71,73,75,77,79,81,83,85,87,-1,-1,-1,-1,-1,-1,-1,-1,-1,-1,-1,-1,-1,-1,-1,-1,-1,-1,-1,-1,-1,-1,-1,-1,-1,-1,-1,-1,-1,-1],"loss_changes":[2.4271687E-2,1.7860904E-2,6.8737045E-3,4.4032924E-2,5.4948628E-2,3.9954614E-3,2.8346195E-3,2.2957522E-2,1.0003775E-2,5.070418E-4,1.0066616E-2,2.2675872E-3,4.918985E-4,1.8957624E-3,0E0,7.1054725E-3,3.1350154E-2,0E0,3.726229E-3,0E0,7.1590394E-4,8.815394E-3,2.1455329E-2,0E0,0E0,0E0,0E0,0E0,7.534504E-4,0E0,0E0,5.61708E-3,2.2176404E-2,1.5358366E-3,0E0,0E0,5.5383146E-4,2.7501721E-2,7.3969634E-3,2.5444776E-3,4.5020394E-3,0E0,1.3242743E-4,7.0430676E-4,6.8238657E-4,0E0,1.9922813E-3,6.4911507E-4,0E0,9.863842E-4,3.4604035E-4,3.622457E-3,7.7426713E-3,2.804907E-3,1.055572E-3,8.603418E-4,4.901327E-4,1.7250533E-3,9.4796624E-4,0E0,0E0,0E0,0E0,0E0,0E0,0E0,0E0,0E0,0E0,0E0,0E0,0E0,0E0,0E0,0E0,0E0,0E0,0E0,0E0,0E0,0E0,0E0,0E0,0E0,0E0,0E0,0E0,0E0,0E0],"parents":[2147483647,0,0,1,1,2,2,3,3,4,4,5,5,6,6,7,7,8,8,9,9,10,10,11,11,12,12,13,13,15,15,16,16,18,18,20,20,21,21,22,22,28,28,31,31,32,32,33,33,36,36,37,37,38,38,39,39,40,40,42,42,43,43,44,44,46,46,47,47,49,49,50,50,51,51,52,52,53,53,54,54,55,55,56,56,57,57,58,58],"right_children":[2,4,6,8,10,12,14,16,18,20,22,24,26,28,-1,30,32,-1,34,-1,36,38,40,-1,-1,-1,-1,-1,42,-1,-1,44,46,48,-1,-1,50,52,54,56,58,-1,60,62,64,-1,66,68,-1,70,72,74,76,78,80,82,84,86,88,-1,-1,-1,-1,-1,-1,-1,-1,-1,-1,-1,-1,-1,-1,-1,-1,-1,-1,-1,-1,-1,-1,-1,-1,-1,-1,-1,-1,-1,-1],"split_conditions":[2.4729122E6,1.4023714E0,1.6334534E0,1.1111435E0,1.623699E0,4.2954403E5,2.986369E6,1.7523452E6,1E0,1.4050951E0,3.1880064E0,8.378672E-1,8.378672E-1,2.666376E6,2.0850981E-4,8.3392864E-1,1E0,-4.3162363E-4,6.24475E6,1.3708985E-4,4E-3,2.0877712E0,3.3070045E0,1.6905005E-4,-7.481312E-5,1.362529E-4,2.5950687E-4,1.3244449E-4,8E-3,1.1526877E-5,-3.7446432E-4,8.326121E-1,7.6420426E-1,1.5078014E6,-2.8361892E-5,3.2030776E-4,4.947036E6,1.9733926E0,4E-3,1E0,3.3396776E0,3.3141176E-5,2.800199E6,6.1142105E-1,6E-1,6.841079E-4,4E-1,2E0,-9.240594E-5,8.314476E-1,8E-3,6.51146E5,1E0,1E0,1.2597565E6,7.692308E-1,3.218797E0,1.9947669E6,8E-1,-4.969667E-5,-1.1313644E-4,-8.523655E-6,1.0095997E-4,-6.910506E-5,-1.823665E-4,-3.1361703E-6,2.1833276E-4,-2.2314348E-4,-3.6972912E-4,9.583356E-5,2.1156855E-4,1.6787079E-4,2.8469277E-4,9.130703E-5,-1.336724E-5,-3.1707526E-4,-1.1247207E-4,5.3047297E-5,2.81246E-4,3.935869E-6,6.309167E-5,-6.163194E-5,-1.732636E-4,-2.6618468E-4,-1.8149575E-4,-8.117109E-6,-1.391377E-4,1.4931377E-4,2.942099E-5],"split_indices":[6,0,0,0,0,7,5,5,10,0,0,0,0,6,0,0,10,0,5,0,1,0,0,0,0,0,0,0,1,0,0,0,3,6,0,0,5,0,1,10,0,0,5,0,2,0,2,10,0,3,1,7,10,10,7,3,0,7,2,0,0,0,0,0,0,0,0,0,0,0,0,0,0,0,0,0,0,0,0,0,0,0,0,0,0,0,0,0,0],"split_type":[0,0,0,0,0,0,0,0,0,0,0,0,0,0,0,0,0,0,0,0,0,0,0,0,0,0,0,0,0,0,0,0,0,0,0,0,0,0,0,0,0,0,0,0,0,0,0,0,0,0,0,0,0,0,0,0,0,0,0,0,0,0,0,0,0,0,0,0,0,0,0,0,0,0,0,0,0,0,0,0,0,0,0,0,0,0,0,0,0],"sum_hessian":[1.093E3,9.72E2,1.21E2,2.04E2,7.68E2,7.6E1,4.5E1,1.17E2,8.7E1,1.16E2,6.52E2,1.6E1,6E1,3.7E1,8E0,2.5E1,9.2E1,3.5E1,5.2E1,1.3E1,1.03E2,4.42E2,2.1E2,8E0,8E0,8E0,5.2E1,8E0,2.9E1,8E0,1.7E1,6E1,3.2E1,3.9E1,1.3E1,1.3E1,9E1,2.48E2,1.94E2,1.05E2,1.05E2,9E0,2E1,3E1,3E1,1.4E1,1.8E1,3.1E1,8E0,5.6E1,3.4E1,1.54E2,9.4E1,2.9E1,1.65E2,3.5E1,7E1,6.9E1,3.6E1,1.1E1,9E0,1E1,2E1,1.2E1,1.8E1,9E0,9E0,2.2E1,9E0,1.4E1,4.2E1,1E1,2.4E1,8.2E1,7.2E1,3.5E1,5.9E1,1E1,1.9E1,1.15E2,5E1,1.7E1,1.8E1,4.7E1,2.3E1,5.5E1,1.4E1,2.4E1,1.2E1],"tree_param":{"num_deleted":"0","num_feature":"11","num_nodes":"89","size_leaf_vector":"1"}},{"base_weights":[-7.4462373E-6,-1.6760874E-3,1.3383116E-2,-9.670456E-3,4.4959915E-4,1.911074E-2,4.274215E-3,3.2180992E-3,-2.7040329E-2,2.029672E-2,-3.076765E-3,4.568407E-3,2.3043651E-2,3.79716E-4,2.058805E-4,-2.3359071E-2,1.0613672E-2,-4.2708495E-4,-1.7903049E-2,1.3571304E-4,2.115292E-2,-3.6744037E-4,-8.7109385E-3,1.6742492E-4,-7.409396E-5,1.8298527E-2,2.9715258E-4,1.274864E-4,-2.9443724E-3,1.1415994E-5,-3.706392E-4,-3.2251542E-3,3.4722965E-2,-3.2178947E-4,-1.12977475E-2,3.170908E-4,1.964782E-2,-4.3010567E-3,4.6371967E-3,-1.843983E-2,1.1919133E-3,2.078718E-2,1.0713458E-4,3.2818585E-5,-5.528137E-3,5.9813885E-3,-1.2631076E-2,1.206938E-2,6.772021E-4,-1.4748622E-2,-2.6258178E-5,1.6929097E-2,2.3436407E-2,3.8631563E-3,-1.74904E-2,1.8938236E-2,2.0247365E-3,-1.118826E-2,-2.1809503E-2,-3.325739E-3,1.0068619E-2,1.5647883E-4,2.5084877E-4,-8.584387E-5,-1.2620051E-5,-8.439849E-6,9.9919904E-5,-5.574638E-5,-1.8049794E-4,-3.10571E-6,2.401666E-4,-5.9233837E-5,-2.0322423E-4,2.093335E-4,8.944714E-5,1.6622015E-4,2.817367E-4,9.0331305E-5,-1.4763297E-5,-3.1374124E-4,-1.1127587E-4,5.2525702E-5,2.7835625E-4,3.8936873E-6,6.2422674E-5,-1.714882E-4,-6.1002385E-5,-2.6336557E-4,-1.7368697E-4,-8.559432E-6,-1.3773306E-4,1.4757142E-4,2.9127319E-5],"categories":[],"categories_nodes":[],"categories_segments":[],"categories_sizes":[],"default_left":[0,0,0,0,0,0,0,0,0,0,0,0,0,0,0,0,0,0,0,0,0,0,0,0,0,0,0,0,0,0,0,0,0,0,0,0,0,0,0,0,0,0,0,0,0,0,0,0,0,0,0,0,0,0,0,0,0,0,0,0,0,0,0,0,0,0,0,0,0,0,0,0,0,0,0,0,0,0,0,0,0,0,0,0,0,0,0,0,0,0,0,0,0],"id":6,"left_children":[1,3,5,7,9,11,13,15,17,19,21,23,25,27,-1,29,31,-1,33,-1,35,37,39,-1,-1,41,-1,-1,43,-1,-1,45,47,-1,49,-1,51,53,55,57,59,61,-1,-1,63,65,67,69,-1,71,-1,73,75,77,79,81,83,85,87,89,91,-1,-1,-1,-1,-1,-1,-1,-1,-1,-1,-1,-1,-1,-1,-1,-1,-1,-1,-1,-1,-1,-1,-1,-1,-1,-1,-1,-1,-1,-1,-1,-1],"loss_changes":[2.4399783E-2,1.6505055E-2,6.2311683E-3,4.5757025E-2,5.3813368E-2,4.1270647E-3,2.752157E-3,2.3441227E-2,9.187855E-3,5.041957E-4,9.964716E-3,2.2241997E-3,7.1662106E-4,1.5135609E-3,0E0,6.961331E-3,3.1140909E-2,0E0,3.7337188E-3,0E0,6.897114E-4,8.721299E-3,2.044686E-2,0E0,0E0,4.4160243E-4,0E0,0E0,4.956501E-4,0E0,0E0,5.2713132E-3,2.0725727E-2,0E0,1.0355129E-3,0E0,5.302541E-4,2.6772361E-2,7.2470307E-3,2.370581E-3,4.2842836E-3,1.4130957E-5,0E0,0E0,2.218635E-4,6.899253E-4,8.2409196E-4,2.5112897E-3,0E0,8.338243E-4,0E0,1.0160673E-3,3.3737533E-4,3.6254164E-3,7.5817816E-3,2.7468894E-3,1.033321E-3,8.427636E-4,6.609857E-4,1.6829323E-3,9.1264094E-4,0E0,0E0,0E0,0E0,0E0,0E0,0E0,0E0,0E0,0E0,0E0,0E0,0E0,0E0,0E0,0E0,0E0,0E0,0E0,0E0,0E0,0E0,0E0,0E0,0E0,0E0,0E0,0E0,0E0,0E0,0E0,0E0],"parents":[2147483647,0,0,1,1,2,2,3,3,4,4,5,5,6,6,7,7,8,8,9,9,10,10,11,11,12,12,13,13,15,15,16,16,18,18,20,20,21,21,22,22,25,25,28,28,31,31,32,32,34,34,36,36,37,37,38,38,39,39,40,40,41,41,44,44,45,45,46,46,47,47,49,49,51,51,52,52,53,53,54,54,55,55,56,56,57,57,58,58,59,59,60,60],"right_children":[2,4,6,8,10,12,14,16,18,20,22,24,26,28,-1,30,32,-1,34,-1,36,38,40,-1,-1,42,-1,-1,44,-1,-1,46,48,-1,50,-1,52,54,56,58,60,62,-1,-1,64,66,68,70,-1,72,-1,74,76,78,80,82,84,86,88,90,92,-1,-1,-1,-1,-1,-1,-1,-1,-1,-1,-1,-1,-1,-1,-1,-1,-1,-1,-1,-1,-1,-1,-1,-1,-1,-1,-1,-1,-1,-1,-1,-1],"split_conditions":[2.4729122E6,1.4023714E0,1.630205E0,1.1111435E0,1.623699E0,4.2954403E5,2.986369E6,1.7523452E6,1E0,1.4050951E0,3.1880064E0,8.378672E-1,1.4050951E0,2.5671568E6,2.058805E-4,8.3392864E-1,1E0,-4.2708495E-4,1.8999061E-1,1.3571304E-4,4E-3,2.0877712E0,3.3070045E0,1.6742492E-4,-7.409396E-5,3.551998E-1,2.9715258E-4,1.274864E-4,8E-3,1.1415994E-5,-3.706392E-4,8.326121E-1,2.9818094E-1,-3.2178947E-4,7.1332465E6,3.170908E-4,4.947036E6,1.9733926E0,4E-3,1E0,3.3396776E0,3.5673475E6,1.0713458E-4,3.2818585E-5,2.8256142E6,6.1142105E-1,6E-1,4E-1,6.772021E-4,2.512381E-1,-2.6258178E-5,2.5246918E-1,8E-3,6.51146E5,1E0,1E0,1.2597565E6,2.9518154E-1,3.218797E0,1.9947669E6,8E-1,1.5647883E-4,2.5084877E-4,-8.584387E-5,-1.2620051E-5,-8.439849E-6,9.9919904E-5,-5.574638E-5,-1.8049794E-4,-3.10571E-6,2.401666E-4,-5.9233837E-5,-2.0322423E-4,2.093335E-4,8.944714E-5,1.6622015E-4,2.817367E-4,9.0331305E-5,-1.4763297E-5,-3.1374124E-4,-1.1127587E-4,5.2525702E-5,2.7835625E-4,3.8936873E-6,6.2422674E-5,-1.714882E-4,-6.1002385E-5,-2.6336557E-4,-1.7368697E-4,-8.559432E-6,-1.3773306E-4,1.4757142E-4,2.9127319E-5],"split_indices":[6,0,0,0,0,7,5,5,10,0,0,0,0,5,0,0,10,0,4,0,1,0,0,0,0,4,0,0,1,0,0,0,4,0,5,0,5,0,1,10,0,5,0,0,5,0,2,2,0,4,0,4,1,7,10,10,7,4,0,7,2,0,0,0,0,0,0,0,0,0,0,0,0,0,0,0,0,0,0,0,0,0,0,0,0,0,0,0,0,0,0,0,0],"split_type":[0,0,0,0,0,0,0,0,0,0,0,0,0,0,0,0,0,0,0,0,0,0,0,0,0,0,0,0,0,0,0,0,0,0,0,0,0,0,0,0,0,0,0,0,0,0,0,0,0,0,0,0,0,0,0,0,0,0,0,0,0,0,0,0,0,0,0,0,0,0,0,0,0,0,0,0,0,0,0,0,0,0,0,0,0,0,0,0,0,0,0,0,0],"sum_hessian":[1.09E3,9.7E2,1.2E2,2.03E2,7.67E2,7.3E1,4.7E1,1.17E2,8.6E1,1.15E2,6.52E2,1.6E1,5.7E1,3.8E1,9E0,2.5E1,9.2E1,3.5E1,5.1E1,1.3E1,1.02E2,4.41E2,2.11E2,8E0,8E0,3E1,2.7E1,8E0,3E1,8E0,1.7E1,5.9E1,3.3E1,1.7E1,3.4E1,1.3E1,8.9E1,2.47E2,1.94E2,1.06E2,1.05E2,2.2E1,8E0,9E0,2.1E1,3E1,2.9E1,1.9E1,1.4E1,2.4E1,1E1,5.5E1,3.4E1,1.53E2,9.4E1,2.9E1,1.65E2,3.5E1,7.1E1,7E1,3.5E1,8E0,1.4E1,1.3E1,8E0,1E1,2E1,1.1E1,1.8E1,9E0,1E1,8E0,1.6E1,4.2E1,1.3E1,1E1,2.4E1,8.2E1,7.1E1,3.5E1,5.9E1,1E1,1.9E1,1.15E2,5E1,1.8E1,1.7E1,4.7E1,2.4E1,5.6E1,1.4E1,2.3E1,1.2E1],"tree_param":{"num_deleted":"0","num_feature":"11","num_nodes":"93","size_leaf_vector":"1"}},{"base_weights":[-6.802305E-6,-1.7733109E-3,1.2515832E-2,-9.659542E-3,3.0982817E-4,1.5908562E-2,1.9695277E-3,2.5276328E-3,-2.6869506E-2,2.0050004E-2,-3.2881629E-3,1.3091791E-3,1.9453421E-2,1.2762827E-4,-3.929077E-3,-2.3120236E-2,9.670826E-3,-4.225939E-4,-1.7157651E-2,1.3434998E-4,2.0884095E-2,-6.9361884E-4,-8.54741E-3,1.7179058E-4,-2.1510269E-4,2.2808407E-2,1.0891722E-2,3.2296113E-5,-8.754077E-5,1.1306257E-5,-3.6685308E-4,-3.4735496E-3,3.3674948E-2,-2.9448174E-2,-9.467745E-3,3.1390614E-4,1.940243E-2,-4.7672996E-3,4.402095E-3,-1.5573363E-2,5.0441073E-3,1.8117208E-2,2.9405337E-4,6.433832E-5,1.9156262E-4,5.91964E-3,-1.2754689E-2,6.7386404E-4,1.1950687E-2,-3.778434E-4,-2.1717919E-4,-1.3306187E-2,-8.263005E-7,1.6732823E-2,2.319572E-2,3.271026E-3,-1.7508212E-2,1.8309036E-2,1.9160985E-3,-2.0735335E-2,-1.0115172E-2,7.584405E-3,-7.8562654E-5,1.0610455E-4,2.0580059E-2,1.2796848E-4,2.2457727E-5,-6.7858375E-5,-1.7864833E-4,-3.0755398E-6,2.3780507E-4,-2.3100933E-4,-7.7647266E-5,9.3963215E-5,2.071221E-4,1.6458593E-4,2.7881126E-4,-3.2551243E-6,1.0676451E-4,-3.1044226E-4,-1.1094634E-4,5.2009385E-5,2.7213802E-4,2.1836388E-6,6.176063E-5,-1.42304E-4,-2.6057646E-4,-3.531332E-5,-1.4490778E-4,3.0290483E-5,1.2501348E-4,1.5497432E-4,2.4831656E-4],"categories":[],"categories_nodes":[],"categories_segments":[],"categories_sizes":[],"default_left":[0,0,0,0,0,0,0,0,0,0,0,0,0,0,0,0,0,0,0,0,0,0,0,0,0,0,0,0,0,0,0,0,0,0,0,0,0,0,0,0,0,0,0,0,0,0,0,0,0,0,0,0,0,0,0,0,0,0,0,0,0,0,0,0,0,0,0,0,0,0,0,0,0,0,0,0,0,0,0,0,0,0,0,0,0,0,0,0,0,0,0,0,0],"id":7,"left_children":[1,3,5,7,9,11,13,15,17,19,21,23,25,-1,27,29,31,-1,33,-1,35,37,39,-1,-1,41,43,-1,-1,-1,-1,45,47,49,51,-1,53,55,57,59,61,63,-1,-1,-1,65,67,-1,69,-1,-1,71,-1,73,75,77,79,81,83,85,87,89,-1,-1,91,-1,-1,-1,-1,-1,-1,-1,-1,-1,-1,-1,-1,-1,-1,-1,-1,-1,-1,-1,-1,-1,-1,-1,-1,-1,-1,-1,-1],"loss_changes":[2.4156578E-2,1.5724698E-2,4.79907E-3,4.201609E-2,5.390286E-2,5.253313E-3,2.017947E-3,2.1842098E-2,9.166066E-3,4.8501045E-4,8.754387E-3,6.8034935E-3,2.1069776E-3,0E0,6.5776793E-4,6.8201087E-3,2.9460259E-2,0E0,4.257814E-3,0E0,6.9106E-4,8.967819E-3,2.0323146E-2,0E0,0E0,6.989781E-4,7.3741935E-4,0E0,0E0,0E0,0E0,5.3934534E-3,1.9779786E-2,2.2369158E-4,1.1164758E-3,0E0,5.3338706E-4,2.4637017E-2,6.602858E-3,3.73476E-3,2.3374842E-3,4.3232832E-4,0E0,0E0,0E0,6.7980215E-4,6.523151E-4,0E0,2.462154E-3,0E0,0E0,9.321051E-4,0E0,9.4214827E-4,3.2891706E-4,3.4922103E-3,7.2539374E-3,2.5617713E-3,1.0655018E-3,1.4893003E-3,1.5303683E-3,1.1273238E-3,0E0,0E0,1.3065524E-5,0E0,0E0,0E0,0E0,0E0,0E0,0E0,0E0,0E0,0E0,0E0,0E0,0E0,0E0,0E0,0E0,0E0,0E0,0E0,0E0,0E0,0E0,0E0,0E0,0E0,0E0,0E0,0E0],"parents":[2147483647,0,0,1,1,2,2,3,3,4,4,5,5,6,6,7,7,8,8,9,9,10,10,11,11,12,12,14,14,15,15,16,16,18,18,20,20,21,21,22,22,25,25,26,26,31,31,32,32,33,33,34,34,36,36,37,37,38,38,39,39,40,40,41,41,45,45,46,46,48,48,51,51,53,53,54,54,55,55,56,56,57,57,58,58,59,59,60,60,61,61,64,64],"right_children":[2,4,6,8,10,12,14,16,18,20,22,24,26,-1,28,30,32,-1,34,-1,36,38,40,-1,-1,42,44,-1,-1,-1,-1,46,48,50,52,-1,54,56,58,60,62,64,-1,-1,-1,66,68,-1,70,-1,-1,72,-1,74,76,78,80,82,84,86,88,90,-1,-1,92,-1,-1,-1,-1,-1,-1,-1,-1,-1,-1,-1,-1,-1,-1,-1,-1,-1,-1,-1,-1,-1,-1,-1,-1,-1,-1,-1,-1],"split_conditions":[2.3844482E6,1.4023714E0,1.9733926E0,1.1111435E0,1.623699E0,4.2954403E5,8E-3,1.7523452E6,1E0,1.4050951E0,3.1880064E0,1.1111435E0,1.630205E0,1.2762827E-4,2.6747352E6,8.3392864E-1,1E0,-4.225939E-4,1.8999061E-1,1.3434998E-4,4E-3,2.0877712E0,3.3233504E0,1.7179058E-4,-2.1510269E-4,1.4050951E0,7.4756525E5,3.2296113E-5,-8.754077E-5,1.1306257E-5,-3.6685308E-4,8.326121E-1,7.6253927E-1,9.900774E-1,7.148169E6,3.1390614E-4,4.947036E6,1.9733926E0,4E-3,3.218797E0,4.085441E6,6.6527975E-1,2.9405337E-4,6.433832E-5,1.9156262E-4,7.1428573E-1,6E-1,6.7386404E-4,4E-1,-3.778434E-4,-2.1717919E-4,7.692308E-1,-8.263005E-7,8.314476E-1,8E-3,9.0054077E-1,1E0,1E0,1.2597565E6,1E0,1E0,3.3396776E0,-7.8562654E-5,1.0610455E-4,3.5673475E6,1.2796848E-4,2.2457727E-5,-6.7858375E-5,-1.7864833E-4,-3.0755398E-6,2.3780507E-4,-2.3100933E-4,-7.7647266E-5,9.3963215E-5,2.071221E-4,1.6458593E-4,2.7881126E-4,-3.2551243E-6,1.0676451E-4,-3.1044226E-4,-1.1094634E-4,5.2009385E-5,2.7213802E-4,2.1836388E-6,6.176063E-5,-1.42304E-4,-2.6057646E-4,-3.531332E-5,-1.4490778E-4,3.0290483E-5,1.2501348E-4,1.5497432E-4,2.4831656E-4],"split_indices":[6,0,0,0,0,7,1,5,10,0,0,0,0,0,5,0,10,0,4,0,1,0,0,0,0,0,7,0,0,0,0,0,3,3,5,0,5,0,1,0,5,3,0,0,0,3,2,0,2,0,0,3,0,3,1,3,10,10,7,10,10,0,0,0,5,0,0,0,0,0,0,0,0,0,0,0,0,0,0,0,0,0,0,0,0,0,0,0,0,0,0,0,0],"split_type":[0,0,0,0,0,0,0,0,0,0,0,0,0,0,0,0,0,0,0,0,0,0,0,0,0,0,0,0,0,0,0,0,0,0,0,0,0,0,0,0,0,0,0,0,0,0,0,0,0,0,0,0,0,0,0,0,0,0,0,0,0,0,0,0,0,0,0,0,0,0,0,0,0,0,0,0,0,0,0,0,0,0,0,0,0,0,0,0,0,0,0,0,0],"sum_hessian":[1.09E3,9.56E2,1.34E2,1.99E2,7.57E2,1.01E2,3.3E1,1.17E2,8.2E1,1.16E2,6.41E2,2E1,8.1E1,1.2E1,2.1E1,2.5E1,9.2E1,3.5E1,4.7E1,1.3E1,1.03E2,4.3E2,2.11E2,1.2E1,8E0,5.7E1,2.4E1,8E0,1.3E1,8E0,1.7E1,6E1,3.2E1,1.7E1,3E1,1.3E1,9E1,2.39E2,1.91E2,1.39E2,7.2E1,3E1,2.7E1,1.5E1,9E0,3E1,3E1,1.3E1,1.9E1,9E0,8E0,2.1E1,9E0,5.6E1,3.4E1,1.47E2,9.2E1,2.8E1,1.63E2,7E1,6.9E1,6E1,1.2E1,8E0,2.2E1,1.1E1,1.9E1,1.2E1,1.8E1,9E0,1E1,8E0,1.3E1,1.4E1,4.2E1,1E1,2.4E1,9.6E1,5.1E1,3.5E1,5.7E1,1E1,1.8E1,1.13E2,5E1,2.3E1,4.7E1,2.3E1,4.6E1,2.8E1,3.2E1,8E0,1.4E1],"tree_param":{"num_deleted":"0","num_feature":"11","num_nodes":"93","size_leaf_vector":"1"}},{"base_weights":[8.540907E-5,-1.6508576E-3,1.2431562E-2,-2.2974634E-3,2.2624094E-2,1.5803419E-2,1.9503534E-3,-1.3673848E-2,3.5505978E-4,-1.8768047E-4,6.582485E-4,1.5696216E-3,1.9255936E-2,1.263542E-4,-3.8891027E-3,-2.2410061E-3,-2.6594885E-2,1.9843342E-2,-3.1860645E-3,1.7007557E-4,-2.0605276E-4,2.2575568E-2,1.078415E-2,3.1985528E-5,-8.66617E-5,-2.2883836E-2,5.458345E-3,-4.181502E-4,-1.699093E-2,1.3300069E-4,2.0668393E-2,-6.9622323E-4,-8.292249E-3,1.7937696E-2,2.909865E-4,3.404071E-5,1.6097161E-4,1.1197668E-5,-3.631056E-4,3.243338E-4,1.6645081E-2,-3.1541538E-4,-9.375334E-3,3.107535E-4,1.9200759E-2,-4.6856436E-3,4.3565133E-3,-1.7947715E-2,1.4414447E-3,2.0375008E-2,1.05084546E-4,6.3384956E-5,-9.437087E-5,-3.0456595E-6,3.0700592E-4,-1.4251102E-4,-8.1817774E-7,1.7907686E-4,2.4830154E-4,3.5424568E-5,-1.8519093E-4,1.9600423E-4,2.050411E-5,-1.18659256E-4,-2.2964334E-4,-3.3403125E-5,1.0785901E-4,1.5348442E-4,2.4580993E-4],"categories":[],"categories_nodes":[],"categories_segments":[],"categories_sizes":[],"default_left":[0,0,0,0,0,0,0,0,0,0,0,0,0,0,0,0,0,0,0,0,0,0,0,0,0,0,0,0,0,0,0,0,0,0,0,0,0,0,0,0,0,0,0,0,0,0,0,0,0,0,0,0,0,0,0,0,0,0,0,0,0,0,0,0,0,0,0,0,0],"id":8,"left_children":[1,3,5,7,9,11,13,15,17,-1,-1,19,21,-1,23,25,27,29,31,-1,-1,33,35,-1,-1,37,39,-1,41,-1,43,45,47,49,-1,-1,-1,-1,-1,51,53,-1,55,-1,57,59,61,63,65,67,-1,-1,-1,-1,-1,-1,-1,-1,-1,-1,-1,-1,-1,-1,-1,-1,-1,-1,-1],"loss_changes":[2.3471741E-2,1.5120447E-2,4.7402326E-3,2.8249707E-2,3.9270177E-2,4.982304E-3,1.977666E-3,2.6087578E-2,5.251115E-2,0E0,0E0,6.4293537E-3,2.0626467E-3,0E0,6.4478035E-4,1.5223866E-2,8.961678E-3,4.742965E-4,8.181779E-3,0E0,0E0,6.817598E-4,7.3573855E-4,0E0,0E0,6.68176E-3,4.0149E-3,0E0,4.175977E-3,0E0,6.7906827E-4,8.768763E-3,1.985636E-2,4.2324793E-4,0E0,0E0,0E0,0E0,0E0,2.5060463E-3,4.379864E-3,0E0,1.0947885E-3,0E0,5.2366033E-4,2.4115115E-2,6.469409E-3,2.1961853E-3,4.1270694E-3,1.2036413E-5,0E0,0E0,0E0,0E0,0E0,0E0,0E0,0E0,0E0,0E0,0E0,0E0,0E0,0E0,0E0,0E0,0E0,0E0,0E0],"parents":[2147483647,0,0,1,1,2,2,3,3,4,4,5,5,6,6,7,7,8,8,11,11,12,12,14,14,15,15,16,16,17,17,18,18,21,21,22,22,25,25,26,26,28,28,30,30,31,31,32,32,33,33,39,39,40,40,42,42,44,44,45,45,46,46,47,47,48,48,49,49],"right_children":[2,4,6,8,10,12,14,16,18,-1,-1,20,22,-1,24,26,28,30,32,-1,-1,34,36,-1,-1,38,40,-1,42,-1,44,46,48,50,-1,-1,-1,-1,-1,52,54,-1,56,-1,58,60,62,64,66,68,-1,-1,-1,-1,-1,-1,-1,-1,-1,-1,-1,-1,-1,-1,-1,-1,-1,-1,-1],"split_conditions":[2.3844482E6,8.3869735E6,1.9733926E0,1.4023714E0,1E0,4.2954403E5,8E-3,1.1111435E0,1.623699E0,-1.8768047E-4,6.582485E-4,1.1111435E0,1.630205E0,1.263542E-4,2.6747352E6,1.7523452E6,1E0,1.4050951E0,3.1880064E0,1.7007557E-4,-2.0605276E-4,1.4050951E0,1.7885878E0,3.1985528E-5,-8.66617E-5,8.3392864E-1,1E0,-4.181502E-4,1.8999061E-1,1.3300069E-4,4E-3,2.0877712E0,3.3070045E0,3.551998E-1,2.909865E-4,3.404071E-5,1.6097161E-4,1.1197668E-5,-3.631056E-4,8.326121E-1,4E-1,-3.1541538E-4,7.148169E6,3.107535E-4,4.947036E6,1.9733926E0,4E-3,1E0,3.3396776E0,3.5673475E6,1.05084546E-4,6.3384956E-5,-9.437087E-5,-3.0456595E-6,3.0700592E-4,-1.4251102E-4,-8.1817774E-7,1.7907686E-4,2.4830154E-4,3.5424568E-5,-1.8519093E-4,1.9600423E-4,2.050411E-5,-1.18659256E-4,-2.2964334E-4,-3.3403125E-5,1.0785901E-4,1.5348442E-4,2.4580993E-4],"split_indices":[6,5,0,0,10,7,1,0,0,0,0,0,0,0,5,5,10,0,0,0,0,0,0,0,0,0,10,0,4,0,1,0,0,4,0,0,0,0,0,0,2,0,5,0,5,0,1,10,0,5,0,0,0,0,0,0,0,0,0,0,0,0,0,0,0,0,0,0,0],"split_type":[0,0,0,0,0,0,0,0,0,0,0,0,0,0,0,0,0,0,0,0,0,0,0,0,0,0,0,0,0,0,0,0,0,0,0,0,0,0,0,0,0,0,0,0,0,0,0,0,0,0,0,0,0,0,0,0,0,0,0,0,0,0,0,0,0,0,0,0,0],"sum_hessian":[1.093E3,9.59E2,1.34E2,9.35E2,2.4E1,1.01E2,3.3E1,1.76E2,7.59E2,1.2E1,1.2E1,2E1,8.1E1,1.2E1,2.1E1,9.4E1,8.2E1,1.16E2,6.43E2,1.2E1,8E0,5.7E1,2.4E1,8E0,1.3E1,2.5E1,6.9E1,3.5E1,4.7E1,1.3E1,1.03E2,4.33E2,2.1E2,3E1,2.7E1,9E0,1.5E1,8E0,1.7E1,4.8E1,2.1E1,1.7E1,3E1,1.3E1,9E1,2.42E2,1.91E2,1.05E2,1.05E2,2.2E1,8E0,3E1,1.8E1,9E0,1.2E1,2.1E1,9E0,5.6E1,3.4E1,1.48E2,9.4E1,2.8E1,1.63E2,3.5E1,7E1,6.9E1,3.6E1,8E0,1.4E1],"tree_param":{"num_deleted":"0","num_feature":"11","num_nodes":"69","size_leaf_vector":"1"}},{"base_weights":[1.07413125E-5,4.4118837E-3,-4.698252E-3,-5.3709284E-3,1.2058136E-2,-1.5763624E-2,-1.8881029E-3,5.2931085E-3,-1.957267E-2,2.0804558E-2,5.0620497E-3,-2.822106E-2,-9.315967E-3,4.5576175E-3,-8.385972E-3,-2.2649866E-2,1.1405178E-2,-2.6062313E-2,2.0513133E-4,1.3505787E-4,2.176928E-2,2.617724E-3,1.4974073E-2,-2.2817338E-2,-3.896497E-4,-1.7988832E-4,-8.006795E-3,1.939015E-2,1.828163E-3,-1.7873937E-2,1.3625841E-3,1.1089936E-5,-3.5939648E-4,-3.4039647E-3,2.678367E-2,-3.8254872E-2,-1.7904516E-2,3.2693672E-4,2.0250315E-2,-1.3881876E-3,9.731802E-3,2.1401857E-4,9.328481E-3,-1.6846799E-4,-3.0009498E-4,-2.7666788E-3,-1.0379718E-2,4.9570794E-5,2.77192E-4,6.150867E-3,1.1281901E-3,-1.0855645E-2,-2.1134835E-2,-3.2177758E-3,9.86751E-3,5.799114E-3,-1.2497238E-2,1.5514653E-2,6.6075684E-4,-3.3333508E-4,-4.6816224E-4,-2.2418598E-2,-2.6374202E-5,2.4720298E-2,1.7079277E-2,4.2119218E-4,-1.3579361E-4,1.224945E-3,1.3828706E-2,-8.7478575E-6,2.1150793E-4,-4.8941507E-5,-8.185293E-6,-1.2613464E-2,-5.8071226E-5,1.2487972E-5,1.1544649E-4,4.9619805E-3,6.789113E-5,-5.3717378E-3,-1.5479576E-2,-2.5538486E-4,-1.5532471E-2,-4.4258492E-4,-1.3393008E-4,1.3296707E-2,2.7189157E-5,-9.512338E-6,9.757149E-5,-6.623858E-5,-1.7521346E-4,3.5324538E-5,2.4697284E-4,-3.8547118E-4,-1.9468831E-4,1.8748573E-4,2.9224128E-4,2.2760425E-4,1.554982E-4,-1.1686806E-4,2.13566E-5,-2.176682E-6,2.8915809E-5,2.0443258E-4,1.1205328E-4,-9.103782E-5,-1.7271412E-4,1.1229312E-4,-4.683068E-6,-1.6999062E-5,2.5615069E-5,-3.2551274E-5,-8.003011E-5,-1.9658403E-4,-1.21518584E-4,-1.967039E-4,-1.13573165E-4,-4.657041E-5,3.567537E-5,7.974162E-5,1.7486956E-4],"categories":[],"categories_nodes":[],"categories_segments":[],"categories_sizes":[],"default_left":[0,0,0,0,0,0,0,0,0,0,0,0,0,0,0,0,0,0,0,0,0,0,0,0,0,0,0,0,0,0,0,0,0,0,0,0,0,0,0,0,0,0,0,0,0,0,0,0,0,0,0,0,0,0,0,0,0,0,0,0,0,0,0,0,0,0,0,0,0,0,0,0,0,0,0,0,0,0,0,0,0,0,0,0,0,0,0,0,0,0,0,0,0,0,0,0,0,0,0,0,0,0,0,0,0,0,0,0,0,0,0,0,0,0,0,0,0,0,0,0,0],"id":9,"left_children":[1,3,5,7,9,11,13,15,17,19,21,23,25,27,29,31,33,35,-1,-1,37,39,41,43,-1,-1,45,47,49,51,53,-1,-1,55,57,59,61,-1,63,65,67,-1,69,-1,-1,71,73,-1,-1,75,77,79,81,83,85,87,89,91,-1,-1,-1,93,-1,95,97,99,-1,101,103,-1,-1,-1,-1,105,-1,-1,-1,107,109,111,113,-1,115,117,-1,119,-1,-1,-1,-1,-1,-1,-1,-1,-1,-1,-1,-1,-1,-1,-1,-1,-1,-1,-1,-1,-1,-1,-1,-1,-1,-1,-1,-1,-1,-1,-1,-1,-1,-1,-1],"loss_changes":[2.2693824E-2,4.240261E-2,1.6419673E-2,3.7814125E-2,1.9353341E-2,8.33147E-3,1.7754918E-2,2.468121E-2,2.7255293E-2,8.5953623E-4,4.273424E-3,6.963629E-4,5.5645546E-4,8.587798E-3,1.9540584E-2,6.5462105E-3,2.6964761E-2,8.465789E-3,0E0,0E0,9.939298E-4,4.1172747E-3,7.6657627E-4,4.2439345E-4,0E0,0E0,7.546493E-4,2.9308582E-3,5.4072606E-4,2.2193603E-3,4.1220915E-3,0E0,0E0,5.177325E-3,2.1476459E-2,1.2498349E-5,3.924776E-3,0E0,1.1228174E-3,1.8843928E-3,1.7953529E-3,0E0,1.8819798E-3,0E0,0E0,7.079166E-5,4.1354587E-4,0E0,0E0,5.526403E-4,6.378625E-4,8.297069E-4,6.326251E-4,1.7495388E-3,8.9960685E-4,6.7504204E-4,6.322926E-4,3.9601205E-3,0E0,0E0,0E0,1.9286294E-3,0E0,2.6199967E-4,4.152283E-4,1.4339284E-3,0E0,3.772478E-5,4.199897E-4,0E0,0E0,0E0,0E0,2.7390895E-4,0E0,0E0,0E0,9.987607E-4,4.7142222E-4,6.394397E-5,1.3210345E-5,0E0,1.4293008E-4,7.946431E-4,0E0,3.060489E-4,0E0,0E0,0E0,0E0,0E0,0E0,0E0,0E0,0E0,0E0,0E0,0E0,0E0,0E0,0E0,0E0,0E0,0E0,0E0,0E0,0E0,0E0,0E0,0E0,0E0,0E0,0E0,0E0,0E0,0E0,0E0,0E0,0E0,0E0,0E0],"parents":[2147483647,0,0,1,1,2,2,3,3,4,4,5,5,6,6,7,7,8,8,9,9,10,10,11,11,12,12,13,13,14,14,15,15,16,16,17,17,20,20,21,21,22,22,23,23,26,26,27,27,28,28,29,29,30,30,33,33,34,34,35,35,36,36,38,38,39,39,40,40,42,42,45,45,46,46,49,49,50,50,51,51,52,52,53,53,54,54,55,55,56,56,57,57,61,61,63,63,64,64,65,65,67,67,68,68,73,73,77,77,78,78,79,79,80,80,82,82,83,83,85,85],"right_children":[2,4,6,8,10,12,14,16,18,20,22,24,26,28,30,32,34,36,-1,-1,38,40,42,44,-1,-1,46,48,50,52,54,-1,-1,56,58,60,62,-1,64,66,68,-1,70,-1,-1,72,74,-1,-1,76,78,80,82,84,86,88,90,92,-1,-1,-1,94,-1,96,98,100,-1,102,104,-1,-1,-1,-1,106,-1,-1,-1,108,110,112,114,-1,116,118,-1,120,-1,-1,-1,-1,-1,-1,-1,-1,-1,-1,-1,-1,-1,-1,-1,-1,-1,-1,-1,-1,-1,-1,-1,-1,-1,-1,-1,-1,-1,-1,-1,-1,-1,-1,-1],"split_conditions":[1.9733926E0,1.4023714E0,2.0877712E0,1.1111435E0,1.623699E0,1E0,3.1880064E0,1.7523452E6,4.2954403E5,1.4050951E0,3.3373072E5,1.9898236E0,6.108624E-2,4E-3,3.3070045E0,8.3392864E-1,1E0,1E0,2.0513133E-4,1.3505787E-4,4E-3,9.0054077E-1,6.882172E5,7.692308E-1,-3.896497E-4,-1.7988832E-4,1.9816141E0,1E0,6.6527975E-1,1E0,3.3396776E0,1.1089936E-5,-3.5939648E-4,8.326121E-1,7.350133E6,7.692308E-1,2.9917338E-1,3.2693672E-4,7.6420426E-1,8.314476E-1,1E0,2.1401857E-4,3.0340182E6,-1.6846799E-4,-3.0009498E-4,7.692308E-1,8.27695E-1,4.9570794E-5,2.77192E-4,2.7778301E0,2.1015162E0,7.692308E-1,3.218797E0,3.580378E6,8E-1,6.1142105E-1,6E-1,3.6633718E6,6.6075684E-4,-3.3333508E-4,-4.6816224E-4,8.2396734E-1,-2.6374202E-5,8E-3,8E-3,1.6269536E0,-1.3579361E-4,2E-1,1.6334534E0,-8.7478575E-6,2.1150793E-4,-4.8941507E-5,-8.185293E-6,7.11254E-1,-5.8071226E-5,1.2487972E-5,1.1544649E-4,2.3876158E6,6E-1,4.114578E6,3.2111053E0,-2.5538486E-4,1.0318908E5,3.3233504E0,-1.3393008E-4,1.4157261E6,2.7189157E-5,-9.512338E-6,9.757149E-5,-6.623858E-5,-1.7521346E-4,3.5324538E-5,2.4697284E-4,-3.8547118E-4,-1.9468831E-4,1.8748573E-4,2.9224128E-4,2.2760425E-4,1.554982E-4,-1.1686806E-4,2.13566E-5,-2.176682E-6,2.8915809E-5,2.0443258E-4,1.1205328E-4,-9.103782E-5,-1.7271412E-4,1.1229312E-4,-4.683068E-6,-1.6999062E-5,2.5615069E-5,-3.2551274E-5,-8.003011E-5,-1.9658403E-4,-1.21518584E-4,-1.967039E-4,-1.13573165E-4,-4.657041E-5,3.567537E-5,7.974162E-5,1.7486956E-4],"split_indices":[0,0,0,0,0,10,0,5,8,0,8,0,4,1,0,0,10,10,0,0,1,3,8,3,0,0,0,10,3,10,0,0,0,0,5,3,4,0,3,3,10,0,6,0,0,3,3,0,0,0,0,3,0,5,2,0,2,5,0,0,0,3,0,1,1,0,0,2,0,0,0,0,0,3,0,0,0,5,2,5,0,0,6,0,0,5,0,0,0,0,0,0,0,0,0,0,0,0,0,0,0,0,0,0,0,0,0,0,0,0,0,0,0,0,0,0,0,0,0,0,0],"split_type":[0,0,0,0,0,0,0,0,0,0,0,0,0,0,0,0,0,0,0,0,0,0,0,0,0,0,0,0,0,0,0,0,0,0,0,0,0,0,0,0,0,0,0,0,0,0,0,0,0,0,0,0,0,0,0,0,0,0,0,0,0,0,0,0,0,0,0,0,0,0,0,0,0,0,0,0,0,0,0,0,0,0,0,0,0,0,0,0,0,0,0,0,0,0,0,0,0,0,0,0,0,0,0,0,0,0,0,0,0,0,0,0,0,0,0,0,0,0,0,0,0],"sum_hessian":[1.093E3,5.65E2,5.28E2,2.48E2,3.17E2,1.06E2,4.22E2,1.42E2,1.06E2,1.4E2,1.77E2,3.5E1,7.1E1,2.12E2,2.1E2,2.5E1,1.17E2,9.1E1,1.5E1,1.6E1,1.24E2,1.43E2,3.4E1,2.3E1,1.2E1,9E0,6.2E1,3.2E1,1.8E2,1.06E2,1.04E2,8E0,1.7E1,6E1,5.7E1,3.5E1,5.6E1,1.6E1,1.08E2,9.2E1,5.1E1,1.7E1,1.7E1,1.1E1,1.2E1,2E1,4.2E1,1E1,2.2E1,2.4E1,1.56E2,3.5E1,7.1E1,6.8E1,3.6E1,3E1,3E1,4.4E1,1.3E1,1.7E1,1.8E1,4.3E1,1.3E1,4.2E1,6.6E1,8E1,1.2E1,1.7E1,3.4E1,9E0,8E0,1E1,1E1,2.8E1,1.4E1,1.2E1,1.2E1,3.3E1,1.23E2,1.7E1,1.8E1,4.7E1,2.4E1,5.3E1,1.5E1,2.4E1,1.2E1,1E1,2E1,1.2E1,1.8E1,1.7E1,2.7E1,9E0,3.4E1,1.2E1,3E1,2.4E1,4.2E1,9E0,7.1E1,9E0,8E0,1.2E1,2.2E1,1.4E1,1.4E1,1.6E1,1.7E1,7.2E1,5.1E1,9E0,8E0,9E0,9E0,1.4E1,1E1,2.6E1,2.7E1,9E0,1.5E1],"tree_param":{"num_deleted":"0","num_feature":"11","num_nodes":"121","size_leaf_vector":"1"}},{"base_weights":[6.184585E-5,-1.5117232E-3,1.2585401E-2,-9.227676E-3,5.652979E-4,1.8051801E-2,3.1615242E-3,2.9056561E-3,-2.553039E-2,1.9479979E-2,-2.8059285E-3,4.3870104E-3,2.156409E-2,-5.519955E-4,1.999774E-4,-2.2418292E-2,9.879242E-3,-3.786338E-2,-1.667156E-2,1.2937073E-4,2.0232497E-2,3.7411342E-3,-4.842123E-3,1.6168038E-4,-7.205527E-5,1.2643191E-4,2.4696576E-4,1.2802029E-4,-4.250152E-3,1.0983351E-5,-3.5572538E-4,-3.3696636E-3,3.3358768E-2,-3.2993007E-4,-4.633652E-4,-2.8670354E-2,-1.0209066E-2,2.3783771E-2,1.824692E-2,8.077948E-3,-1.2410124E-3,-1.6772646E-2,-2.0177015E-3,-8.2064554E-4,-8.772581E-5,5.73923E-3,-1.2369859E-2,6.513682E-4,1.1541665E-2,-3.6899353E-4,-2.10187E-4,-1.3593131E-2,-5.536068E-7,3.123654E-4,1.9253232E-2,1.3216582E-2,2.0235714E-2,1.2104077E-3,1.0690332E-2,2.8374845E-3,-4.4934363E-3,-2.7939666E-2,-9.792891E-3,4.4523966E-3,-8.044742E-3,-9.159137E-5,7.482587E-5,1.2539343E-4,2.0978314E-5,-6.557715E-5,-1.7341819E-4,-3.3598374E-6,2.3002014E-4,-1.8313735E-4,-5.443433E-5,2.6480286E-4,1.5305802E-4,1.7590576E-4,8.250905E-5,1.9092699E-4,3.218111E-4,-1.2357137E-5,5.6878653E-5,9.397123E-5,2.0353115E-4,8.1949904E-5,-2.2376411E-5,-8.558008E-5,-2.150898E-5,-2.4432733E-4,-3.8575972E-4,-1.5499223E-4,-8.291064E-5,2.1094696E-4,3.439874E-5,-1.9082434E-4,1.3737579E-5],"categories":[],"categories_nodes":[],"categories_segments":[],"categories_sizes":[],"default_left":[0,0,0,0,0,0,0,0,0,0,0,0,0,0,0,0,0,0,0,0,0,0,0,0,0,0,0,0,0,0,0,0,0,0,0,0,0,0,0,0,0,0,0,0,0,0,0,0,0,0,0,0,0,0,0,0,0,0,0,0,0,0,0,0,0,0,0,0,0,0,0,0,0,0,0,0,0,0,0,0,0,0,0,0,0,0,0,0,0,0,0,0,0,0,0,0,0],"id":10,"left_children":[1,3,5,7,9,11,13,15,17,19,21,23,25,27,-1,29,31,33,35,-1,37,39,41,-1,-1,-1,-1,-1,43,-1,-1,45,47,-1,-1,49,51,53,55,57,59,61,63,65,-1,67,69,-1,71,-1,-1,73,-1,-1,75,77,79,81,83,85,87,89,91,93,95,-1,-1,-1,-1,-1,-1,-1,-1,-1,-1,-1,-1,-1,-1,-1,-1,-1,-1,-1,-1,-1,-1,-1,-1,-1,-1,-1,-1,-1,-1,-1,-1],"loss_changes":[2.1538718E-2,1.55666545E-2,6.2277187E-3,4.082227E-2,4.8899163E-2,3.6009904E-3,2.6285688E-3,2.1236723E-2,8.983266E-3,4.143007E-4,8.696659E-3,2.0834387E-3,4.9800053E-4,1.7912652E-3,0E0,6.4134225E-3,2.9353742E-2,1.1987984E-5,3.8170367E-3,0E0,2.9935688E-4,3.3590544E-3,1.6713481E-2,0E0,0E0,0E0,0E0,0E0,3.905648E-4,0E0,0E0,5.0718845E-3,1.9233286E-2,0E0,0E0,2.424866E-4,1.236801E-3,2.2908114E-4,4.4285879E-4,1.4761346E-3,9.810952E-4,7.1309805E-3,1.5751021E-2,1.0647328E-3,0E0,6.670931E-4,6.1914045E-4,0E0,2.312019E-3,0E0,0E0,6.866073E-4,0E0,0E0,2.1384936E-4,2.67582E-4,6.794445E-4,2.3462754E-4,8.127722E-4,7.830417E-4,3.3539324E-4,6.8239495E-4,4.6924455E-4,3.6711693E-3,1.870896E-2,0E0,0E0,0E0,0E0,0E0,0E0,0E0,0E0,0E0,0E0,0E0,0E0,0E0,0E0,0E0,0E0,0E0,0E0,0E0,0E0,0E0,0E0,0E0,0E0,0E0,0E0,0E0,0E0,0E0,0E0,0E0,0E0],"parents":[2147483647,0,0,1,1,2,2,3,3,4,4,5,5,6,6,7,7,8,8,9,9,10,10,11,11,12,12,13,13,15,15,16,16,17,17,18,18,20,20,21,21,22,22,28,28,31,31,32,32,35,35,36,36,37,37,38,38,39,39,40,40,41,41,42,42,43,43,45,45,46,46,48,48,51,51,54,54,55,55,56,56,57,57,58,58,59,59,60,60,61,61,62,62,63,63,64,64],"right_children":[2,4,6,8,10,12,14,16,18,20,22,24,26,28,-1,30,32,34,36,-1,38,40,42,-1,-1,-1,-1,-1,44,-1,-1,46,48,-1,-1,50,52,54,56,58,60,62,64,66,-1,68,70,-1,72,-1,-1,74,-1,-1,76,78,80,82,84,86,88,90,92,94,96,-1,-1,-1,-1,-1,-1,-1,-1,-1,-1,-1,-1,-1,-1,-1,-1,-1,-1,-1,-1,-1,-1,-1,-1,-1,-1,-1,-1,-1,-1,-1,-1],"split_conditions":[2.4729122E6,1.4023714E0,1.6334534E0,1.1111435E0,1.623699E0,4.2954403E5,2.986369E6,1.7523452E6,1E0,1.4050951E0,1.9733926E0,8.378672E-1,8.378672E-1,2.666376E6,1.999774E-4,8.3392864E-1,1E0,7.692308E-1,1.8999061E-1,1.2937073E-4,7.6420426E-1,6.51146E5,2.0877712E0,1.6168038E-4,-7.205527E-5,1.2643191E-4,2.4696576E-4,1.2802029E-4,2.8067605E6,1.0983351E-5,-3.5572538E-4,8.326121E-1,7.6420426E-1,-3.2993007E-4,-4.633652E-4,9.900774E-1,7.148169E6,1.2674401E6,8.314476E-1,1E0,7.11254E-1,1E0,3.1880064E0,2.7329388E6,-8.772581E-5,7.1428573E-1,6E-1,6.513682E-4,4E-1,-3.6899353E-4,-2.10187E-4,8.333333E-1,-5.536068E-7,3.123654E-4,6.6527975E-1,8.258281E-1,2.816977E5,2.7669416E5,3.3373072E5,1E0,1.7885878E0,1.9898236E0,7.6420426E-1,2.0923555E0,3.3070045E0,-9.159137E-5,7.482587E-5,1.2539343E-4,2.0978314E-5,-6.557715E-5,-1.7341819E-4,-3.3598374E-6,2.3002014E-4,-1.8313735E-4,-5.443433E-5,2.6480286E-4,1.5305802E-4,1.7590576E-4,8.250905E-5,1.9092699E-4,3.218111E-4,-1.2357137E-5,5.6878653E-5,9.397123E-5,2.0353115E-4,8.1949904E-5,-2.2376411E-5,-8.558008E-5,-2.150898E-5,-2.4432733E-4,-3.8575972E-4,-1.5499223E-4,-8.291064E-5,2.1094696E-4,3.439874E-5,-1.9082434E-4,1.3737579E-5],"split_indices":[6,0,0,0,0,7,5,5,10,0,0,0,0,6,0,0,10,3,4,0,3,7,0,0,0,0,0,0,6,0,0,0,3,0,0,3,5,7,3,10,3,10,0,6,0,3,2,0,2,0,0,3,0,0,3,3,7,7,8,10,0,0,3,0,0,0,0,0,0,0,0,0,0,0,0,0,0,0,0,0,0,0,0,0,0,0,0,0,0,0,0,0,0,0,0,0,0],"split_type":[0,0,0,0,0,0,0,0,0,0,0,0,0,0,0,0,0,0,0,0,0,0,0,0,0,0,0,0,0,0,0,0,0,0,0,0,0,0,0,0,0,0,0,0,0,0,0,0,0,0,0,0,0,0,0,0,0,0,0,0,0,0,0,0,0,0,0,0,0,0,0,0,0,0,0,0,0,0,0,0,0,0,0,0,0,0,0,0,0,0,0,0,0,0,0,0,0],"sum_hessian":[1.091E3,9.7E2,1.21E2,2.05E2,7.65E2,7.6E1,4.5E1,1.18E2,8.7E1,1.15E2,6.5E2,1.6E1,6E1,3.7E1,8E0,2.5E1,9.3E1,3.5E1,5.2E1,1.2E1,1.03E2,1.54E2,4.96E2,8E0,8E0,8E0,5.2E1,8E0,2.9E1,8E0,1.7E1,6E1,3.3E1,1.7E1,1.8E1,1.7E1,3.5E1,3.3E1,7E1,8.2E1,7.2E1,9.4E1,4.02E2,1.6E1,1.3E1,3E1,3E1,1.4E1,1.9E1,9E0,8E0,2.6E1,9E0,1.3E1,2E1,2.2E1,4.8E1,2.3E1,5.9E1,3.2E1,4E1,3.5E1,5.9E1,1.94E2,2.08E2,8E0,8E0,1.1E1,1.9E1,1.2E1,1.8E1,9E0,1E1,1.8E1,8E0,8E0,1.2E1,1.3E1,9E0,4E1,8E0,1.5E1,8E0,4.9E1,1E1,1.6E1,1.6E1,1.6E1,2.4E1,2.3E1,1.2E1,1.7E1,4.2E1,1.4E1,1.8E2,1.02E2,1.06E2],"tree_param":{"num_deleted":"0","num_feature":"11","num_nodes":"97","size_leaf_vector":"1"}},{"base_weights":[5.3073858E-5,4.412993E-3,-4.594322E-3,-5.26381E-3,1.1976235E-2,-1.5445417E-2,-1.8515891E-3,5.1948647E-3,-1.9192096E-2,2.0384217E-2,5.2486965E-3,-2.7654987E-2,-9.126112E-3,4.465825E-3,-8.16031E-3,-2.218909E-2,1.1184593E-2,-2.5545977E-2,2.0054715E-4,1.2217573E-2,2.1331806E-2,2.5443803E-3,1.6627437E-2,-2.2355927E-2,-3.8190838E-4,-1.6295984E-4,-7.5617363E-3,1.907301E-2,1.777964E-3,-1.7500898E-2,1.2565413E-3,1.0877626E-5,-3.5209177E-4,-3.334742E-3,2.626209E-2,-3.747589E-2,-1.756312E-2,1.611829E-4,8.841786E-5,3.2134668E-4,1.9829234E-2,-1.3701693E-3,9.571752E-3,2.0964228E-4,1.273154E-2,-1.6437541E-4,-2.9465958E-4,-1.292464E-3,-1.0282576E-2,4.787737E-5,2.7308046E-4,2.9108362E-4,5.5623436E-3,-1.0564683E-2,-2.0725936E-2,-3.1899465E-3,9.75503E-3,5.6818714E-3,-1.2243783E-2,1.5221448E-2,6.475792E-4,-3.265598E-4,-4.5861735E-4,-2.2000892E-2,-2.5539452E-5,2.4218768E-2,1.6716113E-2,4.0471772E-4,-1.3476591E-4,1.213322E-3,1.3596893E-2,1.8297914E-4,7.7121804E-5,-4.733506E-5,2.8342949E-5,-1.2381964E-2,-5.200574E-5,3.011522E-3,-5.7540624E-3,8.399457E-3,1.7432726E-3,-5.1396787E-3,-1.5148126E-2,-2.3175519E-2,-1.51937E-2,-7.1431464E-4,-1.3394901E-4,1.3149879E-2,2.6780634E-5,-9.933187E-6,9.592004E-5,-6.492256E-5,-1.7164127E-4,2.6361582E-5,2.4000794E-4,-3.8009576E-4,-1.9054464E-4,2.979572E-4,1.8933533E-4,2.2295314E-4,1.5208215E-4,-1.1568951E-4,2.0764852E-5,-1.9559306E-5,4.122464E-5,2.0145334E-4,1.0992188E-4,-8.90436E-5,-1.6986762E-4,9.7088465E-5,-4.0659897E-6,9.410087E-6,-1.0392938E-4,2.828938E-5,1.4734622E-4,8.014212E-5,-4.4003926E-5,-3.0376978E-5,-7.742624E-5,-1.9281302E-4,-1.1847834E-4,-2.6491174E-4,-1.7863697E-4,-1.21972276E-4,-2.1567055E-4,-4.4992375E-5,2.9807159E-5,7.883158E-5,1.7295702E-4],"categories":[],"categories_nodes":[],"categories_segments":[],"categories_sizes":[],"default_left":[0,0,0,0,0,0,0,0,0,0,0,0,0,0,0,0,0,0,0,0,0,0,0,0,0,0,0,0,0,0,0,0,0,0,0,0,0,0,0,0,0,0,0,0,0,0,0,0,0,0,0,0,0,0,0,0,0,0,0,0,0,0,0,0,0,0,0,0,0,0,0,0,0,0,0,0,0,0,0,0,0,0,0,0,0,0,0,0,0,0,0,0,0,0,0,0,0,0,0,0,0,0,0,0,0,0,0,0,0,0,0,0,0,0,0,0,0,0,0,0,0,0,0,0,0,0,0,0,0],"id":11,"left_children":[1,3,5,7,9,11,13,15,17,19,21,23,25,27,29,31,33,35,-1,37,39,41,43,45,-1,-1,47,49,51,53,55,-1,-1,57,59,61,63,-1,-1,-1,65,67,69,-1,71,-1,-1,73,75,-1,-1,77,79,81,83,85,87,89,91,93,-1,-1,-1,95,-1,97,99,101,-1,103,105,-1,-1,-1,-1,107,-1,109,111,113,115,117,119,121,123,125,-1,127,-1,-1,-1,-1,-1,-1,-1,-1,-1,-1,-1,-1,-1,-1,-1,-1,-1,-1,-1,-1,-1,-1,-1,-1,-1,-1,-1,-1,-1,-1,-1,-1,-1,-1,-1,-1,-1,-1,-1,-1,-1],"loss_changes":[2.2227721E-2,4.1487448E-2,1.5774839E-2,3.6371887E-2,1.7880686E-2,8.0033075E-3,1.6974734E-2,2.3703387E-2,2.6127934E-2,8.3052367E-4,5.435058E-3,6.710235E-4,5.552168E-4,8.328913E-3,1.8757243E-2,6.2833168E-3,2.5919575E-2,8.103404E-3,0E0,6.270385E-5,9.846725E-4,4.0019187E-3,1.1824537E-4,4.2564236E-4,0E0,0E0,9.93114E-4,2.8730435E-3,1.0168533E-3,2.1745786E-3,4.07448E-3,0E0,0E0,4.9696597E-3,2.0612262E-2,1.1492521E-5,3.7933849E-3,0E0,0E0,0E0,1.0846555E-3,1.855299E-3,1.7329841E-3,0E0,2.7798046E-4,0E0,0E0,2.4075885E-4,4.1165622E-4,0E0,0E0,2.1716822E-3,5.379494E-4,8.172905E-4,6.235987E-4,1.6073114E-3,8.817429E-4,6.601757E-4,6.06257E-4,3.955217E-3,0E0,0E0,0E0,1.9156244E-3,0E0,4.789494E-4,4.0345825E-4,1.3997816E-3,0E0,1.4821428E-4,4.1509978E-4,0E0,0E0,0E0,0E0,2.7062278E-4,0E0,1.8421684E-3,1.0553494E-3,8.4058475E-4,7.875986E-4,6.461056E-5,1.8187799E-5,1.665391E-5,2.3988029E-4,6.930148E-4,0E0,2.9980205E-4,0E0,0E0,0E0,0E0,0E0,0E0,0E0,0E0,0E0,0E0,0E0,0E0,0E0,0E0,0E0,0E0,0E0,0E0,0E0,0E0,0E0,0E0,0E0,0E0,0E0,0E0,0E0,0E0,0E0,0E0,0E0,0E0,0E0,0E0,0E0,0E0,0E0,0E0,0E0,0E0,0E0],"parents":[2147483647,0,0,1,1,2,2,3,3,4,4,5,5,6,6,7,7,8,8,9,9,10,10,11,11,12,12,13,13,14,14,15,15,16,16,17,17,19,19,20,20,21,21,22,22,23,23,26,26,27,27,28,28,29,29,30,30,33,33,34,34,35,35,36,36,40,40,41,41,42,42,44,44,47,47,48,48,51,51,52,52,53,53,54,54,55,55,56,56,57,57,58,58,59,59,63,63,65,65,66,66,67,67,69,69,70,70,75,75,77,77,78,78,79,79,80,80,81,81,82,82,83,83,84,84,85,85,87,87],"right_children":[2,4,6,8,10,12,14,16,18,20,22,24,26,28,30,32,34,36,-1,38,40,42,44,46,-1,-1,48,50,52,54,56,-1,-1,58,60,62,64,-1,-1,-1,66,68,70,-1,72,-1,-1,74,76,-1,-1,78,80,82,84,86,88,90,92,94,-1,-1,-1,96,-1,98,100,102,-1,104,106,-1,-1,-1,-1,108,-1,110,112,114,116,118,120,122,124,126,-1,128,-1,-1,-1,-1,-1,-1,-1,-1,-1,-1,-1,-1,-1,-1,-1,-1,-1,-1,-1,-1,-1,-1,-1,-1,-1,-1,-1,-1,-1,-1,-1,-1,-1,-1,-1,-1,-1,-1,-1,-1,-1],"split_conditions":[1.9733926E0,1.4023714E0,2.0877712E0,1.1111435E0,1.623699E0,1E0,3.1880064E0,1.7523452E6,4.2954403E5,1.4050951E0,3.3373072E5,1.9898236E0,1.8644114E-1,4E-3,3.3070045E0,8.3392864E-1,1E0,1E0,2.0054715E-4,5.503612E5,4E-3,9.0054077E-1,6.8817106E5,7.692308E-1,-3.8190838E-4,-1.6295984E-4,1.9816141E0,1E0,1.2597565E6,1E0,3.3396776E0,1.0877626E-5,-3.5209177E-4,8.326121E-1,7.350133E6,7.692308E-1,2.9917338E-1,1.611829E-4,8.841786E-5,3.2134668E-4,7.6420426E-1,8.314476E-1,1E0,2.0964228E-4,6.6527975E-1,-1.6437541E-4,-2.9465958E-4,7.692308E-1,8.27695E-1,4.787737E-5,2.7308046E-4,2.5671568E6,5.042879E6,7.692308E-1,3.218797E0,1.9947669E6,8E-1,6.1142105E-1,6E-1,3.728355E5,6.475792E-4,-3.265598E-4,-4.5861735E-4,8.2396734E-1,-2.5539452E-5,1.2674401E6,8E-3,1.6269536E0,-1.3476591E-4,8.875497E3,1.6334534E0,1.8297914E-4,7.7121804E-5,-4.733506E-5,2.8342949E-5,7.11254E-1,-5.200574E-5,2.110666E0,1E0,1E0,1E0,4.114578E6,3.2111053E0,7.034016E5,9.847712E5,3.3233504E0,-1.3394901E-4,1.4157261E6,2.6780634E-5,-9.933187E-6,9.592004E-5,-6.492256E-5,-1.7164127E-4,2.6361582E-5,2.4000794E-4,-3.8009576E-4,-1.9054464E-4,2.979572E-4,1.8933533E-4,2.2295314E-4,1.5208215E-4,-1.1568951E-4,2.0764852E-5,-1.9559306E-5,4.122464E-5,2.0145334E-4,1.0992188E-4,-8.90436E-5,-1.6986762E-4,9.7088465E-5,-4.0659897E-6,9.410087E-6,-1.0392938E-4,2.828938E-5,1.4734622E-4,8.014212E-5,-4.4003926E-5,-3.0376978E-5,-7.742624E-5,-1.9281302E-4,-1.1847834E-4,-2.6491174E-4,-1.7863697E-4,-1.21972276E-4,-2.1567055E-4,-4.4992375E-5,2.9807159E-5,7.883158E-5,1.7295702E-4],"split_indices":[0,0,0,0,0,10,0,5,8,0,8,0,4,1,0,0,10,10,0,7,1,3,7,3,0,0,0,10,7,10,0,0,0,0,5,3,4,0,0,0,3,3,10,0,3,0,0,3,3,0,0,5,5,3,0,7,2,0,2,7,0,0,0,3,0,7,1,0,0,7,0,0,0,0,0,3,0,0,10,10,10,5,0,8,7,0,0,5,0,0,0,0,0,0,0,0,0,0,0,0,0,0,0,0,0,0,0,0,0,0,0,0,0,0,0,0,0,0,0,0,0,0,0,0,0,0,0,0,0],"split_type":[0,0,0,0,0,0,0,0,0,0,0,0,0,0,0,0,0,0,0,0,0,0,0,0,0,0,0,0,0,0,0,0,0,0,0,0,0,0,0,0,0,0,0,0,0,0,0,0,0,0,0,0,0,0,0,0,0,0,0,0,0,0,0,0,0,0,0,0,0,0,0,0,0,0,0,0,0,0,0,0,0,0,0,0,0,0,0,0,0,0,0,0,0,0,0,0,0,0,0,0,0,0,0,0,0,0,0,0,0,0,0,0,0,0,0,0,0,0,0,0,0,0,0,0,0,0,0,0,0],"sum_hessian":[1.095E3,5.65E2,5.3E2,2.48E2,3.17E2,1.06E2,4.24E2,1.42E2,1.06E2,1.4E2,1.77E2,3.5E1,7.1E1,2.12E2,2.12E2,2.5E1,1.17E2,9.1E1,1.5E1,1.6E1,1.24E2,1.44E2,3.3E1,2.3E1,1.2E1,1.3E1,5.8E1,3.2E1,1.8E2,1.06E2,1.06E2,8E0,1.7E1,6E1,5.7E1,3.5E1,5.6E1,8E0,8E0,1.6E1,1.08E2,9.3E1,5.1E1,1.7E1,1.6E1,1.1E1,1.2E1,1.8E1,4E1,1E1,2.2E1,1.3E2,5E1,3.5E1,7.1E1,7E1,3.6E1,3E1,3E1,4.4E1,1.3E1,1.7E1,1.8E1,4.3E1,1.3E1,4.2E1,6.6E1,8.1E1,1.2E1,1.7E1,3.4E1,8E0,8E0,1E1,8E0,2.8E1,1.2E1,9E1,4E1,2.8E1,2.2E1,1.7E1,1.8E1,4.7E1,2.4E1,5.6E1,1.4E1,2.4E1,1.2E1,1E1,2E1,1.2E1,1.8E1,1.6E1,2.8E1,9E0,3.4E1,2.6E1,1.6E1,2.4E1,4.2E1,9E0,7.2E1,8E0,9E0,1.2E1,2.2E1,1.4E1,1.4E1,3.2E1,5.8E1,1.5E1,2.5E1,1.4E1,1.4E1,1.1E1,1.1E1,9E0,8E0,9E0,9E0,3.7E1,1E1,1.5E1,9E0,2.8E1,2.8E1,9E0,1.5E1],"tree_param":{"num_deleted":"0","num_feature":"11","num_nodes":"129","size_leaf_vector":"1"}},{"base_weights":[1.13684735E-4,4.399904E-3,-4.4644396E-3,-5.2099237E-3,1.1934438E-2,-1.5275536E-2,-1.7511359E-3,5.1416256E-3,-1.8995546E-2,2.0153517E-2,5.4029464E-3,-2.7379232E-2,-8.923302E-3,4.4200146E-3,-7.943136E-3,-2.1962227E-2,1.10700885E-2,-2.5284685E-2,1.9851374E-4,1.2100116E-2,2.1095084E-2,3.1568718E-3,1.448957E-2,-2.2133254E-2,-3.780954E-4,-1.6132322E-4,-7.323023E-3,1.8876452E-2,1.7598904E-3,-1.4554337E-2,4.84469E-3,1.0773047E-5,-3.484953E-4,-3.3011544E-3,2.5993807E-2,-3.709236E-2,-1.7383615E-2,1.5963342E-4,8.756776E-5,3.180754E-4,1.9591138E-2,9.316481E-3,-4.2591212E-4,2.0750094E-4,8.989E-3,-2.917178E-4,-1.6274558E-4,-4.110386E-4,-1.0178942E-2,4.7406764E-5,2.7025532E-4,2.8791386E-4,5.506342E-3,-1.948945E-2,-9.483741E-3,7.304104E-3,-7.644865E-5,5.62318E-3,-1.2119E-2,1.5062738E-2,6.410755E-4,-4.5391804E-4,-3.232239E-4,-2.1775896E-2,-2.5282945E-5,1.6540915E-2,2.3990514E-2,1.2014029E-3,1.3115228E-2,-1.3342044E-4,1.5147708E-3,-1.0289802E-5,2.0587773E-4,2.8070472E-5,-3.326563E-5,-5.148654E-5,-1.2256968E-2,2.9799617E-3,-5.6941416E-3,8.314672E-3,1.7259977E-3,-1.2495704E-2,-2.4493292E-4,-2.916146E-3,-1.256996E-2,2.7271416E-3,1.1104947E-2,2.0177753E-5,1.2348518E-4,-6.427453E-5,-1.6988264E-4,2.6093097E-5,2.3750169E-4,-3.000681E-4,-1.5053872E-4,2.2063822E-4,1.5047553E-4,2.9661457E-4,1.8740802E-4,-1.937135E-5,4.0823434E-5,1.9944197E-4,1.0474447E-4,5.0175036E-5,-1.1014152E-5,-1.6815282E-4,-8.814467E-5,9.6070136E-5,-4.0228956E-6,9.314596E-6,-1.0284864E-4,2.8003878E-5,1.4585884E-4,7.93476E-5,-4.3567514E-5,-1.8641647E-4,-6.834836E-5,-6.014047E-5,1.4514329E-5,-9.946827E-5,-2.4963138E-4,6.2222134E-5,-2.9712563E-5,1.407959E-4,4.9295377E-5],"categories":[],"categories_nodes":[],"categories_segments":[],"categories_sizes":[],"default_left":[0,0,0,0,0,0,0,0,0,0,0,0,0,0,0,0,0,0,0,0,0,0,0,0,0,0,0,0,0,0,0,0,0,0,0,0,0,0,0,0,0,0,0,0,0,0,0,0,0,0,0,0,0,0,0,0,0,0,0,0,0,0,0,0,0,0,0,0,0,0,0,0,0,0,0,0,0,0,0,0,0,0,0,0,0,0,0,0,0,0,0,0,0,0,0,0,0,0,0,0,0,0,0,0,0,0,0,0,0,0,0,0,0,0,0,0,0,0,0,0,0,0,0,0,0],"id":12,"left_children":[1,3,5,7,9,11,13,15,17,19,21,23,25,27,29,31,33,35,-1,37,39,41,43,45,-1,-1,47,49,51,53,55,-1,-1,57,59,61,63,-1,-1,-1,65,67,69,-1,71,-1,-1,73,75,-1,-1,77,79,81,83,85,-1,87,89,91,-1,-1,-1,93,-1,95,97,99,101,-1,103,-1,-1,-1,-1,-1,105,107,109,111,113,115,-1,117,119,121,123,-1,-1,-1,-1,-1,-1,-1,-1,-1,-1,-1,-1,-1,-1,-1,-1,-1,-1,-1,-1,-1,-1,-1,-1,-1,-1,-1,-1,-1,-1,-1,-1,-1,-1,-1,-1,-1,-1],"loss_changes":[2.1467412E-2,4.0971324E-2,1.54908225E-2,3.5630606E-2,1.6908575E-2,7.905554E-3,1.6236896E-2,2.3220962E-2,2.5598153E-2,8.063428E-4,3.587102E-3,6.5755844E-4,5.7162205E-4,8.15789E-3,1.7993603E-2,6.1558606E-3,2.5393551E-2,7.938184E-3,0E0,6.150501E-5,9.7424537E-4,3.1818384E-3,7.315404E-4,4.17009E-4,0E0,0E0,1.14074E-3,2.8131772E-3,9.965734E-4,3.3185259E-3,2.1904532E-3,0E0,0E0,4.868445E-3,2.0206068E-2,1.1011958E-5,3.7160143E-3,0E0,0E0,0E0,1.0524392E-3,1.6180817E-3,2.1451137E-3,0E0,1.8156229E-3,0E0,0E0,1.5217929E-4,4.0331157E-4,0E0,0E0,2.1265894E-3,5.270882E-4,1.2623742E-3,1.4024451E-3,1.0308907E-3,0E0,6.536187E-4,5.936427E-4,3.8727764E-3,0E0,0E0,0E0,1.6770773E-3,0E0,3.9569847E-4,4.8579462E-4,1.4535534E-4,4.7906814E-4,0E0,6.378668E-4,0E0,0E0,0E0,0E0,0E0,2.6518665E-4,1.8037106E-3,1.0335604E-3,8.2369894E-4,7.7205757E-4,5.9370487E-4,0E0,2.7769903E-4,1.4895839E-3,4.96166E-4,3.5393983E-4,0E0,0E0,0E0,0E0,0E0,0E0,0E0,0E0,0E0,0E0,0E0,0E0,0E0,0E0,0E0,0E0,0E0,0E0,0E0,0E0,0E0,0E0,0E0,0E0,0E0,0E0,0E0,0E0,0E0,0E0,0E0,0E0,0E0,0E0,0E0,0E0,0E0,0E0],"parents":[2147483647,0,0,1,1,2,2,3,3,4,4,5,5,6,6,7,7,8,8,9,9,10,10,11,11,12,12,13,13,14,14,15,15,16,16,17,17,19,19,20,20,21,21,22,22,23,23,26,26,27,27,28,28,29,29,30,30,33,33,34,34,35,35,36,36,40,40,41,41,42,42,44,44,47,47,48,48,51,51,52,52,53,53,54,54,55,55,57,57,58,58,59,59,63,63,65,65,66,66,67,67,68,68,70,70,76,76,77,77,78,78,79,79,80,80,81,81,83,83,84,84,85,85,86,86],"right_children":[2,4,6,8,10,12,14,16,18,20,22,24,26,28,30,32,34,36,-1,38,40,42,44,46,-1,-1,48,50,52,54,56,-1,-1,58,60,62,64,-1,-1,-1,66,68,70,-1,72,-1,-1,74,76,-1,-1,78,80,82,84,86,-1,88,90,92,-1,-1,-1,94,-1,96,98,100,102,-1,104,-1,-1,-1,-1,-1,106,108,110,112,114,116,-1,118,120,122,124,-1,-1,-1,-1,-1,-1,-1,-1,-1,-1,-1,-1,-1,-1,-1,-1,-1,-1,-1,-1,-1,-1,-1,-1,-1,-1,-1,-1,-1,-1,-1,-1,-1,-1,-1,-1,-1,-1],"split_conditions":[1.9733926E0,1.4023714E0,2.0877712E0,1.1111435E0,1.623699E0,1E0,3.1880064E0,1.7523452E6,4.2954403E5,1.4050951E0,3.3373072E5,1.9898236E0,1.8644114E-1,4E-3,3.3233504E0,8.3392864E-1,1E0,1E0,1.9851374E-4,5.503612E5,4E-3,1.9346604E-1,6.8817106E5,2.9518154E-1,-3.780954E-4,-1.6132322E-4,1.9816141E0,1E0,1.2597565E6,3.218797E0,4.085441E6,1.0773047E-5,-3.484953E-4,8.326121E-1,7.350133E6,2.9518154E-1,2.9917338E-1,1.5963342E-4,8.756776E-5,3.180754E-4,2.9818094E-1,1E0,2.5246918E-1,2.0750094E-4,3.0340182E6,-2.917178E-4,-1.6274558E-4,2.9518154E-1,2.5491065E-1,4.7406764E-5,2.7025532E-4,2.5671568E6,5.042879E6,1E0,1E0,3.3396776E0,-7.644865E-5,3.2821563E-1,6E-1,3.728355E5,6.410755E-4,-4.5391804E-4,-3.232239E-4,1.1172135E0,-2.5282945E-5,8E-3,1.2674401E6,8.875497E3,1.6334534E0,-1.3342044E-4,1.7848761E0,-1.0289802E-5,2.0587773E-4,2.8070472E-5,-3.326563E-5,-5.148654E-5,3.299859E-1,2.110666E0,1E0,1E0,1E0,2.9518154E-1,-2.4493292E-4,1.451315E6,3.580378E6,6E-1,8E-1,2.0177753E-5,1.2348518E-4,-6.427453E-5,-1.6988264E-4,2.6093097E-5,2.3750169E-4,-3.000681E-4,-1.5053872E-4,2.2063822E-4,1.5047553E-4,2.9661457E-4,1.8740802E-4,-1.937135E-5,4.0823434E-5,1.9944197E-4,1.0474447E-4,5.0175036E-5,-1.1014152E-5,-1.6815282E-4,-8.814467E-5,9.6070136E-5,-4.0228956E-6,9.314596E-6,-1.0284864E-4,2.8003878E-5,1.4585884E-4,7.93476E-5,-4.3567514E-5,-1.8641647E-4,-6.834836E-5,-6.014047E-5,1.4514329E-5,-9.946827E-5,-2.4963138E-4,6.2222134E-5,-2.9712563E-5,1.407959E-4,4.9295377E-5],"split_indices":[0,0,0,0,0,10,0,5,8,0,8,0,4,1,0,0,10,10,0,7,1,4,7,4,0,0,0,10,7,0,5,0,0,0,5,4,4,0,0,0,4,10,4,0,6,0,0,4,4,0,0,5,5,10,10,0,0,4,2,7,0,0,0,0,0,1,7,7,0,0,0,0,0,0,0,0,4,0,10,10,10,4,0,7,5,2,2,0,0,0,0,0,0,0,0,0,0,0,0,0,0,0,0,0,0,0,0,0,0,0,0,0,0,0,0,0,0,0,0,0,0,0,0,0,0],"split_type":[0,0,0,0,0,0,0,0,0,0,0,0,0,0,0,0,0,0,0,0,0,0,0,0,0,0,0,0,0,0,0,0,0,0,0,0,0,0,0,0,0,0,0,0,0,0,0,0,0,0,0,0,0,0,0,0,0,0,0,0,0,0,0,0,0,0,0,0,0,0,0,0,0,0,0,0,0,0,0,0,0,0,0,0,0,0,0,0,0,0,0,0,0,0,0,0,0,0,0,0,0,0,0,0,0,0,0,0,0,0,0,0,0,0,0,0,0,0,0,0,0,0,0,0,0],"sum_hessian":[1.092E3,5.64E2,5.28E2,2.48E2,3.16E2,1.05E2,4.23E2,1.42E2,1.06E2,1.39E2,1.77E2,3.5E1,7E1,2.12E2,2.11E2,2.5E1,1.17E2,9.1E1,1.5E1,1.6E1,1.23E2,1.43E2,3.4E1,2.3E1,1.2E1,1.3E1,5.7E1,3.2E1,1.8E2,1.39E2,7.2E1,8E0,1.7E1,6E1,5.7E1,3.5E1,5.6E1,8E0,8E0,1.6E1,1.07E2,5.2E1,9.1E1,1.7E1,1.7E1,1.2E1,1.1E1,1.7E1,4E1,1E1,2.2E1,1.3E2,5E1,6.9E1,7E1,6E1,1.2E1,3E1,3E1,4.4E1,1.3E1,1.8E1,1.7E1,4.3E1,1.3E1,6.6E1,4.1E1,1.7E1,3.5E1,1.2E1,7.9E1,9E0,8E0,8E0,9E0,1.2E1,2.8E1,9E1,4E1,2.8E1,2.2E1,2.3E1,4.6E1,2.3E1,4.7E1,2.8E1,3.2E1,1.9E1,1.1E1,1.2E1,1.8E1,1.6E1,2.8E1,2.3E1,2E1,2.4E1,4.2E1,2.5E1,1.6E1,8E0,9E0,1.2E1,2.3E1,3.5E1,4.4E1,1.4E1,1.4E1,3.2E1,5.8E1,1.5E1,2.5E1,1.4E1,1.4E1,1.1E1,1.1E1,1.2E1,1.1E1,1.4E1,9E0,3.7E1,1E1,1.8E1,1E1,2.4E1,8E0],"tree_param":{"num_deleted":"0","num_feature":"11","num_nodes":"125","size_leaf_vector":"1"}},{"base_weights":[1.1379699E-4,4.4296524E-3,-4.479139E-3,-4.7748564E-3,1.1565137E-2,-1.5139057E-2,-1.7784543E-3,5.08935E-3,-1.8163491E-2,1.9965457E-2,4.8459787E-3,-2.7106233E-2,-8.945204E-3,4.374676E-3,-7.95222E-3,-2.1737667E-2,1.0957258E-2,-2.3880094E-2,1.9174209E-4,1.1983796E-2,2.0891238E-2,8.965245E-3,-3.1218902E-4,-2.1912808E-2,-3.7432057E-4,-1.7409566E-4,-7.66808E-3,1.868192E-2,1.7420034E-3,-1.7155608E-2,1.2394758E-3,1.0669614E-5,-3.4493534E-4,-3.2669315E-3,2.5728263E-2,-3.8721203E-4,-1.6480295E-2,1.5809883E-4,8.672597E-5,3.1483753E-4,1.9417858E-2,9.767115E-5,1.1070074E-2,-4.842015E-3,2.6524358E-3,-1.61132E-4,-2.888055E-4,-4.94983E-3,-1.2180261E-2,4.6940557E-5,2.674595E-4,2.8478395E-4,5.4509E-3,-1.018248E-2,-2.0307051E-2,-3.1157702E-3,9.563341E-3,5.5670016E-3,-1.199548E-2,1.4905681E-2,6.346371E-4,-2.7968384E-2,-1.1034785E-2,2.371907E-2,1.6367558E-2,-2.0021389E-5,2.0121955E-5,1.6409531E-2,8.488707E-3,3.7999973E-5,-1.2421119E-2,4.601069E-3,-1.2862297E-3,-8.070123E-3,-9.1211573E-4,-7.084497E-5,-1.7312923E-4,2.9487386E-3,-5.634842E-3,8.2307365E-3,1.7088937E-3,-5.0448645E-3,-1.4754403E-2,-2.4545426E-4,-1.4911331E-2,-6.779255E-4,-1.316472E-4,1.2882581E-2,2.6439457E-5,-1.0338682E-5,9.429842E-5,-6.363274E-5,-1.6814204E-4,2.5827345E-5,2.350216E-4,-3.607444E-4,-2.0416811E-4,-1.5802505E-4,-1.2712811E-5,2.9176447E-4,1.8550041E-4,2.1834744E-4,1.4888593E-4,1.1665356E-4,2.336553E-4,1.0249845E-5,1.2140086E-4,-1.8514058E-4,-6.861856E-5,7.7893426E-5,4.955745E-7,-5.6734323E-5,3.0457095E-5,-4.6542704E-5,-1.1504327E-4,-6.1551946E-5,3.3320845E-5,9.506242E-5,-3.980118E-6,9.220012E-6,-1.0177904E-4,2.7721084E-5,1.443865E-4,7.8561054E-5,-4.3135537E-5,-2.9613115E-5,-7.6224E-5,-1.8990273E-4,-1.16330055E-4,-1.1972672E-4,-2.116284E-4,-4.3600652E-5,2.9189016E-5,7.669383E-5,1.697759E-4],"categories":[],"categories_nodes":[],"categories_segments":[],"categories_sizes":[],"default_left":[0,0,0,0,0,0,0,0,0,0,0,0,0,0,0,0,0,0,0,0,0,0,0,0,0,0,0,0,0,0,0,0,0,0,0,0,0,0,0,0,0,0,0,0,0,0,0,0,0,0,0,0,0,0,0,0,0,0,0,0,0,0,0,0,0,0,0,0,0,0,0,0,0,0,0,0,0,0,0,0,0,0,0,0,0,0,0,0,0,0,0,0,0,0,0,0,0,0,0,0,0,0,0,0,0,0,0,0,0,0,0,0,0,0,0,0,0,0,0,0,0,0,0,0,0,0,0,0,0,0,0,0,0,0,0],"id":13,"left_children":[1,3,5,7,9,11,13,15,17,19,21,23,25,27,29,31,33,35,-1,37,39,41,43,45,-1,-1,47,49,51,53,55,-1,-1,57,59,-1,61,-1,-1,-1,63,65,67,69,71,-1,-1,73,75,-1,-1,77,79,81,83,85,87,89,91,93,-1,95,97,99,101,-1,-1,103,105,-1,107,109,111,113,115,-1,-1,117,119,121,123,125,127,-1,129,131,-1,133,-1,-1,-1,-1,-1,-1,-1,-1,-1,-1,-1,-1,-1,-1,-1,-1,-1,-1,-1,-1,-1,-1,-1,-1,-1,-1,-1,-1,-1,-1,-1,-1,-1,-1,-1,-1,-1,-1,-1,-1,-1,-1,-1,-1,-1,-1,-1],"loss_changes":[2.1685777E-2,3.709797E-2,1.5231287E-2,3.2713298E-2,1.7852146E-2,7.6886844E-3,1.6141692E-2,2.2749024E-2,2.1967053E-2,7.9152733E-4,3.7849192E-3,6.4436346E-4,5.3416006E-4,7.990375E-3,1.795535E-2,6.030985E-3,2.4876513E-2,7.437259E-3,0E0,6.032805E-5,9.483062E-4,1.846726E-3,1.087182E-3,4.0855072E-4,0E0,0E0,7.1241986E-4,2.7545663E-3,9.76694E-4,2.1226164E-3,3.9088125E-3,0E0,0E0,4.7703306E-3,1.9807864E-2,0E0,3.3197664E-3,0E0,0E0,0E0,1.0418557E-3,7.2150055E-5,9.633517E-4,2.0700926E-3,3.819937E-4,0E0,0E0,5.091921E-4,3.9070752E-4,0E0,0E0,2.0824354E-3,5.164449E-4,7.476739E-4,5.890094E-4,1.55924E-3,8.427806E-4,6.4563076E-4,5.812943E-4,3.7920512E-3,0E0,2.5167037E-4,1.4283396E-3,4.571788E-4,3.8808957E-4,0E0,0E0,4.972406E-4,1.144683E-3,0E0,3.7658634E-4,3.9063313E-4,2.90887E-4,1.7659005E-4,3.8008194E-4,0E0,0E0,1.7660486E-3,1.0122187E-3,8.071556E-4,7.568258E-4,6.386291E-5,1.2950972E-5,0E0,2.3051258E-4,6.562957E-4,0E0,2.962174E-4,0E0,0E0,0E0,0E0,0E0,0E0,0E0,0E0,0E0,0E0,0E0,0E0,0E0,0E0,0E0,0E0,0E0,0E0,0E0,0E0,0E0,0E0,0E0,0E0,0E0,0E0,0E0,0E0,0E0,0E0,0E0,0E0,0E0,0E0,0E0,0E0,0E0,0E0,0E0,0E0,0E0,0E0,0E0,0E0,0E0,0E0,0E0],"parents":[2147483647,0,0,1,1,2,2,3,3,4,4,5,5,6,6,7,7,8,8,9,9,10,10,11,11,12,12,13,13,14,14,15,15,16,16,17,17,19,19,20,20,21,21,22,22,23,23,26,26,27,27,28,28,29,29,30,30,33,33,34,34,36,36,40,40,41,41,42,42,43,43,44,44,47,47,48,48,51,51,52,52,53,53,54,54,55,55,56,56,57,57,58,58,59,59,61,61,62,62,63,63,64,64,67,67,68,68,70,70,71,71,72,72,73,73,74,74,77,77,78,78,79,79,80,80,81,81,82,82,84,84,85,85,87,87],"right_children":[2,4,6,8,10,12,14,16,18,20,22,24,26,28,30,32,34,36,-1,38,40,42,44,46,-1,-1,48,50,52,54,56,-1,-1,58,60,-1,62,-1,-1,-1,64,66,68,70,72,-1,-1,74,76,-1,-1,78,80,82,84,86,88,90,92,94,-1,96,98,100,102,-1,-1,104,106,-1,108,110,112,114,116,-1,-1,118,120,122,124,126,128,-1,130,132,-1,134,-1,-1,-1,-1,-1,-1,-1,-1,-1,-1,-1,-1,-1,-1,-1,-1,-1,-1,-1,-1,-1,-1,-1,-1,-1,-1,-1,-1,-1,-1,-1,-1,-1,-1,-1,-1,-1,-1,-1,-1,-1,-1,-1,-1,-1,-1,-1],"split_conditions":[1.9733926E0,1.4023714E0,2.0877712E0,1.1111435E0,1.623699E0,1E0,3.1880064E0,1.7523452E6,3.121123E6,1.4050951E0,3.0885885E6,1.9898236E0,6.108624E-2,4E-3,3.3070045E0,8.3392864E-1,1E0,1E0,1.9174209E-4,5.503612E5,4E-3,1E0,1.2E-2,7.692308E-1,-3.7432057E-4,-1.7409566E-4,1.9898236E0,1E0,1.2597565E6,1E0,3.3396776E0,1.0669614E-5,-3.4493534E-4,8.326121E-1,7.350133E6,-3.8721203E-4,1.8999061E-1,1.5809883E-4,8.672597E-5,3.1483753E-4,7.6420426E-1,1.7885878E0,1.6334534E0,1E0,1.7997053E0,-1.61132E-4,-2.888055E-4,7.692308E-1,7.6253927E-1,4.6940557E-5,2.674595E-4,2.5671568E6,5.042879E6,7.692308E-1,3.218797E0,1.9947669E6,8E-1,6.1142105E-1,6E-1,3.728355E5,6.346371E-4,9.900774E-1,7.1332465E6,1.2674401E6,8E-3,-2.0021389E-5,2.0121955E-5,2.383774E6,1.7885878E0,3.7999973E-5,1.7885878E0,7.6420426E-1,1.8034052E0,1.9816141E0,4E-1,-7.084497E-5,-1.7312923E-4,2.110666E0,1E0,1E0,1E0,4.114578E6,3.2111053E0,-2.4545426E-4,9.847712E5,3.3233504E0,-1.316472E-4,1.4157261E6,2.6439457E-5,-1.0338682E-5,9.429842E-5,-6.363274E-5,-1.6814204E-4,2.5827345E-5,2.350216E-4,-3.607444E-4,-2.0416811E-4,-1.5802505E-4,-1.2712811E-5,2.9176447E-4,1.8550041E-4,2.1834744E-4,1.4888593E-4,1.1665356E-4,2.336553E-4,1.0249845E-5,1.2140086E-4,-1.8514058E-4,-6.861856E-5,7.7893426E-5,4.955745E-7,-5.6734323E-5,3.0457095E-5,-4.6542704E-5,-1.1504327E-4,-6.1551946E-5,3.3320845E-5,9.506242E-5,-3.980118E-6,9.220012E-6,-1.0177904E-4,2.7721084E-5,1.443865E-4,7.8561054E-5,-4.3135537E-5,-2.9613115E-5,-7.6224E-5,-1.8990273E-4,-1.16330055E-4,-1.1972672E-4,-2.116284E-4,-4.3600652E-5,2.9189016E-5,7.669383E-5,1.697759E-4],"split_indices":[0,0,0,0,0,10,0,5,6,0,5,0,4,1,0,0,10,10,0,7,1,10,1,3,0,0,0,10,7,10,0,0,0,0,5,0,4,0,0,0,3,0,0,10,0,0,0,3,3,0,0,5,5,3,0,7,2,0,2,7,0,3,5,7,1,0,0,5,0,0,0,3,0,0,2,0,0,0,10,10,10,5,0,0,7,0,0,5,0,0,0,0,0,0,0,0,0,0,0,0,0,0,0,0,0,0,0,0,0,0,0,0,0,0,0,0,0,0,0,0,0,0,0,0,0,0,0,0,0,0,0,0,0,0,0],"split_type":[0,0,0,0,0,0,0,0,0,0,0,0,0,0,0,0,0,0,0,0,0,0,0,0,0,0,0,0,0,0,0,0,0,0,0,0,0,0,0,0,0,0,0,0,0,0,0,0,0,0,0,0,0,0,0,0,0,0,0,0,0,0,0,0,0,0,0,0,0,0,0,0,0,0,0,0,0,0,0,0,0,0,0,0,0,0,0,0,0,0,0,0,0,0,0,0,0,0,0,0,0,0,0,0,0,0,0,0,0,0,0,0,0,0,0,0,0,0,0,0,0,0,0,0,0,0,0,0,0,0,0,0,0,0,0],"sum_hessian":[1.092E3,5.63E2,5.29E2,2.46E2,3.17E2,1.06E2,4.23E2,1.42E2,1.04E2,1.4E2,1.77E2,3.5E1,7.1E1,2.12E2,2.11E2,2.5E1,1.17E2,9E1,1.4E1,1.6E1,1.24E2,9.8E1,7.9E1,2.3E1,1.2E1,9E0,6.2E1,3.2E1,1.8E2,1.05E2,1.06E2,8E0,1.7E1,6E1,5.7E1,3.3E1,5.7E1,8E0,8E0,1.6E1,1.08E2,1.9E1,7.9E1,3.1E1,4.8E1,1.1E1,1.2E1,4E1,2.2E1,1E1,2.2E1,1.3E2,5E1,3.4E1,7.1E1,7E1,3.6E1,3E1,3E1,4.4E1,1.3E1,1.7E1,4E1,4.2E1,6.6E1,9E0,1E1,2.4E1,5.5E1,1.5E1,1.6E1,3.2E1,1.6E1,2.2E1,1.8E1,1E1,1.2E1,9E1,4E1,2.8E1,2.2E1,1.7E1,1.7E1,4.7E1,2.4E1,5.6E1,1.4E1,2.4E1,1.2E1,1E1,2E1,1.2E1,1.8E1,1.6E1,2.8E1,9E0,8E0,2.9E1,1.1E1,2.6E1,1.6E1,2.4E1,4.2E1,1.3E1,1.1E1,1.5E1,4E1,8E0,8E0,2E1,1.2E1,8E0,8E0,1E1,1.2E1,8E0,1E1,3.2E1,5.8E1,1.5E1,2.5E1,1.4E1,1.4E1,1.1E1,1.1E1,9E0,8E0,8E0,9E0,1.5E1,9E0,2.8E1,2.8E1,9E0,1.5E1],"tree_param":{"num_deleted":"0","num_feature":"11","num_nodes":"135","size_leaf_vector":"1"}},{"base_weights":[-4.874002E-5,-1.5737163E-3,1.21014705E-2,-8.851788E-3,3.8307178E-4,1.7609607E-2,3.536092E-3,2.7948564E-3,-2.4500638E-2,1.8727837E-2,-2.8813083E-3,4.280301E-3,2.121286E-2,-1.2560636E-4,1.9283606E-4,-2.1515418E-2,9.489242E-3,-3.6336295E-2,-1.5999047E-2,1.252016E-4,1.951812E-2,-4.3970122E-4,-7.911476E-3,1.5708663E-4,-6.9641574E-5,1.6761336E-2,2.7454275E-4,1.20100216E-4,-3.280078E-3,1.0567041E-5,-3.414119E-4,-3.234019E-3,3.2037176E-2,-3.159667E-4,-4.4529932E-4,-2.769726E-2,-9.705524E-3,2.3282725E-2,1.7493472E-2,-4.18033E-3,4.325118E-3,-1.6976273E-2,1.227258E-3,9.35514E-5,1.9206742E-2,-8.3327126E-5,-1.2139017E-3,5.5095023E-3,-1.1873217E-2,6.262509E-4,1.1036672E-2,-3.5723273E-4,-2.0220518E-4,-1.2943109E-2,7.039751E-8,3.0027409E-4,1.8982535E-2,1.2572723E-2,1.94462E-2,3.2578846E-3,-1.6115766E-2,2.0304343E-4,3.0970972E-3,-1.0266392E-2,-2.009543E-2,-3.0841252E-3,9.467283E-3,1.435784E-4,2.3237892E-4,7.274245E-5,-6.3776904E-5,1.216091E-4,1.9397674E-5,-6.29975E-5,-1.6641915E-4,-4.089438E-6,2.207528E-4,-1.7583783E-4,-4.8753107E-5,2.56852E-4,1.4954331E-4,1.6817792E-4,7.731133E-5,1.8302909E-4,3.112995E-4,7.768944E-5,-1.6210837E-5,-2.9024956E-4,-1.0183043E-4,2.5945687E-5,1.2851025E-4,-6.210651E-5,-1.6832116E-4,-2.4285482E-4,-1.5967558E-4,-7.2556013E-6,-1.3031837E-4,1.3793373E-4,2.6175543E-5],"categories":[],"categories_nodes":[],"categories_segments":[],"categories_sizes":[],"default_left":[0,0,0,0,0,0,0,0,0,0,0,0,0,0,0,0,0,0,0,0,0,0,0,0,0,0,0,0,0,0,0,0,0,0,0,0,0,0,0,0,0,0,0,0,0,0,0,0,0,0,0,0,0,0,0,0,0,0,0,0,0,0,0,0,0,0,0,0,0,0,0,0,0,0,0,0,0,0,0,0,0,0,0,0,0,0,0,0,0,0,0,0,0,0,0,0,0,0,0],"id":14,"left_children":[1,3,5,7,9,11,13,15,17,19,21,23,25,27,-1,29,31,33,35,-1,37,39,41,-1,-1,43,-1,-1,45,-1,-1,47,49,-1,-1,51,53,55,57,59,61,63,65,-1,67,-1,69,71,73,-1,75,-1,-1,77,-1,-1,79,81,83,85,87,-1,89,91,93,95,97,-1,-1,-1,-1,-1,-1,-1,-1,-1,-1,-1,-1,-1,-1,-1,-1,-1,-1,-1,-1,-1,-1,-1,-1,-1,-1,-1,-1,-1,-1,-1,-1],"loss_changes":[2.0271003E-2,1.3846268E-2,5.6936014E-3,3.761334E-2,4.5985214E-2,3.4633372E-3,2.566768E-3,1.9570505E-2,8.273382E-3,4.2969733E-4,8.004187E-3,1.9601875E-3,6.514061E-4,1.4533933E-3,0E0,5.9086448E-3,2.7070636E-2,3.7051737E-5,3.633202E-3,0E0,3.777705E-4,7.860386E-3,1.7665915E-2,0E0,0E0,4.4880155E-4,0E0,0E0,2.8316528E-4,0E0,0E0,4.673173E-3,1.7828904E-2,0E0,0E0,2.4642702E-4,1.1320512E-3,1.08741224E-4,4.3773837E-4,2.1980753E-2,3.383872E-3,2.0331144E-3,3.8304706E-3,0E0,2.5650486E-5,0E0,8.947814E-4,6.404031E-4,5.691983E-4,0E0,2.1476978E-3,0E0,0E0,6.816294E-4,0E0,0E0,1.6307272E-4,2.6024622E-4,6.6741556E-4,2.8673913E-3,6.5714587E-3,0E0,1.0755357E-3,7.732343E-4,5.739592E-4,1.5279882E-3,8.258943E-4,0E0,0E0,0E0,0E0,0E0,0E0,0E0,0E0,0E0,0E0,0E0,0E0,0E0,0E0,0E0,0E0,0E0,0E0,0E0,0E0,0E0,0E0,0E0,0E0,0E0,0E0,0E0,0E0,0E0,0E0,0E0,0E0],"parents":[2147483647,0,0,1,1,2,2,3,3,4,4,5,5,6,6,7,7,8,8,9,9,10,10,11,11,12,12,13,13,15,15,16,16,17,17,18,18,20,20,21,21,22,22,25,25,28,28,31,31,32,32,35,35,36,36,37,37,38,38,39,39,40,40,41,41,42,42,44,44,46,46,47,47,48,48,50,50,53,53,56,56,57,57,58,58,59,59,60,60,62,62,63,63,64,64,65,65,66,66],"right_children":[2,4,6,8,10,12,14,16,18,20,22,24,26,28,-1,30,32,34,36,-1,38,40,42,-1,-1,44,-1,-1,46,-1,-1,48,50,-1,-1,52,54,56,58,60,62,64,66,-1,68,-1,70,72,74,-1,76,-1,-1,78,-1,-1,80,82,84,86,88,-1,90,92,94,96,98,-1,-1,-1,-1,-1,-1,-1,-1,-1,-1,-1,-1,-1,-1,-1,-1,-1,-1,-1,-1,-1,-1,-1,-1,-1,-1,-1,-1,-1,-1,-1,-1],"split_conditions":[2.4729122E6,1.4023714E0,1.630205E0,1.1111435E0,1.623699E0,4.2954403E5,2.986369E6,1.7523452E6,1E0,1.4050951E0,3.1880064E0,8.378672E-1,1.4050951E0,2.5671568E6,1.9283606E-4,8.3392864E-1,1E0,7.692308E-1,1.8999061E-1,1.252016E-4,7.6420426E-1,2.0877712E0,3.3070045E0,1.5708663E-4,-6.9641574E-5,6.6527975E-1,2.7454275E-4,1.20100216E-4,2.7329388E6,1.0567041E-5,-3.414119E-4,8.326121E-1,7.6420426E-1,-3.159667E-4,-4.4529932E-4,9.900774E-1,7.148169E6,1.2674401E6,8.314476E-1,1.9733926E0,2.0923555E0,1E0,3.3396776E0,9.35514E-5,3.5673475E6,-8.3327126E-5,2.8067605E6,7.1428573E-1,6E-1,6.262509E-4,4E-1,-3.5723273E-4,-2.0220518E-4,8.333333E-1,7.039751E-8,3.0027409E-4,6.6527975E-1,8.258281E-1,2.816977E5,6.582717E5,1E0,2.0304343E-4,2.3718825E6,8.27695E-1,3.218797E0,1.9947669E6,8E-1,1.435784E-4,2.3237892E-4,7.274245E-5,-6.3776904E-5,1.216091E-4,1.9397674E-5,-6.29975E-5,-1.6641915E-4,-4.089438E-6,2.207528E-4,-1.7583783E-4,-4.8753107E-5,2.56852E-4,1.4954331E-4,1.6817792E-4,7.731133E-5,1.8302909E-4,3.112995E-4,7.768944E-5,-1.6210837E-5,-2.9024956E-4,-1.0183043E-4,2.5945687E-5,1.2851025E-4,-6.210651E-5,-1.6832116E-4,-2.4285482E-4,-1.5967558E-4,-7.2556013E-6,-1.3031837E-4,1.3793373E-4,2.6175543E-5],"split_indices":[6,0,0,0,0,7,5,5,10,0,0,0,0,5,0,0,10,3,4,0,3,0,0,0,0,3,0,0,6,0,0,0,3,0,0,3,5,7,3,0,0,10,0,0,5,0,6,3,2,0,2,0,0,3,0,0,3,3,7,7,10,0,7,3,0,7,2,0,0,0,0,0,0,0,0,0,0,0,0,0,0,0,0,0,0,0,0,0,0,0,0,0,0,0,0,0,0,0,0],"split_type":[0,0,0,0,0,0,0,0,0,0,0,0,0,0,0,0,0,0,0,0,0,0,0,0,0,0,0,0,0,0,0,0,0,0,0,0,0,0,0,0,0,0,0,0,0,0,0,0,0,0,0,0,0,0,0,0,0,0,0,0,0,0,0,0,0,0,0,0,0,0,0,0,0,0,0,0,0,0,0,0,0,0,0,0,0,0,0,0,0,0,0,0,0,0,0,0,0,0,0],"sum_hessian":[1.092E3,9.71E2,1.21E2,2.05E2,7.66E2,7.3E1,4.8E1,1.18E2,8.7E1,1.15E2,6.51E2,1.6E1,5.7E1,3.9E1,9E0,2.5E1,9.3E1,3.5E1,5.2E1,1.3E1,1.02E2,4.39E2,2.12E2,8E0,8E0,3E1,2.7E1,8E0,3.1E1,8E0,1.7E1,6E1,3.3E1,1.7E1,1.8E1,1.7E1,3.5E1,3.2E1,7E1,2.46E2,1.93E2,1.06E2,1.06E2,8E0,2.2E1,9E0,2.2E1,3E1,3E1,1.4E1,1.9E1,9E0,8E0,2.6E1,9E0,1.3E1,1.9E1,2.2E1,4.8E1,1.52E2,9.4E1,1.4E1,1.79E2,3.5E1,7.1E1,7E1,3.6E1,8E0,1.4E1,8E0,1.4E1,1.1E1,1.9E1,1.2E1,1.8E1,9E0,1E1,1.8E1,8E0,8E0,1.1E1,1.3E1,9E0,4E1,8E0,8.3E1,6.9E1,3.5E1,5.9E1,1.67E2,1.2E1,2E1,1.5E1,4.7E1,2.4E1,5.6E1,1.4E1,2.4E1,1.2E1],"tree_param":{"num_deleted":"0","num_feature":"11","num_nodes":"99","size_leaf_vector":"1"}},{"base_weights":[2.5797495E-5,4.1556335E-3,-4.401311E-3,-5.040516E-3,1.1291965E-2,-1.5010108E-2,-1.7324361E-3,5.081051E-3,-1.8425768E-2,1.9558975E-2,4.716878E-3,-2.7436158E-2,-8.761194E-3,4.288719E-3,-7.745419E-3,-2.129544E-2,1.0899066E-2,-2.4535155E-2,1.931123E-4,1.1747504E-2,2.0464864E-2,2.4215116E-3,1.4091483E-2,-2.2535793E-2,-3.6768575E-4,-1.5611075E-4,-7.386127E-3,1.8373556E-2,1.6826724E-3,-1.4187969E-2,4.716257E-3,1.0465327E-5,-3.3792443E-4,-3.1275824E-3,2.5221476E-2,-3.5964437E-2,-1.688622E-2,1.5535309E-4,8.464435E-5,3.0937963E-4,1.90076E-2,-1.3702965E-3,9.229367E-3,2.0263727E-4,8.664631E-3,-1.751556E-4,-2.8302433E-4,-1.890862E-3,-9.8865945E-3,4.5252382E-5,2.6348166E-4,2.308293E-4,5.350455E-3,-1.9036079E-2,-9.208311E-3,7.1044606E-3,-7.4116935E-5,5.4544546E-3,-1.1891435E-2,1.4616743E-2,6.219739E-4,-3.1273917E-4,-4.407365E-4,-2.1165347E-2,-2.4133895E-5,2.3224838E-2,1.601732E-2,3.7705462E-4,-1.3288863E-4,1.1150622E-3,1.3138741E-2,-1.1803735E-5,2.0054335E-4,-4.5194945E-5,8.812453E-6,-1.1934868E-2,-4.928565E-5,2.8776163E-3,-5.5848206E-3,8.094298E-3,1.6581999E-3,-1.2151991E-2,-2.2146335E-2,-2.7476873E-3,-1.2246784E-2,2.6775855E-3,1.0779458E-2,-1.0729292E-5,9.27061E-5,-6.23685E-5,-1.6931303E-4,2.517661E-5,2.3055381E-4,-3.7047768E-4,-1.8193189E-4,2.857426E-4,1.8154367E-4,2.1384895E-4,1.4559897E-4,-1.1468837E-4,2.0291627E-5,-1.9932497E-5,3.9647563E-5,1.7342294E-4,8.273992E-5,-8.5470274E-5,-1.6409201E-4,9.546267E-5,-4.299943E-6,8.863431E-6,-1.0070647E-4,2.6883492E-5,1.4237111E-4,7.743241E-5,-4.305777E-5,-6.650932E-5,-1.8125099E-4,-2.538227E-4,-1.6967084E-4,-5.8102854E-5,1.5830705E-5,-9.663579E-5,-2.4416373E-4,6.135977E-5,-2.9636081E-5,1.3650165E-4,4.8315775E-5],"categories":[],"categories_nodes":[],"categories_segments":[],"categories_sizes":[],"default_left":[0,0,0,0,0,0,0,0,0,0,0,0,0,0,0,0,0,0,0,0,0,0,0,0,0,0,0,0,0,0,0,0,0,0,0,0,0,0,0,0,0,0,0,0,0,0,0,0,0,0,0,0,0,0,0,0,0,0,0,0,0,0,0,0,0,0,0,0,0,0,0,0,0,0,0,0,0,0,0,0,0,0,0,0,0,0,0,0,0,0,0,0,0,0,0,0,0,0,0,0,0,0,0,0,0,0,0,0,0,0,0,0,0,0,0,0,0,0,0,0,0,